svm_type c_svc
kernel_type rbf
gamma 8
nr_class 2
total_sv 697
rho -8.34064
label 1 -1
nr_sv 400 297
SV
208.5603350116461 1:-0.308495 2:-0.538837 3:-0.617284 4:-0.337018 
509.966854050557 1:-0.321955 2:-0.538947 3:-0.83812 4:0.00868209 
88.47904965270575 1:0.0929453 2:-0.713503 3:-0.846154 4:-0.317688 
512 1:-0.285029 2:-0.519311 3:-0.929224 4:-0.523914 
512 1:-0.437513 2:-0.565649 3:-0.909884 4:-0.523915 
512 1:-0.372961 2:-0.509731 3:-0.934183 4:-0.523913 
363.112247602628 1:0.255559 2:-0.255708 3:-0.150685 4:0.129401 
512 1:-0.513462 2:-0.555519 3:-0.918848 4:-0.503268 
231.2626327124211 1:-0.433284 2:-0.435908 3:-0.89701 4:-0.503268 
229.6495789325778 1:-0.265335 2:-0.45937 3:-0.383085 4:-0.489299 
512 1:-0.479851 2:-0.269713 3:-0.666667 4:-0.427984 
74.92531147228591 1:-0.590157 2:-0.370528 3:-0.84878 4:-0.328553 
512 1:-0.547107 2:-0.70613 3:-1 4:-0.668246 
363.051190724924 1:-0.43776 2:-0.405729 3:-0.6125 4:-0.200568 
179.5146810775207 1:-0.176054 2:-0.56041 3:-0.799353 4:-0.419585 
40.22437664757308 1:-0.271522 2:-0.234465 3:-0.731214 4:-0.457729 
27.5902920112488 1:-0.10735 2:-0.0682165 3:-0.432927 4:-0.599697 
281.7230781277063 1:-0.500785 2:-0.46732 3:-0.756863 4:-0.503269 
512 1:-0.242369 2:-0.623991 3:-0.892734 4:-0.438879 
512 1:-0.315363 2:-0.695612 3:-0.913165 4:-0.438881 
448.8099012833419 1:0.267438 2:-0.199236 3:-0.187773 4:0.131807 
512 1:-0.478018 2:-0.630579 3:-0.870293 4:-0.376455 
512 1:-0.0520235 2:-0.44607 3:-0.450355 4:-0.488716 
160.6116413266169 1:-0.176054 2:-0.56041 3:-0.799353 4:-0.419585 
112.3279405717473 1:-0.107002 2:-0.493159 3:-0.768657 4:-0.419585 
512 1:-0.520127 2:-0.608857 3:-0.918848 4:-0.503269 
512 1:-0.508284 2:-0.533619 3:-0.866953 4:-0.503268 
255.5987118311874 1:-0.0869539 2:-0.48477 3:-0.572414 4:-0.590564 
512 1:-0.0709604 2:-0.489206 3:-0.481894 4:-0.586905 
506.1817615709547 1:-0.0971075 2:-0.500932 3:-0.504792 4:-0.586905 
88.12084608252201 1:-0.0477321 2:-0.541342 3:-0.597403 4:-0.586905 
160.8946304479565 1:-0.168041 2:-0.54544 3:-0.755906 4:-0.833228 
512 1:-0.422908 2:-0.366111 3:-0.586667 4:-0.200569 
300.0669506413263 1:-0.302152 2:-0.509036 3:-0.579819 4:-0.471739 
512 1:-0.270204 2:-0.601792 3:-0.848534 4:-0.47174 
485.2494085053149 1:0.00510696 2:-0.534666 3:-0.544861 4:-0.471739 
512 1:-0.490801 2:-0.637778 3:-0.896667 4:-0.645717 
2.068891112553378 1:-0.122809 2:-0.562442 3:-0.565826 4:-0.586905 
158.2855789479031 1:-0.107002 2:-0.493159 3:-0.768657 4:-0.419585 
512 1:0.0378575 2:-0.351115 3:-0.407643 4:-0.545662 
512 1:0.0245141 2:-0.388138 3:-0.441441 4:-0.545661 
148.7700923659356 1:-0.696217 2:-0.691288 3:-0.911932 4:-0.310992 
108.6311162293831 1:-0.411287 2:-0.73486 3:-0.906907 4:-0.781603 
512 1:-0.37429 2:-0.654661 3:-0.802966 4:-0.54144 
512 1:-0.314336 2:-0.617171 3:-0.805846 4:-0.541439 
512 1:-0.18655 2:-0.633645 3:-0.871369 4:-0.539722 
512 1:-0.5013 2:-0.649914 3:-0.840206 4:-0.633034 
512 1:-0.361822 2:-0.552001 3:-0.918206 4:-0.692463 
512 1:-0.508284 2:-0.533619 3:-0.866953 4:-0.503268 
512 1:-0.497414 2:-0.541342 3:-0.838961 4:-0.503268 
512 1:-0.00374145 2:-0.37661 3:-0.400966 4:-0.561476 
23.82847177099692 1:-0.260138 2:-0.303419 3:-0.205128 4:-0.383046 
512 1:-0.145523 2:-0.705384 3:-0.929224 4:-0.464443 
512 1:-0.450201 2:-0.57129 3:-0.89701 4:-0.503269 
512 1:-0.484188 2:-0.541342 3:-0.838961 4:-0.503268 
160.4167736167547 1:0.419881 2:-0.425321 3:-0.761538 4:-0.955695 
239.5351166626657 1:-0.0378016 2:-0.341276 3:-0.481605 4:-0.0883491 
120.34603179468 1:-0.119086 2:-0.809833 3:-0.876 4:-0.418901 
116.5929989257667 1:0.0570011 2:-0.337996 3:-0.32852 4:0.0632863 
12.24684352930199 1:-0.109426 2:-0.24537 3:-0.234568 4:-0.590564 
208.4517454237306 1:-0.77815 2:-1 3:-1 4:-0.203087 
33.96074337404588 1:-0.545358 2:-0.782973 3:-0.883459 4:-0.203087 
37.76753972745977 1:-0.481372 2:-0.82392 3:-0.885185 4:-0.203086 
55.55444769525661 1:0.509117 2:-0.0962702 3:-0.25 4:0.149972 
263.8786276529739 1:-0.0515919 2:-0.742945 3:-0.938247 4:-0.523913 
196.710775078637 1:-0.222481 2:-0.38997 3:-0.443114 4:-0.407955 
17.51445936483712 1:-0.367556 2:-0.437633 3:-0.802548 4:-0.106046 
2.555555961656597 1:-0.147693 2:-0.76681 3:-0.933476 4:-0.106049 
512 1:-0.519624 2:-0.530136 3:-0.902516 4:-0.597863 
512 1:-0.117028 2:-0.436436 3:-0.604255 4:-0.517824 
275.6961544241655 1:0.0328944 2:-0.0573843 3:-0.338078 4:-0.198723 
512 1:-0.787834 2:-0.845644 3:-1 4:-0.203087 
17.68709042950499 1:-0.437513 2:-0.499839 3:-0.879845 4:-0.738622 
11.66697456130442 1:-0.175863 2:-0.528902 3:-0.462428 4:-0.273423 
330.4489331604111 1:-0.167051 2:0.00617284 3:-0.425926 4:-0.248549 
512 1:-0.538705 2:-0.479384 3:-0.567944 4:-0.404281 
19.44679024530284 1:-0.171304 2:-0.707026 3:-0.756863 4:-0.72768 
80.97702287744148 1:0.0496642 2:-0.0666423 3:-0.274854 4:-0.25828 
6.401419804786831 1:-0.32248 2:-0.618763 3:-0.806653 4:-0.550604 
512 1:-0.621829 2:-0.730038 3:-0.935146 4:-0.506927 
512 1:-0.112252 2:-0.419134 3:-0.796053 4:-0.992703 
512 1:-0.501088 2:-0.629545 3:-0.812121 4:-0.465031 
166.0264880480077 1:-0.308704 2:-0.550221 3:-0.794702 4:-0.838071 
512 1:-0.335597 2:-0.645529 3:-0.935282 4:-0.942966 
512 1:-0.496218 2:-0.436436 3:-0.73617 4:-0.463813 
512 1:-0.188234 2:-0.27818 3:-0.400966 4:-0.471739 
6.229212224265702 1:0.152127 2:-0.615825 3:-0.749495 4:-0.203089 
312.5335946921295 1:-0.350911 2:-0.492491 3:-0.727473 4:-0.203087 
512 1:-0.366668 2:-0.560738 3:-0.845771 4:-0.499587 
369.5988979898221 1:-0.221056 2:-0.268886 3:-0.824363 4:-0.523914 
7.990567912725065 1:0.0945846 2:-0.626973 3:-0.882576 4:-0.523913 
512 1:-0.424227 2:-0.520024 3:-0.780919 4:0.0183768 
512 1:-0.467345 2:-0.648033 3:-0.821497 4:-0.506223 
512 1:-0.407667 2:-0.556463 3:-0.873469 4:-0.560327 
168.7000193964639 1:-0.080019 2:-0.429272 3:-0.739496 4:-0.492375 
17.86051156636812 1:0.0378575 2:-0.351115 3:-0.407643 4:-0.545663 
512 1:-0.397275 2:-0.556463 3:-0.873469 4:-0.560327 
33.83669068085391 1:-0.145273 2:-0.0782738 3:-0.446429 4:-0.552352 
237.1222508554479 1:0.102724 2:-0.502521 3:-0.802548 4:-0.334036 
512 1:-0.474197 2:-0.557065 3:-1 4:-0.456513 
512 1:-0.0709604 2:-0.489206 3:-0.481894 4:-0.586905 
512 1:-0.5013 2:-0.649914 3:-0.840206 4:-0.633035 
48.70797316568634 1:-0.137864 2:-0.281305 3:-0.179894 4:-0.590564 
181.6517210197659 1:-0.372466 2:-0.6652 3:-0.78169 4:-0.600262 
512 1:-0.424227 2:-0.520024 3:-0.780919 4:0.0183777 
512 1:-0.0808686 2:-0.362515 3:-0.440433 4:-0.553012 
425.119100752258 1:-0.270582 2:-0.491864 3:-0.886861 4:-0.47174 
512 1:-0.51207 2:-0.499386 3:-0.771499 4:-0.471739 
512 1:-0.0520235 2:-0.470154 3:-0.560284 4:-0.488716 
453.2098484588456 1:-0.45753 2:-0.324692 3:-0.559659 4:-0.563883 
512 1:0.0883639 2:-0.170483 3:-0.408397 4:-0.258276 
25.52621520103257 1:0.139997 2:-0.256633 3:-0.383085 4:-0.236966 
20.99681770533693 1:-0.359919 2:-0.643215 3:-0.592871 4:-0.371064 
25.00228912358007 1:-0.402471 2:-0.653486 3:-0.683673 4:-0.779811 
35.38706507556898 1:0.106954 2:-0.543643 3:-0.754941 4:-0.264253 
473.0498732579053 1:-0.670926 2:-0.614985 3:-0.929705 4:-0.734345 
108.4664322269502 1:-0.16548 2:-0.698148 3:-0.655556 4:-0.489299 
512 1:-0.167656 2:-0.477564 3:-0.403846 4:-0.489299 
512 1:-0.468491 2:-0.702427 3:-0.840206 4:-0.833836 
485.5317251427038 1:-0.112252 2:-0.419134 3:-0.796053 4:-0.992702 
512 1:-0.356185 2:-0.583653 3:-0.881226 4:-0.992703 
83.69595585309679 1:-0.225703 2:-0.75494 3:-0.840206 4:-0.992703 
512 1:-0.339606 2:-0.698663 3:-0.894198 4:-0.992702 
512 1:-0.17916 2:-0.517532 3:-0.830601 4:-0.992703 
512 1:-0.147245 2:-0.45994 3:-0.551807 4:-0.38805 
512 1:-0.131008 2:-0.525532 3:-0.690619 4:-0.549399 
512 1:-0.00374145 2:-0.37661 3:-0.400966 4:-0.561476 
161.3237374912894 1:0.0483505 2:-0.46732 3:-0.392157 4:-0.561476 
422.4926849390714 1:-0.487203 2:-0.496025 3:-0.671378 4:-0.522649 
246.8201440214352 1:0.433769 2:-0.521912 3:-0.743271 4:-0.896894 
458.6832361546573 1:-0.156956 2:-0.77511 3:-0.897351 4:-0.42558 
11.48292424543081 1:-0.0953794 2:-0.726343 3:-0.772894 4:-0.425581 
450.0397356654632 1:0.0455033 2:-0.612643 3:-0.823194 4:-0.47174 
512 1:-0.335597 2:-0.645529 3:-0.935282 4:-0.942967 
512 1:-0.122445 2:-0.479787 3:-0.604255 4:-0.517824 
512 1:-0.22616 2:-0.479988 3:-0.568445 4:-0.517825 
80.26092362427461 1:0.0465746 2:-0.248353 3:-0.142292 4:0.131804 
512 1:-0.555161 2:-0.570787 3:-0.769517 4:-0.541483 
512 1:-0.220289 2:-0.731163 3:-0.935417 4:-0.525689 
512 1:-0.0808686 2:-0.362515 3:-0.440433 4:-0.553012 
48.88383741947542 1:-0.437513 2:-0.499839 3:-0.879845 4:-0.738622 
512 1:-0.368896 2:-0.654661 3:-0.802966 4:-0.54144 
408.3364588612891 1:-0.0796172 2:-0.7768 3:-0.85446 4:-0.216356 
60.18893045090023 1:0.471019 2:-0.275556 3:-0.173333 4:0.239716 
512 1:-0.0169907 2:-0.423102 3:-0.521236 4:-0.5154 
453.0428370062496 1:-0.484489 2:-0.46677 3:-0.871901 4:-0.0355839 
88.9267871289579 1:-0.404668 2:-0.42558 3:-0.691542 4:-0.035582 
244.0183334434544 1:-0.320273 2:-0.459212 3:-0.709602 4:-0.200004 
398.3441446559102 1:-0.0826444 2:-0.0778938 3:-0.43342 4:-0.238853 
96.93190121756325 1:0.305022 2:-0.551494 3:-0.707547 4:-0.907195 
512 1:-0.319651 2:-0.659708 3:-0.805846 4:-0.54144 
60.74470026087233 1:0.101632 2:-0.41226 3:-0.403846 4:0.239716 
8.938277656973069 1:-0.438384 2:-0.325827 3:-1 4:-0.106049 
512 1:-0.0327227 2:-0.438484 3:-0.633858 4:-0.539719 
16.71120640616871 1:-0.3804 2:-0.429019 3:-0.862832 4:0.131807 
25.0286732306116 1:-0.422771 2:-0.395074 3:-0.874494 4:0.131804 
69.31645249072226 1:0.124974 2:-0.526163 3:-0.567442 4:-0.010736 
512 1:0.00240829 2:-0.458635 3:-0.550725 4:-0.499609 
7.95318557644227 1:-0.151335 2:-0.273847 3:-0.415094 4:-0.267295 
38.46721112406661 1:-0.52491 2:-0.252592 3:-0.703349 4:-0.207243 
277.1380653286554 1:-0.0580755 2:-0.179029 3:-0.318681 4:-0.408574 
486.9120258282793 1:-0.140627 2:-0.292981 3:-0.413249 4:-0.326157 
512 1:-0.375695 2:-0.583653 3:-0.881226 4:-0.992703 
404.1313900927822 1:-0.455011 2:-0.349042 3:-0.702875 4:-0.170283 
108.4322121071103 1:0.242248 2:-0.44223 3:-0.700483 4:-0.84472 
48.56770498394149 1:0.648602 2:-0.339248 3:-0.653907 4:-0.876311 
512 1:-0.128487 2:-0.399199 3:-0.761538 4:-0.539722 
512 1:-0.220289 2:-0.731163 3:-0.935417 4:-0.52569 
251.0635043792504 1:-0.298131 2:-0.437087 3:-0.776577 4:-0.881132 
71.6196130029119 1:-0.156956 2:-0.77511 3:-0.897351 4:-0.42558 
179.4403533499307 1:0.106954 2:-0.543643 3:-0.754941 4:-0.264253 
103.5493893311772 1:0.385021 2:-0.456667 3:-0.752 4:-0.836874 
307.4246259343862 1:-0.179862 2:-0.258053 3:-0.739496 4:-0.532995 
82.53932569186676 1:-0.304422 2:-0.738325 3:-0.782837 4:-0.633035 
5.051598116517066 1:-0.77815 2:-1 3:-1 4:-0.203087 
512 1:-0.77819 2:-0.922822 3:-1 4:-0.203089 
512 1:-0.761313 2:-0.90904 3:-1 4:-0.203087 
512 1:-0.802466 2:-1 3:-1 4:-0.203089 
512 1:-0.784846 2:-1 3:-1 4:-0.203089 
512 1:-0.812181 2:-1 3:-1 4:-0.203087 
512 1:-0.797748 2:-0.90479 3:-1 4:-0.203086 
512 1:-0.757524 2:-1 3:-1 4:-0.203086 
40.47897458478767 1:-0.301332 2:-0.568282 3:-0.903876 4:-0.599715 
512 1:-0.434224 2:-0.475952 3:-0.904321 4:-0.506927 
512 1:-0.627156 2:-0.772664 3:-0.935146 4:-0.506926 
0.5245760863199667 1:-0.564501 2:-0.240406 3:-0.592105 4:-0.194522 
41.28914724584501 1:0.346747 2:-0.0761965 3:-0.297229 4:-0.258277 
512 1:-0.121134 2:-0.492438 3:-0.669039 4:-0.537196 
2.186042841406348 1:-0.205573 2:-0.0808271 3:-0.650376 4:-0.537196 
72.4113136704716 1:-0.156357 2:-0.035503 3:-0.357988 4:-0.248549 
510.7790026215089 1:-0.308495 2:-0.538837 3:-0.617284 4:-0.337018 
86.75422443247894 1:-0.225703 2:-0.75494 3:-0.840206 4:-0.992703 
397.1919108601072 1:-0.222976 2:-0.338474 3:-0.396104 4:-0.471739 
14.05002457054207 1:-0.479651 2:-0.603406 3:-0.547445 4:-0.489299 
210.4267906674426 1:-0.0371513 2:-0.456667 3:-0.549091 4:-0.0484255 
20.38527356239903 1:-0.625364 2:-0.24537 3:-0.906907 4:-0.27154 
512 1:-0.582146 2:-0.663009 3:-0.94084 4:-0.81679 
467.8548451504136 1:0.0509627 2:-0.210271 3:-0.369186 4:-0.349276 
512 1:0.392917 2:-0.237168 3:-0.213768 4:0.149972 
2.100545286859663 1:0.00753794 2:-0.565462 3:-0.559242 4:-0.504532 
7.550232698760083 1:0.371425 2:-0.177298 3:-0.360825 4:0.342235 
98.01834875677551 1:-0.278844 2:-0.782533 3:-0.923645 4:-0.967255 
449.2395481257286 1:-0.326726 2:-0.894352 3:-0.931111 4:-0.523913 
512 1:-0.633909 2:-0.5561 3:-0.797386 4:-0.332209 
512 1:-0.608309 2:-0.357002 3:-0.816568 4:-0.332209 
222.2721392321776 1:-0.490801 2:-0.534286 3:-0.734286 4:0.089964 
347.0813455471973 1:-0.124119 2:-0.168367 3:-0.457726 4:-0.238851 
63.06352895086995 1:-0.282932 2:-0.226266 3:-0.705696 4:-0.490515 
512 1:-0.135975 2:-0.559515 3:-0.812971 4:-0.881131 
512 1:-0.501635 2:-0.450887 3:-0.670213 4:-0.463813 
512 1:-0.27435 2:-0.634976 3:-0.848534 4:-0.471739 
108.0256429540094 1:0.00720644 2:-0.514881 3:-0.82967 4:-0.471738 
121.8291732026507 1:-0.0666529 2:-0.720083 3:-0.932755 4:-0.532412 
50.88437784404689 1:-0.205573 2:-0.565946 3:-0.766917 4:-0.488659 
66.21376228086312 1:-0.301332 2:-0.568282 3:-0.903876 4:-0.599715 
174.974181976818 1:-0.416543 2:-0.488448 3:-0.900641 4:-0.599717 
512 1:0.392917 2:-0.237168 3:-0.213768 4:0.149971 
512 1:-0.402471 2:-0.549532 3:-0.841837 4:-0.499587 
40.52866607548783 1:-0.403972 2:-0.214836 3:-0.641618 4:-0.291566 
209.4467009697766 1:-0.441347 2:-0.4381 3:-0.442446 4:-0.238852 
230.7656452289166 1:-0.539654 2:-0.17297 3:-0.656827 4:-0.194523 
279.7310585882747 1:-0.0110602 2:-0.214187 3:-0.295455 4:-0.502027 
512 1:-0.0624859 2:-0.46059 3:-0.552347 4:-0.590564 
50.24540659758028 1:0.0556561 2:-0.254573 3:-0.243902 4:0.131806 
57.40614475384601 1:-0.625364 2:-0.24537 3:-0.906907 4:-0.27154 
512 1:-0.361118 2:-0.593009 3:-0.883895 4:-0.597906 
512 1:-0.505814 2:-0.449324 3:-0.771499 4:-0.47174 
512 1:-0.46261 2:-0.365484 3:-0.678201 4:-0.471739 
512 1:-0.121134 2:-0.492438 3:-0.669039 4:-0.537197 
512 1:-0.0207715 2:-0.477564 3:-0.618462 4:-0.559094 
142.9985919431488 1:0.155127 2:-0.35018 3:-0.617284 4:0.0541635 
512 1:-0.701821 2:-0.571697 3:-0.93018 4:-0.347946 
173.5028753238418 1:-0.714952 2:-0.516115 3:-0.92112 4:-0.347948 
105.5269921863804 1:-0.0636633 2:-0.0177342 3:-0.359504 4:-0.355844 
512 1:-0.248904 2:-0.616956 3:-0.764642 4:-0.861728 
25.34984429044945 1:-0.119086 2:-0.809833 3:-0.876 4:-0.418901 
255.9751299299466 1:0.215842 2:-0.528741 3:-0.746939 4:-0.376457 
512 1:-0.696123 2:-0.802823 3:-1 4:-0.353421 
318.8041826211499 1:-0.658689 2:-0.778533 3:-1 4:-0.353421 
53.55856536700695 1:0.00753794 2:-0.565462 3:-0.559242 4:-0.504532 
512 1:-0.519624 2:-0.530136 3:-0.902516 4:-0.597863 
512 1:-0.382579 2:-0.574364 3:-0.831063 4:-0.833836 
119.1087306123265 1:-0.195308 2:-0.61291 3:-0.678756 4:-0.955695 
512 1:-0.447935 2:-0.774766 3:-0.920918 4:-0.781603 
66.43781176002351 1:-0.416543 2:-0.235937 3:-0.6125 4:-0.203673 
93.15164050157942 1:-0.189054 2:-0.144753 3:-0.540741 4:-0.499578 
269.2804768879647 1:-0.6646 2:-0.715319 3:-0.814371 4:-0.499581 
143.275849838607 1:-0.846803 2:-0.747015 3:-0.911175 4:-0.148392 
512 1:-0.42845 2:-0.417857 3:-0.620408 4:-0.386122 
512 1:-0.52293 2:-0.623407 3:-0.881453 4:-0.660403 
466.9468015360788 1:-0.147245 2:-0.45994 3:-0.551807 4:-0.388051 
89.21949559830017 1:-0.109426 2:-0.24537 3:-0.234568 4:-0.590564 
9.95570021707422 1:-0.147092 2:-0.218958 3:-0.225 4:-0.590564 
512 1:-0.612449 2:-0.497445 3:-0.868922 4:-0.347946 
512 1:-0.527666 2:-0.723416 3:-1 4:-0.620362 
13.46381437580618 1:0.0337761 2:-0.566974 3:-0.583893 4:0.226957 
44.17436009143594 1:-0.483144 2:-0.438283 3:-0.533835 4:-0.273352 
32.09650086896969 1:0.152202 2:-0.206813 3:-0.0948905 4:0.454451 
512 1:-0.348295 2:-0.768203 3:-0.894198 4:-0.992703 
512 1:-0.0207715 2:-0.341276 3:-0.481605 4:-0.0883492 
2.670590993117836 1:-0.3804 2:-0.429019 3:-0.862832 4:0.131807 
233.8704339602656 1:0.464819 2:-0.162671 3:-0.0445205 4:0.159673 
512 1:-0.155415 2:-0.510216 3:-0.552885 4:-0.489298 
20.34699753111526 1:-0.479651 2:-0.603406 3:-0.547445 4:-0.489299 
512 1:-0.151335 2:-0.400735 3:-0.544118 4:-0.489298 
512 1:-0.188776 2:-0.500613 3:-0.544118 4:-0.4893 
512 1:-0.190923 2:-0.346574 3:-0.728863 4:-0.457729 
512 1:-0.329626 2:-0.695612 3:-0.913165 4:-0.438881 
512 1:-0.294738 2:-0.698984 3:-0.914127 4:-0.438879 
512 1:-0.791492 2:-0.912177 3:-1 4:-0.203087 
177.2165658527359 1:-0.43933 2:-0.239922 3:-0.552347 4:-0.341904 
512 1:-0.0609038 2:-0.58248 3:-0.809426 4:-0.471738 
512 1:-0.701821 2:-0.571697 3:-0.93018 4:-0.347946 
81.06575429330324 1:-0.612449 2:-0.497445 3:-0.868922 4:-0.347948 
2.894244975942677 1:-0.429023 2:-0.250919 3:-1 4:-0.106047 
512 1:-0.547107 2:-0.70613 3:-1 4:-0.668247 
429.1815011067106 1:0.140605 2:-0.2665 3:-0.256 4:0.131806 
105.9213625793482 1:0.0465746 2:-0.248353 3:-0.142292 4:0.131804 
40.80232273818648 1:-0.407643 2:-0.574571 3:-0.722595 4:-0.910221 
512 1:-0.36649 2:-0.649257 3:-0.85446 4:-0.600264 
63.4732722129994 1:-0.058624 2:-0.315126 3:-0.739496 4:-0.844727 
167.6225453467917 1:-0.291549 2:-0.80314 3:-0.910145 4:-0.692463 
512 1:-0.361822 2:-0.552001 3:-0.918206 4:-0.692463 
38.72762600711751 1:-0.513687 2:-0.809223 3:-0.912921 4:-0.692463 
18.17174135318619 1:-0.0422593 2:-0.105799 3:-0.416928 4:-0.537197 
512 1:-0.400223 2:-0.553753 3:-0.900641 4:-0.599715 
512 1:-0.213316 2:-0.58029 3:-0.651685 4:-0.489299 
512 1:-0.163816 2:-0.367443 3:-0.392157 4:-0.489299 
512 1:-0.400082 2:-0.804837 3:-0.91092 4:-0.560236 
512 1:-0.696123 2:-0.802823 3:-1 4:-0.353423 
432.0881234540152 1:-0.581767 2:-0.637406 3:-0.87269 4:-0.629403 
134.0722871456683 1:-0.42845 2:-0.417857 3:-0.620408 4:-0.386123 
444.6918837621783 1:-0.495009 2:-0.607094 3:-0.743802 4:-0.035583 
193.7990146524945 1:-0.367556 2:-0.437633 3:-0.802548 4:-0.106046 
512 1:-0.0327227 2:-0.438484 3:-0.633858 4:-0.53972 
512 1:-0.504626 2:-0.723416 3:-1 4:-0.620364 
512 1:0.00778932 2:-0.355421 3:-0.425926 4:-0.463813 
151.5628166951006 1:0.0550966 2:-0.388138 3:-0.441441 4:-0.545663 
4.416078127508655 1:-0.0899861 2:-0.48176 3:-0.875502 4:-0.53972 
512 1:-0.501088 2:-0.629545 3:-0.812121 4:-0.465033 
512 1:-0.206597 2:-0.652519 3:-0.711628 4:-0.779811 
118.9736113350853 1:-0.18201 2:-0.618139 3:-0.937751 4:-0.967255 
512 1:-0.259475 2:-0.642544 3:-0.914127 4:-0.438881 
38.84333346463288 1:0.327063 2:-0.0822072 3:-0.281853 4:-0.196382 
512 1:-0.080019 2:-0.514881 3:-0.739496 4:-0.492375 
287.3109357286297 1:-0.0570392 2:-0.295679 3:-0.311111 4:-0.349278 
142.6534890528963 1:0.0246074 2:-0.155183 3:-0.319512 4:-0.349276 
350.0389688706491 1:-0.0928067 2:-0.110057 3:-0.358621 4:-0.349277 
33.11973230975102 1:-0.230281 2:-0.210271 3:-0.27907 4:-0.471739 
512 1:-0.30503 2:-0.714786 3:-0.918635 4:-0.411036 
512 1:-0.0624549 2:-0.196931 3:-0.476351 4:-0.264909 
332.0293137557653 1:-0.190923 2:-0.346574 3:-0.728863 4:-0.45773 
512 1:-0.232336 2:-0.572758 3:-0.764642 4:-0.861727 
512 1:-0.622298 2:-0.589515 3:-0.914835 4:-0.594205 
512 1:-0.104705 2:-0.514881 3:-0.574176 4:-0.586905 
344.4351691743948 1:0.370465 2:-0.46423 3:-0.712297 4:-0.955695 
512 1:-0.772893 2:-0.904343 3:-1 4:-0.203087 
512 1:-0.520963 2:-0.503049 3:-0.675958 4:-0.404282 
21.31526515225702 1:-0.222802 2:-0.165936 3:-0.129825 4:-0.520193 
76.5528311701411 1:-0.387485 2:-0.31099 3:-0.550725 4:-0.341903 
512 1:-0.30503 2:-0.714786 3:-0.918635 4:-0.411035 
75.37159189917239 1:-0.402471 2:-0.653486 3:-0.683673 4:-0.779811 
512 1:-0.206597 2:-0.652519 3:-0.711628 4:-0.779811 
512 1:-0.366668 2:-0.560738 3:-0.845771 4:-0.499587 
512 1:-0.608309 2:-0.357002 3:-0.816568 4:-0.33221 
512 1:-0.175985 2:-0.633645 3:-0.871369 4:-0.53972 
324.1071270140358 1:-0.108902 2:-0.399199 3:-0.761538 4:-0.539722 
20.68975196394187 1:-0.167198 2:-0.809579 3:-1 4:0.11839 
512 1:-0.396252 2:-0.574571 3:-0.722595 4:-0.910223 
79.63130560834571 1:-0.441123 2:-0.613482 3:-0.747967 4:-0.414678 
92.86138576289945 1:-0.452835 2:-0.612756 3:-0.864035 4:-0.10545 
45.79850266781504 1:-0.135323 2:-0.188417 3:-0.512579 4:-0.514172 
512 1:-0.400082 2:-0.804837 3:-0.91092 4:-0.560238 
512 1:-0.197521 2:-0.584184 3:-0.578231 4:-0.326131 
11.41748526010677 1:-0.545358 2:-0.782973 3:-0.883459 4:-0.203087 
512 1:-0.801746 2:-0.916496 3:-1 4:-0.203087 
355.9347203090068 1:-0.694481 2:-0.611905 3:-0.822857 4:-0.31099 
512 1:-0.407908 2:-0.565649 3:-0.909884 4:-0.523915 
512 1:-0.000862849 2:-0.518322 3:-0.560284 4:-0.574228 
115.0023181027921 1:0.107799 2:-0.170483 3:-0.408397 4:-0.258279 
512 1:-0.516261 2:-0.705694 3:-0.896667 4:-0.645717 
512 1:-0.293202 2:-0.614801 3:-0.907463 4:-0.781603 
512 1:-0.455367 2:-0.702427 3:-0.840206 4:-0.833837 
464.6519063865769 1:-0.411287 2:-0.73486 3:-0.906907 4:-0.781603 
512 1:-0.447935 2:-0.774766 3:-0.920918 4:-0.781604 
512 1:-0.293202 2:-0.614801 3:-0.907463 4:-0.781603 
512 1:-0.0615727 2:-0.499332 3:-0.503205 4:-0.586905 
5.410725987851691 1:-0.127892 2:0.275783 3:-0.314917 4:-0.158761 
242.2750118956485 1:-0.139382 2:-0.521714 3:-0.78169 4:-0.537883 
25.50558872056342 1:-0.483144 2:-0.438283 3:-0.533835 4:-0.273352 
512 1:-0.785851 2:-0.809579 3:-1 4:-0.203087 
156.2960314945783 1:0.0284311 2:-0.531609 3:-0.694581 4:-0.858668 
36.32968597519611 1:-0.134856 2:-0.802184 3:-1 4:0.118392 
159.1937337703778 1:-0.0536473 2:-0.0716427 3:-0.330935 4:-0.349276 
29.27054162578552 1:-0.01221 2:0.0391621 3:-0.322404 4:-0.349278 
249.5092615689902 1:-0.0508637 2:-0.0419815 3:-0.375315 4:-0.349276 
78.93703178102062 1:-0.0411191 2:-0.523701 3:-0.516883 4:-0.586905 
93.56981559821624 1:-0.122809 2:-0.562442 3:-0.565826 4:-0.586905 
10.82302110602123 1:0.252791 2:-0.191468 3:-0.261905 4:-0.196382 
70.2799238996144 1:-0.577679 2:-0.420616 3:-0.779621 4:-0.347948 
512 1:-0.767628 2:-0.919147 3:-1 4:-0.203087 
512 1:-0.413789 2:-0.754703 3:-0.930023 4:-0.781603 
512 1:-0.201257 2:-0.46732 3:-0.392157 4:-0.489299 
512 1:-0.0624549 2:-0.196931 3:-0.476351 4:-0.264909 
46.35382768214275 1:-0.664392 2:-0.413447 3:-0.859091 4:-0.32855 
512 1:-0.6646 2:-0.715319 3:-0.814371 4:-0.499578 
512 1:-0.477118 2:-0.648033 3:-0.821497 4:-0.506223 
359.31848557259 1:0.0162122 2:-0.358727 3:-0.467811 4:-0.176961 
111.760319597287 1:-0.422908 2:-0.366111 3:-0.586667 4:-0.200568 
512 1:-0.479851 2:-0.269713 3:-0.666667 4:-0.427984 
337.9260695402091 1:-0.175241 2:-0.789554 3:-0.825352 4:-0.878648 
512 1:-0.17916 2:-0.517532 3:-0.830601 4:-0.992703 
326.9388331292917 1:0.178146 2:-0.20098 3:-0.270588 4:-0.295152 
512 1:0.0296818 2:-0.303901 3:-0.398892 4:-0.150911 
512 1:-0.622298 2:-0.589515 3:-0.914835 4:-0.594205 
512 1:-0.12726 2:-0.438042 3:-0.63357 4:-0.549399 
512 1:-0.425098 2:-0.612386 3:-0.846154 4:-0.427373 
122.1921635234119 1:-0.195308 2:-0.61291 3:-0.678756 4:-0.955695 
108.3571348776389 1:0.00562775 2:-0.446447 3:-0.514107 4:-0.586905 
512 1:-0.0452522 2:-0.499332 3:-0.503205 4:-0.586905 
4.158864781560417 1:-0.173096 2:-0.129274 3:-0.205128 4:-0.505061 
512 1:-0.228268 2:-0.326605 3:-0.824363 4:-0.523913 
26.49326761253731 1:-0.104705 2:-0.800977 3:-0.772894 4:-0.42558 
42.84377957416656 1:0.0671328 2:-0.708608 3:-0.89769 4:-0.42558 
512 1:-0.372961 2:-0.509731 3:-0.934183 4:-0.523915 
32.27722065104232 1:0.0945846 2:-0.626973 3:-0.882576 4:-0.523913 
486.8804828819701 1:-0.326726 2:-0.894352 3:-0.931111 4:-0.523913 
191.1898038594071 1:-0.0452522 2:-0.434028 3:-0.354167 4:0.0978552 
0.4563908726116863 1:-0.205573 2:-0.565946 3:-0.766917 4:-0.488659 
85.80480154305734 1:-0.258913 2:-0.537656 3:-0.56338 4:-0.239404 
459.8099744959952 1:-0.190625 2:-0.475952 3:-0.617284 4:-0.5154 
512 1:-0.555161 2:-0.570787 3:-0.769517 4:-0.541483 
112.3706716119433 1:-0.392001 2:-0.526949 3:-0.691542 4:-0.035583 
407.2503675452724 1:-0.474197 2:-0.557065 3:-1 4:-0.456512 
24.64416657837375 1:0.300082 2:-0.494238 3:-0.670213 4:-0.878677 
44.42330391805325 1:-0.830893 2:-0.749385 3:-0.885609 4:-0.194519 
512 1:-0.393106 2:-0.44719 3:-0.639535 4:-0.19452 
191.9174867256179 1:0.0483505 2:-0.46732 3:-0.392157 4:-0.561476 
215.1156899640954 1:0.0328944 2:-0.0573843 3:-0.338078 4:-0.198723 
512 1:-0.140627 2:-0.292981 3:-0.413249 4:-0.326156 
-124.5004552669102 1:-0.666726 2:-0.606491 3:-1 4:-0.617881 
-174.0168663047845 1:-0.167522 2:-0.703906 3:-0.915531 4:0.00868114 
-512 1:-0.469585 2:-0.575521 3:-0.757812 4:0.00868265 
-512 1:-0.431826 2:-0.481992 3:-0.737288 4:0.00868061 
-512 1:-0.22457 2:-0.207064 3:-0.685279 4:-0.503269 
-512 1:-0.17127 2:-0.521393 3:-0.687919 4:-0.503268 
-492.7692600510902 1:-0.41876 2:-0.497722 3:-0.501608 4:-0.356498 
-512 1:-0.506231 2:-0.711869 3:-0.95303 4:-0.719767 
-512 1:-0.28885 2:-0.67509 3:-0.95216 4:-0.471739 
-512 1:-0.445201 2:-0.594527 3:-0.814925 4:-0.47174 
-512 1:-0.509106 2:-0.5561 3:-0.797386 4:-0.471738 
-87.82377765702437 1:-0.248621 2:-0.652134 3:-1 4:-0.918078 
-512 1:-0.51775 2:-0.697307 3:-0.913649 4:-0.665171 
-512 1:-0.233362 2:-0.4193 3:-0.769517 4:-0.506927 
-402.4724044021107 1:-0.404129 2:-0.598601 3:-0.926714 4:-0.506926 
-116.244650129861 1:-0.48368 2:-0.699204 3:-0.927739 4:-0.818644 
-512 1:-0.130194 2:-0.492438 3:-0.669039 4:-0.503269 
-362.116927225488 1:-0.682768 2:-0.717918 3:-0.900958 4:-0.503268 
-512 1:-0.435504 2:-0.354638 3:-0.579186 4:-0.212149 
-512 1:-0.835742 2:-1 3:-1 4:-0.116918 
-512 1:-0.502226 2:-0.455796 3:-0.900641 4:-0.503269 
-512 1:-0.000845352 2:-0.624879 3:-0.909884 4:-0.503268 
-178.6794060970626 1:-0.751783 2:-0.943245 3:-1 4:-0.248544 
-512 1:-0.666596 2:-0.87872 3:-1 4:-0.248549 
-422.0139039578671 1:-0.746553 2:-0.692685 3:-0.859729 4:-0.32855 
-512 1:-0.428268 2:-0.618713 3:-0.891228 4:-0.328553 
-512 1:-0.214433 2:-0.4193 3:-0.769517 4:-0.506927 
-512 1:-0.137647 2:-0.430376 3:-0.8 4:-0.506926 
-512 1:-0.483285 2:-0.523831 3:-0.885609 4:-0.506926 
-512 1:0.155562 2:-0.17297 3:-0.313653 4:-0.258279 
-512 1:-0.02964 2:-0.256761 3:-0.415094 4:-0.258276 
-512 1:-0.046191 2:-0.0183137 3:-0.359882 4:-0.258279 
-512 1:-0.151335 2:-0.0822072 3:-0.441441 4:-0.258276 
-512 1:-0.256082 2:-0.555206 3:-0.609572 4:-0.366195 
-512 1:-0.39811 2:-0.582545 3:-0.853428 4:-0.506927 
-512 1:-0.314118 2:-0.648707 3:-0.799569 4:-0.506926 
-512 1:0.380691 2:-0.454899 3:-0.73102 4:-0.916901 
-453.6907776828454 1:-0.267819 2:-0.5561 3:-0.797386 4:-0.990906 
-512 1:-0.639835 2:-0.701829 3:-1 4:-0.465031 
-283.5488608837192 1:-0.808091 2:-0.897613 3:-1 4:-0.123581 
-236.7751358873621 1:-0.329645 2:-0.765182 3:-0.917553 4:-0.471738 
-85.01561656940414 1:-0.557482 2:-0.563393 3:-0.778571 4:-0.47174 
-512 1:-0.28121 2:-0.76704 3:-0.918206 4:-0.471737 
-512 1:-0.500648 2:-0.418393 3:-0.657459 4:-0.471738 
-512 1:0.017261 2:-0.499721 3:-0.584821 4:-0.549399 
-512 1:-0.100183 2:-0.497603 3:-0.490411 4:-0.549397 
-512 1:-0.146472 2:-0.47457 3:-0.467049 4:-0.549397 
-512 1:-0.0916994 2:-0.522748 3:-0.581081 4:-0.549398 
-512 1:-0.680012 2:-0.517532 3:-0.830601 4:-0.332209 
-512 1:0.119005 2:-0.534442 3:-0.75 4:-0.33221 
-512 1:-0.616182 2:-0.453936 3:-0.844221 4:-0.332209 
-512 1:-0.666099 2:-0.406193 3:-0.830601 4:-0.332214 
-150.7638259470612 1:-0.628905 2:-0.761916 3:-0.942804 4:-0.471739 
-512 1:0.0639975 2:-0.351244 3:-0.537313 4:0.00868061 
-512 1:0.155562 2:-0.17297 3:-0.313653 4:-0.25828 
-512 1:-0.046191 2:-0.0183137 3:-0.359882 4:-0.258277 
-512 1:-0.0550145 2:-0.3125 3:-0.429448 4:-0.25828 
-512 1:-0.517991 2:-0.241707 3:-0.699029 4:-0.258276 
-75.59531945557693 1:0.193726 2:-0.104396 3:-0.318681 4:-0.258276 
-141.9075350332976 1:-0.501193 2:-0.445578 3:-0.746939 4:-0.948435 
-512 1:-0.137647 2:-0.430376 3:-0.8 4:-0.506927 
-512 1:-0.319605 2:-0.604795 3:-0.799569 4:-0.506926 
-512 1:-0.447694 2:-0.532848 3:-0.835979 4:-0.549399 
-512 1:-0.188234 2:-0.753925 3:-0.887681 4:-0.549398 
-366.6260289774031 1:-0.415973 2:-0.610514 3:-0.888889 4:-0.549397 
-512 1:-0.363501 2:-0.705694 3:-0.896667 4:-0.990906 
-375.2038199808335 1:-0.245324 2:-0.579669 3:-0.899023 4:-0.990906 
-302.1005771153997 1:-0.194488 2:-0.731403 3:-0.824859 4:-0.859836 
-512 1:-0.819177 2:-0.942116 3:-1 4:-0.207264 
-512 1:-0.781162 2:-0.871855 3:-1 4:-0.207262 
-512 1:-0.469585 2:-0.575521 3:-0.757812 4:0.00868268 
-18.12732293004191 1:-0.016479 2:-0.460388 3:-0.575342 4:0.00868209 
-129.4982594188918 1:-0.0345466 2:-0.522299 3:-0.525994 4:0.00868037 
-51.44054103715555 1:-0.489402 2:-0.570856 3:-0.82967 4:0.0086809 
-512 1:-0.566639 2:-0.602615 3:-0.917553 4:-0.619092 
-512 1:-0.169122 2:-0.53231 3:-0.535928 4:-0.366195 
-512 1:0.011578 2:-0.560361 3:-0.654018 4:-0.549399 
-512 1:-0.0568109 2:-0.473769 3:-0.624697 4:-0.549399 
-512 1:-0.0719036 2:-0.414511 3:-0.618227 4:-0.549397 
-512 1:-0.0252784 2:-0.460077 3:-0.675732 4:-0.549397 
-336.9645548659511 1:-0.441722 2:-0.672691 3:-0.850602 4:-0.549399 
-512 1:-0.100183 2:-0.497603 3:-0.490411 4:-0.549399 
-512 1:0.0106825 2:-0.444318 3:-0.436364 4:-0.549399 
-512 1:0.0562328 2:-0.369195 3:-0.424149 4:-0.549397 
-512 1:-0.174969 2:-0.484177 3:-0.529114 4:-0.549397 
-512 1:-0.532212 2:-0.652234 3:-0.813253 4:-0.549399 
-172.9150433941235 1:-0.285968 2:-0.94228 3:-1 4:-0.549397 
-512 1:-0.65439 2:-0.692685 3:-0.859729 4:-0.320689 
-512 1:-0.28885 2:-0.67509 3:-0.95216 4:-0.471739 
-512 1:-0.283539 2:-0.726968 3:-0.922111 4:-0.471738 
-42.58747028352975 1:-0.517347 2:-0.549368 3:-0.92654 4:-0.471739 
-512 1:-0.480845 2:-0.525722 3:-0.913408 4:-0.47174 
-512 1:-0.195101 2:-0.558389 3:-0.860987 4:-0.471738 
-512 1:-0.320611 2:-0.652179 3:-0.916442 4:-0.471739 
-512 1:0.380691 2:-0.499096 3:-0.73102 4:-0.916901 
-512 1:-0.132234 2:-0.432208 3:-0.800643 4:-0.942966 
-512 1:-0.0870938 2:-0.567065 3:-0.691235 4:-0.870771 
-512 1:-0.380475 2:-0.705694 3:-0.896667 4:-0.990906 
-512 1:-0.264491 2:-0.698148 3:-0.913889 4:-0.990905 
-55.03926188345425 1:-0.41365 2:-0.794192 3:-0.906061 4:-0.990906 
-512 1:-0.477745 2:-0.746698 3:-0.927739 4:-0.818644 
-505.0804340907191 1:-0.572428 2:-0.619805 3:-0.92112 4:-0.770102 
-512 1:-0.447185 2:-0.66177 3:-0.938247 4:-0.770103 
-512 1:-0.100123 2:-0.795079 3:-0.866379 4:-0.320689 
-512 1:-0.819177 2:-0.942116 3:-1 4:-0.207259 
-398.2303235153274 1:-0.685495 2:-0.640441 3:-1 4:-0.411643 
-512 1:-0.194488 2:-0.731403 3:-0.824859 4:-0.859835 
-334.2242392032153 1:-0.372103 2:-0.747607 3:-0.790541 4:-0.859836 
-121.0523812240273 1:-0.125898 2:-0.389305 3:-0.873297 4:-0.990906 
-512 1:-0.0710562 2:-0.479917 3:-0.511261 4:-0.47174 
-512 1:-0.210154 2:-0.327558 3:-0.386139 4:-0.471739 
-512 1:-0.483285 2:-0.523831 3:-0.885609 4:-0.506927 
-512 1:-0.169202 2:-0.356579 3:-0.673684 4:-0.506927 
-186.3461631014673 1:-0.295789 2:-0.710993 3:-0.917553 4:-0.471738 
-512 1:-0.545358 2:-0.474454 3:-0.815476 4:-0.47174 
-512 1:-0.315464 2:-0.58353 3:-0.853774 4:-0.471738 
-512 1:-0.411331 2:-0.450385 3:-0.641618 4:-0.215806 
-103.1043739855859 1:0.409933 2:-0.107072 3:-0.258964 4:0.149971 
-512 1:0.341438 2:-0.24537 3:-0.222222 4:0.149971 
-330.0825870348119 1:0.439507 2:-0.197609 3:-0.0843882 4:0.149972 
-22.83817613623723 1:-0.713024 2:-0.862596 3:-0.910405 4:-0.284827 
-512 1:-0.592641 2:-0.665641 3:-0.904615 4:-0.619092 
-512 1:-0.156846 2:-0.558983 3:-0.798701 4:-0.503268 
-512 1:-0.637109 2:-0.646587 3:-0.859729 4:-0.320689 
-512 1:-0.10561 2:-0.751167 3:-0.866379 4:-0.320686 
-45.07183147511702 1:-0.480845 2:-0.354981 3:-0.913408 4:-0.471739 
-507.5736884192532 1:-0.552936 2:-0.413814 3:-0.815476 4:-0.471738 
-512 1:-0.196002 2:-0.392325 3:-0.428947 4:-0.47174 
-512 1:-0.0412575 2:-0.119073 3:-0.351464 4:-0.471739 
-445.9977342325525 1:-0.0907164 2:-0.261775 3:-0.229814 4:-0.471738 
-512 1:-0.160269 2:-0.332749 3:-0.782456 4:-0.506926 
-512 1:-0.456601 2:-0.564117 3:-0.814925 4:-0.471739 
-113.0080423772372 1:-0.569606 2:-0.49871 3:-0.704762 4:-0.471738 
-512 1:-0.202702 2:-0.374452 3:-0.347368 4:-0.47174 
-512 1:-0.504946 2:-0.492076 3:-0.668803 4:-0.471738 
-512 1:-0.546515 2:-0.516115 3:-0.684478 4:-0.471739 
-157.6519397064784 1:-0.432455 2:-0.58967 3:-0.870833 4:-0.910223 
-512 1:-0.0550145 2:-0.3125 3:-0.429448 4:-0.258279 
-512 1:-0.108902 2:-0.320833 3:-0.515625 4:-0.258276 
-512 1:-0.769323 2:-0.931628 3:-1 4:-0.248543 
-512 1:-0.369341 2:-0.594992 3:-0.857798 4:-0.813705 
-27.91915879744886 1:-0.612039 2:-0.719709 3:-0.901587 4:-0.770692 
-166.2807334897708 1:-0.170686 2:-0.734528 3:-1 4:-0.549399 
-20.64458261939428 1:-0.285968 2:-0.94228 3:-1 4:-0.549397 
-11.88691477974731 1:-0.452801 2:-0.513433 3:-1 4:-0.549397 
-512 1:-0.296108 2:-0.60049 3:-0.817647 4:-0.762868 
-512 1:-0.206518 2:-0.558389 3:-0.860987 4:-0.471739 
-512 1:-0.321469 2:-0.631584 3:-0.853774 4:-0.471738 
-512 1:-0.515826 2:-0.550125 3:-0.735043 4:-0.47174 
-512 1:-0.470558 2:-0.293833 3:-0.620795 4:-0.471739 
-512 1:-0.21891 2:-0.634173 3:-0.854801 4:-0.471737 
-512 1:-0.441123 2:-0.370528 3:-0.621951 4:-0.471738 
-105.9265976294765 1:-0.618101 2:-0.660417 3:-1 4:-0.47174 
-512 1:-0.289043 2:-0.641195 3:-0.766038 4:-0.759209 
-512 1:-0.237494 2:-0.276015 3:-0.84264 4:-0.503269 
-71.21019146793431 1:-0.559715 2:-0.336153 3:-0.766917 4:-0.503268 
-512 1:-0.148315 2:-0.444098 3:-0.669039 4:-0.503268 
-512 1:-0.502226 2:-0.455796 3:-0.900641 4:-0.503268 
-512 1:0.341438 2:-0.24537 3:-0.222222 4:0.149972 
-156.9338959019407 1:0.0885047 2:-0.31099 3:-0.213768 4:0.149974 
-511.9144936306713 1:-0.449654 2:-0.794192 3:-1 4:-0.707641 
-512 1:0.139538 2:-0.534442 3:-0.75 4:-0.332214 
-440.1406879717816 1:-0.267819 2:-0.5561 3:-0.797386 4:-0.990906 
-512 1:-0.245324 2:-0.579669 3:-0.899023 4:-0.990906 
-512 1:-0.105087 2:-0.426317 3:-0.788828 4:-0.990905 
-236.9582020373786 1:-0.297396 2:-0.536474 3:-0.816024 4:-0.990906 
-512 1:-0.343341 2:-0.477564 3:-0.719457 4:-0.212149 
-103.9312730217232 1:-0.707255 2:-0.692364 3:-0.891986 4:-0.779195 
-59.29061910368186 1:0.439507 2:-0.197609 3:-0.0843882 4:0.149972 
-355.5715857474013 1:0.425321 2:-0.216346 3:-0.205128 4:0.149974 
-512 1:-0.768067 2:-0.915631 3:-1 4:-0.207262 
-167.4333480007251 1:-0.372103 2:-0.747607 3:-0.790541 4:-0.859836 
-512 1:-0.210154 2:-0.327558 3:-0.386139 4:-0.471739 
-512 1:-0.0838682 2:-0.175907 3:-0.351464 4:-0.47174 
-512 1:-0.454986 2:-0.293833 3:-0.620795 4:-0.471738 
-0.7799207472786349 1:-0.494842 2:-0.353175 3:-0.630952 4:-0.471739 
-512 1:-0.411331 2:-0.450385 3:-0.641618 4:-0.215807 
-97.5550162980727 1:0.0639975 2:-0.351244 3:-0.537313 4:0.00868209 
-512 1:-0.405427 2:-0.471307 3:-0.814371 4:0.0086809 
-512 1:-0.0506463 2:-0.40799 3:-0.549637 4:-0.549399 
-512 1:-0.00474777 2:-0.444318 3:-0.436364 4:-0.549397 
-512 1:-0.39822 2:-0.567803 3:-0.929545 4:-0.549399 
-512 1:-0.41876 2:-0.585075 3:-0.900322 4:-0.549398 
-512 1:-0.0107921 2:-0.480892 3:-0.407643 4:-0.549397 
-512 1:-0.0424022 2:-0.472886 3:-0.537313 4:-0.549398 
-512 1:-0.295789 2:-0.671583 3:-0.760155 4:-0.7992 
-512 1:-0.28121 2:-0.76704 3:-0.918206 4:-0.471738 
-512 1:-0.21891 2:-0.634173 3:-0.854801 4:-0.471738 
-512 1:-0.298405 2:-0.749171 3:-0.911932 4:-0.471739 
-512 1:-0.566639 2:-0.602615 3:-0.917553 4:-0.619092 
-512 1:-0.561306 2:-0.665641 3:-0.904615 4:-0.619091 
-512 1:-0.518523 2:-0.688634 3:-0.911175 4:-0.619091 
-512 1:-0.290864 2:-0.632173 3:-0.760155 4:-0.7992 
-512 1:-0.409792 2:-0.567803 3:-0.929545 4:-0.549399 
-512 1:-0.394371 2:-0.513761 3:-0.928406 4:-0.549397 
-490.5737443364909 1:-0.38997 2:-0.583086 3:-0.938614 4:-0.549397 
-512 1:-0.621206 2:-0.652134 3:-1 4:-0.465031 
-512 1:-0.752235 2:-0.931628 3:-1 4:-0.248549 
-512 1:-0.770487 2:-0.871855 3:-1 4:-0.207259 
-512 1:-0.757524 2:-0.915631 3:-1 4:-0.207257 
-29.44927790215319 1:-0.41365 2:-0.794192 3:-0.906061 4:-0.990906 
-256.995371315705 1:-0.393404 2:-0.635347 3:-0.895973 4:-0.990905 
-512 1:-0.509106 2:-0.5561 3:-0.797386 4:-0.471739 
-512 1:-0.500648 2:-0.418393 3:-0.657459 4:-0.471738 
-512 1:-0.129349 2:-0.40177 3:-0.518135 4:-0.471739 
-512 1:-0.114437 2:-0.282867 3:-0.42236 4:-0.47174 
-512 1:-0.428704 2:-0.370528 3:-0.621951 4:-0.471738 
-60.57038682498527 1:0.711415 2:-0.337742 3:-0.678423 4:-0.916901 
-358.1933332843256 1:-0.803072 2:-0.774862 3:-1 4:-0.223642 
-51.24768376236373 1:-0.432455 2:-0.58967 3:-0.870833 4:-0.910223 
-62.87157176623853 1:-0.461822 2:-0.337398 3:-0.243902 4:-0.223642 
-512 1:-0.798622 2:-0.769774 3:-1 4:-0.223639 
-43.85678198180949 1:-0.83933 2:-0.703277 3:-1 4:-0.131998 
-512 1:-0.296108 2:-0.60049 3:-0.817647 4:-0.762869 
-302.6622275033215 1:-0.443233 2:-0.899062 3:-0.934183 4:-0.750045 
-512 1:-0.0870938 2:-0.567065 3:-0.691235 4:-0.870771 
-512 1:-0.188234 2:-0.753925 3:-0.887681 4:-0.549399 
-512 1:-0.402387 2:-0.585075 3:-0.900322 4:-0.549399 
-512 1:-0.413751 2:-0.508498 3:-0.898026 4:-0.549397 
-512 1:-0.373669 2:-0.84811 3:-0.900958 4:-0.549399 
-364.3292419585352 1:-0.345983 2:-0.517106 3:-0.928899 4:-0.785299 
-512 1:-0.585385 2:-0.619805 3:-0.92112 4:-0.770102 
-512 1:-0.391071 2:-0.756984 3:-0.94162 4:-0.876895 
-139.4339920167547 1:-0.456973 2:-0.643794 3:-0.674825 4:-0.944776 
-512 1:-0.306886 2:-0.652179 3:-0.916442 4:-0.471739 
-512 1:-0.546515 2:-0.585242 3:-0.763359 4:-0.47174 
-2.191760916721234 1:-0.494842 2:-0.353175 3:-0.630952 4:-0.471739 
-512 1:-0.131882 2:-0.47457 3:-0.467049 4:-0.549399 
-111.3871715621572 1:-0.415973 2:-0.610514 3:-0.888889 4:-0.549399 
-512 1:-0.0189004 2:-0.416003 3:-0.407643 4:-0.549399 
-512 1:0.0117631 2:-0.336319 3:-0.394137 4:-0.549397 
-512 1:-0.140139 2:-0.462401 3:-0.509235 4:-0.549397 
-512 1:-0.4199 2:-0.570148 3:-0.803797 4:-0.549399 
-512 1:-0.517991 2:-0.241707 3:-0.699029 4:-0.258279 
-280.3900995505944 1:-0.592641 2:-0.38875 3:-1 4:-0.258276 
-512 1:-0.0530909 2:-0.397783 3:-0.541872 4:-0.549399 
-512 1:0.0562328 2:-0.369195 3:-0.424149 4:-0.549397 
-62.55840541167913 1:-0.452801 2:-0.513433 3:-1 4:-0.549397 
-512 1:-0.382611 2:-0.513761 3:-0.928406 4:-0.549399 
-512 1:-0.413751 2:-0.508498 3:-0.898026 4:-0.549398 
-512 1:0.00346997 2:-0.402687 3:-0.394137 4:-0.549397 
-512 1:-0.0297279 2:-0.399517 3:-0.527439 4:-0.549398 
-512 1:-0.351823 2:-0.563838 3:-0.928899 4:-0.7853 
-118.3083053036589 1:-0.835742 2:-1 3:-1 4:-0.116913 
-512 1:-0.616182 2:-0.453936 3:-0.844221 4:-0.332214 
-488.1497114487157 1:-0.02964 2:-0.256761 3:-0.415094 4:-0.25828 
-512 1:-0.151335 2:-0.0822072 3:-0.441441 4:-0.258277 
-512 1:-0.0929896 2:-0.320833 3:-0.515625 4:-0.25828 
-512 1:0.0107692 2:-0.186017 3:-0.419476 4:-0.258276 
-512 1:-0.547703 2:-0.688634 3:-0.911175 4:-0.619092 
-76.21578351793981 1:-0.0345466 2:-0.501529 3:-0.431193 4:0.00868265 
-512 1:0.00296736 2:-0.382576 3:-0.373737 4:0.00868061 
-232.2493890634804 1:-0.392108 2:-0.523057 3:-0.912921 4:0.00868337 
-237.3217276135551 1:-0.60629 2:-0.789948 3:-1 4:-0.533613 
-281.7697323343087 1:-0.722255 2:-1 3:-1 4:-0.226688 
-448.4510930846608 1:-0.788933 2:-1 3:-1 4:-0.238851 
-512 1:-0.777534 2:-1 3:-1 4:-0.238851 
-512 1:-0.503567 2:-0.697307 3:-0.913649 4:-0.665171 
-512 1:-0.392699 2:-0.563838 3:-0.715596 4:-0.813706 
-505.7694445976712 1:-0.405427 2:-0.471307 3:-0.814371 4:0.00868061 
-512 1:-0.435504 2:-0.354638 3:-0.579186 4:-0.212149 
-512 1:-0.3203 2:-0.477564 3:-0.719457 4:-0.212149 
-333.517454332101 1:0.2114 2:-0.233199 3:-0.125 4:0.149971 
-512 1:0.0977293 2:-0.237168 3:-0.213768 4:0.149971 
-60.26810144812167 1:-0.0876341 2:-0.703995 3:-0.774818 4:0.00868268 
-300.357615005731 1:-0.41876 2:-0.497722 3:-0.501608 4:-0.356498 
-512 1:-0.243256 2:-0.555206 3:-0.609572 4:-0.366194 
-512 1:-0.184367 2:-0.53231 3:-0.535928 4:-0.366193 
-512 1:-0.410401 2:-0.618713 3:-0.891228 4:-0.328555 
-512 1:-0.148606 2:-0.432208 3:-0.800643 4:-0.942966 
-122.2397513521879 1:-0.707255 2:-0.692364 3:-0.891986 4:-0.779195 
-512 1:-0.447185 2:-0.66177 3:-0.938247 4:-0.770102 
-390.1894062664337 1:-0.677582 2:-0.614447 3:-0.864629 4:-0.503269 
-512 1:-0.154183 2:-0.521393 3:-0.687919 4:-0.503268 
-512 1:-0.0082465 2:-0.684109 3:-0.909884 4:-0.503268 
-512 1:-0.156846 2:-0.558983 3:-0.798701 4:-0.503268 
-512 1:-0.0916994 2:-0.522748 3:-0.581081 4:-0.549399 
-395.1708997195577 1:-0.543781 2:-0.764451 3:-1 4:-0.549397 
-512 1:-0.0424022 2:-0.472886 3:-0.537313 4:-0.549399 
-512 1:-0.03749 2:-0.482342 3:-0.621951 4:-0.549397 
-512 1:-0.134362 2:-0.558542 3:-0.6125 4:-0.549397 
-512 1:-0.486268 2:-0.717854 3:-0.816024 4:-0.549399 
-512 1:-0.545358 2:-0.549532 3:-0.841837 4:-0.549399 
-12.39812027573548 1:-0.288878 2:-0.695546 3:-0.893103 4:-0.549398 
-512 1:-0.435189 2:-0.559585 3:-0.894198 4:-0.549397 
-512 1:-0.00929938 2:-0.445868 3:-0.610879 4:-0.549399 
-512 1:-0.174969 2:-0.484177 3:-0.529114 4:-0.549397 
-512 1:-0.354679 2:-0.542739 3:-0.938614 4:-0.549399 
-512 1:-0.146857 2:-0.516161 3:-0.509235 4:-0.549397 
-512 1:-0.134362 2:-0.558542 3:-0.6125 4:-0.549398 
-512 1:0.0107692 2:-0.186017 3:-0.419476 4:-0.258276 
-512 1:-0.447857 2:-0.607229 3:-0.775904 4:-0.549399 
-512 1:-0.547549 2:-0.652234 3:-0.813253 4:-0.549397 
-512 1:-0.357401 2:-0.84811 3:-0.900958 4:-0.549398 
-512 1:-0.427957 2:-0.634626 3:-0.803797 4:-0.549397 
-512 1:-0.486268 2:-0.717854 3:-0.816024 4:-0.549398 
-512 1:-0.279436 2:-0.615566 3:-0.883019 4:-0.759209 
