svm_type c_svc
kernel_type rbf
gamma 0.5
nr_class 2
total_sv 322
rho -0.119495
label 1 -1
nr_sv 161 161
SV
0.125 1:-0.362473 2:-0.41353 3:-0.216946 
0.125 1:-0.486302 2:-0.723328 3:-0.216945 
0.125 1:-0.376984 2:-0.53154 3:-0.176171 
0.125 1:-0.220571 2:-0.511111 3:-0.350769 
0.125 1:-0.212797 2:-0.426571 3:-0.350768 
0.125 1:-0.206275 2:-0.428105 3:-0.350769 
0.125 1:-0.348559 2:-0.37925 3:-0.350768 
0.125 1:-0.408659 2:-0.250111 3:-0.0964881 
0.125 1:-0.455969 2:-0.253876 3:0.0626062 
0.125 1:-0.257867 2:-0.486667 3:-0.399309 
0.125 1:-0.434602 2:-0.483048 3:-0.216946 
0.125 1:-0.0423529 2:-0.679739 3:-0.448823 
0.125 1:-0.0395541 2:-0.699554 3:-0.216945 
0.125 1:-0.43639 2:-0.607715 3:-0.216946 
0.125 1:-0.501459 2:-0.339056 3:0.0548794 
0.125 1:-0.671068 2:-0.626214 3:1 
0.125 1:-0.521975 2:-0.577503 3:-0.216945 
0.125 1:0.0297872 2:-0.768322 3:-0.216945 
0.125 1:-0.426561 2:-0.659593 3:-0.216946 
0.125 1:0.0703089 2:-0.603523 3:-0.940844 
0.125 1:-0.107518 2:-0.381087 3:-0.940843 
0.125 1:-0.416867 2:-0.759482 3:-0.427485 
0.125 1:0.0214596 2:-0.620316 3:-0.940844 
0.125 1:-0.184721 2:-0.451957 3:-0.487577 
0.125 1:-0.300889 2:-0.500926 3:-0.572092 
0.125 1:-0.24375 2:-0.431858 3:-0.414864 
0.125 1:-0.315947 2:-0.418222 3:-0.414864 
0.125 1:-0.0899145 2:-0.67094 3:-0.399309 
0.125 1:-0.193333 2:-0.502584 3:-0.350769 
0.125 1:-0.195699 2:-0.422939 3:-0.450772 
0.125 1:-0.329249 2:-0.737904 3:-0.372142 
0.125 1:-0.0945212 2:-0.618906 3:-0.372143 
0.125 1:-0.408444 2:-0.755556 3:-0.372142 
0.125 1:-0.309096 2:-0.629714 3:-0.372142 
0.125 1:-0.00647834 2:-0.516635 3:-0.940844 
0.125 1:-0.313931 2:-0.459948 3:-0.424545 
0.125 1:-0.210023 2:-0.557471 3:-0.193663 
0.125 1:-0.112406 2:-0.418554 3:-0.88749 
0.125 1:-0.0588889 2:-0.725783 3:-0.58858 
0.125 1:-0.00331852 2:-0.524691 3:-0.85931 
0.125 1:-0.25405 2:-0.42503 3:-0.350768 
0.125 1:-0.152243 2:-0.495383 3:-0.350768 
0.125 1:-0.336287 2:-0.431435 3:-0.350768 
0.125 1:-0.220044 2:-0.433407 3:-0.598247 
0.125 1:-0.0597792 2:-0.716703 3:-0.811712 
0.125 1:0.0142897 2:-0.819503 3:-0.811712 
0.125 1:0.172356 2:-0.714815 3:-0.941834 
0.1095125890032476 1:-0.0624084 2:-0.440081 3:-0.804962 
0.125 1:-0.180999 2:-0.502888 3:-0.467318 
0.125 1:-0.431111 2:-0.599327 3:-0.585643 
0.125 1:-0.233192 2:-0.396078 3:-0.365385 
0.09054073408124425 1:0.479632 2:-1 3:0.600026 
0.125 1:-0.0790283 2:-0.567027 3:-0.716684 
0.125 1:-0.117412 2:-0.496732 3:-0.598247 
0.125 1:-0.0968841 2:-0.511775 3:-0.672042 
0.125 1:-0.466594 2:-0.234869 3:-0.214958 
0.125 1:-0.190067 2:-0.584345 3:-0.0898474 
0.125 1:-0.139556 2:-0.629259 3:-0.372142 
0.125 1:-0.0798479 2:-0.609632 3:-0.372142 
0.125 1:-0.116066 2:-0.459132 3:-0.772987 
0.125 1:-0.506368 2:-0.553068 3:-0.648726 
0.125 1:-0.576296 2:-0.567901 3:0.321647 
0.125 1:-0.139019 2:-0.509282 3:-0.495406 
0.125 1:-0.1904 2:-0.595556 3:-0.495405 
0.125 1:0.00951267 2:-0.624756 3:-0.981596 
0.125 1:-0.488989 2:-0.380593 3:0.103252 
0.125 1:-0.207241 2:-0.889368 3:0.0780769 
0.125 1:-0.31871 2:-0.34767 3:-0.216946 
0.125 1:-0.281148 2:-0.39353 3:-0.218877 
0.125 1:-0.345083 2:-0.322332 3:-0.218877 
0.125 1:-0.238567 2:-0.400312 3:-0.396414 
0.125 1:-0.147238 2:-0.480556 3:-0.598246 
0.125 1:-0.391832 2:-0.372891 3:0.248855 
0.125 1:0.0140952 2:-0.722963 3:-0.556527 
0.125 1:-0.305149 2:-0.534103 3:-0.566252 
0.125 1:-0.439627 2:-0.185185 3:-0.214958 
0.125 1:0.0165155 2:-0.673296 3:-0.789492 
0.125 1:-0.0540295 2:-0.518965 3:-0.760321 
0.125 1:-0.126667 2:-0.734848 3:-0.585643 
0.125 1:-0.303647 2:-0.524691 3:-0.757435 
0.125 1:-0.0255651 2:-0.610003 3:-0.940844 
0.125 1:-0.0574737 2:-0.504678 3:-0.671085 
0.125 1:-0.322209 2:-0.67094 3:-0.559406 
0.125 1:-0.340273 2:-0.395704 3:-0.350768 
0.125 1:-0.800118 2:-0.659292 3:0.350867 
0.125 1:-0.374138 2:-0.446839 3:0.132567 
0.125 1:-0.105774 2:-0.822171 3:-0.877735 
0.125 1:-0.2764 2:-0.823799 3:-0.877735 
0.125 1:-0.150877 2:-0.590643 3:-0.648726 
0.125 1:-0.593033 2:-0.640307 3:-0.648726 
0.125 1:-0.0537634 2:-0.422939 3:-0.928218 
0.125 1:-0.0959098 2:-0.48336 3:-0.646775 
0.125 1:-0.56679 2:-0.405864 3:0.103252 
0.125 1:-0.181972 2:-0.734898 3:-0.0693708 
0.125 1:-0.202975 2:-0.590969 3:-0.495406 
0.125 1:-0.319546 2:-0.573192 3:-0.495405 
0.125 1:0.135072 2:-0.729469 3:-0.941834 
0.125 1:-0.159336 2:-0.344402 3:-0.940843 
0.125 1:-0.189154 2:-0.490213 3:-0.838019 
0.125 1:-0.482353 2:-0.405229 3:0.0626062 
0.125 1:-0.00108108 2:-0.57958 3:-0.940844 
0.125 1:-0.47728 2:-0.332667 3:0.127638 
0.125 1:-0.129888 2:-0.663546 3:0.127637 
0.125 1:-0.314016 2:-0.494751 3:-0.437165 
0.125 1:-0.449609 2:-0.635158 3:-0.362447 
0.125 1:-0.343457 2:-0.617866 3:-0.362447 
0.125 1:-0.279925 2:-0.492467 3:-0.350769 
0.125 1:-0.264094 2:-0.39961 3:-0.350768 
0.125 1:-0.190982 2:-0.47619 3:-0.350768 
0.125 1:-0.345641 2:-0.371795 3:-0.350768 
0.125 1:-0.0609896 2:-0.598958 3:-0.940844 
0.125 1:-0.0449067 2:-0.543704 3:-0.940844 
0.125 1:-0.301048 2:-0.492252 3:-0.940843 
0.125 1:-0.156223 2:-0.709981 3:-0.0693708 
0.125 1:0.102548 2:-0.603604 3:-0.897172 
0.125 1:-0.228791 2:-0.435897 3:-0.537186 
0.125 1:-0.0972653 2:-0.870615 3:-0.155732 
0.125 1:-0.52549 2:-0.496732 3:0.103252 
0.125 1:-0.515164 2:-0.202073 3:0.103252 
0.125 1:-0.199353 2:-0.537106 3:-0.707932 
0.125 1:-0.18325 2:-0.465278 3:-0.350769 
0.04402837334925293 1:0.180488 2:-0.721771 3:-0.812749 
0.125 1:-0.0271841 2:-0.616915 3:-0.812749 
0.125 1:0.168812 2:-0.736245 3:-0.820478 
0.125 1:-0.196795 2:-0.449213 3:-0.692518 
0.125 1:-0.267459 2:-0.537538 3:-0.350769 
0.125 1:-0.215866 2:-0.426443 3:-0.350768 
0.125 1:-0.241989 2:-0.402469 3:-0.350768 
0.125 1:-0.236026 2:-0.404209 3:-0.350769 
0.125 1:-0.200074 2:-0.451872 3:-0.350768 
0.125 1:-0.264249 2:-0.435897 3:-0.350768 
0.125 1:-0.378413 2:-0.462963 3:-0.772951 
0.125 1:-0.168385 2:-0.42669 3:-0.503227 
0.125 1:-0.70509 2:-0.678017 3:0.0626074 
0.125 1:-0.632607 2:-0.576458 3:0.0626079 
0.125 1:-0.318962 2:-0.614299 3:-0.221673 
0.125 1:-0.239693 2:-0.524691 3:-0.368268 
0.125 1:-0.31831 2:-0.317162 3:-0.362447 
0.125 1:-0.220017 2:-0.564603 3:-0.350769 
0.125 1:-0.255385 2:-0.417817 3:-0.350768 
0.125 1:-0.231344 2:-0.417685 3:-0.350769 
0.125 1:-0.256684 2:-0.440081 3:-0.350768 
0.125 1:-0.285169 2:-0.34188 3:-0.350768 
0.125 1:-0.575089 2:-0.471879 3:0.103252 
0.125 1:-0.610575 2:-0.225575 3:0.103252 
0.125 1:-0.293702 2:-0.369176 3:-0.234394 
0.125 1:0.0646362 2:-0.543993 3:-0.940844 
0.125 1:0.0715197 2:-0.695018 3:-0.940844 
0.125 1:0.030297 2:-0.512926 3:-0.940843 
0.125 1:-0.0466667 2:-0.632716 3:-0.940844 
0.125 1:-0.305996 2:-0.593731 3:-0.940843 
0.125 1:-0.330833 2:-0.416667 3:-0.0956814 
0.125 1:-0.421358 2:-0.479905 3:-0.55071 
0.125 1:-0.137848 2:-0.502058 3:-0.550711 
0.125 1:-0.195645 2:-0.387138 3:-0.550711 
0.125 1:-0.71995 2:-0.612579 3:0.350867 
0.125 1:-0.183888 2:-0.499089 3:-0.427485 
0.125 1:-0.233667 2:-0.643519 3:-0.427486 
0.125 1:-0.323187 2:-0.540921 3:-0.372142 
0.125 1:-0.289365 2:-0.439815 3:-0.372142 
0.125 1:-0.223529 2:-0.405229 3:-0.372142 
-0.125 1:-0.501192 2:-0.504026 3:-0.216946 
-0.125 1:-0.401505 2:-0.655018 3:-0.216946 
-0.125 1:-0.166316 2:-0.426901 3:-0.216945 
-0.125 1:-0.261632 2:-0.451818 3:-0.396414 
-0.125 1:-0.520792 2:-0.322332 3:0.0626001 
-0.125 1:-0.354667 2:-0.775926 3:-0.646835 
-0.125 1:-0.0998068 2:-0.349034 3:-0.216946 
-0.125 1:0.00769716 2:-0.433228 3:-0.216946 
-0.125 1:-0.489305 2:-0.507594 3:-0.216945 
-0.125 1:-0.423524 2:-0.617866 3:-0.216946 
-0.125 1:-0.200601 2:-0.614615 3:-0.216946 
-0.125 1:-0.569778 2:-0.746502 3:-0.216945 
-0.125 1:-0.660351 2:-1 3:0.248855 
-0.125 1:-0.651171 2:-0.653153 3:0.248855 
-0.125 1:-0.496758 2:-0.738362 3:-0.563352 
-0.125 1:-0.54087 2:-0.695652 3:-0.230506 
-0.125 1:-0.230978 2:-0.81463 3:-0.412957 
-0.125 1:-0.398318 2:-0.843591 3:-0.412955 
-0.125 1:-0.243624 2:-0.765309 3:-0.644903 
-0.125 1:-0.242946 2:-0.84409 3:-0.644901 
-0.125 1:-0.358988 2:-0.904514 3:-0.644901 
-0.125 1:-0.197051 2:-0.829152 3:-0.644903 
-0.125 1:-0.408444 2:-0.755556 3:-0.470142 
-0.125 1:-0.545928 2:-0.689884 3:-0.431343 
-0.125 1:-0.408444 2:-0.821759 3:-0.715703 
-0.125 1:-0.578648 2:-0.500191 3:-0.216946 
-0.125 1:-0.4849 2:-0.536145 3:-0.216946 
-0.125 1:-0.107986 2:-0.416003 3:-0.216945 
-0.125 1:-0.308571 2:0.0185185 3:0.248855 
-0.125 1:-0.0279917 2:-0.468599 3:-0.216946 
-0.125 1:0.0311111 2:-0.505051 3:-0.216946 
-0.125 1:-0.452263 2:-0.656722 3:-0.216945 
-0.125 1:-0.618991 2:-0.558016 3:-0.484779 
-0.125 1:-0.252698 2:-0.648148 3:-0.757425 
-0.125 1:-0.202824 2:-0.823856 3:-0.757426 
-0.125 1:-0.623689 2:-0.808933 3:-0.0955187 
-0.125 1:-0.544361 2:-0.778098 3:-0.356627 
-0.125 1:-0.487831 2:-0.762346 3:0.0626062 
-0.125 1:-0.360056 2:-0.714219 3:-0.609939 
-0.125 1:-0.704936 2:-0.646673 3:-0.272235 
-0.125 1:-0.593388 2:-0.513098 3:-0.672057 
-0.125 1:-0.446857 2:-0.663889 3:-0.746787 
-0.125 1:-0.533926 2:-0.524691 3:-0.746786 
-0.125 1:-0.619213 2:-0.521739 3:-0.746786 
-0.125 1:-0.0795402 2:-0.463602 3:-0.919586 
-0.125 1:-0.338578 2:-0.620806 3:-0.396414 
-0.125 1:-0.418619 2:-0.537538 3:-0.907801 
-0.125 1:-0.453949 2:-0.703846 3:-0.853535 
-0.125 1:-0.759367 2:-0.854991 3:0.45466 
-0.125 1:-0.488121 2:-0.757633 3:-0.408099 
-0.125 1:-0.318672 2:-0.812528 3:-0.840906 
-0.125 1:-0.817358 2:-0.838574 3:0.652637 
-0.125 1:-0.594362 2:-0.56 3:-0.470223 
-0.125 1:-0.558456 2:-0.549708 3:-0.470223 
-0.125 1:-0.613797 2:-0.735736 3:-0.259625 
-0.125 1:-0.678619 2:-0.522798 3:-0.530351 
-0.125 1:-0.344922 2:-0.669836 3:-0.614801 
-0.125 1:-0.38367 2:-0.631502 3:-0.614798 
-0.125 1:-0.485497 2:-0.766135 3:-0.638034 
-0.125 1:-0.554601 2:-0.685072 3:-0.638034 
-0.125 1:-0.332414 2:-0.822989 3:-0.685618 
-0.125 1:-0.923175 2:-1 3:0.652637 
-0.125 1:-0.346411 2:-0.708126 3:-0.609939 
-0.125 1:-0.495147 2:-0.747795 3:-0.609937 
-0.125 1:-0.280327 2:-0.517702 3:-0.396414 
-0.125 1:-0.467368 2:-0.692982 3:-0.43426 
-0.125 1:-0.572091 2:-0.601354 3:-0.761374 
-0.125 1:-0.617069 2:-0.766969 3:-0.211092 
-0.125 1:-0.545435 2:-0.802412 3:-0.211093 
-0.125 1:-0.497696 2:-0.616242 3:-0.484779 
-0.125 1:-0.663405 2:-0.907674 3:0.0973956 
-0.125 1:-0.428969 2:-0.781095 3:-0.544953 
-0.125 1:-0.39187 2:-0.886179 3:-0.54495 
-0.125 1:-0.508582 2:-0.778736 3:-0.356627 
-0.125 1:-0.41209 2:-0.746234 3:-0.757426 
-0.125 1:-0.623163 2:-0.666937 3:-0.394476 
-0.125 1:-0.569778 2:-0.729825 3:-0.300412 
-0.125 1:-0.671864 2:-0.564972 3:-0.530351 
-0.125 1:-0.607568 2:-0.653153 3:-0.412955 
-0.125 1:-0.308571 2:-0.687654 3:-0.645902 
-0.125 1:-0.142564 2:-0.491453 3:-0.216946 
-0.125 1:-0.0231193 2:-0.502888 3:-0.216946 
-0.125 1:-0.383796 2:-0.673225 3:-0.216945 
-0.125 1:-0.378432 2:-0.684923 3:-0.396414 
-0.125 1:-0.432776 2:-0.667147 3:-0.714709 
-0.125 1:-0.0384106 2:-0.660044 3:-0.713657 
-0.125 1:-0.080181 2:-0.651584 3:-0.62646 
-0.125 1:-0.402008 2:-0.405405 3:-0.216946 
-0.125 1:-0.624988 2:-0.709981 3:-0.216945 
-0.125 1:-0.208107 2:-0.216524 3:-0.216946 
-0.125 1:-0.413861 2:-0.738409 3:-0.828274 
-0.125 1:-0.350024 2:-0.692246 3:-0.828276 
-0.125 1:-0.497427 2:-0.690996 3:-0.791357 
-0.125 1:-0.507509 2:-0.594737 3:-0.773966 
-0.125 1:-0.270159 2:-0.0833333 3:0.248855 
-0.125 1:-0.408947 2:-0.696158 3:-0.396414 
-0.125 1:-0.352311 2:-0.781427 3:-0.556527 
-0.125 1:-0.394119 2:-0.813197 3:-0.765196 
-0.125 1:-0.720769 2:-0.712073 3:-0.136311 
-0.125 1:-0.36473 2:-0.749838 3:-0.769066 
-0.125 1:-0.587139 2:-0.966317 3:0.072291 
-0.125 1:-0.561991 2:-0.72901 3:-0.0295035 
-0.125 1:-0.45555 2:-0.787703 3:-0.563359 
-0.125 1:-0.296752 2:-0.533832 3:-0.923373 
-0.125 1:-0.482967 2:-0.669964 3:-0.923373 
-0.09340974016631351 1:-0.573087 2:-0.72359 3:-0.466336 
-0.125 1:-0.49877 2:-0.750809 3:-0.563352 
-0.125 1:-0.351579 2:-0.795322 3:-0.57118 
-0.125 1:-0.406135 2:-0.755056 3:-0.571183 
-0.125 1:-0.0983218 2:-0.407236 3:-0.690447 
-0.125 1:-0.687742 2:-0.839008 3:0.133517 
-0.125 1:-0.391046 2:-0.853214 3:-0.54495 
-0.125 1:-0.424483 2:-0.849903 3:-0.544953 
-0.125 1:-0.402469 2:-0.841564 3:-0.54495 
-0.125 1:-0.552106 2:-0.78187 3:-0.356627 
-0.125 1:-0.333431 2:-0.906155 3:-0.571183 
-0.125 1:-0.421635 2:-0.77804 3:-0.739038 
-0.125 1:-0.441155 2:-0.788316 3:-0.788458 
-0.125 1:-0.465583 2:-0.786111 3:-0.611798 
-0.125 1:-0.363837 2:-0.908822 3:-0.671085 
-0.125 1:0.134265 2:-0.850558 3:-1 
-0.125 1:-0.257354 2:-0.592593 3:-0.923373 
-0.125 1:-0.433153 2:-0.63003 3:-0.923373 
-0.125 1:-0.422252 2:-0.566441 3:-0.923373 
-0.125 1:-0.522817 2:-0.758998 3:-0.495442 
-0.125 1:-0.438453 2:-0.787293 3:-0.495442 
-0.125 1:-0.391195 2:-0.769392 3:-0.715703 
-0.125 1:-0.289465 2:-0.468048 3:-0.804962 
-0.125 1:-0.280803 2:-0.845382 3:-0.891387 
-0.125 1:-0.490526 2:-0.684795 3:-0.43426 
-0.125 1:-0.299745 2:-0.344681 3:-0.923373 
-0.125 1:-0.553231 2:-0.50641 3:-0.923373 
-0.125 1:-0.539048 2:-0.250896 3:0.0626001 
-0.125 1:-0.549767 2:-0.764858 3:-0.318817 
-0.125 1:-0.341789 2:-0.677507 3:-0.66523 
-0.125 1:-0.206057 2:-0.811076 3:-0.665226 
-0.125 1:-0.349006 2:-0.864912 3:-0.665227 
-0.125 1:-0.425763 2:-0.854991 3:-0.611797 
-0.125 1:-0.495833 2:-0.65625 3:-0.907801 
-0.125 1:-0.692226 2:-0.605128 3:-0.400332 
-0.125 1:-0.472 2:-0.494444 3:-0.923373 
-0.125 1:-0.54087 2:-0.492754 3:-0.923373 
-0.125 1:-0.396179 2:-0.59974 3:-0.923373 
-0.125 1:-0.201216 2:-0.665581 3:-0.794313 
-0.125 1:-0.243033 2:-0.797262 3:-0.794312 
-0.125 1:0.0328536 2:-0.554177 3:-0.919586 
-0.125 1:-0.457463 2:-0.735005 3:0.248855 
-0.125 1:-0.314738 2:-0.628019 3:-0.645902 
-0.125 1:-0.336359 2:-0.817967 3:-0.508056 
-0.02567195626743129 1:-0.915088 2:-0.935673 3:0.410986 
-0.125 1:-0.150273 2:-0.360617 3:0.0626001 
-0.125 1:-0.0796793 2:-0.735395 3:-0.216946 
-0.125 1:-0.376419 2:-0.865418 3:-0.216945 
-0.125 1:-0.618667 2:-0.805556 3:-0.0955187 
-0.125 1:-0.439465 2:-0.695125 3:-0.412957 
-0.125 1:-0.494815 2:-0.740741 3:-0.412955 
-0.125 1:-0.44435 2:-0.741524 3:-0.736053 
-0.125 1:-0.499742 2:-0.436262 3:-0.914621 
-0.125 1:-0.480063 2:-0.73644 3:-0.563359 
-0.125 1:-0.827451 2:-0.816993 3:0.257719 
-0.125 1:-0.276262 2:-0.600208 3:-0.626461 
