svm_type c_svc
kernel_type rbf
gamma 8
nr_class 2
total_sv 472
rho -2.61266
label 1 -1
nr_sv 283 189
SV
6.855127277618061 1:-0.321955 2:-0.83812 3:-0.00733365 4:-0.350464 5:0.995611 6:0.984589 7:0.00868209 
29.11727485005144 1:-0.40627 2:-0.632411 3:-0.193353 4:-0.618753 5:0.98877 6:0.96116 7:-0.503852 
512 1:-0.437513 2:-0.909884 3:-0.318141 4:-0.915644 5:0.974481 6:0.951161 7:-0.523915 
217.9578733079336 1:-0.372961 2:-0.934183 3:-0.12169 4:-0.882695 5:0.974978 6:0.946638 7:-0.523913 
1.515208318557366 1:-0.198112 2:-0.755906 3:0.285161 4:-0.83792 5:0.969999 6:0.980568 7:-0.105452 
512 1:-0.513462 2:-0.918848 3:-0.397323 4:-0.940693 5:0.951932 6:0.881049 7:-0.503268 
75.0174364838272 1:-0.104187 2:-0.655556 3:0.729053 4:-0.0139509 5:0.998175 6:0.996727 7:-0.503268 
105.6341352379072 1:-0.212226 2:-0.304933 3:0.357468 4:-0.0723942 5:0.989102 6:0.994992 7:-0.415957 
22.36677590254378 1:0.768051 2:-0.735043 3:0.929544 4:-0.51051 5:0.99811 6:0.992495 7:-0.852009 
23.39028732713822 1:-0.0680446 2:-0.671088 3:0.720282 4:-0.351006 5:0.995791 6:0.99646 7:-0.586905 
15.09016483873529 1:-0.387672 2:-0.738397 3:0.783263 4:-0.887169 5:0.993267 6:0.962274 7:-0.427984 
6.697633046447261 1:-0.219977 2:-0.848039 3:0.355853 4:-0.88403 5:0.986204 6:0.921656 7:-0.771942 
22.01944659259344 1:0.463842 2:-0.744646 3:0.752963 4:-0.546843 5:0.994189 6:0.996026 7:-0.970908 
12.51302715340307 1:-0.187989 2:-0.79402 3:0.617811 4:-0.743664 5:0.998446 6:0.995832 7:-0.590564 
0.2264100286545405 1:-0.674425 2:-0.841432 3:0.445267 4:-0.819668 5:0.987799 6:0.992488 7:-0.499578 
6.087144235229104 1:0.213722 2:-0.793792 3:0.896053 4:-0.602415 5:0.992683 6:0.99268 7:-0.821672 
28.47358573347768 1:-0.617405 2:-0.830601 3:0.110274 4:-0.948744 5:0.978963 6:0.947632 7:-0.220559 
6.22131972871385 1:0.267438 2:-0.187773 3:0.587636 4:0.517497 5:0.992583 6:0.995421 7:0.131807 
5.520406604430209 1:-0.21552 2:-0.826331 3:0.453474 4:-0.640146 5:0.993589 6:0.993198 7:-0.419585 
10.09176437660758 1:-0.148683 2:-0.709375 3:0.497487 4:-0.555238 5:0.996306 6:0.997777 7:-0.419585 
512 1:-0.520127 2:-0.918848 3:-0.400266 4:-0.940693 5:0.95187 6:0.881049 7:-0.503269 
512 1:-0.508284 2:-0.866953 3:-0.0789081 4:-0.934754 5:0.956916 6:0.942077 7:-0.503268 
0.9936708563379941 1:-0.142675 2:-0.472789 3:0.818095 4:-0.860921 5:0.988248 6:0.986423 7:-0.10045 
124.1348840071048 1:-0.270204 2:-0.848534 3:0.419133 4:-0.505348 5:0.987574 6:0.997514 7:-0.47174 
16.08920863825063 1:-0.535079 2:-0.730435 3:-0.0632642 4:-0.636625 5:0.9575 6:0.914097 7:-0.645718 
48.82966242617714 1:-0.28048 2:-0.663043 3:0.7016 4:0.0998315 5:0.99298 6:0.998869 7:-0.506761 
11.06547094148748 1:-0.18655 2:-0.871369 3:0.410837 4:-0.640798 5:0.977412 6:0.971883 7:-0.408694 
17.87016824645182 1:-0.314336 2:-0.805846 3:0.338247 4:-0.595746 5:0.988111 6:0.976222 7:-0.541439 
15.84955543113321 1:-0.302467 2:-0.716895 3:0.50332 4:-0.0335639 5:0.975134 6:0.984731 7:-0.633036 
4.101677255938317 1:-0.425098 2:-0.666667 3:0.634086 4:-0.719782 5:0.976096 6:0.990274 7:-0.363695 
54.77085740474462 1:-0.113617 2:-0.77037 3:0.731116 4:-0.966552 5:0.998391 6:0.993126 7:-0.503269 
11.95412207674829 1:-0.444237 2:-0.725664 3:0.0787656 4:-0.568957 5:0.897042 6:0.832368 7:-0.503268 
250.8069025432749 1:-0.497414 2:-0.838961 3:-0.573979 4:-0.918317 5:0.941517 6:0.885384 7:-0.503268 
14.79445076755207 1:-0.379915 2:-0.733524 3:-0.283685 4:-0.719365 5:0.912738 6:0.81628 7:-0.503268 
0.1985443606484926 1:-0.260138 2:-0.205128 3:0.537354 4:0.560481 5:0.992883 6:0.998469 7:-0.383046 
68.23794600182593 1:-0.450201 2:-0.89701 3:-0.0282196 4:-0.88053 5:0.992135 6:0.729752 7:-0.503269 
7.599294986094411 1:-0.647184 2:-0.651685 3:-0.024066 4:-0.732277 5:0.833239 6:0.922996 7:-0.100448 
21.53906643269834 1:0.419881 2:-0.761538 3:0.922691 4:-0.646978 5:0.992193 6:0.985516 7:-0.955695 
9.806208565470627 1:-0.119086 2:-0.876 3:0.443297 4:-0.726047 5:0.992942 6:0.999708 7:-0.418901 
44.52703245708994 1:-0.455896 2:-0.875 3:-0.28926 4:-0.935018 5:0.919347 6:0.995332 7:-0.30374 
13.78654760876144 1:0.492479 2:-0.251724 3:0.886515 4:0.466107 5:0.997759 6:0.998859 7:0.149971 
11.6443295257337 1:-0.00695667 2:-0.871369 3:-0.068548 4:-0.868197 5:0.948118 6:0.960907 7:-0.216358 
55.15617327954639 1:-0.117028 2:-0.604255 3:0.587823 4:-0.531314 5:0.991104 6:0.990553 7:-0.517824 
46.60526305369627 1:-0.0631951 2:-0.632047 3:0.432453 4:-0.016335 5:0.993967 6:0.99936 7:-0.196943 
0.9430074909004332 1:-0.0452522 2:-0.254808 3:0.330295 4:-0.419162 5:0.981666 6:0.984587 7:-0.576064 
10.89702184921956 1:-0.322289 2:-0.553957 3:0.482458 4:-0.896937 5:0.999297 6:0.906785 7:-0.306806 
43.99450941509367 1:-0.437513 2:-0.879845 3:0.078486 4:-0.928313 5:0.96238 6:0.993513 7:-0.738622 
9.333807239998936 1:-0.451819 2:-0.703349 3:-0.198963 4:-0.961123 5:0.936787 6:0.950545 7:-0.258276 
142.8573328308308 1:-0.0595273 2:-0.427441 3:0.499257 4:-0.088511 5:0.994278 6:0.996413 7:-0.267973 
12.40660475693509 1:0.477305 2:-0.617284 3:0.912136 4:-0.662756 5:0.999113 6:0.997524 7:-0.959973 
35.20776472819424 1:0.0496642 2:-0.274854 3:0.632666 4:0.135153 5:0.996108 6:0.991751 7:-0.25828 
2.7712169336321 1:-0.258341 2:-0.326087 3:0.50925 4:0.320788 5:0.992526 6:0.948456 7:-0.34127 
26.07274684315942 1:-0.350735 2:-1 3:-0.424333 4:-1 5:0.967936 6:0.814742 7:0.00868265 
2.086075900492201 1:0.138288 2:-0.917989 3:0.0952164 4:-0.961282 5:0.957886 6:0.975328 7:0.00868337 
1.395691933147882 1:-0.604732 2:-0.575342 3:0.364032 4:-0.801296 5:0.991045 6:0.941788 7:-0.333382 
71.74021314659937 1:-0.501088 2:-0.812121 3:-0.0421638 4:-0.502409 5:0.951598 6:0.865793 7:-0.465031 
9.075751364588962 1:-0.527895 2:-1 3:0.307969 4:-1 5:0.992317 6:0.814742 7:-0.419585 
79.34994381048269 1:-0.496218 2:-0.73617 3:-0.150256 4:-0.503501 5:0.954706 6:0.940754 7:-0.463813 
51.30785000862609 1:-0.188234 2:-0.400966 3:0.400963 4:0.0702771 5:0.994394 6:0.984752 7:-0.471739 
0.6429974099681318 1:-0.163459 2:-0.446429 3:0.297069 4:-0.108388 5:0.995387 6:0.999454 7:-0.552352 
512 1:-0.760377 2:-1 3:-0.677485 4:-1 5:0.956047 6:0.814742 7:-0.203087 
200.7409673582132 1:-0.395976 2:-0.841837 3:-0.426306 4:-0.829712 5:0.945933 6:0.960728 7:-0.499586 
4.977300405604414 1:-0.424227 2:-0.780919 3:-0.0859522 4:-0.260523 5:0.974421 6:0.926575 7:0.0183768 
365.5758980594047 1:-0.407667 2:-0.873469 3:-0.0868202 4:-0.674865 5:0.956143 6:0.955288 7:-0.560327 
9.234525621007945 1:-0.380251 2:-0.796053 3:0.639006 4:-0.937583 5:0.994815 6:0.989599 7:-0.306807 
0.8661868757528174 1:-0.0144539 2:-0.666667 3:0.679169 4:-0.949237 5:0.995893 6:0.980027 7:-0.100448 
2.079440577098676 1:-0.378443 2:-0.56338 3:0.819485 4:-0.912054 5:0.978047 6:0.992515 7:-0.10045 
172.2337047706783 1:-0.145273 2:-0.446429 3:0.492456 4:-0.0827537 5:0.995142 6:0.998573 7:-0.552352 
37.54243452426013 1:-0.687608 2:-1 3:-0.354306 4:-1 5:0.984341 6:0.814742 7:-0.171521 
301.578312548089 1:-0.474197 2:-1 3:-0.104909 4:-1 5:0.999807 6:0.814742 7:-0.456513 
5.396862943285682 1:-0.52708 2:-0.842239 3:0.0469603 4:-0.474838 5:0.97807 6:0.97251 7:-0.633035 
233.5047487367637 1:-0.462007 2:-0.815476 3:-0.329786 4:-0.794337 5:0.968103 6:0.987494 7:-0.633036 
16.72202041562999 1:-0.5013 2:-0.840206 3:-0.154909 4:-0.719372 5:0.9951 6:0.998701 7:-0.633035 
30.26989238903459 1:-0.533655 2:-0.846535 3:-0.140692 4:-0.749408 5:0.999758 6:0.996538 7:-0.633034 
14.81884985153738 1:-0.565147 2:-0.829201 3:-0.293799 4:-0.776856 5:0.996305 6:0.992012 7:-0.633035 
8.160182993889839 1:-0.355127 2:-0.796053 3:0.0656938 4:-0.734739 5:0.989637 6:0.999002 7:-0.633034 
0.8283349744516589 1:-0.650666 2:-0.855814 3:0.243569 4:-0.522309 5:0.972292 6:0.95667 7:-0.600264 
23.35762179283727 1:-0.0300975 2:-0.384921 3:0.699515 4:-0.441812 5:0.991501 6:0.996687 7:0.0183766 
18.04216675624478 1:-0.5013 2:-0.680412 3:-0.242128 4:-0.302087 5:0.981658 6:0.979386 7:0.0183777 
3.47378098557596 1:0.0617337 2:-0.47234 3:-0.324621 4:-0.775579 5:0.991737 6:0.992325 7:-0.364372 
0.9871968460788385 1:0.0471955 2:-0.681234 3:0.653642 4:-0.531607 5:0.990869 6:0.966611 7:-0.88534 
390.8582043376652 1:-0.0984677 2:-0.491803 3:0.558918 4:0.0965594 5:0.99208 6:0.992614 7:-0.325556 
512 1:-0.51207 2:-0.771499 3:-0.296978 4:-0.701028 5:0.935218 6:0.962019 7:-0.471739 
8.793284587594162 1:-0.328602 2:-0.75718 3:-0.0262387 4:-0.33162 5:0.999065 6:0.996181 7:0.00868268 
431.6359999360504 1:0.0883639 2:-0.408397 3:0.704609 4:0.077667 5:0.996989 6:0.998767 7:-0.258276 
49.25417061688025 1:-0.468491 2:-0.840206 3:0.156214 4:-0.419882 5:0.971124 6:0.989488 7:-0.833836 
512 1:0.0363091 2:-0.376884 3:0.652582 4:0.0413155 5:0.998831 6:0.995038 7:-0.221172 
88.09945861113106 1:-0.487203 2:-0.671378 3:-0.24672 4:-0.788443 5:0.999993 6:0.996063 7:-0.522649 
0.996818315755759 1:0.324668 2:0.0295203 3:0.884499 4:0.528205 5:0.998267 6:0.995848 7:0.35685 
7.324700971978358 1:0.116442 2:-0.807453 3:-0.132055 4:-0.827127 5:0.98831 6:0.98375 7:-0.577883 
11.88178037988662 1:-0.335597 2:-0.935282 3:0.321425 4:-0.710949 5:0.978117 6:0.980743 7:-0.942967 
7.534165278944123 1:-0.367626 2:-0.866091 3:-0.339918 4:-0.80279 5:0.987472 6:0.996333 7:-0.358327 
1.321212259046013 1:-0.588272 2:-0.79538 3:-0.144003 4:-0.722553 5:0.857497 6:0.904778 7:-0.239404 
13.91062402009275 1:-0.0721757 2:-0.932755 3:0.12362 4:-0.919582 5:0.989272 6:0.992425 7:-0.53241 
0.1421226290036109 1:0.179566 2:-0.928899 3:-0.025026 4:-0.935943 5:0.995303 6:0.991768 7:-0.53241 
97.81149643670949 1:-0.189439 2:-0.746939 3:0.767596 4:-0.491474 5:0.998075 6:0.990247 7:-0.438934 
12.61165545122689 1:0.0975213 2:-0.689223 3:0.741732 4:-0.662358 5:0.991073 6:0.981296 7:-0.990906 
25.351770305923 1:-0.125165 2:-0.453744 3:0.478781 4:-0.330947 5:0.997608 6:0.996047 7:-0.596039 
143.7023210519702 1:-0.188358 2:-0.583893 3:0.507087 4:-0.342648 5:0.996122 6:0.999536 7:-0.596039 
18.12927973736086 1:-0.226438 2:-0.817109 3:0.199182 4:-0.495808 5:0.991446 6:0.994448 7:-0.748247 
61.78314342888546 1:-0.612039 2:-1 3:-0.595956 4:-1 5:0.992706 6:0.814742 7:-0.203673 
6.210886761151526 1:-0.437513 2:-0.879845 3:0.765006 4:-0.928313 5:0.994848 6:0.993513 7:-0.738622 
14.06937751839037 1:-0.368896 2:-0.802966 3:0.536948 4:-0.671612 5:0.992666 6:0.977381 7:-0.54144 
19.97205178223054 1:-0.50432 2:-0.725664 3:-0.235275 4:-0.492966 5:0.982329 6:0.957081 7:-0.0022378 
60.07677700583633 1:0.260007 2:-0.209184 3:0.820646 4:0.106552 5:0.999422 6:0.99899 7:-0.248484 
41.04536145107018 1:0.0685742 2:-0.434307 3:0.625468 4:-0.00846397 5:0.990919 6:0.993583 7:-0.473541 
60.00684601503209 1:-0.0579043 2:-0.525994 3:0.467009 4:-0.119692 5:0.98358 6:0.988251 7:-0.473541 
13.50648022588083 1:-0.347824 2:-0.541872 3:-0.472142 4:-0.838711 5:0.994493 6:0.997421 7:-0.364371 
16.38995134200661 1:-0.188034 2:-0.664865 3:0.426136 4:-0.920249 5:0.97957 6:0.990395 7:-0.36437 
12.76773042810843 1:0.362645 2:-0.78169 3:0.819331 4:-0.737971 5:0.994659 6:0.991281 7:-0.959973 
30.15942722253013 1:-0.575668 2:-0.808642 3:-0.528755 4:-0.889925 5:0.984845 6:0.800712 7:-0.320689 
5.807038306129859 1:-0.349482 2:-0.726872 3:0.535955 4:-0.928681 5:0.995545 6:0.988495 7:0.0402159 
2.659987576590609 1:0.305022 2:-0.707547 3:0.647004 4:-0.650168 5:0.996252 6:0.991968 7:-0.907195 
56.44765982056649 1:-0.0514924 2:-0.478992 3:0.646094 4:-0.431647 5:0.998242 6:0.981632 7:-0.457164 
2.690638520228008 1:-0.507063 2:-0.814371 3:0.159648 4:-0.549805 5:0.998855 6:0.776727 7:-0.714304 
231.9330160056235 1:-0.188234 2:-0.475845 3:0.375141 4:-0.175803 5:0.993425 6:0.993595 7:-0.471738 
357.9899537258727 1:-0.217465 2:-0.396104 3:0.303674 4:-0.0681805 5:0.98555 6:0.989025 7:-0.471738 
6.980192924465519 1:-0.0452522 2:-0.192708 3:0.522651 4:-0.15941 5:0.995031 6:0.998814 7:-0.599696 
23.53944760643992 1:-0.353152 2:-0.747967 3:0.162082 4:-0.285405 5:0.972999 6:0.9504 7:-0.751901 
22.74772339241885 1:-0.141467 2:-0.639535 3:0.618394 4:0.0534292 5:0.999462 6:0.994051 7:-0.325558 
75.19980799347815 1:-0.137778 2:-0.405751 3:0.638223 4:-0.0701243 5:0.992357 6:0.994536 7:-0.326156 
2.69846169116126 1:-0.375695 2:-0.881226 3:0.395598 4:-0.563337 5:0.991207 6:0.987233 7:-0.992703 
17.71075830842467 1:-0.163082 2:-0.463668 3:0.689766 4:-0.411899 5:0.999125 6:0.999652 7:-0.590564 
1.684831092322836 1:-0.224182 2:-0.334764 3:0.628705 4:-0.421424 5:0.998332 6:0.998525 7:-0.590564 
19.83559279106367 1:-0.298131 2:-0.776577 3:0.598166 4:-0.198326 5:0.947031 6:0.92572 7:-0.881132 
7.959344171513906 1:0.0203789 2:-0.879377 3:0.76087 4:-0.551835 5:0.997994 6:0.985142 7:-0.625752 
56.28045807658633 1:-0.27631 2:-0.787671 3:-0.20389 4:-0.802152 5:0.992573 6:0.988344 7:-0.542106 
15.26461542582837 1:-0.292023 2:-0.502674 3:0.692709 4:-0.892557 5:0.995549 6:0.995751 7:-0.427984 
19.65731144563518 1:-0.14643 2:-0.462428 3:0.452913 4:-0.0723231 5:0.995861 6:0.987752 7:-0.273421 
4.851081757974502 1:-0.77815 2:-1 3:-0.631625 4:-1 5:0.972916 6:0.814742 7:-0.203087 
512 1:-0.760377 2:-1 3:-0.677485 4:-1 5:0.956047 6:0.814742 7:-0.203089 
128.0605085693796 1:-0.761313 2:-1 3:-0.890434 4:-1 5:0.935008 6:0.814742 7:-0.203087 
51.26981166462612 1:-0.797748 2:-1 3:-0.569331 4:-1 5:0.776142 6:0.814742 7:-0.203086 
55.00648327789817 1:-0.627156 2:-0.935146 3:-0.538377 4:-0.904688 5:0.911732 6:0.652371 7:-0.506926 
2.059451261248125 1:0.150221 2:-0.370558 3:0.887889 4:-0.275088 5:0.998706 6:0.998258 7:-0.000378038 
79.95626200944619 1:-0.26129 2:-0.830292 3:0.152108 4:-0.750112 5:0.987224 6:0.941763 7:-0.47174 
33.4718235717846 1:-0.348699 2:-0.855814 3:0.232608 4:-0.871071 5:0.999149 6:0.94453 7:-0.471739 
84.98376629257163 1:0.153049 2:-0.246201 3:0.691423 4:0.121527 5:0.995206 6:0.989595 7:-0.25828 
0.4036750476847228 1:-0.474279 2:-0.542773 3:0.496187 4:-0.825579 5:0.985966 6:0.973825 7:-0.239403 
8.412357096053629 1:0.551701 2:-0.816568 3:0.853053 4:-0.58451 5:0.991353 6:0.992043 7:-1 
5.952841747915713 1:-0.473491 2:-0.824363 3:0.0758305 4:-0.653254 5:0.994607 6:0.990733 7:-0.633034 
6.201942981632805 1:-0.323119 2:-0.812689 3:0.0256777 4:-0.16467 5:0.984529 6:0.999976 7:-0.741576 
1.167371197694157 1:-0.0452522 2:-0.254808 3:0.330295 4:-0.419162 5:0.981666 6:0.984587 7:-0.576064 
102.3252247587839 1:-0.0545216 2:-0.774272 3:0.447157 4:-0.458266 5:0.993655 6:0.991603 7:-0.47174 
14.35104392020387 1:0.156455 2:-0.235915 3:0.858277 4:0.0836098 5:0.999695 6:0.998628 7:-0.438933 
59.93713299015486 1:-0.049652 2:-0.714286 3:0.785381 4:-0.469172 5:0.998876 6:0.989442 7:-0.438934 
3.978764647916111 1:0.0144706 2:-0.760925 3:0.519034 4:-0.539403 5:0.995676 6:0.966606 7:-0.885341 
15.04225538692444 1:0.158178 2:-0.270588 3:0.765527 4:0.324415 5:0.998545 6:0.998792 7:-0.295151 
56.6784139028929 1:0.492479 2:-0.251724 3:0.886515 4:0.466107 5:0.997759 6:0.998859 7:0.149971 
84.88248651165719 1:0.392917 2:-0.213768 3:0.89059 4:0.339703 5:0.998731 6:0.999102 7:0.149972 
1.564308519121938 1:-0.573846 2:-0.733906 3:0.153997 4:-0.920137 5:0.981212 6:0.84337 7:-0.306806 
29.57600303796348 1:-0.102491 2:-0.925659 3:0.16432 4:-0.836657 5:0.991008 6:0.990518 7:-0.523914 
153.6842862322768 1:-0.326726 2:-0.931111 3:-0.216264 4:-0.862922 5:0.992277 6:0.999017 7:-0.523913 
2.849103054482478 1:-0.608309 2:-0.816568 3:-0.643614 4:-0.835905 5:0.900972 6:0.901437 7:-0.332209 
8.775300125174491 1:0.175591 2:-0.591029 3:0.618736 4:-0.310831 5:0.999747 6:0.999216 7:0.0899638 
1.925669019906634 1:0.189903 2:-0.63577 3:0.818291 4:-0.611278 5:0.997905 6:0.999912 7:-0.990907 
0.8287528027329505 1:0.892425 2:-0.762452 3:0.691254 4:-0.713223 5:0.989739 6:0.99947 7:-0.747721 
2.028524961211169 1:-0.40242 2:-0.816568 3:0.00649117 4:-0.828984 5:0.975464 6:0.991287 7:-0.615432 
0.1281456628507444 1:0.511684 2:-0.80625 3:0.724813 4:-0.602827 5:0.987308 6:0.986882 7:-0.907195 
17.12383331618253 1:-0.476356 2:-0.780142 3:-0.164279 4:-0.905137 5:0.968772 6:0.99641 7:0.0856984 
130.214141183314 1:-0.074184 2:-0.632411 3:0.608431 4:-0.302621 5:0.998213 6:0.987601 7:-0.45471 
4.20180875834899 1:-0.416543 2:-0.900641 3:0.396 4:-0.414101 5:0.950319 6:0.761492 7:-0.599717 
2.29839960930263 1:0.509117 2:-0.25 3:0.840478 4:0.351721 5:0.998908 6:0.999589 7:0.149971 
84.70756913908171 1:0.392917 2:-0.213768 3:0.765128 4:0.339703 5:0.995276 6:0.999102 7:0.149971 
32.99452068520321 1:0.101321 2:-0.684478 3:0.631179 4:-0.428974 5:0.995157 6:0.999595 7:-0.612405 
92.73685905038425 1:-0.144546 2:-0.834667 3:0.17081 4:-0.671839 5:0.974906 6:0.959625 7:-0.330957 
48.11339958736905 1:-0.202328 2:-0.334764 3:0.459938 4:-0.133071 5:0.993989 6:0.993623 7:-0.590564 
73.03214605042076 1:-0.128603 2:-0.446429 3:0.467908 4:0.0272104 5:0.993304 6:0.979641 7:-0.346144 
0.9755617298045169 1:-0.074184 2:-0.735795 3:0.724694 4:-0.699158 5:0.989685 6:0.981678 7:-0.995773 
23.94070951720277 1:-0.413269 2:-0.872428 3:-0.199226 4:-0.629535 5:0.946576 6:0.980505 7:0.131807 
42.09807470236353 1:-0.625364 2:-0.906907 3:-0.510478 4:-0.928309 5:0.90734 6:0.817025 7:-0.27154 
36.54898674392651 1:-0.361118 2:-0.883895 3:0.309403 4:-0.655338 5:0.951138 6:0.935529 7:-0.597906 
4.312610289923622 1:0.313873 2:-0.715596 3:0.816542 4:-0.572938 5:0.989593 6:0.990627 7:-0.745895 
14.48928447051203 1:-0.527895 2:-1 3:0.307969 4:-1 5:0.992317 6:0.814742 7:-0.419585 
512 1:-0.505814 2:-0.771499 3:-0.101092 4:-0.701028 5:0.961026 6:0.962019 7:-0.47174 
22.97395310505285 1:-0.485592 2:-0.762148 3:0.0600135 4:-0.654551 5:0.973421 6:0.952052 7:-0.471738 
5.267443246563955 1:-0.141017 2:-0.717325 3:0.566296 4:-0.0309716 5:0.982706 6:0.941346 7:-0.457727 
0.9763596291747172 1:-0.714952 2:-0.92112 3:-0.446163 4:-0.983054 5:0.93469 6:0.998242 7:-0.347948 
0.569617137575461 1:-0.218159 2:-0.755906 3:0.0931285 4:-0.887114 5:0.972174 6:0.981981 7:-0.10605 
3.820900318253343 1:-0.00885876 2:-0.849148 3:-0.119958 4:-0.867465 5:0.987429 6:0.989478 7:-0.106049 
40.69545317966372 1:-0.248904 2:-0.764642 3:0.355268 4:-0.267134 5:0.984952 6:0.992465 7:-0.861728 
155.5907086893955 1:-0.0609038 2:-0.745902 3:0.667214 4:-0.563896 5:0.989214 6:0.9923 7:-0.537823 
0.030398652453938 1:-0.177277 2:-0.661572 3:0.648414 4:-0.368797 5:0.997851 6:0.995586 7:-0.599741 
20.76834219045802 1:-0.119086 2:-0.876 3:0.438022 4:-0.683022 5:0.993206 6:0.992454 7:-0.418901 
14.07713453487498 1:-0.199373 2:-0.220126 3:0.664175 4:0.385257 5:0.994913 6:0.998054 7:-0.267298 
75.63373900730011 1:-0.658689 2:-1 3:-0.230684 4:-1 5:0.957111 6:0.814742 7:-0.353421 
0.003650912342984116 1:-0.363501 2:-0.821839 3:0.631828 4:0.13199 5:0.986425 6:0.987169 7:-0.717301 
56.18908591766933 1:-0.749947 2:-1 3:-0.877173 4:-1 5:0.965626 6:0.814742 7:-0.203087 
7.006334239215591 1:-0.363501 2:-0.876984 3:-0.246059 4:-0.869637 5:0.898937 6:0.633951 7:-0.597863 
76.22997247040648 1:-0.120345 2:-0.738764 3:0.61547 4:0.0536654 5:0.998464 6:0.997945 7:-0.597863 
1.175092116489896 1:-0.674425 2:-0.841432 3:0.445267 4:-0.819668 5:0.987799 6:0.992488 7:-0.499578 
34.28927049657985 1:-0.177277 2:-0.661572 3:0.648414 4:-0.368797 5:0.997851 6:0.995586 7:-0.599741 
14.26962545388405 1:0.519157 2:-0.714549 3:0.778173 4:-0.696266 5:0.998342 6:0.999781 7:-0.816865 
34.65691894125407 1:-0.127088 2:-0.778571 3:0.523219 4:-0.528384 5:0.99371 6:0.994372 7:-0.992703 
512 1:-0.527666 2:-1 3:-0.0250225 4:-1 5:0.998041 6:0.814742 7:-0.620362 
9.379979027751085 1:0.335603 2:-0.390164 3:0.820197 4:0.512326 5:0.999872 6:0.997703 7:0.262833 
9.471401936954688 1:-0.0502405 2:-0.222571 3:0.492894 4:0.0901825 5:0.990147 6:0.995553 7:-0.554206 
39.85232450192367 1:-0.0207715 2:-0.481605 3:0.553974 4:-0.180433 5:0.980914 6:0.975432 7:-0.0883492 
10.40612030515871 1:-0.479651 2:-0.547445 3:-0.298716 4:-0.453475 5:0.943146 6:0.96173 7:-0.489299 
202.8582405649481 1:-0.151335 2:-0.544118 3:0.475989 4:-0.0407446 5:0.990302 6:0.993457 7:-0.489298 
9.562619014120362 1:-0.122071 2:-0.465517 3:0.347191 4:0.0400151 5:0.991341 6:0.984358 7:-0.471738 
12.87229697499979 1:-0.294738 2:-0.914127 3:0.327787 4:-0.596242 5:0.996633 6:0.944292 7:-0.438879 
25.92246384145542 1:-0.156846 2:-0.597403 3:0.558182 4:-0.114492 5:0.957605 6:0.95605 7:-0.203089 
67.04445862680193 1:-0.291716 2:-0.825188 3:0.157764 4:-0.731787 5:0.977331 6:0.927423 7:-0.47174 
512 1:-0.472569 2:-0.762148 3:-0.150947 4:-0.654551 5:0.949519 6:0.952052 7:-0.471739 
26.34443868231506 1:-0.701821 2:-0.93018 3:-0.583415 4:-0.979516 5:0.983932 6:0.987946 7:-0.347946 
45.06829285272947 1:-0.612449 2:-0.868922 3:-0.498397 4:-0.95572 5:0.951652 6:0.94463 7:-0.347948 
10.58263649139551 1:0.411033 2:-0.626506 3:0.728004 4:-0.569664 5:0.991986 6:0.992732 7:-0.916901 
2.171534076464981 1:-0.591864 2:-0.822519 3:0.74217 4:-0.16377 5:0.996288 6:0.994265 7:-0.816791 
2.084114993809086 1:0.00655579 2:-0.158915 3:0.581849 4:0.542057 5:0.992823 6:0.993935 7:0.0640107 
4.37448135438952 1:-0.556597 2:-0.825843 3:-0.094757 4:-0.876295 5:0.991997 6:0.987966 7:-0.144833 
23.21253936199588 1:-0.419995 2:-0.724852 3:-0.298366 4:-0.604316 5:0.971893 6:0.99302 7:-0.490514 
2.801485767309975 1:-0.179624 2:-0.569444 3:-0.431005 4:-0.806397 5:0.989434 6:0.988222 7:-0.216995 
1.328807140225701 1:-0.151335 2:-0.530303 3:-0.2901 4:-0.846993 5:0.987082 6:0.999563 7:-0.192724 
24.27865595712047 1:-0.542459 2:-0.730435 3:-0.0654316 4:-0.636625 5:0.955443 6:0.914097 7:-0.645717 
1.608122681767936 1:-0.399014 2:-0.467811 3:0.602941 4:0.391161 5:0.997187 6:0.99685 7:0.0463604 
512 1:-0.504626 2:-1 3:-0.0293635 4:-1 5:0.998863 6:0.814742 7:-0.620364 
0.2273208647264427 1:-0.172204 2:-0.915301 3:0.57335 4:0.117731 5:0.998271 6:0.999986 7:-0.425582 
19.16039461191361 1:0.621216 2:-0.721973 3:0.908469 4:-0.709831 5:0.999607 6:0.999133 7:-0.956314 
3.746518174850186 1:-0.259475 2:-0.914127 3:0.337752 4:-0.596242 5:0.996714 6:0.944292 7:-0.438881 
21.88620084885026 1:-0.266192 2:-0.689223 3:-0.156514 4:-0.849092 5:0.979276 6:0.994387 7:-0.517824 
31.29686603088386 1:-0.230281 2:-0.27907 3:0.333968 4:0.0119816 5:0.991052 6:0.986879 7:-0.471739 
89.11119939490095 1:-0.164473 2:-0.328173 3:0.254248 4:-0.0970793 5:0.989537 6:0.989045 7:-0.47174 
67.85048756813039 1:-0.641246 2:-0.859091 3:-0.532411 4:-0.787296 5:0.904231 6:0.810678 7:-0.328553 
3.690127812015294 1:-0.104318 2:-0.828255 3:0.489337 4:-0.964812 5:0.991722 6:0.997337 7:-0.411035 
2.578260535764635 1:-0.30503 2:-0.918635 3:0.120565 4:-0.981263 5:0.993422 6:0.986434 7:-0.411036 
6.284338198054475 1:0.490338 2:-0.054878 3:0.846325 4:0.430214 5:0.998854 6:0.999204 7:0.0305216 
82.13235688102689 1:-0.622298 2:-0.914835 3:0.193401 4:-0.954099 5:0.991559 6:0.802146 7:-0.594205 
0.0077791666511811 1:-0.598536 2:-0.876248 3:0.464717 4:-0.722302 5:0.892448 6:0.996419 7:-0.203087 
406.7936308899531 1:-0.553472 2:-1 3:-0.34307 4:-1 5:0.968077 6:0.814742 7:-0.341902 
4.323597904806353 1:-0.30503 2:-0.918635 3:0.356606 4:-0.981263 5:0.977702 6:0.986434 7:-0.411035 
156.1538527365892 1:-0.0240356 2:-0.483333 3:0.493192 4:-0.048341 5:0.984459 6:0.975178 7:-0.333466 
5.566914321480414 1:0.199311 2:-0.628743 3:0.761543 4:-0.455273 5:0.99913 6:0.999641 7:-0.560301 
78.12537177669694 1:-0.198036 2:-0.764706 3:0.157907 4:-0.496816 5:0.997871 6:0.996184 7:-0.539721 
14.31337247678532 1:-0.194111 2:-0.75 3:0.17142 4:-0.495631 5:0.996827 6:0.996262 7:-0.539719 
7.914137193275911 1:-0.129985 2:-0.870021 3:0.141324 4:-0.654433 5:0.997821 6:0.992749 7:-0.539719 
30.78487749329198 1:-0.287649 2:-0.678756 3:0.167 4:-0.524248 5:0.994617 6:0.984397 7:-0.910222 
16.44507294057343 1:-0.174909 2:-0.808642 3:0.673782 4:-0.0718762 5:0.994707 6:0.997404 7:-0.436557 
6.909567596883475 1:0.479101 2:0.0333333 3:0.800566 4:0.473549 5:0.998308 6:0.996124 7:0.308928 
22.04194521963908 1:-0.31046 2:-0.723214 3:-0.201504 4:-0.372159 5:0.982191 6:0.980768 7:0.0183796 
80.60205594906073 1:-0.374936 2:-0.907186 3:-0.323891 4:-0.91692 5:0.975324 6:0.95303 7:-0.523914 
51.54736522817709 1:-0.516261 2:-0.896667 3:-0.161966 4:-0.755166 5:0.961525 6:0.901186 7:-0.645717 
5.664354469491964 1:0.34079 2:-0.266272 3:0.785817 4:-0.0061444 5:0.997572 6:0.996733 7:-0.342532 
30.94469545157917 1:0.256024 2:-0.38 3:0.749464 4:0.162042 5:0.996547 6:0.998047 7:-0.284832 
208.0153191897478 1:-0.101414 2:-0.594771 3:0.769055 4:-0.439586 5:0.993126 6:0.992973 7:-0.586905 
41.21426488655172 1:-0.378241 2:-0.738947 3:-0.0267412 4:-0.418788 5:0.974705 6:0.951563 7:-0.751901 
13.67783698730068 1:0.207586 2:-0.142292 3:0.901748 4:0.504355 5:0.998931 6:0.996387 7:0.0632864 
3.806623307597274 1:-0.366547 2:-0.777512 3:0.56008 4:-0.559139 5:0.900361 6:0.908202 7:-0.660347 
1.79595678478991 1:-0.134856 2:-1 3:0.259291 4:-1 5:0.997888 6:0.814742 7:0.118392 
27.13530478087772 1:-0.30388 2:-0.921519 3:-0.22739 4:-0.769888 5:0.991423 6:0.956152 7:0.00868265 
14.65676769060991 1:-0.212638 2:-0.650113 3:0.724743 4:-0.0665399 5:0.994028 6:0.996327 7:-0.586905 
8.243519439462064 1:-0.442796 2:-1 3:-0.583725 4:-1 5:0.95404 6:0.814742 7:-0.216997 
85.3928386282133 1:-0.137778 2:-0.405751 3:0.638223 4:-0.0701243 5:0.992357 6:0.994536 7:-0.326156 
0.3040854444503912 1:-0.334715 2:-0.376884 3:-0.169413 4:-0.794214 5:0.937433 6:0.952265 7:-0.10545 
5.075318733051086 1:-0.664392 2:-0.859091 3:0.0205185 4:-0.787296 5:0.986247 6:0.810678 7:-0.32855 
2.545115103294405 1:-0.0636633 2:-0.231405 3:0.525824 4:0.433437 5:0.984945 6:0.986978 7:-0.355843 
41.45737428923054 1:-0.6646 2:-0.814371 3:-0.614079 4:-0.812822 5:0.98092 6:0.994013 7:-0.499578 
43.64492511870598 1:0.0349569 2:-0.495935 3:0.578251 4:-0.315665 5:0.986488 6:0.991419 7:-0.610005 
48.19131046271466 1:-0.175241 2:-0.825352 3:0.405319 4:-0.771444 5:0.983523 6:0.981297 7:-0.878648 
0.6283946634647755 1:-0.0452522 2:-1 3:0.441847 4:-1 5:0.995612 6:0.814742 7:0.11839 
61.96627876720359 1:-0.622298 2:-0.914835 3:-0.457477 4:-0.954099 5:0.953891 6:0.802146 7:-0.594205 
32.10397551788824 1:-0.277412 2:-0.656319 3:0.677426 4:0.072813 5:0.997523 6:0.998567 7:-0.586905 
14.75239330194822 1:0.375136 2:-0.818004 3:0.802562 4:-0.561836 5:0.99331 6:0.992853 7:-0.876892 
18.08153205084772 1:-0.238155 2:-0.762148 3:0.2226 4:-0.471767 5:0.998047 6:0.990848 7:-0.633036 
59.51149020146882 1:-0.354782 2:-0.787671 3:0.0242999 4:-0.565903 5:0.989593 6:0.999325 7:-0.633036 
82.6366194234399 1:0.714035 2:-0.633858 3:0.84 4:-0.515227 5:0.998275 6:0.99935 7:-0.8999 
85.16567046807384 1:-0.401948 2:-0.895973 3:0.488043 4:-0.273123 5:0.989584 6:0.986528 7:-0.726444 
19.12792600463529 1:-0.0688936 2:-0.468571 3:0.561927 4:0.411376 5:0.989694 6:0.995521 7:-0.0586171 
7.222833215769527 1:-0.213642 2:-0.764557 3:0.328723 4:-0.398849 5:0.966759 6:0.974862 7:-0.633034 
31.17703542464628 1:-0.366408 2:-0.787671 3:0.0879087 4:-0.483083 5:0.978141 6:0.977138 7:-0.633034 
145.4095052115707 1:-0.125558 2:-0.78271 3:0.46686 4:-0.496232 5:0.985104 6:0.93749 7:-0.549397 
512 1:-0.374936 2:-0.907186 3:-0.32134 4:-0.91692 5:0.975845 6:0.95303 7:-0.523915 
329.2420982815107 1:-0.326726 2:-0.931111 3:-0.216264 4:-0.862922 5:0.992277 6:0.999017 7:-0.523913 
1.355540681112504 1:-0.207913 2:-0.540741 3:0.966131 4:-0.919707 5:0.998412 6:0.997387 7:-0.148392 
77.73171738695616 1:0.110172 2:-0.27907 3:0.702928 4:0.0520451 5:0.993645 6:0.994673 7:-0.258277 
116.0375056260178 1:-0.379143 2:-0.882798 3:-0.296128 4:-0.900822 5:0.994495 6:0.979596 7:-0.629401 
2.745383260593898 1:-0.576539 2:-0.87269 3:-0.43382 4:-0.904714 5:0.966247 6:0.980833 7:-0.629403 
1.076973615132204 1:-0.168141 2:-0.386139 3:0.41048 4:-0.0442615 5:0.996908 6:0.991589 7:0.234321 
22.42988512365379 1:-0.0988189 2:-0.923267 3:0.757753 4:-0.852732 5:0.995181 6:0.989288 7:-0.408696 
5.307602850991757 1:-0.650666 2:-0.855814 3:0.243569 4:-0.522309 5:0.972292 6:0.95667 7:-0.600264 
27.7574372461351 1:-0.18324 2:-0.611529 3:0.469678 4:-0.528399 5:0.994781 6:0.97996 7:-0.457164 
26.86456520172376 1:-0.420567 2:-0.572414 3:0.732312 4:-0.713937 5:0.983666 6:0.99378 7:-0.19452 
1.057595937721249 1:-0.393106 2:-0.639535 3:0.680088 4:-0.739413 5:0.998945 6:0.988772 7:-0.19452 
-2.385710194893633 1:-0.431428 2:-0.938735 3:0.232845 4:-0.746744 5:0.994838 6:-0.617833 7:-0.770102 
-61.84669244398587 1:-0.431826 2:-0.737288 3:-0.18448 4:-0.361902 5:0.983967 6:0.986316 7:0.00868061 
-7.542815145254901 1:-0.0876341 2:-0.774818 3:0.367588 4:-0.379901 5:0.995862 6:0.979831 7:0.00868337 
-0.5784864338535768 1:-0.947324 2:-1 3:-0.98848 4:-1 5:0.0431135 6:0.814742 7:-0.358323 
-50.50838660613996 1:-0.22457 2:-0.685279 3:0.80953 4:0.029734 5:0.996429 6:0.994145 7:-0.503269 
-1.739093115151471 1:-0.843323 2:-1 3:-0.904376 4:-1 5:-1 6:0.814742 7:-0.116916 
-512 1:-0.516583 2:-1 3:-0.0393958 4:-1 5:0.992743 6:0.814742 7:-0.599699 
-66.51399135800337 1:-0.17127 2:-0.687919 3:0.403229 4:-0.384905 5:0.977124 6:0.980545 7:-0.503268 
-3.67264929851768 1:-0.41876 2:-0.501608 3:0.329131 4:-0.880135 5:0.988189 6:0.994301 7:-0.356498 
-14.1250910542342 1:-0.461822 2:-0.243902 3:0.0791676 4:-0.130528 5:0.99905 6:0.994022 7:-0.223644 
-1.590101550179331 1:-0.819575 2:-1 3:-0.68954 4:-1 5:0.111845 6:0.814742 7:-0.590567 
-3.891729444642774 1:-0.509106 2:-0.797386 3:-0.260079 4:-0.653554 5:0.916999 6:0.957917 7:-0.471738 
-276.3157266926136 1:-0.390587 2:-0.958777 3:-0.195156 4:-0.87154 5:0.953864 6:0.979264 7:-0.471738 
-315.6014085515879 1:-0.130194 2:-0.669039 3:0.782709 4:-0.483515 5:0.994467 6:0.993301 7:-0.503269 
-4.215688082379123 1:-0.682768 2:-0.900958 3:-0.392008 4:-0.866488 5:0.914912 6:0.85122 7:-0.503268 
-232.3262804617738 1:-0.502226 2:-0.900641 3:0.0657283 4:-0.932296 5:0.988322 6:0.833325 7:-0.503269 
-46.55891729779816 1:-0.000845352 2:-0.909884 3:0.772897 4:-0.686315 5:0.972103 6:0.973385 7:-0.503268 
-12.68859918342723 1:-0.726867 2:-1 3:-0.357957 4:-1 5:0.996346 6:0.814742 7:-0.547534 
-5.928944665493143 1:-0.428268 2:-0.891228 3:-0.466615 4:-0.917884 5:0.941619 6:0.193907 7:-0.328553 
-9.687959700959873 1:-0.759812 2:-1 3:-0.405571 4:-1 5:0.990733 6:0.814742 7:-0.640906 
-341.9355280107515 1:-0.137647 2:-0.8 3:0.504167 4:-0.528593 5:0.998623 6:0.991514 7:-0.506926 
-172.1005957591486 1:-0.483285 2:-0.885609 3:-0.170567 4:-0.82958 5:0.981629 6:0.848133 7:-0.506926 
-0.02495344000150146 1:-0.822155 2:-1 3:-0.91766 4:-1 5:0.159937 6:0.814742 7:-0.634853 
-506.1107024774665 1:0.155562 2:-0.313653 3:0.727385 4:0.103923 5:0.996458 6:0.998568 7:-0.258279 
-137.5373264696611 1:-0.02964 2:-0.415094 3:0.601555 4:0.111548 5:0.997675 6:0.999739 7:-0.258276 
-32.21043182710763 1:-0.256082 2:-0.609572 3:-0.40984 4:-0.863083 5:0.972899 6:0.991044 7:-0.366195 
-17.64923622689676 1:-0.17446 2:-0.915531 3:-0.0858471 4:-0.961743 5:0.967761 6:0.978086 7:0.00868268 
-96.38081260644536 1:-0.39811 2:-0.853428 3:0.453592 4:-0.574056 5:0.959908 6:0.91872 7:-0.506927 
-161.1271845698678 1:-0.314118 2:-0.799569 3:0.0935103 4:-0.643229 5:0.971468 6:0.980063 7:-0.506926 
-108.9673884464293 1:0.380691 2:-0.73102 3:0.820964 4:-0.633719 5:0.99463 6:0.99151 7:-0.916901 
-189.0227903541045 1:-0.808091 2:-1 3:-0.729963 4:-1 5:0.999481 6:0.814742 7:-0.123581 
-1.749945368335637 1:-0.500648 2:-0.657459 3:-0.409353 4:-0.663533 5:0.938197 6:0.969157 7:-0.471738 
-0.4695980879182141 1:0.017261 2:-0.584821 3:0.564953 4:-0.392414 5:0.996354 6:0.994264 7:-0.549399 
-0.9595696217122898 1:-0.100183 2:-0.490411 3:0.501214 4:-0.330302 5:0.991579 6:0.999317 7:-0.549397 
-30.20224631898803 1:-0.477556 2:-0.910405 3:-0.412014 4:-0.915696 5:0.984699 6:0.978354 7:-0.549398 
-149.0434238365057 1:-0.146472 2:-0.467049 3:0.538085 4:-0.323491 5:0.990228 6:0.998816 7:-0.549397 
-24.6502924404522 1:-0.680012 2:-0.830601 3:-0.053355 4:-0.911 5:0.911827 6:0.981813 7:-0.332209 
-14.64507279773022 1:0.119005 2:-0.75 3:-0.109295 4:-0.804973 5:0.954194 6:0.936591 7:-0.33221 
-21.27259480430641 1:-0.616182 2:-0.844221 3:-0.174911 4:-0.914576 5:0.893643 6:0.985009 7:-0.332209 
-19.02994693522273 1:-0.666099 2:-0.830601 3:0.220993 4:-0.911 5:0.988032 6:0.981813 7:-0.332214 
-42.12494345359605 1:-0.465927 2:-1 3:-0.522496 4:-1 5:0.959226 6:0.814742 7:0.00868114 
-128.8964814767007 1:-0.046191 2:-0.359882 3:0.654912 4:0.0710077 5:0.991766 6:0.991269 7:-0.258277 
-73.43189617058449 1:-0.517991 2:-0.699029 3:-0.104712 4:-0.944408 5:0.965042 6:0.990034 7:-0.258276 
-32.18223321600165 1:0.193726 2:-0.318681 3:0.819924 4:0.0595876 5:0.998698 6:0.99742 7:-0.258276 
-331.1657560796192 1:-0.504946 2:-0.904321 3:-0.130294 4:-0.98057 5:0.992322 6:0.905942 7:-0.506927 
-3.774052710721726 1:-0.24696 2:-1 3:-0.220962 4:-1 5:0.991421 6:0.814742 7:-0.549397 
-4.582438049637816 1:-0.245324 2:-0.899023 3:0.541757 4:-0.862641 5:0.988737 6:0.969951 7:-0.990906 
-1.044150576636341 1:-1 2:-1 3:-1 4:-1 5:0.729614 6:0.814742 7:-0.728897 
-10.9119187003158 1:-0.016479 2:-0.575342 3:0.595721 4:-0.361323 5:0.994978 6:0.995828 7:0.00868209 
-10.63574531128238 1:-0.566639 2:-0.917553 3:0.0403231 4:-0.416221 5:0.912364 6:0.890384 7:-0.619092 
-40.18955626530074 1:-0.169122 2:-0.535928 3:0.63986 4:-0.866565 5:0.996454 6:0.989432 7:-0.366195 
-221.0132918467628 1:0.011578 2:-0.654018 3:0.646834 4:-0.42397 5:0.997847 6:0.997859 7:-0.549399 
-150.6510125737142 1:-0.538863 2:-1 3:-0.0427706 4:-1 5:0.996692 6:0.814742 7:-0.549397 
-332.7123592065186 1:-0.441722 2:-0.850602 3:-0.0447968 4:-0.771105 5:0.997422 6:0.977329 7:-0.549399 
-122.3483338570916 1:-0.174969 2:-0.529114 3:0.585525 4:-0.33387 5:0.998238 6:0.998575 7:-0.549397 
-1.95113654239747 1:-0.531633 2:-0.926887 3:-0.109969 4:-0.845335 5:0.997053 6:-0.877661 7:-0.549399 
-16.9307298107054 1:-0.28885 2:-0.95216 3:0.304709 4:-0.889258 5:0.963818 6:0.990791 7:-0.471739 
-87.27284395892687 1:-0.195101 2:-0.860987 3:0.203843 4:-0.655628 5:0.972794 6:0.949832 7:-0.471738 
-104.061002986608 1:0.706133 2:-0.678423 3:0.887996 4:-0.551831 5:0.997758 6:0.998231 7:-0.9169 
-60.05794634601038 1:-0.0870938 2:-0.691235 3:0.642011 4:-0.519427 5:0.991743 6:0.903177 7:-0.870771 
-1.416616824539763 1:-0.719638 2:-0.907738 3:-0.896315 4:-0.995669 5:0.903455 6:0.873808 7:-0.659747 
-1.144764815935671 1:-0.639775 2:-0.925659 3:-0.0418841 4:-0.701236 5:0.838715 6:-0.92967 7:-0.770103 
-1.001974894637195 1:-0.447185 2:-0.938247 3:-0.0893146 4:-0.815489 5:0.959678 6:-0.65885 7:-0.770103 
-84.16407755347255 1:-0.575668 2:-1 3:-0.310891 4:-1 5:0.955764 6:0.814742 7:-0.411642 
-0.1285876064006383 1:-0.194488 2:-0.824859 3:0.108406 4:-0.526654 5:0.993798 6:0.992027 7:-0.859835 
-26.11738432269903 1:-0.372103 2:-0.790541 3:-0.0466004 4:-0.459524 5:0.987006 6:0.997494 7:-0.859836 
-1.750179556845616 1:-0.125898 2:-0.873297 3:0.454441 4:-0.873552 5:0.990755 6:0.975274 7:-0.990906 
-316.264909942744 1:-0.0710562 2:-0.511261 3:0.492441 4:-0.00832775 5:0.995645 6:0.999064 7:-0.47174 
-201.0840507672663 1:-0.210154 2:-0.386139 3:0.509073 4:-0.0256851 5:0.993494 6:0.993427 7:-0.471739 
-51.16162224570058 1:-0.483285 2:-0.885609 3:-0.281852 4:-0.82958 5:0.913829 6:0.848133 7:-0.506927 
-293.3717350767735 1:-0.169202 2:-0.673684 3:0.623321 4:0.0284965 5:0.986124 6:0.988705 7:-0.506927 
-223.8817197695082 1:-0.295789 2:-0.917553 3:-0.370318 4:-0.882519 5:0.997018 6:0.996163 7:-0.471738 
-196.7700544970286 1:-0.545358 2:-0.815476 3:-0.522329 4:-0.863907 5:0.929473 6:0.927494 7:-0.47174 
-2.389312736706178 1:-0.537092 2:-0.823864 3:0.0278017 4:-0.362875 5:0.997616 6:0.52386 7:-0.948436 
-42.4357216170241 1:-0.411331 2:-0.641618 3:0.769134 4:-0.738882 5:0.972704 6:0.988966 7:-0.215806 
-3.065658667639549 1:-0.525678 2:-1 3:0.370143 4:-1 5:0.974512 6:0.814742 7:-0.693095 
-80.07481332474471 1:0.409933 2:-0.258964 3:0.839578 4:0.398927 5:0.99891 6:0.998432 7:0.149971 
-26.8210101951467 1:0.341438 2:-0.222222 3:0.877573 4:0.396089 5:0.998036 6:0.997082 7:0.149971 
-17.96042677905929 1:0.439507 2:-0.0843882 3:0.890382 4:0.416586 5:0.999226 6:0.997982 7:0.149972 
-33.92024673899076 1:-0.713024 2:-0.910405 3:-0.639259 4:-0.860324 5:0.886672 6:0.794618 7:-0.284827 
-2.594301733475961 1:-0.923236 2:-1 3:-0.981577 4:-1 5:-0.157515 6:0.814742 7:-0.358323 
-127.5238741541056 1:-0.482997 2:-1 3:-0.0105122 4:-1 5:0.983911 6:0.814742 7:-0.753704 
-36.35946639422669 1:-0.592641 2:-0.904615 3:-0.0676247 4:-0.832119 5:0.899482 6:0.984192 7:-0.619092 
-2.059287019205147 1:-0.873276 2:-1 3:-0.350549 4:-1 5:0.495894 6:0.814742 7:-0.775536 
-81.9113573525707 1:-0.637109 2:-0.859729 3:-0.547183 4:-0.869751 5:0.982776 6:0.830985 7:-0.320689 
-76.35095331387322 1:-0.10561 2:-0.866379 3:0.194744 4:-0.745287 5:0.99616 6:0.993991 7:-0.320686 
-10.23988220993709 1:-0.552936 2:-0.815476 3:-0.551392 4:-0.863907 5:0.936675 6:0.927494 7:-0.471738 
-512 1:-0.196002 2:-0.428947 3:0.324035 4:-0.0928776 5:0.992407 6:0.990788 7:-0.47174 
-53.22106462521302 1:-0.0412575 2:-0.351464 3:0.40387 4:-0.215563 5:0.98848 6:0.987288 7:-0.471739 
-19.91377839950229 1:-0.0907164 2:-0.229814 3:0.408736 4:-0.0752082 5:0.991655 6:0.990039 7:-0.471738 
-71.87920931406502 1:-0.160269 2:-0.782456 3:0.623837 4:-0.918604 5:0.986157 6:0.988443 7:-0.506926 
-486.6927681978748 1:-0.456601 2:-0.814925 3:-0.164711 4:-0.634538 5:0.933871 6:0.95965 7:-0.471739 
-62.35345696948603 1:-0.569606 2:-0.704762 3:-0.349602 4:-0.653572 5:0.942623 6:0.972422 7:-0.471738 
-313.6807137149072 1:-0.202702 2:-0.347368 3:0.332818 4:-0.0572576 5:0.995538 6:0.993587 7:-0.47174 
-9.747785613947002 1:-0.504946 2:-0.668803 3:-0.161991 4:-0.588383 5:0.93542 6:0.965731 7:-0.471738 
-90.23801328668169 1:-0.546515 2:-0.684478 3:-0.305487 4:-0.635875 5:0.948351 6:0.970457 7:-0.471739 
-4.204750028172698 1:-0.546786 2:-0.918848 3:0.126366 4:-0.964851 5:0.998139 6:0.539309 7:-0.910223 
-32.63863722980123 1:-0.471357 2:-0.852029 3:0.215192 4:-0.562148 5:0.979522 6:0.90797 7:-0.910222 
-7.751739099766343 1:-0.369341 2:-0.857798 3:0.530977 4:-0.929222 5:0.999077 6:0.991535 7:-0.813705 
-9.125715103144961 1:-0.612039 2:-0.901587 3:-0.486656 4:-0.592473 5:0.9704 6:0.796656 7:-0.770692 
-20.34314234565356 1:-0.270307 2:-1 3:0.0707788 4:-1 5:0.986945 6:0.814742 7:-0.549397 
-37.16644972082329 1:-0.296108 2:-0.817647 3:0.227789 4:-0.901442 5:0.992961 6:0.998771 7:-0.762868 
-116.5715642142835 1:-0.206518 2:-0.860987 3:0.175799 4:-0.655628 5:0.974161 6:0.949832 7:-0.471739 
-512 1:-0.515826 2:-0.735043 3:-0.115959 4:-0.663974 5:0.931658 6:0.941158 7:-0.47174 
-459.7862099965757 1:-0.505577 2:-0.930804 3:-0.392132 4:-0.973517 5:0.953969 6:0.9145 7:-0.471738 
-149.0402906963018 1:-0.289043 2:-0.766038 3:0.157254 4:-0.394715 5:0.989159 6:0.990548 7:-0.759209 
-89.12902815849056 1:-0.823862 2:-1 3:-0.628711 4:-1 5:0.791172 6:0.814742 7:-0.223644 
-27.81298140830927 1:-0.237494 2:-0.84264 3:0.808852 4:-0.97176 5:0.996279 6:0.979117 7:-0.503269 
-512 1:-0.502226 2:-0.900641 3:-0.466244 4:-0.932296 5:0.937861 6:0.833325 7:-0.503268 
-326.2048150258061 1:-0.52032 2:-0.887681 3:-0.46665 4:-0.892415 5:0.960515 6:0.900072 7:-0.503268 
-231.4316661888448 1:-0.495098 2:-1 3:-0.0350843 4:-1 5:0.992689 6:0.814742 7:-0.599697 
-6.834812011223785 1:-0.807446 2:-1 3:-0.333424 4:-1 5:0.981678 6:0.814742 7:-0.599696 
-22.88965897216532 1:-0.343341 2:-0.719457 3:0.384998 4:-0.942032 5:0.994154 6:0.989644 7:-0.212149 
-2.324850503431869 1:-0.707255 2:-0.891986 3:-0.409576 4:-0.99444 5:0.953717 6:0.963348 7:-0.779195 
-337.1846833987827 1:-0.469017 2:-1 3:-0.246669 4:-1 5:0.999655 6:0.814742 7:-0.471739 
-30.70949008390717 1:-0.498516 2:-0.95303 3:-0.246524 4:-0.906094 5:0.979274 6:0.940058 7:-0.719767 
-16.92787484109707 1:-0.372103 2:-0.790541 3:-0.0466004 4:-0.459524 5:0.987006 6:0.997494 7:-0.859836 
-0.8328606377128243 1:-0.593497 2:-0.869748 3:0.435643 4:-0.98605 5:0.820625 6:0.946851 7:-0.944776 
-0.8985570316094954 1:-0.555931 2:-1 3:0.256356 4:-1 5:0.951265 6:0.814742 7:-0.787706 
-29.45678439868893 1:-0.431826 2:-0.824859 3:-0.209676 4:-0.590795 5:0.988408 6:0.95105 7:0.00868268 
-7.275437882741329 1:0.0639975 2:-0.537313 3:0.745501 4:-0.346385 5:0.994226 6:0.997956 7:0.00868209 
-24.80026466449096 1:-0.566639 2:-0.917553 3:0.0403231 4:-0.416221 5:0.912364 6:0.890384 7:-0.619092 
-23.72175567209181 1:-0.561306 2:-0.904615 3:-0.0022916 4:-0.749241 5:0.919673 6:0.966106 7:-0.619091 
-81.2613041611197 1:-0.290864 2:-0.760155 3:0.512105 4:-0.156383 5:0.997844 6:0.994463 7:-0.7992 
-4.332033617373674 1:-0.835334 2:-1 3:-0.928501 4:-1 5:0.879572 6:0.814742 7:-0.123581 
-448.1214162045802 1:-0.770487 2:-1 3:-0.772074 4:-1 5:0.949127 6:0.814742 7:-0.207259 
-0.01579442515779034 1:-0.500648 2:-0.657459 3:-0.409353 4:-0.663533 5:0.938197 6:0.969157 7:-0.471738 
-28.34422089570134 1:-0.129349 2:-0.518135 3:0.548436 4:-0.0486701 5:0.999557 6:0.998005 7:-0.471739 
-45.40974183313882 1:-0.428704 2:-0.621951 3:-0.239558 4:-0.613921 5:0.921791 6:0.96245 7:-0.471738 
-8.534850957952141 1:-0.705239 2:-0.955137 3:-0.78953 4:-0.9427 5:0.997647 6:0.512045 7:-0.680983 
-2.522467213703457 1:-0.393972 2:-0.958777 3:-0.292512 4:-0.877036 5:0.967402 6:0.975053 7:-0.471739 
-32.12323908408113 1:0.711415 2:-0.678423 3:0.748553 4:-0.551831 5:0.995397 6:0.998231 7:-0.916901 
-3.710737172960067 1:-0.432455 2:-0.870833 3:0.111204 4:-0.661064 5:0.970901 6:0.877408 7:-0.910223 
-0.7781907084162695 1:-0.843323 2:-1 3:-0.903654 4:-1 5:-0.887951 6:0.814742 7:-0.116912 
-9.497387698685593 1:-0.875805 2:-1 3:-0.608091 4:-1 5:0.973801 6:0.814742 7:-0.22364 
-6.733288034791684 1:-0.70995 2:-1 3:-0.150699 4:-1 5:0.996583 6:0.814742 7:-0.749476 
-10.0364417332683 1:-0.474777 2:-0.674825 3:-0.0667461 4:-0.893335 5:0.90919 6:0.996296 7:-0.944776 
-66.59752758375879 1:-0.443233 2:-0.934183 3:0.438466 4:-0.272826 5:0.991283 6:0.993477 7:-0.750045 
-8.698328857133856 1:-0.632866 2:-1 3:0.369127 4:-1 5:0.973824 6:0.814742 7:-0.595477 
-1.292232095806757 1:-0.822155 2:-1 3:-0.91766 4:-1 5:0.159937 6:0.814742 7:-0.634853 
-101.5239906541407 1:-0.188234 2:-0.887681 3:-0.173101 4:-0.917966 5:0.992734 6:0.995994 7:-0.549399 
-512 1:-0.402387 2:-0.900322 3:-0.289452 4:-0.897218 5:0.969589 6:0.975608 7:-0.549399 
-16.72068888173468 1:-0.288878 2:-1 3:-0.0938804 4:-1 5:0.99684 6:0.814742 7:-0.549397 
-1.528264805434874 1:-0.585385 2:-0.92112 3:0.132449 4:-0.690405 5:0.95307 6:-1 7:-0.770102 
-3.394135334267481 1:-0.391071 2:-0.94162 3:-0.180379 4:-0.82537 5:0.993544 6:-0.0334842 7:-0.876895 
-4.470339606500428 1:-0.456973 2:-0.674825 3:-0.533279 4:-0.893335 5:0.942132 6:0.996296 7:-0.944776 
-166.7781159303965 1:-0.546515 2:-0.763359 3:-0.265971 4:-0.733936 5:0.943735 6:0.942155 7:-0.47174 
-9.83681542917666 1:-0.494842 2:-0.630952 3:-0.502267 4:-0.797635 5:0.915551 6:0.924407 7:-0.471739 
-512 1:-0.4199 2:-0.803797 3:-0.277862 4:-0.779523 5:0.977152 6:0.979286 7:-0.549399 
-273.4545081764996 1:-0.592641 2:-1 3:-0.330892 4:-1 5:0.926073 6:0.814742 7:-0.258276 
-93.65594556710631 1:-0.0530909 2:-0.541872 3:0.718241 4:-0.322612 5:0.994887 6:0.991562 7:-0.549399 
-21.51387094901147 1:0.0562328 2:-0.424149 3:0.633093 4:-0.291562 5:0.999456 6:0.997748 7:-0.549397 
-99.41390107576262 1:-0.382611 2:-0.928406 3:-0.0252122 4:-0.880313 5:0.957545 6:0.97233 7:-0.549399 
-461.2081567887434 1:-0.413751 2:-0.898026 3:-0.301643 4:-0.900718 5:0.969748 6:0.976022 7:-0.549398 
-31.4340038315867 1:-0.351823 2:-0.928899 3:-0.492029 4:-0.972987 5:0.975536 6:0.957643 7:-0.7853 
-4.204656978752483 1:-0.68568 2:-1 3:-0.0863913 4:-1 5:0.918002 6:0.814742 7:-0.303739 
-81.06078739965844 1:-0.151335 2:-0.441441 3:0.519207 4:0.330432 5:0.993374 6:0.991525 7:-0.258277 
-393.7124945707392 1:-0.0929896 2:-0.515625 3:0.501262 4:-0.0546485 5:0.989333 6:0.986774 7:-0.25828 
-272.4280651634819 1:0.0107692 2:-0.419476 3:0.636099 4:0.0267891 5:0.998447 6:0.996184 7:-0.258276 
-50.8364163468398 1:0.00296736 2:-0.373737 3:0.660239 4:-0.285104 5:0.998822 6:0.99388 7:0.00868061 
-3.621909190190343 1:-0.392108 2:-0.912921 3:-0.180182 4:-0.779278 5:0.989116 6:0.963059 7:0.00868337 
-104.248485848785 1:-0.729755 2:-1 3:-0.686872 4:-1 5:0.901986 6:0.814742 7:-0.238852 
-512 1:-0.720805 2:-1 3:-0.60042 4:-1 5:0.982813 6:0.814742 7:-0.238854 
-23.14517348812558 1:-0.392699 2:-0.715596 3:0.517741 4:-0.271313 5:0.997745 6:0.998096 7:-0.813706 
-6.470793281694564 1:-0.126878 2:-0.910663 3:0.508455 4:-0.959275 5:0.996606 6:0.977409 7:0.00868114 
-4.959912213844683 1:-0.405427 2:-0.814371 3:-0.128074 4:-0.537742 5:0.979591 6:0.949101 7:0.00868061 
-2.7396356686822 1:-0.621791 2:-0.887681 3:-0.802832 4:-0.954181 5:0.976327 6:0.802037 7:-0.827704 
-19.08279446685452 1:-0.615699 2:-0.883019 3:-0.409861 4:-0.797423 5:0.955562 6:0.993668 7:-0.845924 
-19.23018174870206 1:0.0977293 2:-0.213768 3:0.687303 4:0.47841 5:0.993717 6:0.998394 7:0.149971 
-128.7625288273707 1:0.436202 2:-0.205128 3:0.833386 4:0.380132 5:0.999388 6:0.998407 7:0.149972 
-37.39610867888459 1:-0.39926 2:-0.912921 3:-0.222396 4:-0.779278 5:0.99374 6:0.963059 7:0.00868037 
-11.40738108341401 1:-0.073595 2:-0.763359 3:0.0870253 4:-0.329298 5:0.989669 6:0.977904 7:0.0086809 
-81.26059114181894 1:-0.637491 2:-1 3:0.140397 4:-1 5:0.970045 6:0.814742 7:-0.599136 
-11.29305157473558 1:-0.41876 2:-0.501608 3:0.329131 4:-0.880135 5:0.988189 6:0.994301 7:-0.356498 
-39.89320934593361 1:-0.652222 2:-1 3:-0.842843 4:-1 5:0.870262 6:0.814742 7:-0.247351 
-67.0621939928002 1:-0.148606 2:-0.800643 3:0.402633 4:-0.664231 5:0.983815 6:0.979727 7:-0.942966 
-2.652530981305584 1:-0.677582 2:-0.864629 3:-0.253874 4:-0.83359 5:0.987027 6:0.821422 7:-0.503269 
-162.3768807722256 1:-0.154183 2:-0.687919 3:0.404479 4:-0.387467 5:0.976906 6:0.980107 7:-0.503268 
-5.996374777565922 1:-0.430895 2:-0.927059 3:0.338141 4:-0.759252 5:0.920111 6:0.51718 7:-0.503268 
-65.88413208443534 1:-0.288878 2:-0.893103 3:-0.0938804 4:-0.918543 5:0.99684 6:0.995613 7:-0.549398 
-2.260736366393761 1:-0.945637 2:-1 3:-0.98015 4:-1 5:-0.908225 6:0.814742 7:-0.358327 
-14.70504660575977 1:-0.174969 2:-0.529114 3:0.585525 4:-0.33387 5:0.998238 6:0.998575 7:-0.549397 
-44.1830211844414 1:-0.354679 2:-0.938614 3:-0.239055 4:-0.918698 5:0.969352 6:0.983681 7:-0.549399 
-512 1:0.0107692 2:-0.419476 3:0.639916 4:0.0267891 5:0.998276 6:0.996184 7:-0.258276 
-3.717921656084436 1:-0.609945 2:-0.913649 3:-0.556459 4:-0.995247 5:0.9119 6:0.97671 7:-0.719767 
-279.8526022855746 1:-0.447857 2:-0.775904 3:-0.0614719 4:-0.573255 5:0.998601 6:0.94009 7:-0.549399 
-9.273964613951046 1:-0.547549 2:-0.813253 3:-0.341811 4:-0.772219 5:0.972829 6:0.979428 7:-0.549397 
-135.721044636231 1:-0.427957 2:-0.803797 3:-0.28872 4:-0.779523 5:0.975752 6:0.979286 7:-0.549397 
-76.41874661334796 1:-0.486268 2:-0.816024 3:-0.218593 4:-0.808977 5:0.973452 6:0.979377 7:-0.549398 
