svm_type c_svc
kernel_type rbf
gamma 0.03125
nr_class 2
total_sv 141
rho 49.0237
label 1 -1
nr_sv 72 69
SV
32768 1:-0.362473 2:-0.837903 3:-0.216946 
32768 1:-0.486302 2:-0.9 3:-0.216945 
32768 1:-0.13178 2:-1 3:-0.31776 
32768 1:-0.257867 2:-1 3:-0.399309 
32768 1:-0.434602 2:-0.87855 3:-0.216946 
32768 1:-0.43639 2:-0.912227 3:-0.216946 
5670.887413327215 1:-0.671068 2:-1 3:1 
32768 1:-0.521975 2:-0.917284 3:-0.216945 
32768 1:-0.426561 2:-0.893369 3:-0.216946 
32768 1:-0.416867 2:-0.838554 3:-0.427485 
32768 1:-0.339249 2:-0.725597 3:-0.66037 
32768 1:-0.390519 2:-1 3:0.103252 
32768 1:-0.446312 2:-1 3:0.103252 
1781.833902880016 1:0.708986 2:-0.841107 3:0.456598 
32768 1:-0.273273 2:-0.818919 3:-0.414864 
32768 1:-0.0899145 2:-1 3:-0.399309 
32768 1:-0.408444 2:-0.712857 3:-0.372142 
32768 1:-0.309096 2:-0.816856 3:-0.372142 
24404.60741104285 1:-0.313931 2:-0.73289 3:-0.424545 
32768 1:-0.0588889 2:-0.871154 3:-0.58858 
32768 1:-0.00331852 2:-0.821333 3:-0.85931 
32768 1:-0.0597792 2:-0.911258 3:-0.811712 
32768 1:0.0142897 2:-0.91519 3:-0.811712 
31291.04211444479 1:0.172356 2:-0.866 3:-0.941834 
32768 1:-0.431111 2:-0.778512 3:-0.585643 
32768 1:-0.233192 2:-0.905412 3:-0.365385 
32768 1:-0.182578 2:-0.821333 3:-0.59352 
32768 1:0.10719 2:-1 3:-0.456541 
32768 1:-0.435333 2:-1 3:0.103252 
32768 1:-0.466594 2:-0.673171 3:-0.214958 
32768 1:-0.166623 2:-0.822517 3:-0.52068 
32768 1:-0.116066 2:-0.768966 3:-0.772987 
32768 1:-0.506368 2:-0.7 3:-0.648726 
32768 1:-0.576296 2:-1 3:0.321647 
32768 1:-0.259287 2:-0.873585 3:-0.344955 
32768 1:-0.488989 2:-0.8181 3:0.103252 
32768 1:-0.523683 2:-1 3:0.103252 
32768 1:-0.31871 2:-0.882111 3:-0.216946 
32768 1:-0.0830695 2:-0.855396 3:-0.598247 
11934.80814868321 1:0.452643 2:-0.0390438 3:0.279933 
32768 1:-0.303647 2:-0.828205 3:-0.757435 
32768 1:-0.322209 2:-0.881065 3:-0.559406 
32768 1:-0.800118 2:-0.822124 3:0.350867 
32768 1:-0.105774 2:-0.907159 3:-0.877735 
32768 1:-0.2764 2:-0.908009 3:-0.877735 
32768 1:-0.593033 2:-0.879279 3:-0.648726 
32768 1:-0.56679 2:-0.813889 3:0.103252 
32768 1:-0.512065 2:-1 3:0.103252 
32768 1:-0.189154 2:-0.79171 3:-0.838019 
32768 1:-0.482353 2:-0.785027 3:0.0626062 
32768 1:-0.314016 2:-1 3:-0.437165 
32768 1:-0.449609 2:-0.914286 3:-0.362447 
32768 1:-0.343457 2:-1 3:-0.362447 
32768 1:-0.108337 2:-0.840159 3:-0.707932 
32768 1:-0.52549 2:-0.802941 3:0.103252 
32768 1:-0.515164 2:-1 3:0.103252 
32768 1:-0.199353 2:-0.85 3:-0.707932 
32768 1:-0.418799 2:-1 3:0.103252 
26000.38396038048 1:-0.354667 2:-1 3:0.103252 
15043.99927200581 1:0.0420752 2:0.564202 3:0.103251 
32768 1:-0.70509 2:-1 3:0.0626074 
32768 1:-0.632607 2:-0.80099 3:0.0626079 
32768 1:-0.24455 2:-1 3:-0.216945 
32768 1:-0.31831 2:-1 3:-0.362447 
32768 1:-0.363447 2:-1 3:0.103252 
32768 1:-0.575089 2:-0.834568 3:0.103252 
32768 1:-0.610575 2:-1 3:0.103252 
21478.60910068599 1:-0.109202 2:-0.0134969 3:0.342093 
18229.93965528176 1:-0.305996 2:-0.550838 3:-0.940843 
32768 1:-0.421358 2:-0.877812 3:-0.55071 
32768 1:-0.171848 2:-0.805327 3:-0.550712 
32768 1:-0.71995 2:-0.848302 3:0.350867 
-32768 1:-0.501192 2:-1 3:-0.216946 
-32768 1:-0.401505 2:-0.837903 3:-0.216946 
-32768 1:-0.166316 2:-0.807656 3:-0.216945 
-32768 1:-0.261632 2:-0.908009 3:-0.396414 
-32768 1:-0.520792 2:-0.80099 3:0.0626001 
-32768 1:-0.0998068 2:-1 3:-0.216946 
-32768 1:0.00769716 2:-0.746372 3:-0.216946 
-32768 1:-0.489305 2:-1 3:-0.216945 
-32768 1:-0.423524 2:-0.900248 3:-0.216946 
-32768 1:-0.200601 2:-0.818919 3:-0.216946 
-32768 1:-0.660351 2:-1 3:0.248855 
-32768 1:-0.651171 2:-1 3:0.248855 
-32768 1:-0.230978 2:-0.933 3:-0.412957 
-32768 1:-0.398318 2:-0.926508 3:-0.412955 
-32768 1:-0.197051 2:-1 3:-0.644903 
-32768 1:-0.578648 2:-0.861856 3:-0.216946 
-32768 1:-0.4849 2:-0.878916 3:-0.216946 
-32768 1:-0.107986 2:-0.725597 3:-0.216945 
-32768 1:-0.308571 2:0.196429 3:0.248855 
-32768 1:-0.0279917 2:-1 3:-0.216946 
-32768 1:0.0311111 2:-0.889256 3:-0.216946 
-32768 1:-0.452263 2:-1 3:-0.216945 
-32768 1:-0.252698 2:-0.912987 3:-0.757425 
-32768 1:-0.202824 2:-0.881765 3:-0.757426 
-32768 1:-0.487831 2:-0.840476 3:0.0626062 
-32768 1:-0.0795402 2:-0.747962 3:-0.919586 
-32768 1:-0.338578 2:-1 3:-0.396414 
-32768 1:-0.759367 2:-1 3:0.45466 
-32768 1:-0.817358 2:-1 3:0.652637 
-32768 1:-0.346411 2:-0.914286 3:-0.609939 
-32768 1:-0.280327 2:-0.901471 3:-0.396414 
-32768 1:-0.467368 2:-0.711483 3:-0.43426 
-32768 1:-0.663405 2:-1 3:0.0973956 
-32768 1:-0.142564 2:-1 3:-0.216946 
-32768 1:-0.0231193 2:-0.877064 3:-0.216946 
-32768 1:-0.383796 2:-1 3:-0.216945 
-32768 1:-0.378432 2:-0.886119 3:-0.396414 
-32768 1:-0.0384106 2:-1 3:-0.713657 
-32768 1:-0.080181 2:-0.8181 3:-0.62646 
-32768 1:-0.402008 2:-0.844788 3:-0.216946 
-32768 1:-0.208107 2:-0.558242 3:-0.216946 
-32768 1:-0.66856 2:-1 3:0.0973956 
-32768 1:-0.270159 2:-0.282143 3:0.248855 
-32768 1:-0.587139 2:-1 3:0.072291 
-32768 1:-0.642309 2:-1 3:0.0722923 
-32768 1:-0.561991 2:-1 3:-0.0295035 
-32768 1:-0.296752 2:-0.742308 3:-0.923373 
-32768 1:-0.0983218 2:-0.814319 3:-0.690447 
-4653.491370082828 1:-0.687742 2:-1 3:0.133517 
-32768 1:-0.391046 2:-0.901471 3:-0.54495 
-32768 1:-0.424483 2:-0.882456 3:-0.544953 
-32768 1:-0.402469 2:-0.875926 3:-0.54495 
-32768 1:0.134265 2:-0.824454 3:-1 
-32768 1:-0.257354 2:-0.787302 3:-0.923373 
-32768 1:-0.289465 2:-0.687565 3:-0.804962 
-32768 1:-0.490526 2:-0.788421 3:-0.43426 
-32768 1:-0.299745 2:-0.657872 3:-0.923373 
-32768 1:-0.539048 2:-0.814747 3:0.0626001 
-29898.68997478827 1:-0.206057 2:-1 3:-0.665226 
-32768 1:-0.243033 2:-0.904739 3:-0.794312 
-32768 1:0.0328536 2:-0.900248 3:-0.919586 
-32768 1:-0.457463 2:-1 3:0.248855 
-32768 1:-0.150273 2:-0.570819 3:0.0626001 
-32768 1:-0.0796793 2:-0.861856 3:-0.216946 
-32768 1:-0.376419 2:-0.909663 3:-0.216945 
-32768 1:-0.439465 2:-0.910468 3:-0.412957 
-22979.92963386093 1:-0.494815 2:-0.898485 3:-0.412955 
-32768 1:-0.654061 2:-1 3:0.0781426 
-32768 1:-0.276262 2:-0.81215 3:-0.626461 
