svm_type c_svc
kernel_type rbf
gamma 0.03125
nr_class 2
total_sv 156
rho 1.60845
label 1 -1
nr_sv 79 77
SV
512 1:-0.401009 2:-0.641791 3:-0.909453 4:-0.216945 
241.1676729917336 1:0.0133255 2:-0.120611 3:-0.861069 4:-0.216946 
512 1:-0.101932 2:-0.56987 3:-0.716364 4:-0.350769 
512 1:-0.407706 2:-0.288372 3:-0.788372 4:0.0626062 
512 1:-0.300504 2:-0.434441 3:-0.78006 4:-0.216946 
512 1:0.128179 2:-0.641196 3:-0.87907 4:-0.448822 
512 1:-0.34618 2:-0.622707 3:-0.841048 4:-0.216946 
309.6579116147373 1:-0.610365 2:-0.790291 3:-1 4:1 
512 1:-0.383849 2:-0.57037 3:-0.925103 4:-0.216945 
512 1:0.134527 2:-0.596132 3:-0.859188 4:-0.216945 
512 1:-0.303968 2:-0.598939 3:-0.806897 4:-0.216946 
512 1:-0.380099 2:-0.710843 3:-0.853815 4:-0.427485 
512 1:0.0777478 2:-0.531361 3:-0.784615 4:-0.940844 
20.91065763084223 1:0.744887 2:0.536759 3:0.582609 4:0.456598 
512 1:-0.271099 2:-0.56 3:-0.696667 4:-0.572092 
512 1:-0.216164 2:-0.26875 3:-0.715625 4:-0.414864 
512 1:-0.270443 2:-0.669147 3:-0.76105 4:-0.372142 
512 1:-0.389929 2:-0.742857 3:-0.74 4:-0.372142 
512 1:-0.268658 2:-0.655581 3:-0.751253 4:-0.372142 
512 1:-0.271812 2:-0.425914 3:-0.75814 4:-0.424545 
512 1:-0.159029 2:-0.553103 3:-0.748966 4:-0.193663 
512 1:0.11314 2:-0.596154 3:-0.883333 4:-0.58858 
512 1:-0.00503804 2:-0.729801 3:-0.919647 4:-0.811712 
512 1:0.185345 2:-0.772152 3:-0.923207 4:-0.811712 
512 1:-0.379177 2:-0.702479 3:-0.699174 4:-0.585643 
512 1:-0.222775 2:-0.559529 3:-0.657412 4:-0.365385 
512 1:-0.176771 2:-0.392 3:-0.838222 4:-0.59352 
512 1:-0.439468 2:-0.258537 3:-0.704065 4:-0.214958 
512 1:-0.0844318 2:-0.561977 3:-0.723194 4:-0.372142 
512 1:-0.50468 2:-0.623881 3:-0.728358 4:-0.648726 
512 1:-0.516665 2:-0.418182 3:-0.816162 4:0.321647 
512 1:-0.135077 2:-0.906897 3:-1 4:0.0780769 
512 1:-0.257646 2:-0.32434 3:-0.78651 4:-0.216946 
512 1:-0.106944 2:-0.485714 3:-0.74 4:-0.598246 
512 1:-0.0672048 2:-0.482014 3:-0.738129 4:-0.598247 
512 1:0.15252 2:-0.616 3:-0.861333 4:-0.556527 
512 1:-0.159451 2:-0.536634 3:-0.729703 4:-0.566252 
512 1:-0.163591 2:-0.326108 3:-0.82069 4:-0.400278 
512 1:-0.030495 2:-0.747107 3:-0.77438 4:-0.585643 
512 1:-0.221627 2:-0.523077 3:-0.844444 4:-0.757435 
512 1:-0.241923 2:-0.680473 3:-0.892308 4:-0.559406 
512 1:-0.726805 2:-0.585841 3:-0.838938 4:0.350867 
512 1:-0.321368 2:-0.317241 3:-0.843103 4:0.132567 
512 1:-0.115932 2:-0.833718 3:-0.915935 4:-0.877735 
512 1:-0.237053 2:-0.802288 3:-0.916705 4:-0.877735 
512 1:-0.545741 2:-0.697297 3:-0.781381 4:-0.648726 
512 1:-0.075359 2:-0.513043 3:-0.736232 4:-0.646775 
512 1:-0.51811 2:-0.0517073 3:-1 4:0.103252 
512 1:-0.0521274 2:-0.736338 3:-1 4:-0.0693708 
512 1:-0.102156 2:-0.383267 3:-0.70996 4:-0.495406 
512 1:-0.264974 2:-0.640816 3:-0.669841 4:-0.495405 
512 1:-0.120254 2:-0.552332 3:-0.717098 4:-0.838019 
512 1:-0.471725 2:-0.229947 3:-0.805348 4:0.0626062 
512 1:-0.028775 2:-0.689888 3:-0.86367 4:0.127637 
512 1:-0.258608 2:-0.546457 3:-0.856693 4:-0.437165 
512 1:-0.289109 2:-0.616205 3:-0.922388 4:-0.362447 
512 1:-0.295251 2:-0.660546 3:-0.909677 4:-0.362447 
512 1:-0.18898 2:-0.511864 3:-0.691525 4:-0.350769 
512 1:0.0732524 2:-0.409375 3:-0.786719 4:-0.940844 
512 1:-0.303798 2:-0.52997 3:-0.675964 4:-0.940843 
512 1:-0.00574255 2:-0.484692 3:-0.855268 4:-0.707932 
512 1:0.219057 2:-0.693182 3:-0.896591 4:-0.559406 
512 1:-0.0805949 2:-0.703632 3:-0.911864 4:-0.0693708 
512 1:-0.0371024 2:-0.891115 3:-0.862382 4:-0.155732 
501.6506454623498 1:-0.488148 2:0.00725389 3:-1 4:0.103252 
512 1:-0.0208799 2:-0.543284 3:-0.93209 4:-0.707932 
25.52075841076528 1:0.170387 2:0.859341 3:1 4:0.103252 
17.23536220333909 1:0.336211 2:0.61194 3:0.99204 4:0.103253 
437.9964382085641 1:0.255067 2:-0.764162 3:-0.85973 4:-0.820478 
512 1:-0.325113 2:-0.532468 3:-0.645455 4:-0.772951 
512 1:-0.585066 2:-0.496774 3:-0.804301 4:0.0626074 
512 1:-0.480388 2:-0.322772 3:-0.819802 4:0.0626079 
512 1:-0.259853 2:-0.67541 3:-0.701639 4:-0.221673 
512 1:-0.304314 2:-0.256338 3:-0.829108 4:-0.362447 
512 1:-0.560885 2:-0.0689655 3:-1 4:0.103252 
512 1:0.0823038 2:-0.474824 3:-0.743059 4:-0.940844 
512 1:-0.32739 2:-0.597765 3:-0.593296 4:-0.940843 
512 1:-0.662166 2:-0.565283 3:-0.862642 4:0.350867 
512 1:-0.307283 2:-0.613659 3:-0.644878 4:-0.372142 
-512 1:-0.448198 2:-0.443478 3:-0.824155 4:-0.216946 
-512 1:-0.302911 2:-0.535484 3:-0.853226 4:-0.216946 
-512 1:-0.0546655 2:-0.311005 3:-0.825837 4:-0.216945 
-512 1:-0.194667 2:-0.505721 3:-0.916705 4:-0.396414 
-512 1:-0.480388 2:-0.287129 3:-0.819802 4:0.0626001 
-512 1:0.00666566 2:-0.347826 3:-0.604348 4:-0.216946 
-512 1:0.129667 2:-0.318612 3:-0.655521 4:-0.216946 
-512 1:-0.389241 2:-0.430216 3:-0.738129 4:-0.216945 
-512 1:-0.241629 2:-0.535484 3:-0.909677 4:-0.216946 
-512 1:-0.144788 2:-0.513514 3:-0.836036 4:-0.216946 
-373.6939896751411 1:-0.638935 2:-0.747368 3:-1 4:0.248855 
-512 1:-0.624541 2:-0.708108 3:-1 4:0.248855 
-512 1:-0.0429965 2:-0.7 3:-0.939333 4:-0.412957 
-512 1:-0.198594 2:-0.868373 3:-0.933455 4:-0.412955 
-512 1:-0.0530816 2:-0.658853 3:-1 4:-0.644903 
-128.5611047260613 1:-0.0787901 2:-0.753986 3:-1 4:-0.644901 
-512 1:0.0242939 2:-0.657143 3:-1 4:-0.644903 
-512 1:-0.512004 2:-0.45567 3:-0.874914 4:-0.216946 
-512 1:-0.414193 2:-0.457831 3:-0.890361 4:-0.216946 
-512 1:-0.072814 2:-0.189078 3:-0.751536 4:-0.216945 
-512 1:-0.15472 2:-0.142857 3:0.0833333 4:0.248855 
-512 1:0.0737767 2:-0.463354 3:-0.886957 4:-0.216946 
-512 1:0.165107 2:-0.444628 3:-0.799449 4:-0.216946 
-512 1:-0.380673 2:-0.6 3:-0.887654 4:-0.216945 
-512 1:-0.131333 2:-0.594805 3:-0.921212 4:-0.757425 
-512 1:-0.164665 2:-0.724706 3:-0.892941 4:-0.757426 
-512 1:-0.42423 2:-0.714286 3:-0.855556 4:0.0626062 
-512 1:-0.452918 2:-0.703797 3:-0.88481 4:-0.272235 
-512 1:-0.482745 2:-0.63617 3:-0.903191 4:-0.272238 
-512 1:-0.228223 2:-0.46 3:-0.87 4:-0.746787 
-154.3234181715685 1:-0.159621 2:-0.2 3:-1 4:-0.746786 
-512 1:-0.0225771 2:-0.503448 3:-0.543574 4:-0.919586 
-512 1:-0.662166 2:-0.755472 3:-1 4:0.652637 
-512 1:-0.0883708 2:-0.480537 3:-1 4:-0.614801 
-512 1:-0.121273 2:-0.501124 3:-1 4:-0.614798 
-512 1:-0.440349 2:-0.663158 3:-0.893567 4:-0.259643 
-512 1:-0.380949 2:-0.753034 3:-0.903958 4:-0.259644 
-512 1:-0.480285 2:-0.757576 3:-0.877441 4:-0.259639 
-512 1:-0.157463 2:-0.570149 3:-0.922388 4:-0.609939 
-512 1:-0.129859 2:-0.435294 3:-0.910784 4:-0.396414 
-512 1:-0.401781 2:-0.741627 3:-0.738756 4:-0.43426 
-512 1:-0.0738676 2:-0.428571 3:-1 4:-0.645902 
-512 1:0.0578202 2:-0.496503 3:-0.872727 4:-0.216946 
-512 1:0.0856802 2:-0.493578 3:-0.888685 4:-0.216946 
-512 1:-0.271099 2:-0.475 3:-0.873611 4:-0.216945 
-512 1:-0.309117 2:-0.551275 3:-0.896884 4:-0.396414 
-512 1:-0.0800009 2:-0.427815 3:-0.517881 4:-0.713657 
-512 1:-0.0501206 2:-0.60905 3:-0.835294 4:-0.62646 
-512 1:-0.392114 2:-0.416216 3:-0.718919 4:-0.216946 
-512 1:-0.0614287 2:-0.314286 3:-0.733333 4:-0.216946 
-512 1:-0.209847 2:-0.185714 3:-0.133333 4:0.248855 
-512 1:-0.688321 2:-0.653846 3:-0.825 4:-0.136311 
-512 1:-0.539029 2:-0.511312 3:-0.505882 4:-0.0295035 
-512 1:-0.168856 2:-0.469231 3:-0.766667 4:-0.923373 
-385.5609339495607 1:-0.475491 2:-0.720388 3:-0.823301 4:-0.563352 
-512 1:-0.0375067 2:-0.45127 3:-0.663741 4:-0.690447 
-512 1:-0.281188 2:-0.823529 3:-0.910784 4:-0.54495 
-512 1:-0.564319 2:-0.564516 3:-0.559677 4:-0.0295035 
-512 1:0.233495 2:-0.827074 3:-0.841048 4:-1 
-512 1:-0.117969 2:-0.6 3:-0.807407 4:-0.923373 
-512 1:-0.342947 2:-0.635135 3:-0.754054 4:-0.923373 
-512 1:-0.232222 2:-0.459067 3:-0.481347 4:-0.804962 
-512 1:-0.350083 2:-0.677895 3:-0.808421 4:-0.43426 
-512 1:-0.251212 2:-0.356596 3:-0.535319 4:-0.923373 
-512 1:-0.502079 2:-0.236866 3:-0.832258 4:0.0626001 
-512 1:0.0614977 2:-0.602524 3:-1 4:-0.665226 
-512 1:-0.422296 2:-0.663158 3:-0.787135 4:-0.923373 
-512 1:0.0106005 2:-0.542671 3:-0.940717 4:-0.794313 
-512 1:-0.107519 2:-0.778199 3:-0.913744 4:-0.794312 
-512 1:0.21033 2:-0.624814 3:-0.729032 4:-0.919586 
-512 1:-0.39897 2:-0.585841 3:-0.838938 4:0.248855 
-512 1:-0.0294711 2:-0.470234 3:-1 4:-0.645902 
-512 1:-0.0771634 2:-0.461922 3:-0.611388 4:0.0626001 
-512 1:0.029036 2:-0.554639 3:-0.749828 4:-0.216946 
-512 1:-0.209145 2:-0.644045 3:-0.918202 4:-0.216945 
-512 1:-0.264319 2:-0.599109 3:-0.918931 4:-0.412957 
-512 1:-0.22101 2:-0.596262 3:-0.829907 4:-0.626461 
