svm_type c_svc
kernel_type rbf
gamma 8
nr_class 2
total_sv 621
rho -28.87
label 1 -1
nr_sv 375 246
SV
1123.042792659639 1:-0.702261 2:-0.48301 3:-1 4:-0.239403 
2452.144416720079 1:0.0205348 2:-0.554444 3:-0.652466 4:-0.326157 
8192 1:-0.379026 2:-0.622613 3:-0.885015 4:-0.523912 
3032.262118131786 1:-0.384856 2:-0.546306 3:-0.91153 4:-0.523914 
8192 1:-0.498121 2:-0.630292 3:-0.887355 4:-0.523915 
8192 1:-0.444617 2:-0.527465 3:-0.917728 4:-0.523913 
8192 1:-0.538379 2:-0.594771 3:-0.848039 4:-0.503268 
8192 1:-0.548046 2:-0.667069 3:-0.89856 4:-0.503268 
8192 1:-0.244309 2:-0.381766 3:-0.856481 4:-0.503268 
8192 1:-0.495948 2:-0.735923 3:-0.871262 4:-0.503268 
759.1039084989695 1:0.401513 2:-0.597709 3:-0.661867 4:-0.91569 
8192 1:-0.245177 2:-0.406812 3:-0.421642 4:-0.489299 
357.4515226359438 1:-0.128049 2:-0.487179 3:-0.583333 4:-0.586905 
6955.987445190066 1:-0.17196 2:-0.54252 3:-0.628297 4:-0.586905 
8192 1:-0.564024 2:-0.316239 3:-0.791667 4:-0.427984 
3508.87788139756 1:-0.584985 2:-0.656065 3:-1 4:-0.668246 
8192 1:-0.268615 2:-0.659627 3:-0.804786 4:-0.77194 
112.8491222214183 1:-0.138307 2:-0.314228 3:-0.392157 4:-0.590564 
987.0506914849207 1:-0.157202 2:-0.154392 3:-0.764438 4:-0.457729 
8192 1:-0.558895 2:-0.594771 3:-0.848039 4:-0.503269 
5381.450840356503 1:-0.071981 2:-0.50651 3:-0.656319 4:-0.503268 
207.4494361479327 1:-0.257785 2:-0.587437 3:-1 4:-0.438879 
8192 1:-0.340541 2:-0.643755 3:-0.891457 4:-0.438881 
7881.058797718927 1:-0.708519 2:-0.613919 3:-0.778571 4:-0.310992 
15.79850989382307 1:0.0463415 2:-0.451813 3:-0.732759 4:-0.419585 
687.4982543981718 1:-0.0994602 2:-0.413619 3:-0.523566 4:-0.13453 
8192 1:-0.561742 2:-0.667069 3:-0.89856 4:-0.503269 
8192 1:-0.534086 2:-0.505337 3:-0.833691 4:-0.503268 
572.8936368601441 1:-0.219833 2:-0.541803 3:-0.514411 4:-0.586905 
5849.042764299041 1:-0.11412 2:-0.390514 3:-0.504792 4:-0.586905 
364.3599038371283 1:-0.593886 2:-0.346681 3:-0.469178 4:-0.333382 
920.1130625769935 1:-0.418699 2:-0.39943 3:-0.655556 4:-0.200569 
8035.018451837384 1:-0.552651 2:-0.700483 3:-0.887681 4:-0.645718 
7866.47450115927 1:-0.128049 2:-0.487179 3:-0.583333 4:-0.586905 
1591.273605861584 1:-0.308126 2:-0.568004 3:-0.578804 4:-0.506761 
25.76778842187813 1:0.238527 2:-0.545788 3:-0.683673 4:0.336205 
8192 1:-0.224932 2:-0.460272 3:-0.521605 4:-0.515402 
4077.7531651605 1:-0.395133 2:-0.68969 3:-0.883634 4:-0.781603 
8192 1:-0.224932 2:-0.411206 3:-0.712963 4:-0.503269 
8192 1:-0.551568 2:-0.463203 3:-0.798701 4:-0.503268 
7324.364740624388 1:-0.407873 2:-0.271178 3:-0.777937 4:-0.503268 
2102.144817844708 1:-0.329268 2:-0.252685 3:-0.337607 4:-0.383046 
105.9743366211744 1:-0.139192 2:0.0919964 3:-0.133387 4:-0.554206 
8192 1:-0.51333 2:-0.735923 3:-0.871262 4:-0.503269 
8192 1:-0.558362 2:-0.525142 3:-0.798701 4:-0.503268 
488.4084252804056 1:0.402857 2:-0.166667 3:-0.21875 4:0.149972 
5598.532556217341 1:-0.248138 2:-0.428835 3:-0.303892 4:-0.407955 
4622.696345111981 1:0.0373213 2:-0.534041 3:-0.732759 4:-0.33406 
8192 1:-0.555798 2:-0.600065 3:-0.878145 4:-0.597863 
8192 1:-0.142891 2:-0.492635 3:-0.505319 4:-0.517824 
1000.544751210556 1:0.0860042 2:-0.0817366 3:-0.300542 4:-0.198725 
2695.007772935878 1:-0.141835 2:-0.403061 3:-0.387352 4:-0.196943 
8192 1:-0.791921 2:-0.909674 3:-1 4:-0.203087 
11.39769733885215 1:0.177487 2:-0.421522 3:-0.686658 4:-0.326157 
8192 1:-0.515583 2:-0.533871 3:-0.880401 4:-0.506927 
217.5992000784667 1:0.176798 2:0.00125239 3:-0.203085 4:-0.349278 
8192 1:-0.0209671 2:-0.163293 3:-0.320175 4:-0.258277 
8192 1:-0.322169 2:-0.390792 3:-0.57573 4:-0.267972 
7990.965002679031 1:-0.0889375 2:-0.349841 3:-0.488786 4:-0.267973 
54.66931831599204 1:0.440448 2:-0.509771 3:-0.65859 4:-0.959973 
8192 1:-0.0286157 2:-0.0935673 3:-0.320175 4:-0.25828 
1031.526921501638 1:-0.068209 2:-0.220714 3:-0.240196 4:-0.181723 
390.6578582107242 1:-0.593886 2:-0.346681 3:-0.469178 4:-0.333382 
6968.595034433284 1:-0.660705 2:-0.833709 3:-0.918933 4:-0.506927 
8192 1:-0.529675 2:-0.582492 3:-0.843434 4:-0.465031 
844.6113175188781 1:0.00544212 2:-0.404493 3:-0.368893 4:0.0322272 
8192 1:-0.350132 2:-0.684706 3:-0.919102 4:-0.942966 
8192 1:-0.532486 2:-0.37425 3:-0.670213 4:-0.463813 
2141.830091990123 1:-0.517073 2:-0.357988 3:-0.552885 4:-0.238853 
152.3834041180813 1:-0.260737 2:-0.0976093 3:-0.251208 4:-0.471739 
90.48814863959011 1:-0.062418 2:0.0826211 3:-0.722222 4:-0.605124 
638.5189571662518 1:-0.00777965 2:-0.417551 3:-0.665948 4:-0.144832 
7443.46049238319 1:-0.426915 2:-0.662952 3:-0.863074 4:0.0183768 
3349.014255916547 1:-0.502938 2:-0.58807 3:-0.776871 4:-0.506223 
8192 1:-0.471491 2:-0.626897 3:-0.841837 4:-0.560327 
25.77420708734818 1:-0.153694 2:-0.632622 3:-0.67437 4:-0.492375 
1466.138915621498 1:-0.201539 2:-0.330062 3:-0.911731 4:-0.533612 
3990.522349075332 1:-0.170097 2:-0.31407 3:-0.90165 4:-0.533609 
6628.530635126433 1:-0.40752 2:-0.575389 3:-0.917201 4:-0.550604 
664.1262523657655 1:-0.308126 2:-0.568004 3:-0.578804 4:-0.506761 
1245.713820399355 1:-0.488203 2:-0.481605 3:-1 4:-0.456513 
8192 1:-0.159414 2:-0.54252 3:-0.628297 4:-0.586905 
8192 1:-0.19312 2:-0.545223 3:-0.518035 4:-0.586905 
8192 1:-0.495854 2:-0.47972 3:-1 4:-0.248579 
6309.357912759757 1:-0.0636433 2:-0.277389 3:-0.449574 4:-0.549399 
1891.16223090254 1:-0.123877 2:-0.277389 3:-0.258373 4:-0.590564 
566.5940997279296 1:-0.445402 2:-0.606777 3:-0.726148 4:0.0183777 
6646.447896832725 1:-0.493706 2:-0.512821 3:-0.875 4:0.0183797 
8192 1:-0.228936 2:-0.452568 3:-0.573003 4:-0.498998 
861.7715255995888 1:-0.0543628 2:-0.738775 3:-0.818075 4:-0.216358 
598.3509057173013 1:-0.623864 2:-0.480476 3:-0.746732 4:-0.33221 
8192 1:-0.150084 2:-0.368694 3:-0.440433 4:-0.553012 
8192 1:-0.530817 2:-0.472689 3:-0.714373 4:-0.471739 
573.5162675698236 1:-0.52439 2:-0.322552 3:-0.669744 4:-0.563883 
8192 1:-0.360357 2:-0.390792 3:-0.57573 4:-0.267975 
7704.282484823352 1:-0.514801 2:-0.679487 3:-0.84375 4:-0.303739 
65.43490982684897 1:0.375898 2:-0.524329 3:-0.694882 4:-0.963622 
8192 1:-0.16997 2:-0.426775 3:-0.441106 4:-0.489299 
3646.900246671412 1:-0.507842 2:-0.651731 3:-0.800258 4:-0.833836 
8192 1:-0.241782 2:-0.577604 3:-0.625604 4:-0.559094 
1825.118092034419 1:-0.139522 2:-0.477058 3:-0.745066 4:-0.992702 
2978.431756431552 1:-0.398654 2:-0.695451 3:-0.851533 4:-0.992703 
748.1422126504459 1:-0.200165 2:-0.561725 3:-0.611529 4:-0.586905 
283.1188159210348 1:-0.337759 2:-0.436547 3:-0.901899 4:0.00868337 
4028.845582584194 1:-0.142756 2:-0.425394 3:-0.439759 4:-0.38805 
0.8109122671010253 1:-0.0254663 2:-0.376571 3:-0.240196 4:-0.561476 
579.2750989312453 1:0.146454 2:-0.337607 3:-0.641204 4:0.0541603 
8.799632599297304 1:0.341711 2:-0.0320749 3:-0.142066 4:0.35685 
2731.12783245154 1:-0.289071 2:-0.307603 3:-0.729965 4:-0.471739 
848.8248781429708 1:-0.377438 2:-0.834056 3:-0.919102 4:-0.942967 
1192.232756871725 1:-0.611507 2:-0.239232 3:-0.744224 4:-0.239404 
406.5231536893079 1:-0.21834 2:-0.341526 3:-0.54142 4:-0.239404 
8192 1:-0.142891 2:-0.492635 3:-0.505319 4:-0.517824 
8192 1:-0.235272 2:-0.40984 3:-0.550464 4:-0.517825 
579.5995420273529 1:0.0824222 2:-0.211981 3:-0.164871 4:0.131807 
11.86696504950895 1:0.0546129 2:-0.151718 3:-0.0810277 4:0.131804 
4900.656384852 1:-0.591577 2:-0.586312 3:-0.711896 4:-0.541483 
691.0893210130918 1:-0.241034 2:-0.776092 3:-0.890845 4:-0.878648 
99.01543389015626 1:0.673608 2:-0.495536 3:-0.534734 4:-0.910223 
672.8774313836778 1:-0.510105 2:-0.410166 3:-0.589223 4:-0.52265 
725.3252952451992 1:-0.311347 2:-0.406579 3:-0.847741 4:-0.517831 
8192 1:-0.150084 2:-0.368694 3:-0.440433 4:-0.553012 
2936.302396136899 1:-0.170732 2:-0.685016 3:-0.819347 4:-0.850779 
6794.153686067395 1:-0.46593 2:-0.536325 3:-0.677083 4:-0.203674 
3621.906389760592 1:-0.182546 2:-0.613604 3:-0.730903 4:-0.488659 
8192 1:-0.288488 2:-0.491282 3:-0.845 4:-0.500221 
8192 1:-0.112616 2:-0.226231 3:-0.314159 4:-0.303051 
2629.628307090592 1:-0.207835 2:-0.324619 3:-0.746732 4:-0.45773 
2606.618796018326 1:-0.201104 2:-0.505891 3:-0.476351 4:-0.275133 
6.488863223448169 1:0.367923 2:-0.367992 3:-0.407492 4:0.239717 
1507.890937118956 1:-0.491962 2:-0.573003 3:-0.839876 4:-0.0355839 
5662.607950549297 1:-0.592546 2:-0.47999 3:-1 4:-0.238852 
8192 1:-0.535307 2:-0.650955 3:-0.922655 4:-0.714304 
3.829339015364491 1:0.367923 2:-0.246452 3:-0.407492 4:0.239715 
82.70034627798888 1:0.0463415 2:-0.526459 3:-0.670213 4:-0.264907 
973.4428556138199 1:-0.514941 2:-0.263033 3:-0.486755 4:-0.19452 
449.3462210065793 1:-0.421271 2:-0.437259 3:-0.82854 4:0.131807 
125.9292637639706 1:-0.503319 2:-0.362761 3:-0.345992 4:-0.0107404 
64.79837919308073 1:-0.557884 2:-0.552185 3:-0.454225 4:-0.107198 
95.85358378615504 1:-0.285 2:-0.682051 3:-1 4:-0.734344 
52.2209997892631 1:0.00544212 2:-0.300927 3:-0.242671 4:0.0322245 
35.43024434667815 1:-0.214408 2:-0.212747 3:-0.504792 4:-0.326156 
8192 1:-0.183061 2:-0.222681 3:-0.511041 4:-0.326157 
7209.140654054579 1:-0.250359 2:-0.64033 3:-0.824661 4:-0.881132 
5395.888774513171 1:-0.398654 2:-0.695451 3:-0.851533 4:-0.992703 
8192 1:-0.310793 2:-0.66682 3:-0.767964 4:-0.677301 
4092.395186967763 1:-0.485902 2:-0.241885 3:-0.664017 4:-0.291566 
8192 1:-0.214523 2:-0.452568 3:-0.573003 4:-0.498997 
1438.477793750108 1:-0.419424 2:-0.524266 3:-0.7101 4:-0.388051 
3568.872046923095 1:-0.258841 2:-0.735043 3:-0.919271 4:-0.52569 
473.5427171396215 1:-0.462246 2:-0.252211 3:-0.594948 4:-0.477741 
380.5309182841897 1:0.251307 2:-0.569875 3:-0.664502 4:-0.881131 
117.7787996872758 1:-0.120332 2:-0.273126 3:-0.199853 4:-0.303053 
8192 1:-0.191151 2:-0.320175 3:-0.362664 4:-0.498998 
1331.593091695672 1:-0.445863 2:-0.182842 3:-0.517134 4:-0.303146 
3139.305253276989 1:-0.538846 2:-0.251033 3:-0.528875 4:-0.201148 
67.37839279727586 1:0.441626 2:-0.25812 3:-0.483333 4:0.239715 
3794.924940028543 1:-0.260992 2:-0.465333 3:-0.4787 4:-0.415959 
1316.688979988821 1:-0.562595 2:-0.24422 3:-0.364754 4:-0.201149 
8192 1:-0.791921 2:-0.909674 3:-1 4:-0.203089 
8192 1:-0.864697 2:-1 3:-1 4:-0.203089 
223.5576774971805 1:-0.828469 2:-1 3:-1 4:-0.203087 
1338.954672707799 1:-0.792199 2:-0.888569 3:-1 4:-0.203086 
1863.559564679192 1:-0.64976 2:-0.833709 3:-0.918933 4:-0.506926 
265.1146633080708 1:0.336672 2:-0.534141 3:-0.645147 4:-0.910223 
42.21514959477024 1:-0.561212 2:-0.589744 3:-0.5 4:0.0857021 
1521.172383237558 1:-0.0677061 2:-0.0923609 3:-0.195502 4:-0.248549 
5905.078007521422 1:-0.537332 2:-0.242979 3:-0.472789 4:-0.19452 
8192 1:-0.255835 2:-0.486074 3:-0.498922 4:-0.555435 
5634.796194563775 1:-0.309415 2:-0.682051 3:-0.845 4:-0.500219 
27.10899567860797 1:-0.258275 2:-0.156954 3:-0.329004 4:-0.471739 
741.0888182319742 1:-0.298843 2:-0.446868 3:-1 4:-0.334036 
4499.396702607671 1:-0.243166 2:-0.709738 3:-0.891152 4:-0.489298 
245.0059513788536 1:-0.638651 2:-0.331639 3:-0.883634 4:-0.27154 
8192 1:-0.650554 2:-0.908984 3:-1 4:-0.81679 
177.4407155176469 1:-0.421759 2:-0.302744 3:-0.864035 4:-0.523915 
2.679352247086448 1:-0.378008 2:-0.876353 3:-0.913889 4:-0.523913 
239.0354509084057 1:0.129408 2:-0.402186 3:-0.676184 4:-0.248549 
577.9276927402165 1:-0.116266 2:-0.543486 3:-0.738176 4:-0.942974 
372.5510311811958 1:-0.0752874 2:-0.0127389 3:-0.629777 4:-0.418394 
0.6029717596762389 1:0.409404 2:0.0278515 3:-0.498922 4:0.0857013 
59.97720543903996 1:0.481379 2:-0.54416 3:-0.652778 4:-0.956314 
7459.494633300053 1:-0.349572 2:-0.527374 3:-0.790541 4:-0.881131 
160.6918152409963 1:-0.0752874 2:-0.0127389 3:-0.629777 4:-0.418394 
442.1800878975213 1:-0.12449 2:-0.805338 3:-1 4:-0.418391 
6152.268356207507 1:-0.521354 2:-0.37425 3:-0.670213 4:-0.463813 
8192 1:-0.468391 2:-0.230769 3:-0.625 4:-0.463811 
92.17829066632848 1:-0.816998 2:-0.803735 3:-1 4:-0.185934 
8192 1:-0.53468 2:-0.554158 3:-0.875801 4:-0.599717 
2139.308377366076 1:0.33636 2:-0.251208 3:-0.298007 4:0.149971 
639.5883047264109 1:-0.482475 2:-0.513927 3:-0.721223 4:-0.238852 
119.7334847502098 1:-0.156976 2:-0.717463 3:-0.724526 4:-0.238852 
711.555373146815 1:-0.198973 2:-0.277389 3:-0.258373 4:-0.590564 
615.6728644798141 1:-0.505665 2:-0.62447 3:-1 4:-0.419585 
147.9970914123859 1:0.0463415 2:-0.451813 3:-0.732759 4:-0.419585 
3272.4160549512 1:-0.398231 2:-0.440231 3:-1 4:-0.419585 
35.82267170448132 1:-0.142343 2:-0.087852 3:-0.745902 4:-0.537196 
1.697010506670448 1:-0.235232 2:0.161939 3:-0.742525 4:-0.537196 
219.3775506425578 1:-0.212327 2:-0.202173 3:-0.135688 4:-0.347948 
809.1213233812257 1:-0.723097 2:-0.552437 3:-0.912725 4:-0.347946 
173.432882906456 1:-0.707131 2:-0.433679 3:-0.901399 4:-0.347948 
936.0549447599559 1:-0.272813 2:-0.57034 3:-0.700772 4:-0.925375 
8192 1:-0.0844512 2:-0.25812 3:-0.483333 4:-0.264909 
129.8508872468858 1:-0.14126 2:-0.67884 3:-0.608586 4:-0.955695 
7034.207623634617 1:-0.324758 2:-0.637911 3:-0.747831 4:-0.861728 
901.204440254769 1:-0.120902 2:-0.348466 3:-0.682377 4:-0.537823 
1192.28526465848 1:-0.412381 2:-0.424006 3:-0.719203 4:-0.381899 
4757.742674269913 1:-0.339341 2:-0.56594 3:-0.867747 4:-0.438879 
5909.038286308362 1:-0.539347 2:-0.450089 3:-0.878145 4:-0.597863 
6642.9439523906 1:-0.346037 2:-0.725906 3:-0.888649 4:-0.717301 
496.1902668381833 1:-0.18558 2:-0.754163 3:-0.760309 4:-0.833837 
47.36336662760307 1:-0.220665 2:-0.608742 3:-0.598446 4:-0.955695 
712.9146927694853 1:-0.0276597 2:-0.0848516 3:-0.745066 4:-0.457727 
2414.078962891946 1:-0.485068 2:-0.436705 3:-1 4:-0.248579 
8192 1:-0.593391 2:-0.75289 3:-1 4:-0.734345 
8192 1:-0.131495 2:-0.308807 3:-0.387352 4:-0.196945 
1482.450632792605 1:-0.43946 2:-0.797227 3:-0.901148 4:-0.781603 
4540.187277263667 1:-0.23573 2:-0.401452 3:-0.533133 4:-0.505097 
7359.141588731646 1:-0.189889 2:-0.41747 3:-0.63357 4:-0.549398 
1140.396755759009 1:-0.46593 2:-0.536325 3:-0.677083 4:-0.203674 
344.9769235481788 1:-0.0358485 2:-0.567743 3:-0.648792 4:-0.875637 
3542.427157302434 1:-0.402091 2:-0.475909 3:-0.744505 4:-0.203089 
265.7248633779283 1:-0.0962079 2:-0.843705 3:-0.891152 4:-0.269119 
6812.712868779023 1:-0.635421 2:-0.501474 3:-1 4:-0.341904 
1907.185364711122 1:-0.24588 2:-0.474859 3:-0.534535 4:-0.406258 
3990.387355384437 1:-0.634997 2:-0.462243 3:-0.836152 4:-0.347946 
4694.129839152489 1:-0.621879 2:-0.378418 3:-0.724526 4:-0.347948 
8192 1:-0.550215 2:-0.676297 3:-1 4:-0.620362 
3885.382024318712 1:-0.48863 2:-0.342587 3:-0.417293 4:-0.273352 
52.11989832464708 1:-0.0979815 2:0.0714573 3:-0.149687 4:-0.554206 
168.4092919629625 1:-0.0288971 2:-0.229054 3:-0.352007 4:-0.0883492 
269.0192655128807 1:-0.541748 2:-0.651881 3:-0.57573 4:-0.207245 
66.02347875743776 1:0.279369 2:-0.166947 3:0.0152838 4:0.131806 
570.9272975918217 1:-0.421271 2:-0.437259 3:-0.82854 4:0.131807 
1013.678654562213 1:0.415428 2:-0.210573 3:-0.336473 4:0.159673 
8192 1:-0.157393 2:-0.46499 3:-0.627404 4:-0.489298 
8192 1:-0.166517 2:-0.571393 3:-0.620098 4:-0.489298 
8192 1:-0.192163 2:-0.415535 3:-0.430147 4:-0.4893 
366.1435421415217 1:-0.190738 2:-0.393889 3:-0.831155 4:-0.457726 
256.7110841389496 1:-0.534018 2:-0.646009 3:-0.686235 4:-0.207241 
8192 1:-0.355196 2:-0.643755 3:-0.891457 4:-0.438881 
8192 1:-0.36234 2:-0.647702 3:-0.892659 4:-0.438879 
635.9149314408631 1:-0.22985 2:-0.838605 3:-0.803299 4:-0.270343 
8192 1:-0.864697 2:-1 3:-1 4:-0.203087 
221.4433316431814 1:-0.25554 2:-0.7302 3:-0.898825 4:-0.695536 
2484.165416070561 1:-0.723097 2:-0.552437 3:-0.912725 4:-0.347946 
8192 1:-0.646058 2:-0.462243 3:-0.836152 4:-0.347948 
1981.698431539854 1:-0.406814 2:-0.379468 3:-1 4:-0.10605 
2431.421520827407 1:-0.311617 2:-0.407332 3:-0.660088 4:-0.223639 
8192 1:-0.584985 2:-0.656065 3:-1 4:-0.668247 
283.9651278481811 1:-0.259483 2:-0.123303 3:-0.57261 4:-0.216998 
23.47824671788998 1:-0.0874929 2:-0.168157 3:-0.0988372 4:0.131804 
136.1475235109811 1:0.696042 2:-0.468268 3:-0.601201 4:-0.910222 
8192 1:-0.64057 2:-0.817968 3:-1 4:-0.816791 
2.829259154098368 1:0.241422 2:-0.157975 3:-0.835805 4:0.0844174 
462.6757507029817 1:-0.204395 2:-0.340659 3:-1 4:-0.401391 
1.595607338063327 1:-0.142343 2:-0.087852 3:-0.745902 4:-0.537196 
8192 1:-0.28536 2:-0.549299 3:-0.600515 4:-0.436559 
8192 1:-0.559832 2:-0.643327 3:-0.937901 4:-0.599715 
6185.907872331702 1:-0.153694 2:-0.4545 3:-0.620098 4:-0.489299 
271.0251891320692 1:-0.389913 2:-0.542885 3:-0.628594 4:-0.959355 
522.6655403842991 1:0.00721235 2:-0.20733 3:-0.355956 4:-0.150913 
6619.25667333502 1:-0.428722 2:-0.771589 3:-0.888649 4:-0.560236 
2396.389533403767 1:-0.207978 2:-0.183048 3:-0.569444 4:-0.216995 
14.20092386306397 1:-0.475019 2:-0.394907 3:-0.463668 4:-0.586906 
2264.27281779665 1:-0.704662 2:-0.769231 3:-1 4:-0.353423 
8192 1:-0.581034 2:-0.689886 3:-0.920431 4:-0.629403 
1522.370235858405 1:-0.444798 2:-0.448456 3:-0.683673 4:-0.386123 
7939.707271953241 1:-0.311347 2:-0.344114 3:-0.771611 4:-0.517832 
563.2721589360774 1:-0.560842 2:-0.651881 3:-0.57573 4:-0.207241 
78.73625212930833 1:-0.417973 2:-0.940385 3:-1 4:-0.411036 
345.0514254762798 1:-0.357927 2:-0.301476 3:-0.412879 4:-0.508134 
1037.99829724617 1:-0.220441 2:-0.368314 3:-0.230132 4:-0.586905 
8192 1:-0.520624 2:-0.730247 3:-1 4:-0.620364 
95.05866780762922 1:-0.195625 2:-0.602564 3:-0.80625 4:-0.85078 
885.6368002969165 1:-0.0652054 2:-0.355509 3:-0.301802 4:-0.545663 
8192 1:-0.529675 2:-0.566434 3:-0.765152 4:-0.465033 
7323.007256354534 1:-0.321485 2:-0.56594 3:-0.867747 4:-0.438879 
8192 1:-0.347848 2:-0.647702 3:-0.892659 4:-0.438881 
494.1798728200288 1:0.211979 2:-0.017919 3:-0.251931 4:-0.196382 
2895.333014786112 1:-0.428988 2:-0.249679 3:-0.428466 4:-0.508134 
77.44076291408244 1:0.311976 2:-0.557037 3:-0.640093 4:-0.955695 
2804.298614185419 1:-0.153694 2:-0.632622 3:-0.67437 4:-0.492375 
1855.436099602343 1:-0.128049 2:-0.242979 3:-0.472789 4:-0.549398 
890.9107544438249 1:0.118228 2:0.031513 3:-0.260496 4:-0.27154 
1629.483405340061 1:-0.702744 2:-0.31352 3:-0.823864 4:-0.328553 
8192 1:-0.153902 2:-0.528647 3:-0.58221 4:-0.586905 
8192 1:-0.484961 2:-0.560693 3:-0.665371 4:-0.31525 
1168.754729566065 1:-0.347753 2:-0.728784 3:-0.898294 4:-0.411036 
8192 1:-0.484467 2:-0.82594 3:-1 4:-0.734345 
7650.94467961295 1:-0.626307 2:-0.519583 3:-0.893544 4:-0.594205 
8192 1:-0.156176 2:-0.440559 3:-0.545455 4:-0.586905 
525.2414918394604 1:-0.0117886 2:-0.602564 3:-0.677083 4:-0.393492 
6166.053680756054 1:-0.676958 2:-0.592987 3:-0.941642 4:-0.341905 
8192 1:-0.635421 2:-0.501474 3:-1 4:-0.341903 
6481.88867882762 1:-0.436865 2:-0.503205 3:-1 4:-0.145452 
292.6305229085098 1:-0.417973 2:-0.940385 3:-1 4:-0.411036 
8192 1:-0.361485 2:-0.728784 3:-0.898294 4:-0.411035 
620.698746960475 1:-0.168723 2:-0.119384 3:-0.435131 4:-0.238853 
369.1239992724522 1:-0.597561 2:-0.247459 3:-0.77071 4:-0.33221 
4627.119402463019 1:-0.346037 2:-0.63141 3:-0.84375 4:-0.539719 
0.003498774417295792 1:-0.235232 2:0.161939 3:-0.742525 4:-0.537196 
265.5146155306517 1:-0.193241 2:-0.777139 3:-1 4:0.11839 
969.4469406486296 1:0.104209 2:-0.497598 3:-0.650113 4:-0.342567 
185.2834950476692 1:0.130307 2:-0.509338 3:-0.760802 4:0.136672 
1203.450858051371 1:-0.193297 2:-0.567417 3:-0.472789 4:-0.326131 
2440.94341302203 1:-0.223418 2:-0.229968 3:-0.515625 4:-0.203089 
3475.220016175014 1:-0.828469 2:-1 3:-1 4:-0.203087 
3572.84335141861 1:-0.730941 2:-0.682051 3:-0.778571 4:-0.31099 
572.1994961049019 1:-0.681355 2:-0.707271 3:-0.890227 4:-0.310992 
8192 1:-0.490517 2:-0.560972 3:-0.887355 4:-0.523915 
5052.979279140846 1:-0.0215509 2:-0.211196 3:-0.260496 4:-0.258279 
24.04490843481978 1:0.481379 2:-0.54416 3:-0.652778 4:-0.956314 
32.06057969828257 1:0.262301 2:-0.00641026 3:-0.211483 4:-0.312236 
6923.416722076586 1:-0.395133 2:-0.68969 3:-0.883634 4:-0.781603 
8192 1:-0.466152 2:-0.797227 3:-0.901148 4:-0.781604 
8192 1:-0.415419 2:-0.766742 3:-0.912528 4:-0.781602 
521.3832858080343 1:-0.0994602 2:-0.765448 3:-1 4:-0.656174 
348.650503562211 1:-0.31541 2:-0.605849 3:-1 4:0.00868209 
60.32041898629583 1:-0.0358485 2:-0.567743 3:-0.648792 4:-0.875637 
198.316915919465 1:-0.235366 2:-0.286654 3:-0.503205 4:-0.238851 
1149.459625924085 1:-0.48863 2:-0.342587 3:-0.417293 4:-0.273352 
2844.29085209903 1:0.0482302 2:-0.311302 3:-0.580325 4:0.0632861 
643.3442495984398 1:0.011362 2:-0.029517 3:-0.211483 4:-0.349278 
316.3994105721879 1:0.415638 2:-0.251885 3:-0.0882353 4:0.13597 
8192 1:-0.235272 2:-0.465167 3:-0.550464 4:-0.517824 
34.00741228315852 1:-0.559126 2:-1 3:-1 4:-0.145449 
1278.0757938812 1:-0.473734 2:-0.318009 3:-0.77071 4:-0.490514 
89.53517978374377 1:-0.10043 2:-0.568395 3:-0.473982 4:0.167002 
2978.384660970926 1:-0.0954525 2:-0.182842 3:-0.275701 4:-0.422598 
8192 1:-0.199627 2:-0.545223 3:-0.518035 4:-0.586905 
401.1598228832015 1:-0.370757 2:-0.344436 3:-0.600515 4:-0.267972 
357.0896586082959 1:-0.151425 2:-0.0836599 3:-0.272788 4:-0.457164 
5132.967266809911 1:-0.164165 2:-0.223942 3:-0.31213 4:-0.239407 
1271.179464635223 1:-0.324545 2:-0.514867 3:-0.545188 4:-0.239403 
8192 1:-0.535307 2:-0.650955 3:-0.922655 4:-0.714303 
25.71766560114934 1:-0.0988065 2:-0.248749 3:-0.527439 4:-0.203089 
76.17739257356567 1:-0.144817 2:-0.656065 3:-0.720553 4:-0.781603 
8192 1:-0.415419 2:-0.766742 3:-0.912528 4:-0.781603 
1219.523257670883 1:-0.214408 2:-0.212747 3:-0.504792 4:-0.326156 
8192 1:-0.204986 2:-0.415535 3:-0.430147 4:-0.489299 
5512.869323455524 1:-0.335197 2:-0.385182 3:-0.892956 4:-0.490514 
4451.100873806956 1:-0.484467 2:-0.651881 3:-1 4:-0.734344 
944.0148650294466 1:-0.67106 2:-0.66682 3:-0.767964 4:-0.499578 
3532.241499352904 1:-0.502938 2:-0.58807 3:-0.776871 4:-0.506223 
8192 1:-0.564024 2:-0.316239 3:-0.791667 4:-0.427984 
1293.581793872926 1:-0.241034 2:-0.776092 3:-0.890845 4:-0.878648 
3225.536770951044 1:-0.353659 2:-0.592373 3:-0.909674 4:-0.550604 
2943.215304733356 1:-0.255295 2:-0.600662 3:-1 4:-0.550604 
1318.118598221984 1:-0.0290183 2:-0.251367 3:-0.463296 4:-0.150911 
1016.748107100118 1:-0.440423 2:-0.364922 3:-0.900129 4:-0.106046 
483.9960561093759 1:-0.517644 2:-0.577196 3:-1 4:-0.638556 
3547.320371544975 1:-0.626307 2:-0.54142 3:-1 4:-0.594205 
4140.556514716944 1:-0.493706 2:-0.487179 3:-0.75 4:0.0183768 
994.8106722479049 1:-0.229012 2:-0.497976 3:-0.388158 4:-0.586905 
1194.142947271865 1:-0.282434 2:-0.524266 3:-0.4202 4:-0.586905 
8192 1:-0.189889 2:-0.41747 3:-0.63357 4:-0.549399 
20.11727398971424 1:0.312977 2:-0.53965 3:-0.551158 4:0.21118 
1528.275452174399 1:-0.118942 2:-0.56417 3:-0.696475 4:-0.955695 
8125.764465221729 1:-0.15094 2:-0.279114 3:-0.537589 4:-0.549399 
317.9971381550961 1:-0.378008 2:-0.876353 3:-0.913889 4:-0.523913 
579.402435579115 1:-0.0553862 2:-0.365207 3:-0.327257 4:0.0978552 
1704.217892337379 1:-0.0553862 2:-0.392806 3:-0.461806 4:0.0978568 
928.7750779033385 1:-0.490719 2:-0.648287 3:-0.82854 4:-0.734345 
8192 1:-0.656132 2:-0.776092 3:-1 4:-0.734345 
2596.041711685323 1:-0.324545 2:-0.533526 3:-0.63615 4:-0.239404 
8192 1:-0.200711 2:-0.411206 3:-0.641204 4:-0.5154 
6749.69829984366 1:-0.427375 2:-0.485904 3:-0.807214 4:-0.035583 
8192 1:-0.502419 2:-0.611204 3:-1 4:-0.456512 
8192 1:-0.624159 2:-0.588859 3:-1 4:-0.600262 
16.36518026608132 1:-0.514941 2:-0.263033 3:-0.486755 4:-0.19452 
2.188699963175296 1:-0.0254663 2:-0.376571 3:-0.240196 4:-0.561476 
40.72699759403526 1:-0.519537 2:-0.635008 3:-1 4:-0.105449 
338.8724760944024 1:0.0330123 2:-0.0633676 3:-0.136146 4:-0.243699 
97.02722776110024 1:-0.00872914 2:-0.330634 3:-0.184211 4:-0.569956 
-8192 1:-0.508881 2:-0.70153 3:-0.923419 4:-0.770102 
-437.9382536217956 1:-0.657611 2:-0.875151 3:-1 4:-0.844719 
-34.97893395691806 1:-0.201701 2:-0.783414 3:-0.894414 4:0.00868114 
-1671.076071443326 1:-0.468655 2:-0.523905 3:-0.798177 4:0.00868265 
-6296.620480192835 1:-0.445794 2:-0.43865 3:-0.890537 4:0.00868061 
-8192 1:-0.336078 2:-0.354419 3:-0.803299 4:-0.503269 
-8192 1:-0.271423 2:-0.62657 3:-0.739933 4:-0.503268 
-8192 1:-0.444867 2:-0.46327 3:-0.626206 4:-0.356498 
-88.85785406538621 1:-0.873935 2:-1 3:-1 4:-0.212149 
-4710.57847892057 1:-0.447055 2:-0.289139 3:-0.369919 4:-0.223644 
-8192 1:-0.504057 2:-0.734058 3:-1 4:-0.719767 
-8192 1:-0.527585 2:-0.561041 3:-0.768657 4:-0.47174 
-8192 1:-0.551202 2:-0.51944 3:-0.746732 4:-0.471738 
-8192 1:-0.299846 2:-0.438566 3:-0.855948 4:-0.506927 
-8192 1:-0.65342 2:-0.699102 3:-1 4:-0.692465 
-8192 1:-0.218037 2:-0.405968 3:-0.586299 4:-0.503269 
-8192 1:-0.538379 2:-0.244692 3:-0.473982 4:-0.212149 
-1251.77447036325 1:-0.0722845 2:-0.722719 3:-1 4:-0.503268 
-141.0469622576938 1:0.181353 2:-0.455128 3:-0.6875 4:0.149974 
-1326.246878689929 1:-0.281561 2:-0.832069 3:-1 4:-0.549399 
-8192 1:-0.458472 2:-0.637427 3:-0.864035 4:-0.328553 
-2964.100573587019 1:-0.270673 2:-0.379468 3:-1 4:-0.506927 
-8192 1:-0.198367 2:-0.410256 3:-0.75 4:-0.506926 
-2335.769672513641 1:-0.498065 2:-0.560034 3:-1 4:-0.506926 
-6927.500639209596 1:0.052133 2:-0.061406 3:-0.285055 4:-0.258279 
-8192 1:-0.0721123 2:-0.340106 3:-0.415094 4:-0.258276 
-5305.936737199802 1:-0.0817505 2:-0.155888 3:-0.314159 4:-0.258279 
-8192 1:-0.238025 2:-0.188419 3:-0.534535 4:-0.258276 
-8192 1:-0.23567 2:-0.499451 3:-0.609572 4:-0.366195 
-8192 1:-0.379862 2:-0.657383 3:-0.832974 4:-0.506926 
-780.8122445746794 1:0.333461 2:-0.568942 3:-0.663774 4:-0.916901 
-901.4946634066939 1:-0.394736 2:-0.725177 3:-0.896941 4:-0.471738 
-8192 1:-0.330507 2:-0.727353 3:-0.897757 4:-0.471737 
-1191.921938770548 1:-0.551981 2:-0.385182 3:-0.571823 4:-0.471738 
-5765.732384932046 1:-0.666505 2:-0.841659 3:-0.922809 4:-0.471738 
-8192 1:-0.112478 2:-0.556433 3:-0.654018 4:-0.549399 
-2084.080131273571 1:-0.211661 2:-0.586231 3:-0.575342 4:-0.549397 
-8192 1:-0.227986 2:-0.498935 3:-0.555874 4:-0.549397 
-8192 1:-0.165755 2:-0.527374 3:-0.581081 4:-0.549398 
-8192 1:-0.671232 2:-0.478773 3:-1 4:-0.332209 
-8192 1:0.0125885 2:-0.551282 3:-0.6875 4:-0.33221 
-8192 1:-0.63194 2:-0.360907 3:-0.805276 4:-0.332209 
-8192 1:-0.685526 2:-0.565644 3:-0.788251 4:-0.332214 
-1805.363709737259 1:0.05415 2:-0.288175 3:-0.652985 4:0.00868061 
-5290.436635286207 1:-0.409109 2:-0.616686 3:-0.90165 4:0.00868337 
-159.5642832371454 1:0.052133 2:-0.0320749 3:-0.142066 4:-0.25828 
-8192 1:-0.0740341 2:-0.179336 3:-0.428466 4:-0.258277 
-5464.124355650326 1:-0.11735 2:-0.268523 3:-0.28681 4:-0.25828 
-2779.005523651734 1:-0.568257 2:-0.691312 3:-0.623786 4:-0.258276 
-629.0872104314552 1:0.178571 2:-0.0682821 3:-0.290293 4:-0.258276 
-8192 1:-0.181491 2:-0.307692 3:-0.875 4:-0.506927 
-8192 1:-0.374225 2:-0.640252 3:-0.916487 4:-0.506926 
-1403.602828174984 1:-0.588245 2:-0.68107 3:-0.880401 4:-0.506927 
-8192 1:-0.529423 2:-0.537376 3:-0.897487 4:-0.549399 
-4888.52241457544 1:-0.474954 2:-0.57265 3:-1 4:-0.549397 
-8192 1:-0.502988 2:-0.655556 3:-0.870833 4:-0.549398 
-8192 1:-0.802577 2:-0.900016 3:-1 4:-0.207262 
-2424.208291339048 1:-0.475467 2:-0.586004 3:-0.798177 4:0.00868268 
-218.091265050313 1:-0.0396592 2:-0.499122 3:-0.787671 4:0.00868209 
-8192 1:-0.475392 2:-0.497746 3:-0.787088 4:0.0086809 
-8192 1:-0.568662 2:-0.534915 3:-0.896941 4:-0.619092 
-8192 1:-0.224642 2:-0.452633 3:-0.41991 4:-0.366195 
-8192 1:-0.112478 2:-0.53869 3:-0.567522 4:-0.549399 
-8192 1:-0.536343 2:-0.600461 3:-0.897487 4:-0.549399 
-8192 1:-0.176608 2:-0.499596 3:-0.530872 4:-0.549399 
-8192 1:-0.149525 2:-0.3735 3:-0.522783 4:-0.549397 
-8192 1:-0.14629 2:-0.484497 3:-0.675732 4:-0.549397 
-5363.866785414018 1:-0.527255 2:-0.693543 3:-0.906627 4:-0.549399 
-3875.655624321512 1:-0.182994 2:-0.477345 3:-0.363014 4:-0.549399 
-8192 1:-0.556635 2:-0.568883 3:-0.868644 4:-0.549399 
-5487.303903042439 1:-0.135976 2:-0.34965 3:-0.295455 4:-0.549399 
-3548.248955996223 1:-0.0929548 2:-0.286338 3:-0.400155 4:-0.549397 
-8192 1:-0.20531 2:-0.416423 3:-0.509494 4:-0.549397 
-8192 1:-0.582409 2:-0.592987 3:-0.766566 4:-0.549399 
-8192 1:-0.680416 2:-0.64033 3:-0.824661 4:-0.320689 
-8059.672230019271 1:-0.572289 2:-0.529104 3:-0.908175 4:-0.471739 
-8192 1:-0.319643 2:-0.554444 3:-0.913117 4:-0.471738 
-813.4534818915853 1:0.333461 2:-0.568942 3:-0.663774 4:-0.916901 
-397.163561852209 1:0.644406 2:-0.521758 3:-0.598029 4:-0.9169 
-403.7335520265237 1:-0.175712 2:-0.488828 3:-0.750804 4:-0.942966 
-6636.642769050053 1:-0.150629 2:-0.604148 3:-0.691235 4:-0.870771 
-1195.734599438301 1:-0.638123 2:-0.811493 3:-1 4:-0.710666 
-4392.695613258846 1:-0.316972 2:-0.646724 3:-0.892361 4:-0.990905 
-149.6356555207627 1:-0.437195 2:-0.831391 3:-0.882576 4:-0.990906 
-8192 1:-0.523925 2:-0.704451 3:-0.924168 4:-0.619092 
-1039.882878469356 1:-0.669425 2:-0.737954 3:-1 4:-0.718622 
-8192 1:-0.508881 2:-0.70153 3:-0.923419 4:-0.770102 
-4887.711901919442 1:-0.525811 2:-0.699152 3:-0.922809 4:-0.770103 
-8192 1:-0.866235 2:-1 3:-1 4:-0.207259 
-7092.169875176956 1:-0.231501 2:-0.708098 3:-0.890537 4:-0.859835 
-7118.669371128499 1:-0.572289 2:-0.529104 3:-0.908175 4:-0.471739 
-2425.449371645478 1:-0.198748 2:-0.445022 3:-0.389077 4:-0.47174 
-8192 1:-0.26618 2:-0.370399 3:-0.616337 4:-0.471739 
-8192 1:-0.498065 2:-0.530703 3:-0.857011 4:-0.506927 
-8192 1:-0.219833 2:-0.358525 3:-0.72807 4:-0.506927 
-5239.236484507251 1:-0.655052 2:-0.868977 3:-1 4:-0.804673 
-309.1671111232681 1:-0.394736 2:-0.725177 3:-0.896941 4:-0.471738 
-8192 1:-0.58738 2:-0.408578 3:-0.884673 4:-0.47174 
-8192 1:-0.389223 2:-0.587567 3:-0.908608 4:-0.471738 
-5528.46999903196 1:-0.46034 2:-0.772243 3:-0.888968 4:-0.471739 
-8192 1:-0.455661 2:-0.448644 3:-1 4:-0.215806 
-8192 1:-0.598664 2:-0.738672 3:-1 4:-0.693095 
-31.11376695978321 1:0.284487 2:-0.401709 3:-0.583333 4:0.149971 
-1737.555134081743 1:0.368632 2:-0.262144 3:-0.345992 4:0.149972 
-2762.391672371549 1:-0.70764 2:-0.579186 3:-1 4:-0.411644 
-8192 1:-0.589512 2:-0.584221 3:-1 4:-0.619092 
-2804.020819656375 1:-0.66858 2:-0.64033 3:-0.824661 4:-0.320689 
-3606.07073742441 1:-0.176908 2:-0.760168 3:-0.832974 4:-0.320686 
-123.3362505653253 1:-0.58738 2:-0.408578 3:-0.884673 4:-0.471738 
-5038.983922420075 1:-0.270315 2:-0.351552 3:-0.286184 4:-0.47174 
-2474.93602757021 1:-0.0915655 2:-0.0687694 3:-0.675732 4:-0.471739 
-1706.975705833301 1:-0.621897 2:-0.577944 3:-1 4:-0.471737 
-4351.283312183679 1:-0.147004 2:-0.234751 3:-0.398292 4:-0.471738 
-8192 1:-0.572098 2:-0.68107 3:-0.880401 4:-0.506926 
-8192 1:-0.23819 2:-0.525866 3:-0.72807 4:-0.506926 
-8192 1:-0.527585 2:-0.549177 3:-0.826493 4:-0.471739 
-8192 1:-0.157507 2:-0.427119 3:-0.476351 4:-0.471739 
-8192 1:-0.256547 2:-0.330634 3:-0.388158 4:-0.47174 
-2476.334102938725 1:-0.591972 2:-0.439513 3:-0.668803 4:-0.471738 
-8192 1:-0.141673 2:-0.304487 3:-0.515625 4:-0.258276 
-458.8355009292949 1:-0.418699 2:-0.889601 3:-1 4:-0.647052 
-393.209666225939 1:-0.69763 2:-0.935897 3:-1 4:-0.925376 
-1245.328805814752 1:-0.388034 2:-0.671842 3:-1 4:-0.813705 
-998.9770375369358 1:-0.667828 2:-0.74766 3:-0.876984 4:-0.770692 
-8192 1:-0.338343 2:-0.6727 3:-0.772059 4:-0.762868 
-8192 1:-0.319643 2:-0.554444 3:-0.913117 4:-0.471739 
-8192 1:-0.389223 2:-0.587567 3:-0.908608 4:-0.471738 
-8192 1:-0.47203 2:-0.295068 3:-0.762997 4:-0.471739 
-8192 1:-0.338379 2:-0.64631 3:-0.909251 4:-0.471737 
-7530.159675813388 1:-0.476829 2:-0.26329 3:-0.527439 4:-0.471738 
-7743.274121254157 1:-0.591273 2:-0.680632 3:-1 4:-0.471738 
-8192 1:-0.299149 2:-0.700048 3:-0.853774 4:-0.759209 
-8192 1:-0.336078 2:-0.354419 3:-0.803299 4:-0.503269 
-8192 1:-0.218037 2:-0.349393 3:-0.586299 4:-0.503268 
-179.4062997586771 1:0.284487 2:-0.287749 3:-0.444444 4:0.149972 
-1197.900169885275 1:0.0615058 2:-0.395206 3:-0.578804 4:0.149974 
-3129.536215199874 1:0.0653275 2:-0.455128 3:-0.6875 4:-0.332214 
-6027.061590027582 1:-0.873935 2:-1 3:-1 4:-0.212149 
-8192 1:-0.372669 2:-0.38856 3:-0.649321 4:-0.212149 
-1518.842110420069 1:0.368632 2:-0.228605 3:-0.182489 4:0.149972 
-816.7610476895326 1:0.375 2:-0.150778 3:-0.337607 4:0.149974 
-8192 1:-0.521833 2:-0.74359 3:-1 4:-0.719767 
-1339.328293891044 1:-0.752554 2:-0.935551 3:-1 4:-0.248543 
-1704.159635247891 1:-0.37306 2:-0.627746 3:-0.786501 4:-0.944776 
-202.4044515135188 1:-0.627393 2:-0.653399 3:-1 4:-0.787706 
-8192 1:-0.568712 2:-0.344729 3:-0.722222 4:-0.471738 
-3051.935436779274 1:-0.274813 2:-0.239232 3:-0.360561 4:-0.471739 
-1238.286436553418 1:-0.113455 2:-0.0355112 3:-0.189331 4:-0.47174 
-4384.734750024565 1:-0.480029 2:-0.222144 3:-0.762997 4:-0.471738 
-8192 1:-0.480981 2:-0.274522 3:-0.69246 4:-0.471739 
-1048.645228570115 1:-0.513782 2:-0.822705 3:-1 4:-0.719767 
-4475.182560300325 1:-0.521833 2:-0.74359 3:-1 4:-0.719767 
-8192 1:-0.425419 2:-0.448644 3:-1 4:-0.215807 
-6989.587531855344 1:-0.655052 2:-0.868977 3:-1 4:-0.804673 
-1619.353714434827 1:-0.0135501 2:-0.304153 3:-0.347643 4:0.00868037 
-8192 1:-0.170274 2:-0.441858 3:-0.530872 4:-0.549399 
-8192 1:-0.143902 2:-0.470085 3:-0.530303 4:-0.549397 
-8192 1:-0.150264 2:-0.443083 3:-0.506369 4:-0.549397 
-8192 1:-0.203531 2:-0.477995 3:-0.537313 4:-0.549398 
-6987.796909337701 1:-0.406377 2:-0.742311 3:-0.903367 4:-0.990906 
-8192 1:-0.342242 2:-0.692506 3:-0.850097 4:-0.7992 
-8192 1:-0.358115 2:-0.727353 3:-0.897757 4:-0.471738 
-8192 1:-0.350631 2:-0.64631 3:-0.909251 4:-0.471738 
-598.5476486682049 1:-0.427782 2:-0.841929 3:-0.889915 4:-0.471739 
-8192 1:-0.582577 2:-0.534915 3:-0.896941 4:-0.619092 
-8192 1:-0.523925 2:-0.704451 3:-0.924168 4:-0.619092 
-8192 1:-0.589512 2:-0.633136 3:-1 4:-0.619091 
-8192 1:-0.550283 2:-0.635589 3:-0.888968 4:-0.619091 
-3408.071748691998 1:-0.342242 2:-0.677131 3:-0.775145 4:-0.7992 
-3800.582781465571 1:-0.802577 2:-0.900016 3:-1 4:-0.207259 
-7971.06934713563 1:-0.799614 2:-0.950629 3:-1 4:-0.207257 
-1023.207379075057 1:-0.521166 2:-0.892221 3:-0.868644 4:-0.750045 
-8192 1:-0.546927 2:-0.480476 3:-0.746732 4:-0.471739 
-65.32736825078752 1:-0.551981 2:-0.385182 3:-0.571823 4:-0.471738 
-93.95711294728696 1:-0.476829 2:-0.26329 3:-0.527439 4:-0.471738 
-8192 1:-0.554914 2:-0.454267 3:-0.768657 4:-0.471739 
-361.8901890101008 1:-0.673018 2:-0.92357 3:-1 4:-0.831363 
-750.6963656568116 1:-0.666505 2:-0.841659 3:-0.922809 4:-0.471738 
-930.7142671461523 1:-0.476829 2:-0.668803 3:-0.838542 4:-0.910223 
-8192 1:-0.447055 2:-0.547634 3:-0.684959 4:-0.223642 
-2707.561448640889 1:-0.625075 2:-0.882144 3:-1 4:-0.787099 
-8192 1:-0.358647 2:-0.627746 3:-0.786501 4:-0.944776 
-418.3073291800124 1:-0.478659 2:-0.583109 3:-0.593531 4:-0.944776 
-245.6226471231314 1:-0.7395 2:-0.604213 3:-1 4:-0.787706 
-482.7412246180917 1:-0.7395 2:-0.604213 3:-1 4:-0.787706 
-8192 1:-0.418033 2:-0.762997 3:-0.911124 4:-0.785299 
-55.41162765905547 1:-0.478659 2:-0.583109 3:-0.593531 4:-0.944776 
-8192 1:-0.491362 2:-0.684575 3:-0.84623 4:-0.471739 
-3399.809576953726 1:-0.763271 2:-0.64033 3:-0.824661 4:-0.328555 
-8192 1:-0.235481 2:-0.476159 3:-0.444842 4:-0.549399 
-8192 1:-0.456202 2:-0.54416 3:-0.861111 4:-0.549399 
-910.8521764239845 1:-0.0882855 2:-0.300927 3:-0.242671 4:-0.549397 
-572.2499312440849 1:-0.473258 2:-0.511683 3:-1 4:-0.549397 
-8192 1:-0.254585 2:-0.454705 3:-0.488786 4:-0.549397 
-8192 1:-0.495041 2:-0.572379 3:-0.754747 4:-0.549399 
-6575.742785285666 1:-0.517464 2:-0.22828 3:-0.623786 4:-0.258279 
-8192 1:-0.607622 2:-0.523077 3:-1 4:-0.258276 
-7693.246607986784 1:-0.149525 2:-0.3735 3:-0.522783 4:-0.549399 
-8192 1:-0.0929548 2:-0.286338 3:-0.400155 4:-0.549397 
-8192 1:-0.122732 2:-0.321451 3:-0.527439 4:-0.549398 
-8192 1:-0.424032 2:-0.81769 3:-0.911124 4:-0.7853 
-8192 1:-0.63194 2:-0.360907 3:-0.805276 4:-0.332214 
-1432.457137013879 1:-0.464709 2:-0.90793 3:-1 4:-0.785299 
-521.5515648452919 1:-0.649422 2:-0.877082 3:-1 4:-0.775536 
-257.6375429442185 1:-0.521166 2:-0.892221 3:-0.868644 4:-0.750045 
-8192 1:-0.0721123 2:-0.220126 3:-0.268868 4:-0.25828 
-8192 1:-0.230169 2:-0.331639 3:-0.534535 4:-0.258277 
-2325.333445734971 1:-0.158022 2:-0.279647 3:-0.394531 4:-0.25828 
-8192 1:-0.607622 2:-0.523077 3:-1 4:-0.258276 
-6625.03514503748 1:-0.0692656 2:-0.255738 3:-0.419476 4:-0.258276 
-8192 1:-0.565274 2:-0.635589 3:-0.888968 4:-0.619092 
-2272.076224213095 1:-0.136048 2:-0.440916 3:-0.407492 4:0.00868265 
-3043.089736626667 1:-0.0135501 2:-0.330916 3:-0.478114 4:0.00868061 
-2790.625742784464 1:-0.448907 2:-0.709738 3:-0.891152 4:0.00868337 
-555.9872253422465 1:-0.746341 2:-1 3:-1 4:-0.226688 
-8192 1:-0.388034 2:-0.525994 3:-0.822248 4:-0.813706 
-292.8375448288234 1:-0.15569 2:-0.793837 3:-1 4:0.00868114 
-2667.843171078005 1:-0.496951 2:-0.563257 3:-0.787088 4:0.00868265 
-4673.269456391884 1:-0.550215 2:-0.352593 3:-0.473982 4:-0.212149 
-8192 1:-0.384505 2:-0.496461 3:-0.649321 4:-0.212149 
-636.364779089527 1:0.0425504 2:-0.222408 3:-0.157609 4:0.149971 
-45.47358489810301 1:0.352642 2:-0.0828402 3:-0.00641026 4:0.149972 
-259.7077289274889 1:-0.125938 2:-0.769045 3:-0.718523 4:0.00868268 
-563.8347266890888 1:-0.40247 2:-0.576337 3:-1 4:0.00868209 
-8192 1:-0.444867 2:-0.46327 3:-0.626206 4:-0.356498 
-8192 1:-0.23567 2:-0.479429 3:-0.511965 4:-0.366194 
-8192 1:-0.208978 2:-0.452633 3:-0.41991 4:-0.366193 
-8192 1:-0.440116 2:-0.637427 3:-0.864035 4:-0.328555 
-3898.919872905027 1:-0.175712 2:-0.488828 3:-0.750804 4:-0.942966 
-8192 1:-0.271423 2:-0.653244 3:-0.869966 4:-0.503268 
-337.6187422335641 1:-0.732564 2:-0.746047 3:-0.876198 4:-0.503268 
-8192 1:-0.186964 2:-0.591823 3:-0.581081 4:-0.549399 
-8192 1:-0.485549 2:-0.655556 3:-0.870833 4:-0.549399 
-8192 1:-0.203531 2:-0.501722 3:-0.652985 4:-0.549399 
-8192 1:-0.162608 2:-0.394153 3:-0.527439 4:-0.549397 
-8192 1:-0.228323 2:-0.562821 3:-0.6125 4:-0.549397 
-8192 1:-0.542032 2:-0.764133 3:-0.885015 4:-0.549399 
-2736.786469350523 1:-0.473258 2:-0.511683 3:-1 4:-0.549397 
-8192 1:-0.1244 2:-0.467868 3:-0.594665 4:-0.549399 
-8192 1:-0.211933 2:-0.476793 3:-0.509494 4:-0.549397 
-6975.8483231931 1:-0.254585 2:-0.517624 3:-0.488786 4:-0.549397 
-8192 1:-0.215244 2:-0.562821 3:-0.6125 4:-0.549398 
-381.4867607657791 1:0.159408 2:-0.039166 3:-0.148352 4:-0.258279 
-8192 1:-0.0692656 2:-0.136656 3:-0.274345 4:-0.258276 
-2246.299649070383 1:-0.84226 2:-1 3:-1 4:-0.123578 
-8192 1:-0.299149 2:-0.700048 3:-0.853774 4:-0.759209 
