5 -7 97.4565
-1 -7 97.0549
5 -1 97.9027
-1 -1 97.5011
11 -7 97.635
11 -1 97.3226
5 -13 97.0549
-1 -13 55.9125
11 -13 97.3226
-3 -7 96.6979
-3 -1 97.4565
-3 -13 55.9125
5 1 97.8135
-1 1 97.5011
11 1 97.7242
-3 1 97.4565
9 -7 97.5904
9 -1 97.3672
9 -13 97.2334
9 1 97.7242
5 -11 97.3226
-1 -11 96.2071
11 -11 97.5011
-3 -11 55.9125
9 -11 97.3672
3 -7 97.3226
3 -1 97.8135
3 -13 96.7425
3 1 97.992
3 -11 97.0549
5 -5 97.5457
-1 -5 97.3672
11 -5 97.8581
-3 -5 97.0549
9 -5 97.7242
3 -5 97.4119
15 -7 97.8135
15 -1 97.0995
15 -13 97.3672
15 1 97.7242
15 -11 97.3672
15 -5 97.7689
5 -15 96.7425
-1 -15 55.9125
11 -15 97.2334
-3 -15 55.9125
9 -15 97.3226
3 -15 96.2963
15 -15 97.5011
-5 -7 96.4748
-5 -1 97.3226
-5 -13 55.9125
-5 1 97.1888
-5 -11 55.9125
-5 -5 96.7425
-5 -15 55.9125
5 3 97.9473
-1 3 97.4119
11 3 97.9473
-3 3 96.5194
9 3 97.9473
3 3 98.0366
15 3 97.9473
-5 3 93.2619
7 -7 97.5011
7 -1 97.7689
7 -13 97.3226
7 1 97.7689
7 -11 97.2334
7 -5 97.6796
7 -15 97.0549
7 3 97.9473
5 -9 97.2334
-1 -9 96.7425
11 -9 97.3672
-3 -9 96.2963
9 -9 97.5011
3 -9 97.3226
15 -9 97.635
-5 -9 55.9125
7 -9 97.3672
1 -7 97.3226
1 -1 97.5011
1 -13 96.2963
1 1 97.9027
1 -11 96.7425
1 -5 97.3226
1 -15 55.9125
1 3 98.0366
1 -9 97.0549
5 -3 97.7242
-1 -3 97.2334
11 -3 97.9027
-3 -3 97.4119
9 -3 98.2151
3 -3 97.635
15 -3 97.1888
-5 -3 97.0103
7 -3 97.8581
1 -3 97.4565
13 -7 97.7242
13 -1 97.1441
13 -13 97.5011
13 1 97.7242
13 -11 97.4119
13 -5 98.0366
13 -15 97.3226
13 3 97.9473
13 -9 97.5457
13 -3 97.4119
