svm_type c_svc
kernel_type rbf
gamma 0.5
nr_class 2
total_sv 187
rho -0.28123
label 1 -1
nr_sv 94 93
SV
0.5 1:-0.362473 2:-0.427223 3:-0.837903 4:-0.216946 
0.5 1:-0.486302 2:-0.712899 3:-0.9 4:-0.216945 
0.5 1:-0.376984 2:-0.539467 3:-0.65245 4:-0.176171 
0.5 1:-0.257867 2:-0.467317 3:-1 4:-0.399309 
0.5 1:-0.434602 2:-0.57085 3:-0.87855 4:-0.216946 
0.5 1:0.0719823 2:-0.705048 3:-0.866445 4:-0.448822 
0.5 1:-0.43639 2:-0.631697 3:-0.912227 4:-0.216946 
0.5 1:-0.501459 2:-0.466555 3:-0.654936 4:0.0548794 
0.5 1:-0.671068 2:-0.612124 3:-1 4:1 
0.5 1:-0.521975 2:-0.634648 3:-0.917284 4:-0.216945 
0.5 1:-0.391832 2:-0.442217 3:-1 4:0.248855 
0.3248380409169775 1:0.0297872 2:-0.673727 3:-0.922244 4:-0.216945 
0.5 1:-0.426561 2:-0.552565 3:-0.893369 4:-0.216946 
0.5 1:-0.416867 2:-0.750416 3:-0.838554 4:-0.427485 
0.5 1:-0.328968 2:-0.410749 3:-0.644248 4:-0.540959 
0.5 1:0.0214596 2:-0.553471 3:-0.76213 4:-0.940844 
0.5 1:-0.300889 2:-0.531436 3:-0.665 4:-0.572092 
0.5 1:-0.0899145 2:-0.658537 3:-1 4:-0.399309 
0.5 1:-0.329249 2:-0.766878 3:-0.736105 4:-0.372142 
0.5 1:-0.0945212 2:-0.66386 3:-0.820935 4:-0.372143 
0.5 1:-0.408444 2:-0.682927 3:-0.712857 4:-0.372142 
0.5 1:-0.309096 2:-0.534863 3:-0.816856 4:-0.372142 
0.5 1:-0.313931 2:-0.410096 3:-0.73289 4:-0.424545 
0.5 1:-0.210023 2:-0.571405 3:-0.861379 4:-0.193663 
0.5 1:-0.0588889 2:-0.658537 3:-0.871154 4:-0.58858 
0.5 1:-0.00331852 2:-0.565962 3:-0.821333 4:-0.85931 
0.5 1:0.0755556 2:-0.6199 3:-0.754128 4:-0.928218 
0.5 1:-0.0597792 2:-0.666828 3:-0.911258 4:-0.811712 
0.5 1:0.0142897 2:-0.85016 3:-0.91519 4:-0.811712 
0.5 1:0.172356 2:-0.792846 3:-0.866 4:-0.941834 
0.5 1:-0.431111 2:-0.608681 3:-0.778512 4:-0.585643 
0.5 1:-0.233192 2:-0.435983 3:-0.905412 4:-0.365385 
0.5 1:-0.116066 2:-0.47276 3:-0.768966 4:-0.772987 
0.5 1:-0.506368 2:-0.536221 3:-0.7 4:-0.648726 
0.5 1:-0.576296 2:-0.596452 3:-1 4:0.321647 
0.241574510413113 1:0.00951267 2:-0.610612 3:-0.647368 4:-0.981596 
0.5 1:-0.488989 2:-0.357245 3:-0.8181 4:0.103252 
0.5 1:-0.207241 2:-0.885198 3:-1 4:0.0780769 
0.5 1:-0.31871 2:-0.427223 3:-0.882111 4:-0.216946 
0.5 1:-0.0830695 2:-0.489033 3:-0.855396 4:-0.598247 
0.5 1:-0.391832 2:-0.442217 3:-1 4:0.248855 
0.5 1:0.0140952 2:-0.71252 3:-0.846857 4:-0.556527 
0.5 1:-0.305149 2:-0.516542 3:-0.60198 4:-0.566252 
0.5 1:-0.126667 2:-0.724854 3:-0.750826 4:-0.585643 
0.5 1:-0.303647 2:-0.544715 3:-0.828205 4:-0.757435 
0.5 1:-0.322209 2:-0.658537 3:-0.881065 4:-0.559406 
0.5 1:-0.800118 2:-0.725016 3:-0.822124 4:0.350867 
0.5 1:-0.310541 2:-0.544715 3:-1 4:0.103252 
0.5 1:-0.105774 2:-0.794964 3:-0.907159 4:-0.877735 
0.5 1:-0.2764 2:-0.796841 3:-0.908009 4:-0.877735 
0.5 1:-0.150877 2:-0.617692 3:-0.711483 4:-0.648726 
0.5 1:-0.593033 2:-0.65341 3:-0.879279 4:-0.648726 
0.5 1:-0.295587 2:-0.437307 3:-1 4:0.22955 
0.5 1:-0.0959098 2:-0.485331 3:-0.805797 4:-0.646775 
0.5 1:-0.56679 2:-0.342367 3:-0.813889 4:0.103252 
0.5 1:-0.181972 2:-0.774923 3:-1 4:-0.0693708 
0.5 1:0.128497 2:-0.631998 3:-0.895855 4:-0.715703 
0.5 1:-0.202975 2:-0.610922 3:-0.679681 4:-0.495406 
0.5 1:-0.319546 2:-0.557104 3:-0.635374 4:-0.495405 
0.5 1:0.135072 2:-0.754362 3:-0.841107 4:-0.941834 
0.5 1:-0.189154 2:-0.470997 3:-0.79171 4:-0.838019 
0.5 1:-0.129888 2:-0.70074 3:-0.924719 4:0.127637 
0.5 1:-0.314016 2:-0.475706 3:-1 4:-0.437165 
0.5 1:-0.449609 2:-0.583546 3:-0.914286 4:-0.362447 
0.5 1:-0.343457 2:-0.603462 3:-1 4:-0.362447 
0.5 1:-0.0609896 2:-0.566502 3:-0.685937 4:-0.940844 
0.5 1:-0.301048 2:-0.552146 3:-0.522849 4:-0.940843 
0.5 1:-0.108337 2:-0.364593 3:-0.840159 4:-0.707932 
0.5 1:-0.156223 2:-0.699049 3:-0.902663 4:-0.0693708 
0.5 1:-0.0972653 2:-0.865738 3:-0.848015 4:-0.155732 
0.5 1:-0.52549 2:-0.434242 3:-0.802941 4:0.103252 
0.5 1:-0.515164 2:-0.171995 3:-1 4:0.103252 
0.5 1:-0.199353 2:-0.619039 3:-0.85 4:-0.707932 
0.5 1:-0.127032 2:-0.483127 3:-0.862329 4:-0.37106 
0.5 1:0.300299 2:0.810945 3:1 4:0.103253 
0.5 1:-0.196795 2:-0.466555 3:-0.654936 4:-0.692518 
0.5 1:-0.378413 2:-0.44272 3:-0.521429 4:-0.772951 
0.5 1:-0.70509 2:-0.713611 3:-1 4:0.0626074 
0.5 1:-0.632607 2:-0.42864 3:-0.80099 4:0.0626079 
0.5 1:-0.318962 2:-0.581567 3:-0.752869 4:-0.221673 
0.5 1:-0.24455 2:-0.295393 3:-1 4:-0.216945 
0.1354715785104385 1:-0.239693 2:-0.523783 3:-0.691954 4:-0.368268 
0.5 1:-0.31831 2:-0.249742 3:-1 4:-0.362447 
0.5 1:-0.575089 2:-0.525043 3:-0.834568 4:0.103252 
0.5 1:-0.610575 2:-0.425988 3:-1 4:0.103252 
0.5 1:-0.305996 2:-0.578417 3:-0.550838 4:-0.940843 
0.5 1:-0.421358 2:-0.595226 3:-0.877812 4:-0.55071 
0.5 1:-0.137848 2:-0.530262 3:-0.787302 4:-0.550711 
0.5 1:-0.171848 2:-0.398098 3:-0.805327 4:-0.550712 
0.5 1:-0.195645 2:-0.414914 3:-0.769628 4:-0.550711 
0.3782730050688196 1:0.187068 2:-0.792153 3:-0.865552 4:-0.558542 
0.5 1:-0.71995 2:-0.664979 3:-0.848302 4:0.350867 
0.5 1:-0.233667 2:-0.648577 3:-0.665 4:-0.427486 
0.5 1:-0.323187 2:-0.523617 3:-0.607805 4:-0.372142 
-0.5 1:-0.501192 2:-0.485331 3:-1 4:-0.216946 
-0.5 1:-0.401505 2:-0.642014 3:-0.837903 4:-0.216946 
-0.5 1:-0.166316 2:-0.575213 3:-0.807656 4:-0.216945 
-0.5 1:-0.261632 2:-0.431155 3:-0.908009 4:-0.396414 
-0.5 1:-0.520792 2:-0.296788 3:-0.80099 4:0.0626001 
-0.5 1:-0.0998068 2:-0.420997 3:-1 4:-0.216946 
-0.5 1:0.00769716 2:-0.439871 3:-0.746372 4:-0.216946 
-0.5 1:-0.489305 2:-0.616775 3:-1 4:-0.216945 
-0.5 1:-0.423524 2:-0.581432 3:-0.900248 4:-0.216946 
-0.5 1:-0.200601 2:-0.600088 3:-0.818919 4:-0.216946 
-0.5 1:-0.569778 2:-0.736947 3:-1 4:-0.216945 
-0.5 1:-0.660351 2:-1 3:-1 4:0.248855 
-0.5 1:-0.651171 2:-0.640079 3:-1 4:0.248855 
-0.5 1:-0.54087 2:-0.578907 3:-1 4:-0.230506 
-0.5 1:-0.230978 2:-0.807642 3:-0.933 4:-0.412957 
-0.5 1:-0.398318 2:-0.837696 3:-0.926508 4:-0.412955 
-0.5 1:-0.243624 2:-0.800742 3:-1 4:-0.644903 
-0.5 1:-0.242946 2:-0.87866 3:-1 4:-0.644901 
-0.5 1:-0.197051 2:-0.795437 3:-1 4:-0.644903 
-0.5 1:-0.578648 2:-0.51186 3:-0.861856 4:-0.216946 
-0.5 1:-0.4849 2:-0.491919 3:-0.878916 4:-0.216946 
-0.5 1:-0.107986 2:-0.484891 3:-0.725597 4:-0.216945 
-0.5 1:-0.308571 2:0.0569106 3:0.196429 4:0.248855 
-0.5 1:-0.0279917 2:-0.558855 3:-1 4:-0.216946 
-0.5 1:0.0311111 2:-0.437479 3:-0.889256 4:-0.216946 
-0.5 1:-0.452263 2:-0.643782 3:-1 4:-0.216945 
-0.5 1:-0.252698 2:-0.673319 3:-0.912987 4:-0.757425 
-0.5 1:-0.202824 2:-0.817217 3:-0.881765 4:-0.757426 
-0.5 1:-0.487831 2:-0.753388 3:-0.840476 4:0.0626062 
-0.5 1:-0.360056 2:-0.703447 3:-1 4:-0.609939 
-0.5 1:-0.0795402 2:-0.443383 3:-0.747962 4:-0.919586 
-0.5 1:-0.338578 2:-0.606513 3:-1 4:-0.396414 
-0.5 1:-0.418619 2:-0.520105 3:-1 4:-0.907801 
-0.5 1:-0.759367 2:-0.81943 3:-1 4:0.45466 
-0.5 1:-0.817358 2:-0.899494 3:-1 4:0.652637 
-0.5 1:-0.344922 2:-0.687183 3:-1 4:-0.614801 
-0.5 1:-0.38367 2:-0.600987 3:-1 4:-0.614798 
-0.5 1:-0.332414 2:-0.857135 3:-0.907586 4:-0.685618 
-0.5 1:-0.923175 2:-1 3:-1 4:0.652637 
-0.5 1:-0.346411 2:-0.640335 3:-0.914286 4:-0.609939 
-0.5 1:-0.280327 2:-0.521282 3:-0.901471 4:-0.396414 
-0.5 1:-0.467368 2:-0.68141 3:-0.711483 4:-0.43426 
-0.5 1:-0.497696 2:-0.648626 3:-1 4:-0.484779 
-0.5 1:-0.789565 2:-1 3:-1 4:0.361424 
-0.5 1:-0.41209 2:-0.736668 3:-0.829661 4:-0.757426 
-0.5 1:-0.308571 2:-0.746341 3:-1 4:-0.645902 
-0.5 1:-0.142564 2:-0.534368 3:-1 4:-0.216946 
-0.5 1:-0.0231193 2:-0.48415 3:-0.877064 4:-0.216946 
-0.5 1:-0.383796 2:-0.722561 3:-1 4:-0.216945 
-0.5 1:-0.378432 2:-0.673046 3:-0.886119 4:-0.396414 
-0.5 1:-0.0384106 2:-0.76482 3:-1 4:-0.713657 
-0.5 1:-0.080181 2:-0.718795 3:-0.8181 4:-0.62646 
-0.5 1:-0.402008 2:-0.314436 3:-0.844788 4:-0.216946 
-0.5 1:-0.624988 2:-0.656056 3:-1 4:-0.216945 
-0.5 1:-0.208107 2:-0.317073 3:-0.558242 4:-0.216946 
-0.5 1:-0.350024 2:-0.664678 3:-1 4:-0.828276 
-0.5 1:-0.270159 2:-0.207317 3:-0.282143 4:0.248855 
-0.5 1:-0.408947 2:-0.684705 3:-1 4:-0.396414 
-0.5 1:-0.352311 2:-0.756988 3:-1 4:-0.556527 
-0.5 1:-0.720769 2:-0.70122 3:-0.806731 4:-0.136311 
-0.5 1:-0.36473 2:-0.723102 3:-0.921637 4:-0.769066 
-0.5 1:-0.561991 2:-0.758967 3:-1 4:-0.0295035 
-0.5 1:-0.296752 2:-0.51626 3:-0.742308 4:-0.923373 
-0.5 1:-0.0983218 2:-0.446403 3:-0.814319 4:-0.690447 
-0.5 1:-0.687742 2:-0.83294 3:-1 4:0.133517 
-0.5 1:-0.391046 2:-0.847681 3:-0.901471 4:-0.54495 
-0.5 1:-0.424483 2:-0.818286 3:-0.882456 4:-0.544953 
-0.08015713490934859 1:-0.402469 2:-0.890394 3:-0.875926 4:-0.54495 
-0.5 1:0.134265 2:-0.844925 3:-0.824454 4:-1 
-0.5 1:-0.257354 2:-0.577236 3:-0.787302 4:-0.923373 
-0.5 1:-0.433153 2:-0.616084 3:-0.891351 4:-0.923373 
-0.5 1:-0.422252 2:-0.550099 3:-0.728378 4:-0.923373 
-0.5 1:-0.289465 2:-0.470997 3:-0.687565 4:-0.804962 
-0.5 1:-0.490526 2:-0.672914 3:-0.788421 4:-0.43426 
-0.5 1:-0.299745 2:-0.357758 3:-0.657872 4:-0.923373 
-0.5 1:-0.539048 2:-0.222659 3:-0.814747 4:0.0626001 
-0.5 1:-0.341789 2:-0.704721 3:-1 4:-0.66523 
-0.5 1:-0.206057 2:-0.817958 3:-1 4:-0.665226 
-0.5 1:-0.472 2:-0.475388 3:-0.817273 4:-0.923373 
-0.5 1:-0.54087 2:-0.508725 3:-0.841107 4:-0.923373 
-0.5 1:-0.201216 2:-0.696353 3:-1 4:-0.794313 
-0.5 1:-0.243033 2:-0.726506 3:-0.904739 4:-0.794312 
-0.5 1:0.0328536 2:-0.581432 3:-0.900248 4:-0.919586 
-0.5 1:-0.457463 2:-0.646449 3:-1 4:0.248855 
-0.5 1:-0.314738 2:-0.584305 3:-1 4:-0.645902 
-0.5 1:-0.336359 2:-0.811105 3:-1 4:-0.508056 
-0.5 1:-0.150273 2:-0.336516 3:-0.570819 4:0.0626001 
-0.5 1:-0.0796793 2:-0.603386 3:-0.861856 4:-0.216946 
-0.5 1:-0.376419 2:-0.740641 3:-0.909663 4:-0.216945 
-0.5 1:-0.439465 2:-0.624314 3:-0.910468 4:-0.412957 
-0.5 1:-0.494815 2:-0.775807 3:-0.898485 4:-0.412955 
-0.5 1:-0.499742 2:-0.449423 3:-1 4:-0.914621 
-0.5 1:-0.276262 2:-0.585138 3:-0.81215 4:-0.626461 
