svm_type c_svc
kernel_type rbf
gamma 8
nr_class 2
total_sv 665
rho -0.645103
label 1 -1
nr_sv 532 133
SV
0.3377330330403095 1:-0.00352843 2:-0.681013 3:-0.76962 4:0.0608546 5:-0.605091 6:-0.706277 7:0.78363 
0.08481620604852304 1:0.354547 2:-0.00816327 3:-0.257143 4:0.781851 5:0.581751 6:0.194542 7:-0.676918 
0.1503096346569827 1:0.515991 2:-0.485714 3:-0.35 4:0.618782 5:0.35752 6:0.626262 7:-0.263412 
0.4821858862747213 1:-0.265567 2:-0.303226 3:-0.706452 4:0.199207 5:-0.15454 6:-0.540306 7:-0.216946 
0.5 1:-0.401009 2:-0.641791 3:-0.909453 4:-0.298101 5:-0.579222 6:-0.821669 7:-0.216945 
0.5 1:0.0133255 2:-0.120611 3:-0.861069 4:0.542024 5:-0.364402 6:-0.988473 7:-0.216946 
0.03209427466438525 1:0.0481428 2:-0.140584 3:-0.42069 4:0.467809 5:0.0918701 6:-0.487778 7:-0.396413 
0.5 1:-0.270482 2:-0.585014 3:-0.580403 4:0.565033 5:-0.785343 6:-0.755752 7:-0.176171 
0.1505812522985482 1:0.0169297 2:0.143529 3:-0.357647 4:0.523638 5:0.175755 6:-0.805035 7:-0.410072 
0.06816323545114183 1:0.470051 2:-0.314286 3:-0.810417 4:0.877341 5:-0.170796 6:-0.856936 7:-0.512869 
0.5 1:-0.0949442 2:-0.161446 3:-0.707631 4:0.537626 5:-0.56737 6:-0.907761 7:-0.31776 
0.01943119201976399 1:-0.308566 2:-0.45489 3:-0.425868 4:0.618923 5:-0.0466225 6:-0.000560983 7:-0.350768 
0.1513659088913014 1:-0.348141 2:-0.168127 3:-0.56494 4:0.613075 5:-0.810024 6:-0.852141 7:-0.0964881 
0.2136826913731124 1:0.182911 2:0.00934579 3:0.0205607 4:-0.209083 5:-0.894218 6:-0.88949 7:0.0626074 
0.5 1:-0.407706 2:-0.288372 3:-0.788372 4:-0.601272 5:-0.70051 6:-0.832413 7:0.0626062 
0.1948512396826943 1:0.254922 2:0.0536585 3:-0.112195 4:0.362781 5:-0.883205 6:-0.884518 7:0.0626079 
0.04111677520893986 1:-0.228223 2:-0.496 3:-0.636 4:0.609097 5:-0.604721 6:-0.586729 7:-0.399309 
0.4094260142796077 1:0.137356 2:-0.104306 3:-0.129187 4:0.928119 5:-0.673679 6:-0.613984 7:0.0888188 
0.07891586577775407 1:0.449435 2:-0.121951 3:-0.334146 4:0.95921 5:-0.398952 6:-0.831733 7:-0.611829 
0.01316149093215112 1:0.733455 2:-0.250473 3:-0.425868 4:0.7408 5:0.0988339 6:0.208955 7:-0.216946 
0.5 1:0.186341 2:-0.342675 3:-0.768153 4:0.559892 5:0.101344 6:-0.165602 7:-0.216945 
0.5 1:-0.300504 2:-0.434441 3:-0.78006 4:0.0569864 5:-0.0887925 6:-0.643565 7:-0.216946 
0.5 1:0.128179 2:-0.641196 3:-0.87907 4:0.100599 5:-0.793871 6:-0.84296 7:-0.448822 
0.09662599428667265 1:0.318091 2:-0.0292135 3:-0.182022 4:0.94524 5:0.33526 6:-0.382707 7:-0.652584 
0.4491155395543322 1:-0.127273 2:-0.240506 3:-0.385654 4:-0.0892166 5:-0.741434 6:-0.708116 7:0.264371 
0.215370100450827 1:0.69233 2:0.474699 3:0.53494 4:0.966727 5:-0.44919 6:-0.375513 7:-0.461386 
0.0525276651228538 1:0.633762 2:-0.135065 3:-0.290909 4:0.844954 5:0.491369 6:0.548198 7:-0.445895 
0.5 1:-0.129277 2:-0.323077 3:-0.688889 4:0.734379 5:-0.533636 6:-0.752413 7:-0.193663 
0.5 1:0.0846596 2:-0.497297 3:-0.672072 4:0.649851 5:-0.0697833 6:-0.366349 7:-0.216946 
0.5 1:0.0273152 2:-0.578595 3:-0.756522 4:-0.0161979 5:-0.486951 6:-0.683714 7:-0.216945 
0.5 1:-0.34618 2:-0.622707 3:-0.841048 4:-0.210914 5:-0.39958 6:-0.910652 7:-0.216946 
0.3164446207028788 1:0.660178 2:-0.136 3:-0.0293333 4:0.979299 5:1 6:0.535971 7:-0.768106 
0.5 1:-0.509773 2:-0.351073 3:-0.53133 4:0.486185 5:-0.62566 6:-0.827893 7:0.0548794 
0.1512385773170611 1:0.384298 2:-0.2 3:-0.422222 4:0.519612 5:-0.431325 6:-0.781379 7:0.279934 
0.05126388422921196 1:0.537594 2:-0.193822 3:-0.297297 4:0.731738 5:-0.412557 6:-0.345726 7:0.279933 
0.2098924547781824 1:0.602921 2:-0.113846 3:-0.3 4:0.570147 5:-0.367548 6:-0.351877 7:0.279934 
0.03172340357478474 1:0.32133 2:-0.299611 3:-0.150195 4:0.917526 5:0.146324 6:0.372849 7:-0.350768 
0.5 1:-0.610365 2:-0.790291 3:-1 4:-0.450281 5:-0.79496 6:-1 7:1 
0.1008748511762387 1:0.164368 2:-0.28536 3:-0.548387 4:0.407989 5:-0.233575 6:-0.772899 7:-0.431345 
0.1219492210325512 1:0.403231 2:0.58961 3:0.654545 4:0.93975 5:0.228703 6:-0.0473128 7:-0.0694041 
0.5 1:0.108703 2:-0.597419 3:-0.765161 4:0.729337 5:-0.0655915 6:0.0289424 7:-0.715703 
0.01624396017662897 1:0.187349 2:-0.243077 3:-0.44 4:0.613227 5:0.265073 6:0.433957 7:-0.788481 
0.5 1:-0.291702 2:-0.220779 3:-0.369697 4:0.80328 5:-0.809437 6:-0.859003 7:0.493381 
0.5 1:-0.383849 2:-0.57037 3:-0.925103 4:-0.560851 5:-0.719721 6:-0.926855 7:-0.216945 
0.2713829259586783 1:0.891763 2:-0.00606061 3:0.10303 4:0.928059 5:-0.355096 6:-0.232692 7:-0.218877 
0.05172563809113384 1:0.640988 2:0.0285714 3:0.209302 4:0.879866 5:-0.3318 6:-0.231734 7:-0.218877 
0.210415113211791 1:0.441883 2:0.552096 3:0.961677 4:0.944283 5:0.523086 6:0.824605 7:-0.0694041 
0.5 1:-0.385811 2:-0.472251 3:-0.618848 4:0.397706 5:-0.777603 6:-0.750963 7:0.248855 
0.5 1:0.134527 2:-0.596132 3:-0.859188 4:0.271956 5:-0.281473 6:-0.624564 7:-0.216945 
0.5 1:-0.303968 2:-0.598939 3:-0.806897 4:-0.0642519 5:-0.275618 6:-0.875481 7:-0.216946 
0.1255543089314904 1:0.547927 2:-0.408499 3:-0.690652 4:0.935681 5:-0.859094 6:-0.895315 7:-0.757425 
0.1307736758257933 1:0.133547 2:-0.4375 3:-0.43125 4:0.782509 5:-0.900607 6:-0.892943 7:-0.757424 
0.06297501074838975 1:0.751551 2:-0.208511 3:-0.612766 4:0.875129 5:0.441335 6:0.0513703 7:-0.940844 
0.1502997111768873 1:0.605296 2:-0.401846 3:-0.44 4:0.799142 5:0.437698 6:0.698503 7:-0.940844 
0.09000666669855037 1:-0.0935725 2:-0.356596 3:-0.535319 4:0.658004 5:0.39323 6:0.0222501 7:-0.940843 
0.5 1:0.0250629 2:-0.388417 3:-0.578378 4:0.787736 5:-0.373191 6:-0.285917 7:-0.37106 
0.01313696916865579 1:0.691198 2:0.0956522 3:-0.0504348 4:0.916196 5:-0.0499543 6:0.0900298 7:-0.365381 
0.1560724881907456 1:0.333751 2:-0.615534 3:-0.646602 4:0.78322 5:-0.500304 6:-0.432129 7:-0.204281 
0.04522763883098738 1:0.2041 2:-0.253112 3:-0.546888 4:0.886292 5:0.463415 6:0.659722 7:-0.372143 
0.09136546291001085 1:0.179508 2:-0.490566 3:-0.484906 4:0.960181 5:0.550093 6:0.835574 7:-0.372142 
0.0295403282316705 1:0.397456 2:-0.2 3:-0.400823 4:0.915855 5:-0.0699679 6:-0.906581 7:-0.394557 
0.1722144081374753 1:0.525606 2:0.130233 3:-0.153488 4:0.907008 5:-0.061794 6:-0.904591 7:-0.394557 
0.3081497018048684 1:-0.148384 2:-0.00689655 3:-0.82069 4:0.547075 5:0.256603 6:-0.29948 7:0.132565 
0.1708384111258512 1:0.16243 2:0.244444 3:-0.101235 4:0.826739 5:0.329405 6:0.253191 7:0.132567 
0.1182737749076222 1:-0.0908517 2:-0.207767 3:-0.646602 4:0.799972 5:0.343521 6:-0.64015 7:-0.437165 
0.004747352336870118 1:0.68635 2:0.0784141 3:-0.198238 4:0.853901 5:0.189627 6:0.270852 7:-0.672042 
0.1470680088628215 1:0.447936 2:-0.330973 3:-0.19469 4:0.936252 5:-0.504233 6:-0.406838 7:-0.887395 
0.1344649896547944 1:0.0692776 2:-0.115084 3:-0.389944 4:0.731845 5:-0.0143926 6:-0.817854 7:-0.224655 
0.411115966193042 1:-0.380099 2:-0.710843 3:-0.853815 4:0.801082 5:-0.730312 6:-0.728517 7:-0.427485 
0.1324963376645016 1:-0.276032 2:-0.171681 3:-0.355752 4:0.469024 5:-0.126049 6:-0.271289 7:-0.540959 
0.08748198212591425 1:-0.294074 2:-0.238225 3:-0.503072 4:0.713717 5:-0.182163 6:-0.862187 7:-0.66037 
0.03074852347522498 1:0.0445102 2:-0.242105 3:-0.452632 4:0.837026 5:0.286333 6:0.238102 7:-0.535205 
0.2347788874716762 1:0.861573 2:-0.20402 3:-0.451256 4:0.968213 5:0.688088 6:0.175105 7:-0.940844 
0.5 1:0.0777478 2:-0.531361 3:-0.784615 4:0.837779 5:0.0804012 6:-0.576096 7:-0.940844 
0.05347204831370269 1:0.610665 2:-0.186087 3:-0.683478 4:0.935313 5:0.676784 6:-0.565798 7:-0.940844 
0.1022931325786722 1:0.505157 2:-0.426866 3:-0.637811 4:0.920734 5:0.388575 6:-0.59621 7:-0.940844 
0.01933408490382768 1:0.212116 2:-0.293252 3:-0.553374 4:0.931837 5:0.65684 6:-0.566771 7:-0.940843 
0.06009095790538201 1:0.188292 3:-0.422222 4:0.768737 5:-0.458722 6:-0.438661 7:-0.461386 
0.3665224525859235 1:-0.179552 2:-0.221622 3:-0.344144 4:0.675638 5:-0.540182 6:-0.499473 7:0.0548794 
0.1469215547114481 1:0.228543 2:0.616327 3:0.857143 4:0.568228 5:-0.525551 6:-0.455282 7:0.103252 
0.1983179546978555 1:-0.331127 2:0.08 3:-0.797778 4:0.383534 5:-0.641138 6:-0.972971 7:0.103252 
0.363340312611712 1:-0.415459 2:0.150296 3:-1 4:-0.081194 5:-0.623855 6:-1 7:0.103252 
0.05443151014494607 1:0.139154 2:0.169004 3:0.343173 4:0.464616 5:-0.605768 6:-0.547063 7:0.103251 
0.1782101512560299 1:0.30324 2:-0.547305 3:-0.673054 4:0.871335 5:0.0804678 6:0.194425 7:-0.928218 
0.0751635336844632 1:0.250811 2:-0.348276 3:-0.52931 4:0.963308 5:0.679173 6:0.354432 7:-0.928218 
0.1302645296715353 1:0.149554 2:-0.481081 3:-0.672072 4:0.652814 5:-0.129172 6:-0.0573429 7:-0.928218 
0.04474763185532051 1:-0.213582 2:-0.121951 3:-0.506775 4:-0.237402 5:-0.380548 6:-0.647075 7:0.456597 
0.318363481837584 1:0.744887 2:0.536759 3:0.582609 4:0.725588 5:0.0920879 6:0.0666938 7:0.456598 
0.02161975736642096 1:0.445409 2:0.0196532 3:-0.158382 4:0.910978 5:-0.0234919 6:0.0521449 7:-0.50321 
0.196975493987243 1:0.216947 2:-0.290435 3:-0.261449 4:0.707045 5:0.419717 6:0.495851 7:0.108264 
0.04256820632013333 1:0.469463 2:-0.0784 3:0.0192 4:0.619023 5:0.147696 6:0.308519 7:-0.387793 
0.1392726555866584 1:0.447627 2:0.301695 3:0.0282486 4:0.545182 5:-0.194729 6:-0.105551 7:-0.407095 
0.1967419618068063 1:0.253182 2:0.283168 3:0.0811881 4:0.500171 5:0.259083 6:-0.164283 7:-0.407095 
0.5 1:0.310796 2:-0.514286 3:-0.566667 4:0.823404 5:0.0204009 6:-0.858855 7:-0.725399 
0.5 1:-0.271099 2:-0.56 3:-0.696667 4:0.371784 5:-0.334824 6:-0.470026 7:-0.572092 
0.07254369046014726 1:0.407358 2:-0.364706 3:-0.197059 4:0.486168 5:-0.451336 6:-0.34272 7:-0.499301 
0.4170489591790356 1:-0.249082 2:-0.124324 3:-0.672072 4:0.957988 5:-0.449626 6:-0.953141 7:-0.414864 
0.5 1:-0.216164 2:-0.26875 3:-0.715625 4:0.768971 5:-0.422035 6:-0.950375 7:-0.414864 
0.1095292605542675 1:-0.283791 2:-0.4816 3:-0.5632 4:0.741703 5:-0.409333 6:-0.560635 7:-0.414864 
0.2745745581543791 1:0.748121 2:-0.479518 3:-0.561446 4:0.910178 5:0.582335 6:0.832472 7:-0.211034 
0.1278039058081183 1:-0.295334 2:-0.347826 3:-0.208696 4:0.693414 5:-0.00813492 6:0.18385 7:-0.350768 
0.1462110972399047 1:0.534833 2:0.220339 3:0.0282486 4:0.935268 5:0.61064 6:-0.498783 7:-0.718654 
0.1131126358596252 1:0.466803 2:0.272928 3:-0.19558 4:0.918178 5:0.604461 6:-0.513383 7:-0.718653 
0.02754813560977807 1:0.210228 2:0.0524917 3:-0.395349 4:0.392545 5:-0.03447 6:-0.463197 7:-0.396413 
0.06547146234125067 1:0.580599 2:-0.1072 3:-0.272 4:0.600107 5:0.204225 6:-0.172673 7:-0.396412 
0.1395502289306879 1:0.442153 2:-0.185401 3:-0.468613 4:0.438891 5:-0.0382125 6:-0.455459 7:-0.396413 
0.2418247215928252 1:-0.270443 2:-0.669147 3:-0.76105 4:0.476426 5:0.125897 6:0.284586 7:-0.372142 
0.06808144217504006 1:-0.0511784 2:-0.63118 3:-0.675724 4:0.601235 5:0.162867 6:0.379211 7:-0.372143 
0.2914458879429813 1:-0.389929 2:-0.742857 3:-0.74 4:0.809408 5:0.441485 6:0.716549 7:-0.372142 
0.05806526050207696 1:-0.268658 2:-0.655581 3:-0.751253 4:0.769239 5:0.334499 6:0.561664 7:-0.372142 
0.1796224599024021 1:0.0167856 2:-0.257143 3:-0.277778 4:0.837009 5:0.658376 6:0.482739 7:-0.296537 
0.03405053223126105 1:0.723037 2:-0.0623256 3:-0.322791 4:0.92992 5:0.660583 6:0.957826 7:-0.940844 
0.1887130392345302 1:0.831335 2:-0.115254 3:-0.228814 4:0.953196 5:0.629821 6:0.94137 7:-0.940844 
0.2307644931692261 1:0.121017 2:-0.195531 3:-0.186592 4:0.895357 5:0.618125 6:0.917876 7:-0.940843 
0.5 1:-0.271812 2:-0.425914 3:-0.75814 4:0.173016 5:-0.426614 6:-0.582814 7:-0.424545 
0.1549847419562052 1:0.524498 2:0.244444 3:0.57284 4:0.929797 5:0.169192 6:0.400653 7:-0.410072 
0.008080152775199453 1:-0.159029 2:-0.553103 3:-0.748966 4:0.332901 5:-0.791757 6:-0.827854 7:-0.193663 
0.5 1:-0.0908517 2:-0.440777 3:-0.646602 4:0.563929 5:0.206863 6:-0.592983 7:-0.88749 
0.5 1:0.11314 2:-0.596154 3:-0.883333 4:0.457053 5:-0.250637 6:-0.802692 7:-0.58858 
0.3604768374589465 1:0.444608 2:-0.330769 3:-0.766667 4:0.834293 5:-0.0519572 6:-0.860089 7:-0.943733 
0.03321151950677701 1:0.275425 2:-0.594366 3:-0.658216 4:0.636579 5:0.253491 6:0.392418 7:-0.788502 
0.05556788663115429 1:0.583359 2:-0.174785 3:-0.582808 4:0.83424 5:0.14663 6:0.335476 7:-0.791387 
0.03333042312953997 1:0.954846 2:-0.413166 3:-0.429467 4:0.78548 5:-0.151498 6:-0.210636 7:-0.348901 
0.04874316631819833 1:-0.178659 2:-0.405505 3:-0.55474 4:0.784887 5:0.0859512 6:0.0960884 7:-0.350768 
0.006080048123618512 1:0.565605 2:-0.202857 3:-0.09 4:0.867828 5:0.333905 6:0.594567 7:-0.582696 
0.1511223858551694 1:0.740223 2:-0.555212 3:-0.437838 4:0.870453 5:0.252699 6:0.50069 7:-0.598246 
0.137003479913566 1:-0.172001 2:-0.499338 3:-0.638411 4:0.257127 5:0.136074 6:0.226986 7:-0.598247 
0.5 1:0.129232 2:-0.431579 3:-0.712632 4:0.7012 5:-0.796521 6:-0.889343 7:-0.364488 
0.2871986283142825 1:0.0214135 2:-0.395556 3:-0.73037 4:0.157924 5:-0.643924 6:-0.91133 7:-0.364488 
0.1643543423931053 1:-0.205917 2:-0.250867 3:-0.368786 4:-0.374434 5:-0.701089 6:-0.658837 7:-0.247957 
0.08463963839459984 1:0.153425 2:0.107692 3:0.1 4:0.778947 5:0.478724 6:0.309034 7:-0.346886 
0.1040930610110845 1:0.148345 2:0.00869565 3:0.0550725 4:0.79098 5:0.0311657 6:-0.638739 7:-0.400278 
0.001190633095542679 1:0.515318 2:-0.495122 3:-0.667073 4:0.923524 5:0.0213259 6:-0.227004 7:-0.928218 
0.1278754034479475 1:0.748451 2:-0.330973 3:-0.516814 4:0.981973 5:0.297512 6:-0.185673 7:-0.928218 
0.03954829186592733 1:-0.00503804 2:-0.729801 3:-0.919647 4:0.51878 5:-0.763507 6:-0.82216 7:-0.811712 
0.4443080464084632 1:0.185345 2:-0.772152 3:-0.923207 4:0.304171 5:-0.795388 6:-0.850049 7:-0.811712 
0.02291266187597619 1:0.41016 2:-0.555556 3:-0.550617 4:0.880692 5:-0.521772 6:-0.438068 7:-0.941834 
0.163230802824883 1:0.525675 2:-0.694208 3:-0.718919 4:0.787518 5:-0.56927 6:-0.684526 7:-0.941833 
0.4816946101308157 1:0.0344236 2:-0.415707 3:-0.428272 4:0.595755 5:-0.0911083 6:0.0699457 7:-0.804962 
0.08710571370091193 1:0.464301 2:-0.137408 3:-0.64401 4:0.417063 5:-0.516526 6:-0.743084 7:-0.467319 
0.002324920020266908 1:0.156262 2:-0.0574545 3:-0.338182 4:0.559167 5:0.213434 6:0.269002 7:-0.365381 
0.4868230192648061 1:-0.044706 2:-0.31987 3:-0.525733 4:0.449452 5:0.173743 6:-0.271711 7:-0.365381 
0.004932477499620898 1:0.3264 2:-0.178707 3:-0.169582 4:0.913845 5:0.251888 6:0.474663 7:-0.768106 
0.007156350014847941 1:-0.379177 2:-0.702479 3:-0.699174 4:0.867065 5:-0.750718 6:-0.735018 7:-0.585643 
0.01600997019859451 1:0.59444 2:-0.287912 3:-0.4 4:0.92507 5:-0.736838 6:-0.721841 7:-0.585643 
0.1952707416369294 1:0.990037 2:-0.424793 3:-0.498623 4:0.848613 5:-0.0779111 6:-0.190582 7:-0.348901 
0.07800361482693011 1:-0.0901155 2:-0.469474 3:-0.616842 4:0.614976 5:-0.728097 6:-0.715413 7:-0.247957 
0.1627649717674928 1:-0.222775 2:-0.559529 3:-0.657412 4:0.65034 5:-0.0206407 6:-0.56075 7:-0.365385 
0.2011008309770623 1:0.813063 2:0.142857 3:-0.339683 4:0.81759 5:0.00752873 6:0.0211755 7:-0.638034 
0.3524119509119803 1:0.483859 2:-1 3:-1 4:0.616755 5:-1 6:-1 7:0.600026 
0.5 1:-0.176771 2:-0.392 3:-0.838222 4:0.742075 5:0.246299 6:-0.919446 7:-0.59352 
0.1384525597348105 1:-0.0188746 2:-0.635628 3:-0.557895 4:0.342608 5:-0.262213 6:-0.116815 7:-0.716684 
0.1409524636607131 1:0.449051 2:0.395918 3:0.114286 4:0.437715 5:-0.472218 6:-0.769552 7:-0.14516 
0.1859052906281576 1:0.764062 2:0.0666667 3:0.348148 4:0.948459 5:-0.0154376 6:0.179472 7:-0.471142 
0.1668054644030735 1:0.676203 2:-0.128125 3:-0.0046875 4:0.823601 5:-0.00718723 6:0.185139 7:0.0509218 
0.03959530266893159 1:0.388883 2:-0.116564 3:-0.553374 4:0.760068 5:-0.499189 6:-0.506933 7:-0.810828 
0.07265686608793412 1:0.611853 2:-0.107965 3:-0.19469 4:0.812978 5:-0.294207 6:-0.189099 7:-0.701133 
0.2519411975557578 1:0.0794084 2:0.00699301 3:0.0181818 4:0.650868 5:-0.123178 6:0.0331517 7:-0.806847 
0.2091645183805217 1:0.254654 2:0.771123 3:0.751872 4:0.537138 5:0.126693 6:-0.499062 7:0.103252 
0.2323113053953885 1:0.48361 2:0.712621 3:0.76699 4:0.81525 5:0.443954 6:0.379325 7:0.103253 
0.2362628652742731 1:-0.277869 2:0.389474 3:-0.574269 4:0.333872 5:0.0541692 6:-0.932711 7:0.103252 
0.01164692888694803 1:0.26234 2:0.340891 3:0.326316 4:0.60423 5:0.176595 6:0.23954 7:0.103252 
0.1838304420286394 1:-0.34399 2:0.485 3:-1 4:-0.0689369 5:0.0809052 6:-1 7:0.103252 
0.3309228437059396 1:0.029036 2:-0.284472 3:-0.623188 4:0.362637 5:0.0262294 6:-0.192262 7:-0.396414 
0.1292462347407676 1:0.132979 2:0.0666667 3:-0.387205 4:0.776294 5:0.49956 6:-0.114473 7:-0.396412 
0.008001097952448081 1:0.181291 2:0.138776 3:0.114286 4:0.782283 5:-0.164118 6:-0.0183892 7:-0.414788 
0.5 1:-0.0111607 2:0.0125 3:-0.573437 4:0.832624 5:-0.524139 6:-0.783748 7:-0.146063 
0.1203617927204157 1:0.209813 2:0.167568 3:-0.0162162 4:0.415937 5:-0.353579 6:-0.657162 7:-0.447857 
0.5 1:-0.439468 2:-0.258537 3:-0.704065 4:-0.251347 5:-0.472406 6:-0.753401 7:-0.214958 
0.2518859520836021 1:0.504341 2:-0.102079 3:-0.0752887 4:0.152054 5:-0.360968 6:-0.283145 7:-0.214957 
0.3198012769800626 1:0.0615319 2:-0.570526 3:-0.744561 4:0.0494856 5:-0.566352 6:-0.750979 7:-0.119765 
0.02991054654984644 1:0.153845 2:-0.108911 3:-0.0990099 4:0.554571 5:0.280905 6:0.492877 7:-0.234394 
0.2637795528845952 1:-0.0619672 2:-0.412245 3:-0.587302 4:0.0407931 5:-0.171773 6:-0.34182 7:-0.234394 
0.1395941979210009 1:0.0134446 2:-0.272727 3:-0.632323 4:0.868769 5:-0.0301246 6:0.113447 7:-0.914587 
0.02231769030993377 1:0.489865 2:-0.28 3:-0.208696 4:0.911689 5:-0.0383833 6:0.133798 7:-0.914587 
0.5 1:-0.0876159 2:-0.577328 3:-0.631579 4:-0.242913 5:-0.572867 6:-0.553036 7:-0.0898474 
0.04912341608370638 1:0.565924 2:-0.408696 3:-0.296618 4:0.907462 5:-0.413163 6:-0.302083 7:-0.914607 
0.198567758224053 1:0.0382238 2:-0.421429 3:-0.35 4:0.656886 5:0.361594 6:-0.420463 7:-0.743804 
0.02346903650780578 1:0.133431 2:0.0782609 3:-0.296618 4:0.816509 5:0.230416 6:-0.765067 7:-0.224655 
0.4777802604466629 1:0.0426656 2:-0.237086 3:-0.75894 4:0.258621 5:-0.351154 6:-0.352808 7:-0.52068 
0.1923417802793811 1:0.236958 2:-0.506849 3:-0.750685 4:0.887313 5:0.44227 6:-0.129412 7:-0.372143 
0.07289602774028352 1:-0.0844318 2:-0.561977 3:-0.723194 4:0.932583 5:-0.0153379 6:-0.0338387 7:-0.372142 
0.09147045747812937 1:0.215138 2:-0.540426 3:-0.612766 4:0.933323 5:0.484213 6:0.756368 7:-0.372142 
0.3614712340655301 1:0.239043 2:-0.412245 3:-0.380952 4:-0.20109 5:-0.545667 6:-0.474878 7:0.0325066 
0.5 1:-0.000533995 2:-0.448276 3:-0.651341 4:0.47966 5:-0.146818 6:-0.108376 7:-0.772987 
0.1414600848027269 1:0.877725 2:-0.282474 3:-0.37457 4:0.904384 5:0.0738489 6:0.207792 7:-0.381918 
0.2870729552449974 1:0.119405 2:-0.530878 3:-0.484419 4:0.5907 5:-0.31445 6:-0.18259 7:-0.648726 
0.5 1:-0.50468 2:-0.623881 3:-0.728358 4:0.266463 5:-0.421138 6:-0.878895 7:-0.648726 
0.2929569868473857 1:-0.516665 2:-0.418182 3:-0.816162 4:-0.194927 5:-0.465641 6:-0.792389 7:0.321647 
0.2828588151905898 1:0.221636 2:-0.152941 3:-0.22139 4:0.819343 5:0.896752 6:-0.498671 7:-0.617557 
0.3293611057059231 1:-0.145464 2:-0.461347 3:-0.546135 4:0.890126 5:0.372081 6:-0.142305 7:-0.495406 
0.5 1:-0.0682547 2:-0.489455 3:-0.669091 4:0.368043 5:-0.0253974 6:-0.499195 7:-0.495405 
0.2475410553322253 1:0.102034 2:-0.456293 3:-0.666819 4:0.673662 5:-0.0563486 6:-0.885028 7:-0.566252 
0.07659826525936686 1:0.0380626 2:-0.536842 3:-0.574269 4:0.81439 5:0.00702175 6:0.200761 7:-0.981596 
0.03832737858514266 1:0.338987 2:-0.33494 3:-0.415261 4:0.932725 5:-0.884803 6:-0.880643 7:-0.757425 
0.2619719272281953 1:0.746653 2:-0.0526316 3:-0.0421053 4:0.942898 5:-0.894907 6:-0.892161 7:-0.757424 
0.1584112263781214 1:0.684589 2:-0.579695 3:-0.722843 4:0.761835 5:0.345724 6:-0.647518 7:-0.794277 
0.1100832674920194 1:0.389199 2:-0.485714 3:-0.74 4:0.520295 5:0.163829 6:-0.70324 7:-0.794276 
0.03953824220901642 1:0.341747 2:-0.0586572 3:-0.35689 4:0.990253 5:0.582128 6:0.0669669 7:-0.510921 
0.1834712884284749 1:0.815946 2:0.0588235 3:0.0705882 4:0.958776 5:0.561528 6:0.0696901 7:-0.510921 
0.5 1:-0.203953 2:0.0415094 3:-0.656604 4:0.654671 5:-0.506064 6:-0.879197 7:-0.344955 
0.0927366859625679 1:-0.0100413 2:0.336709 3:0.382278 4:0.279861 5:-0.0866166 6:-0.482817 7:0.103252 
0.1849857387820809 1:0.133547 2:0.29375 3:0.564063 4:0.558199 5:0.198477 6:0.42894 7:0.103253 
0.06345942365601702 1:0.195345 2:0.139394 3:0.10303 4:0.420654 5:0.0382295 6:-0.0218822 7:0.103252 
0.08367646420098908 1:-0.470781 2:0.0285714 3:-1 4:0.189121 5:-0.137819 6:-1 7:0.103252 
0.03752329449873576 1:0.0785089 2:0.107692 3:0.166667 4:0.217997 5:-0.114053 6:-0.544738 7:0.103251 
0.06055354698315434 1:0.216481 2:0.177695 3:0.217844 4:0.560775 5:0.163354 6:-0.615828 7:0.103252 
0.0318329467930598 1:0.621511 2:-0.454545 3:-0.448485 4:0.985097 5:0.0672063 6:0.272638 7:-0.926248 
0.39982477094756 1:-0.135077 2:-0.906897 3:-1 4:0.519918 5:-0.967102 6:-1 7:0.0780769 
0.2577555409931355 1:-0.11467 2:-0.209975 3:-0.546135 4:0.34743 5:0.0342351 6:-0.481991 7:0.264435 
0.009408452856822696 1:0.175295 2:-0.506599 3:-0.538071 4:0.446546 5:-0.13265 6:-0.116464 7:0.264433 
0.006830527558860167 1:0.247009 2:0.205911 3:-0.103448 4:0.366902 5:-0.541032 6:-0.522006 7:-0.0879133 
0.4201182084568447 1:0.157666 2:-0.489189 3:-0.631081 4:0.405346 5:-0.36125 6:-0.833258 7:-0.772063 
0.2053310878603382 1:0.387864 2:0.120461 3:-0.0559078 4:0.779859 5:0.391126 6:0.130905 7:0.264435 
0.0618280728743358 1:-0.173745 2:-0.258824 3:-0.464706 4:0.540997 5:0.137154 6:-0.196473 7:0.264433 
0.01708408018925512 1:0.652122 2:-0.449541 3:-0.33211 4:0.843792 5:-0.0158998 6:0.175237 7:-0.216946 
0.5 1:0.193767 2:-0.37131 3:-0.697297 4:0.499223 5:-0.136547 6:-0.348215 7:-0.216945 
0.5 1:-0.257646 2:-0.32434 3:-0.78651 4:0.127332 5:-0.109954 6:-0.694771 7:-0.216946 
0.03469694335378918 1:0.376181 2:-0.0457831 3:-0.0351807 4:0.486679 5:-0.245114 6:-0.109645 7:-0.476078 
0.5 1:-0.189634 2:-0.406 3:-0.545 4:0.474193 5:0.152294 6:-0.435887 7:-0.218877 
0.5 1:-0.252724 2:-0.342857 3:-0.422222 4:0.723825 5:-0.740267 6:-0.713873 7:-0.0964881 
0.2366445057116361 1:1 2:-0.349887 3:-0.671332 4:0.827609 5:-0.149366 6:-0.391594 7:-0.794276 
0.238968398025649 1:-0.0672048 2:-0.482014 3:-0.738129 4:0.0236001 5:0.00753883 6:-0.0129639 7:-0.598247 
0.008507938713097997 1:-0.0949442 2:-0.306024 3:-0.415261 4:0.337314 5:0.0404027 6:-0.837696 7:-0.534248 
0.07406128714984755 1:0.543554 2:0.173913 3:0.186957 4:0.650054 5:0.137384 6:0.291446 7:-0.534247 
0.05281750754408885 1:0.219113 2:0.192357 3:0.159236 4:0.746841 5:0.225081 6:0.41973 7:-0.534247 
0.1810272438832786 1:-0.164498 2:0.155963 3:-0.33211 4:0.136597 5:0.0246687 6:-0.204997 7:-0.216946 
0.4384846112857146 1:-0.261001 2:-0.138224 3:-0.578378 4:-0.533014 5:-0.599548 6:-0.80898 7:-0.216946 
0.2775520999738981 1:0.585651 2:0.44 3:-0.338182 4:0.90676 5:-0.289776 6:-0.838816 7:-0.216945 
0.02308876562083712 1:0.473101 2:0.314523 3:0.208299 4:0.962014 5:0.20762 6:0.340723 7:-0.201462 
0.4177876301981496 1:-0.16955 2:0.178947 3:-0.148538 4:0.944307 5:-0.61163 6:-0.928087 7:0.0489441 
0.5 1:-0.369648 2:-0.434555 3:-0.428272 4:0.798297 5:-0.728919 6:-0.687803 7:0.248855 
0.05680232233117669 1:0.705532 2:-0.155556 3:-0.438272 4:0.854212 5:-0.0746307 6:0.0486693 7:-0.937923 
0.128973026598315 1:0.0554215 2:-0.0769231 3:-0.0666667 4:0.814605 5:-0.0639936 6:-0.117575 7:0.104442 
0.03131486679643223 1:0.0860463 2:-0.26205 3:-0.193352 4:0.265994 5:-0.259403 6:-0.122267 7:0.0315135 
0.007460221411206711 1:-0.0604454 2:-0.0608696 3:-0.208696 4:0.794039 5:0.131488 6:0.130887 7:-0.447857 
0.07684284023112803 1:0.551084 2:0.0185366 3:-0.289756 4:0.935745 5:-0.342523 6:-0.466061 7:-0.756463 
0.1615274323639625 1:0.285452 2:-0.480656 3:-0.701639 4:0.191699 5:-0.145308 6:-0.234481 7:-0.396414 
0.05591988792365692 1:-0.00251463 2:-0.40566 3:-0.570755 4:0.791338 5:0.47964 6:-0.0116141 7:-0.396412 
0.02286898129242879 1:0.0543025 2:-0.373214 3:-0.59375 4:0.645376 5:0.192276 6:-0.223616 7:-0.396413 
0.003140444007970691 1:0.406956 2:-0.107965 3:0.127434 4:0.897074 5:0.143782 6:0.370212 7:-0.53135 
0.2536287841092019 1:-0.129747 2:-0.380415 3:-0.351929 4:0.432934 5:-0.0561453 6:-0.0349238 7:-0.607993 
0.1664936550192561 1:0.926218 2:-0.618942 3:-0.594429 4:0.828003 5:-0.418739 6:-0.432027 7:-0.459522 
0.1145366565264896 1:0.69335 2:-0.422785 3:-0.539241 4:0.872668 5:-0.51993 6:-0.453675 7:-0.941834 
0.01084269622052521 1:0.323046 2:-0.485714 3:-0.752381 4:0.849131 5:-0.543252 6:-0.68076 7:-0.941834 
0.1672880033967457 1:0.435407 2:0.238217 3:-0.0726115 4:0.964188 5:0.83825 6:-0.362472 7:-0.625393 
0.07529951279378234 1:0.370849 2:-0.0181818 3:-0.363636 4:0.790054 5:0.0930385 6:-0.40382 7:-0.192706 
0.1478390725109297 1:0.224777 2:0.369565 3:-0.0108696 4:0.91206 5:-0.417044 6:-0.664511 7:-0.474981 
0.5 1:-0.159451 2:-0.536634 3:-0.729703 4:0.527423 5:-0.120982 6:-0.779545 7:-0.566252 
0.5 1:-0.163591 2:-0.326108 3:-0.82069 4:0.757195 5:-0.56266 6:-0.777533 7:-0.400278 
0.1262154218920376 1:0.231945 2:-0.121127 3:-0.487324 4:0.929211 5:-0.0382359 6:-0.395704 7:-0.720589 
0.269661812261955 1:-0.371651 2:-0.107965 3:-0.19469 4:0.00541026 5:-0.192455 6:-0.0988841 7:0.113987 
0.0177061218175594 1:-0.14118 2:-0.377444 3:-0.315789 4:0.824739 5:0.134911 6:0.354868 7:-0.534247 
0.0506272349699874 1:0.187349 2:0.218462 3:0.12 4:0.925696 5:-0.507136 6:-0.668393 7:-0.47498 
0.2564760752938158 1:0.68714 2:0.632558 3:0.269767 4:0.972122 5:-0.420637 6:-0.654401 7:-0.474981 
0.05375535594804676 1:-0.351448 2:-0.213445 3:-0.694118 4:0.219679 5:-0.2334 6:-0.377908 7:-0.214958 
0.04895444119621105 1:0.195246 2:0.0774347 3:-0.0489311 4:0.885786 5:-0.336779 6:-0.265838 7:-0.214957 
0.02999553454657957 1:-0.0297661 2:-0.588571 3:-0.48 4:0.509719 5:-0.342295 6:-0.212091 7:0.140246 
0.164551004835427 1:0.0995179 2:-0.531507 3:-0.50137 4:0.642162 5:0.188899 6:0.390968 7:0.321647 
0.02605746632791349 1:0.13194 2:-0.26 3:-0.393333 4:0.535994 5:-0.405455 6:-0.362662 7:0.0683906 
0.02289050897670009 1:0.361614 2:-0.425095 3:-0.307985 4:0.984744 5:0.0968243 6:0.313239 7:-0.923373 
0.2353199708009994 1:-0.0401429 2:-0.515966 3:-0.388235 4:0.518516 5:0.144452 6:0.371015 7:0.450903 
0.09309194682167392 1:0.802411 2:-0.284472 3:-0.0956522 4:0.978535 5:0.0666555 6:0.277817 7:-0.926248 
0.03437321629154213 1:0.645327 2:-0.367033 3:-0.2 4:0.966286 5:0.0599203 6:0.269749 7:-0.926248 
0.03908756778485831 1:-0.00451952 2:-0.426087 3:-0.472464 4:0.718356 5:0.0629026 6:0.210966 7:-0.563352 
0.1367124737301097 1:0.038265 2:-0.128251 3:-0.0206278 4:0.9196 5:-0.509997 6:-0.419237 7:-0.414865 
0.5 1:0.0980384 2:-0.601166 3:-0.787755 4:0.533907 5:0.272517 6:-0.804845 7:-0.314906 
0.1882691641946549 1:0.426711 2:-0.0820717 3:0.0151394 4:0.88045 5:-0.320964 6:-0.20473 7:0.279933 
0.04789658003974478 1:0.323046 2:-0.114286 3:0.0111111 4:0.60308 5:-0.343452 6:-0.229489 7:0.279934 
0.148511800725818 1:0.640026 2:-0.00357143 3:-0.35 4:0.912416 5:0.184477 6:-0.680152 7:-0.534271 
0.5 1:-0.221627 2:-0.523077 3:-0.844444 4:0.407538 5:0.189396 6:-0.206499 7:-0.757435 
0.1107255808539167 1:0.74742 2:-0.320755 3:-0.313208 4:0.950318 5:0.672752 6:0.992698 7:-0.940844 
0.04633226586556834 1:0.0466264 2:-0.589744 3:-0.688889 4:0.811518 5:0.579163 6:0.16192 7:-0.940844 
0.5 1:0.0194636 2:-0.59814 3:-0.746047 4:0.48188 5:0.0153993 6:-0.224571 7:-0.0819558 
0.10929288282651 1:0.0484518 2:0.0528302 3:0.201887 4:0.545831 5:-0.647634 6:-0.603815 7:0.0518438 
0.0269325519857945 1:0.522789 2:0.0977578 3:0.142601 4:0.942542 5:0.31563 6:0.533344 7:-0.478928 
0.1106352105416393 1:-0.018276 2:-0.475862 3:-0.442146 4:0.796838 5:-0.551918 6:-0.47032 7:0.133527 
0.1561909791433577 1:0.0479919 2:-0.204211 3:-0.521053 4:0.40511 5:-0.223718 6:-0.135638 7:-0.671085 
0.07764138272415973 1:0.269029 2:-0.32349 3:-0.755705 4:0.478549 5:0.18208 6:-0.1722 7:-0.685652 
0.5 1:-0.241923 2:-0.680473 3:-0.892308 4:0.694785 5:-0.00850364 6:-0.642658 7:-0.559406 
0.2238069456544704 1:0.512053 2:0.102041 3:-0.0714286 4:0.458595 5:-0.677125 6:-0.654515 7:-0.53906 
0.05396596785332951 1:0.410905 2:-0.38125 3:-0.43125 4:0.930514 5:0.672995 6:0.985386 7:-0.940844 
0.06884525684731804 1:0.457433 2:-0.165665 3:-0.375107 4:0.922002 5:0.674864 6:0.25593 7:-0.940844 
0.01278943984273478 1:0.776543 2:-0.25283 3:-0.313208 4:0.953192 5:0.592427 6:0.260214 7:-0.940843 
0.05887567263509225 1:0.439728 2:-0.160538 3:-0.183857 4:0.906497 5:0.666435 6:0.991183 7:-0.940844 
0.2031078621882254 1:0.00423996 2:-0.13253 3:-0.342169 4:0.925418 5:0.675256 6:0.238359 7:-0.940843 
0.02910601641690583 1:0.174113 2:-0.551475 3:-0.522623 4:0.97276 5:0.664699 6:0.977195 7:-0.940844 
0.1095610657900371 1:0.644534 2:0.413084 3:0.530841 4:0.934999 5:0.171372 6:0.302836 7:-0.201462 
0.1099135506479744 1:-0.121771 2:-0.255172 3:-0.215517 4:0.127516 5:0.0779526 6:0.123259 7:-0.350768 
0.3280233215855405 1:0.0363863 2:-0.46 3:-0.61 4:0.244544 5:-0.146992 6:-0.215149 7:-0.350769 
0.04963778109799429 1:-0.219616 2:-0.464684 3:-0.32342 4:-0.0509632 5:-0.265227 6:-0.119767 7:-0.350768 
0.001177448288859326 1:-0.0971665 2:-0.218868 3:-0.141509 4:0.0507775 5:-0.131051 6:-0.0799239 7:-0.350768 
0.5 1:-0.726805 2:-0.585841 3:-0.838938 4:-0.835846 5:-0.843476 6:-0.921534 7:0.350867 
0.5 1:-0.0727368 2:-0.551648 3:-0.733333 4:0.0398838 5:-0.39301 6:-0.613494 7:0.132565 
0.0921518244531148 1:-0.321368 2:-0.317241 3:-0.843103 4:-0.123262 5:-0.250174 6:-0.605167 7:0.132567 
0.04743066584234713 1:0.477871 2:0.123404 3:-0.0964539 4:0.731638 5:-0.0211895 6:0.0924854 7:-0.205282 
0.3124443589697346 1:0.282535 2:-0.518998 3:-0.582046 4:0.284588 5:-0.0316306 6:-0.421997 7:0.350867 
0.5 1:-0.159067 2:-0.509677 3:-0.478136 4:-0.11787 5:-0.727345 6:-0.678346 7:-0.00138981 
0.3249107287291577 1:0.650745 2:1 3:0.516667 4:0.899861 5:-0.118062 6:-0.12105 7:0.103252 
0.1870609298160171 1:0.363631 2:0.766871 3:0.339877 4:0.885585 5:0.429137 6:-0.291163 7:0.103253 
0.05064643884113073 1:-0.131751 2:0.18125 3:-0.43125 4:0.599738 5:-0.335442 6:-0.613968 7:0.103252 
0.1961204765092833 1:0.231168 2:0.542857 3:0.0833333 4:0.65429 5:-0.556018 6:-0.681979 7:0.103253 
0.0391137102440447 1:0.195498 2:0.411765 3:0.0705882 4:0.739769 5:0.244435 6:-0.584695 7:0.103252 
0.005106217688500812 1:0.107814 2:0.343541 3:0.393301 4:0.718081 5:-0.228336 6:-0.158285 7:0.103252 
0.1378341805944419 1:-0.208434 2:0.292308 3:-1 4:-0.0951246 5:-0.294017 6:-1 7:0.103252 
0.06285369656293709 1:-0.0510446 2:0.232685 3:-0.00856031 4:0.605167 5:-0.311823 6:-0.341672 7:0.103251 
0.05843239156702672 1:0.226385 2:0.380822 3:0.32968 4:0.400703 5:-0.504157 6:-0.477404 7:0.103251 
0.1017720062873747 1:0.262908 2:0.554545 3:0.447727 4:0.830512 5:-0.288485 6:-0.571211 7:0.103252 
0.5 1:0.140083 2:-0.447482 3:-0.563549 4:0.643517 5:0.348302 6:-0.0458396 7:-0.833181 
0.1649349847390301 1:0.900604 2:0.0505338 3:0.165836 4:0.92017 5:0.299914 6:-0.238028 7:-0.218877 
0.05515554358070956 1:0.711332 2:0.0695652 3:0.186957 4:0.814347 5:0.28001 6:-0.246294 7:-0.218877 
0.3537916082268038 1:-0.115932 2:-0.833718 3:-0.915935 4:0.245996 5:-0.584037 6:-0.565137 7:-0.877735 
0.5 1:-0.237053 2:-0.802288 3:-0.916705 4:0.224269 5:-0.560172 6:-0.538354 7:-0.877735 
0.005652076537140305 1:-0.0625536 2:-0.170681 3:-0.237696 4:0.886451 5:0.0542623 6:-0.519291 7:-0.0702713 
0.1219956872887152 1:-0.0317707 2:-0.28 3:-0.338182 4:0.870193 5:0.0254162 6:-0.530965 7:-0.0702713 
0.3021708224971359 1:0.083772 2:-0.27234 3:-0.515957 4:0.158497 5:-0.682144 6:-0.744764 7:0.0645132 
0.1067536869456124 1:-0.0666883 2:0.0604651 3:0.128682 4:0.590582 5:-0.0782828 6:0.0615091 7:-0.141267 
0.5 1:-0.0546655 2:-0.655502 3:-0.564593 4:0.578937 5:-0.266231 6:-0.12097 7:-0.648726 
0.5 1:-0.545741 2:-0.697297 3:-0.781381 4:-0.115045 5:-0.793011 6:-0.86725 7:-0.648726 
0.07117183517162289 1:0.480368 2:-0.557895 3:-0.680702 4:0.941036 5:0.509577 6:-0.219858 7:-0.928218 
0.3942749017130099 1:-0.078617 2:-0.202462 3:-0.44 4:0.514851 5:0.227986 6:-0.40604 7:-0.218877 
0.09374660861030917 1:0.543554 2:-0.58806 3:-0.547264 4:0.59257 5:-0.111292 6:0.049156 7:-0.218877 
0.07981331634426884 1:0.593809 2:-0.129302 3:-0.322791 4:0.957698 5:-0.27566 6:-0.540803 7:-0.913657 
0.2442578612498724 1:0.465597 2:-0.163636 3:-0.0808081 4:0.956609 5:0.57888 6:0.879394 7:-0.317795 
0.3382771808035237 1:-0.260833 2:-0.340845 3:-0.743662 4:0.769919 5:-0.011336 6:-0.400956 7:0.22955 
0.126597976475732 1:0.407198 2:-0.0840989 3:-0.228269 4:0.742257 5:-0.760854 6:-0.750583 7:-0.861183 
0.1882668009458113 1:0.445861 2:-0.339241 3:-0.424051 4:0.472768 5:-0.781659 6:-0.87076 7:-0.861183 
0.03258223695765301 1:0.183658 2:-0.291192 3:-0.622798 4:0.971295 5:0.560732 6:-0.0495982 7:-0.372143 
0.4971509416022511 1:-0.242358 2:-0.41978 3:-0.466667 4:-0.324051 5:-0.53586 6:-0.452808 7:0.0325066 
0.2116561567447752 1:0.513457 2:-0.478552 3:-0.695822 4:0.812311 5:0.775033 6:0.0422769 7:-0.823433 
0.02040457380232133 1:0.387937 2:-0.784196 3:-0.801635 4:0.762681 5:-0.704096 6:-0.665655 7:-0.77776 
0.3571418092151294 1:-0.0470663 2:-0.467524 3:-0.648875 4:0.583192 5:0.000594216 6:-0.502567 7:-0.427486 
0.09163553041482148 1:-0.194667 2:-0.443478 3:-0.296618 4:0.722377 5:0.222654 6:0.464698 7:-0.29456 
0.0834472071447511 1:0.518577 2:-0.557282 3:-0.528803 4:0.845528 5:0.229569 6:0.462553 7:-0.29456 
0.1500877093924517 1:0.374327 2:-0.306312 3:-0.637209 4:0.890565 5:-0.126884 6:-0.867596 7:-0.941778 
0.2494101845351055 1:0.677776 2:0.369565 3:0.384783 4:0.829802 5:0.63116 6:0.369853 7:-0.0654421 
0.1549003462964391 1:0.424186 2:-0.04 3:-0.611733 4:0.796137 5:0.312002 6:-0.585475 7:-0.467285 
0.07542642203023045 1:0.724087 2:-0.494737 3:-0.574269 4:0.90707 5:0.234233 6:-0.0833674 7:-0.652595 
0.05390998217881033 1:0.7742 2:-0.275862 3:-0.477011 4:0.938393 5:0.355369 6:0.450532 7:-0.652595 
0.02975480786858496 1:0.62984 2:-0.0161491 3:-0.0956522 4:0.951744 5:0.564527 6:0.0295097 7:-0.317795 
0.1692313195023634 1:0.42105 2:-0.27619 3:-0.22963 4:0.936031 5:0.552109 6:0.0225556 7:-0.317794 
0.5 1:-0.075359 2:-0.513043 3:-0.736232 4:0.211759 5:-0.313224 6:-0.542514 7:-0.646775 
0.278655324791354 1:0.917857 2:-0.717321 3:-0.831871 4:0.85479 5:-0.641864 6:-0.795743 7:-0.427587 
0.1161891355901386 1:-0.0286255 2:0.241379 3:0.412069 4:0.705489 5:-0.294598 6:-0.233059 7:0.103252 
0.1891228153178376 1:0.180727 2:0.262151 3:0.450199 4:0.857267 5:0.477771 6:-0.119286 7:0.103253 
0.2030817292195477 1:-0.428313 2:-0.1 3:-0.662963 4:0.52116 5:-0.430135 6:-0.659132 7:0.103252 
0.05366703264322074 1:0.0082474 2:-0.00606061 3:0.225589 4:0.680491 5:-0.312991 6:-0.185141 7:0.103252 
0.1727676565377031 1:-0.51811 2:-0.0517073 3:-1 4:0.0737067 5:-0.405714 6:-1 7:0.103252 
0.01197170245871833 1:0.0558513 2:0.0319218 3:0.185668 4:0.412731 5:-0.529268 6:-0.449168 7:0.103251 
0.06931232645877837 1:0.122585 2:0.0909091 3:0.240909 4:0.807275 5:-0.334179 6:-0.533613 7:0.103252 
0.07620638682659803 1:0.330471 2:-0.224242 3:-0.509764 4:0.788007 5:-0.69589 6:-0.809527 7:-0.364488 
0.112660468592461 1:0.160062 2:-0.150311 3:-0.547826 4:0.47859 5:-0.500272 6:-0.836181 7:-0.364488 
0.09219916425027874 1:-0.0886766 2:-0.362362 3:-0.462731 4:0.855385 5:0.17844 6:-0.71001 7:-0.534248 
0.5 1:-0.0521274 2:-0.736338 3:-1 4:-0.0343466 5:-0.706976 6:-1 7:-0.0693708 
0.09902799256639262 1:-0.139434 2:-0.235398 3:-0.0336283 4:0.778387 5:0.0900445 6:0.305836 7:-0.350768 
0.07299250500290376 1:0.00750805 2:-0.337238 3:-0.390795 4:0.45209 5:-0.0368195 6:-0.120442 7:0.342093 
0.5 1:-0.264974 2:-0.640816 3:-0.669841 4:0.119693 5:-0.667573 6:-0.694974 7:-0.495405 
0.002238066851295135 1:0.704155 2:-0.16763 3:-0.473988 4:0.861761 5:-0.0847635 6:0.0319365 7:-0.937923 
0.00765277525234662 1:0.412498 2:-0.728302 3:-0.656604 4:0.854061 5:-0.723831 6:-0.669159 7:-0.941833 
0.1672746055732082 1:0.171393 2:-0.772332 3:-0.712253 4:0.822318 5:-0.729988 6:-0.676535 7:-0.941834 
0.1452760239430025 1:0.267772 2:-0.5008 3:-0.805867 4:0.784049 5:0.552272 6:-0.663758 7:-0.940844 
0.276589564086627 1:0.826828 2:-0.0831461 3:-0.727341 4:0.926218 5:0.612118 6:-0.625362 7:-0.940844 
0.0006321786484754127 1:0.573584 2:-0.159533 3:-0.575097 4:0.906655 5:0.621886 6:0.102177 7:-0.940844 
0.03857781235157608 1:0.517612 2:-0.394958 3:-0.694118 4:0.916123 5:0.664372 6:-0.639735 7:-0.940844 
0.5 1:0.0187456 2:-0.388 3:-0.636 4:0.853344 5:0.570843 6:-0.65564 7:-0.940843 
0.2766657781788373 1:0.608254 2:0.293413 3:-0.128144 4:0.965528 5:-0.834853 6:-0.896049 7:-0.394557 
4.98477051403246e-05 1:0.507174 2:-0.345455 3:-0.509764 4:0.920534 5:0.620863 6:0.908899 7:-0.940844 
0.2324009035322962 1:0.529393 2:-0.438532 3:-0.749541 4:0.774274 5:-0.148221 6:-0.0325351 7:-0.940844 
0.5 1:-0.136556 2:-0.42069 3:-0.581609 4:0.62691 5:0.340947 6:-0.00383254 7:-0.940843 
0.1081201113256958 1:0.323046 2:0.384615 3:0.4 4:0.914471 5:-0.0988956 6:0.0455547 7:-0.472179 
0.1593810197703744 1:0.553024 2:0.413497 3:0.56319 4:0.92462 5:-0.102932 6:0.0482929 7:-0.472178 
0.09659765498647523 1:0.155541 2:-0.643303 3:-0.599266 4:0.257952 5:-0.413988 6:-0.36384 7:-0.0898474 
0.5 1:-0.120254 2:-0.552332 3:-0.717098 4:0.145154 5:-0.135415 6:-0.761191 7:-0.838019 
0.2113458794892622 1:0.858904 2:-0.0709677 3:-0.0215054 4:0.977605 5:0.123539 6:0.291338 7:-0.923373 
0.05054709670973072 1:0.333751 2:0.223301 3:0.236893 4:0.930624 5:-0.109131 6:0.0354342 7:-0.472178 
0.1745033591055962 1:0.0627749 2:0.180328 3:-0.104918 4:-0.147077 5:-0.880286 6:-0.903527 7:0.0626074 
0.1339929807929331 1:-0.471725 2:-0.229947 3:-0.805348 4:-0.67381 5:-0.697178 6:-0.844836 7:0.0626062 
0.1467901251185563 1:0.140888 2:0.0956522 3:-0.208696 4:0.369709 5:-0.273971 6:-0.895538 7:0.0626079 
0.2989493937364314 1:0.0922446 2:-0.416216 3:-0.731695 4:0.647697 5:0.433858 6:0.02385 7:-0.940844 
0.08026722054608693 1:0.388665 2:-0.177855 3:-0.496194 4:0.868968 5:0.639916 6:0.852945 7:-0.940844 
0.07595060388740309 1:0.59444 2:-0.564835 3:-0.6 4:0.78979 5:-0.504066 6:-0.433511 7:-0.204281 
0.5 1:0.194417 2:-0.528571 3:-0.783333 4:0.738504 5:-0.517858 6:-0.961892 7:-0.0693708 
0.5 1:-0.407275 2:-0.3808 3:-0.7088 4:-0.311158 5:-0.420131 6:-0.728544 7:0.127638 
0.2653346351532845 1:-0.028775 2:-0.689888 3:-0.86367 4:0.0837461 5:-0.568867 6:-0.707257 7:0.127637 
0.07780923539970454 1:0.834791 2:0.120755 3:-0.141509 4:0.946013 5:0.339396 6:-0.129313 7:-0.495406 
0.5 1:-0.258608 2:-0.546457 3:-0.856693 4:0.020198 5:-0.260239 6:-0.737403 7:-0.437165 
0.2242074853228417 1:0.217693 2:0.24 3:0.415556 4:0.355448 5:-0.111596 6:0.0454091 7:-0.336165 
0.0431767417803475 1:0.282078 2:0.337705 3:0.39235 4:0.712742 5:0.132906 6:0.306704 7:-0.336165 
0.5 1:-0.289109 2:-0.616205 3:-0.922388 4:0.125834 5:0.00965336 6:-0.896462 7:-0.362447 
0.5 1:-0.295251 2:-0.660546 3:-0.909677 4:0.11383 5:-0.0382438 6:-0.855006 7:-0.362447 
0.005791069583053887 1:-0.18898 2:-0.511864 3:-0.691525 4:0.631323 5:-0.0368176 6:-0.137425 7:-0.350769 
0.5 1:0.0988012 2:-0.288136 3:-0.485876 4:0.307433 5:0.0516538 6:-0.27305 7:-0.365381 
0.05401841607079554 1:0.243519 2:-0.392974 3:-0.57377 4:0.55748 5:0.271488 6:0.49568 7:-0.940844 
0.09097364829428416 1:0.0559038 2:-0.436031 3:-0.619843 4:0.725514 5:0.548833 6:0.814732 7:-0.940843 
0.08562094372287467 1:-0.303798 2:-0.52997 3:-0.675964 4:0.339609 5:0.137097 6:-0.184772 7:-0.940843 
0.02124910923568939 1:0.206307 2:-0.470588 3:-0.694118 4:0.499576 5:0.155296 6:0.313372 7:-0.940844 
0.3184103156803694 1:-0.00574255 2:-0.484692 3:-0.855268 4:0.522502 5:-0.19826 6:-0.172996 7:-0.707932 
0.1300593664609124 1:0.651401 2:-0.496943 3:-0.523144 4:0.524085 5:-0.535171 6:-0.480416 7:-0.35768 
0.02498403100163652 1:0.219057 2:-0.693182 3:-0.896591 4:0.839899 5:-0.0662371 6:-0.618394 7:-0.559406 
0.4196432845906395 1:-0.0805949 2:-0.703632 3:-0.911864 4:0.274426 5:-0.64744 6:-0.983944 7:-0.0693708 
0.25121176063351 1:0.154627 2:-0.418898 3:-0.641732 4:-0.107699 5:-0.365342 6:-0.670902 7:-0.598308 
0.1870254165291306 1:0.276561 2:-0.202162 3:-0.606486 4:0.57759 5:0.335136 6:0.184361 7:-0.445895 
0.07660651820285598 1:0.247316 2:-0.0909091 3:0.10303 4:0.912575 5:-0.66675 6:-0.601558 7:0.0888188 
0.01317388770821303 1:-0.00370605 2:-0.181818 3:-0.00727273 4:0.744789 5:0.133473 6:0.356551 7:-0.581717 
0.05398627687178596 1:0.632737 2:-0.136 3:-0.0293333 4:0.755678 5:0.364275 6:0.554778 7:-0.365381 
0.03479206303460981 1:0.119676 2:0.00725389 3:-0.0569948 4:0.471324 5:0.284358 6:-0.104694 7:-0.36538 
0.2179822307250181 1:-0.134931 2:-0.465934 3:-0.4 4:0.854088 5:-0.420475 6:-0.308079 7:-0.537186 
0.1083062488906209 1:-0.0371024 2:-0.891115 3:-0.862382 4:0.279528 5:-0.662072 6:-0.595173 7:-0.155732 
0.1903794787547283 1:0.0505865 2:-0.0198953 3:-0.0471204 4:0.907817 5:0.326412 6:0.567413 7:-0.652584 
0.1729479981970172 1:-0.0738676 2:0.341818 3:0.158182 4:0.151619 5:-0.345029 6:-0.69083 7:0.103252 
0.1702937825580936 1:-0.0829093 2:0.295397 3:0.370711 4:0.369634 5:-0.0422906 6:0.10885 7:0.103253 
0.02534117615581821 1:-0.42495 2:-0.0470588 3:-0.821569 4:0.010955 5:-0.405171 6:-0.869113 7:0.103252 
0.1161031721495302 1:-0.127006 2:0.209836 3:0.0442623 4:0.62026 5:0.19991 6:-0.532585 7:0.103253 
0.1327384950077695 1:-0.488148 2:0.00725389 3:-1 4:-0.484525 5:-0.406337 6:-1 7:0.103252 
0.1240182559735259 1:-0.152353 2:0.0983051 3:-0.0128814 4:0.110131 5:-0.312379 6:-0.704583 7:0.103251 
0.07903723562263026 1:-0.0812179 2:0.171429 3:0.0111111 4:0.394099 5:-0.0478622 6:-0.740558 7:0.103252 
0.1940141520272199 1:0.744285 2:-0.225112 3:-0.510314 4:0.963668 5:-0.857346 6:-0.907474 7:-0.757424 
0.5 1:-0.0208799 2:-0.543284 3:-0.93209 4:0.485807 5:-0.293019 6:-0.946128 7:-0.707932 
0.5 1:-0.0696387 2:-0.531507 3:-0.626027 4:0.607395 5:-0.455098 6:-0.37056 7:-0.37106 
0.2236026985658651 1:0.202536 2:0.297674 3:0.269767 4:0.796431 5:0.517257 6:0.678661 7:-0.281829 
0.2561738461561085 1:0.170972 2:0.613793 3:0.464368 4:0.897007 5:0.435425 6:-0.524591 7:-0.220704 
0.1579197184206657 1:0.182297 2:0.531915 3:0.742553 4:0.782894 5:-0.33586 6:-0.258448 7:0.103252 
0.0482483875961844 1:0.50627 2:0.530435 3:0.758454 4:0.887318 5:0.416853 6:-0.178687 7:0.103253 
0.05054274759593402 1:-0.282068 2:0.130233 3:-0.576744 4:0.617215 5:-0.425551 6:-0.651151 7:0.103252 
0.1785651931660024 1:0.25725 2:0.248387 3:0.0274194 4:0.834974 5:0.346393 6:-0.622195 7:0.103252 
0.09303816401757703 1:0.269009 2:0.166798 3:0.438735 4:0.799134 5:-0.337475 6:-0.216797 7:0.103252 
0.01609657780894963 1:0.192176 2:-0.209756 3:-0.260163 4:0.594558 5:-0.435912 6:-0.355391 7:-0.632225 
0.135584245238333 1:-0.173327 2:-0.12636 3:-0.238494 4:0.43779 5:-0.351843 6:-0.41114 7:-0.55071 
0.281464220672009 1:-0.0628422 2:-0.442857 3:-0.458333 4:0.815804 5:-0.495694 6:-0.414291 7:-0.209178 
0.2857436678807077 1:0.170387 2:0.859341 3:1 4:0.706772 5:0.327015 6:-0.225249 7:0.103252 
0.1777238643371764 1:0.336211 2:0.61194 3:0.99204 4:0.805885 5:0.429535 6:0.702945 7:0.103253 
0.2376546459921336 1:-0.330507 2:0.301205 3:-0.561446 4:0.549693 5:0.284438 6:-0.656504 7:0.103252 
0.08063113950545564 1:0.183891 2:0.502913 3:0.590291 4:0.224783 5:0.251086 6:-0.4529 7:0.103253 
0.2219772253548199 1:0.0332882 2:0.279339 3:0.353719 4:0.269169 5:0.3206 6:0.25352 7:0.103252 
0.04538793278980557 1:0.0998603 2:0.282591 3:0.473684 4:0.708574 5:0.34646 6:-0.224668 7:0.103252 
0.2232390958344178 1:-0.342745 2:0.393548 3:-1 4:0.12121 5:0.29623 6:-1 7:0.103252 
0.03442882704456779 1:-0.0267761 2:0.195932 3:0.110508 4:0.660028 5:0.279395 6:-0.339151 7:0.103251 
0.156621543740151 1:0.0690763 2:0.316732 3:0.416342 4:0.155542 5:0.205672 6:-0.363583 7:0.103251 
0.1641251174318982 1:0.197336 2:0.446729 3:0.530841 4:0.320872 5:0.377291 6:-0.544567 7:0.103252 
0.5 1:0.28002 2:-0.512195 3:-0.704065 4:0.800513 5:-0.0572096 6:-0.81158 7:-0.812749 
0.07185926584591783 1:0.12426 2:-0.591642 3:-0.565373 4:0.974408 5:0.0710225 6:0.281647 7:-0.812749 
0.05069300152793189 1:-0.191472 2:-0.0285714 3:-0.422222 4:0.204187 5:0.151623 6:-0.538518 7:-0.176102 
0.1085728079947398 1:-0.154014 2:0.00384615 3:-0.125 4:0.449583 5:-0.637746 6:-0.638365 7:0.0518438 
0.1053261832554027 1:0.35468 2:-0.270886 3:-0.078481 4:0.921453 5:0.0812588 6:0.295311 7:-0.736053 
0.5 1:0.255067 2:-0.764162 3:-0.85973 4:0.670253 5:0.0430332 6:-0.599747 7:-0.820478 
0.0709229466259711 1:0.250811 2:-0.441379 3:-0.52931 4:0.827709 5:0.577031 6:0.823096 7:-0.211034 
0.02711878543074077 1:0.412744 2:-0.450847 3:-0.537288 4:0.872956 5:0.613192 6:0.865854 7:-0.211034 
0.03325063383828732 1:0.214262 2:0.056 3:-0.0293333 4:0.888149 5:0.117246 6:0.329437 7:-0.63319 
0.1562213920861529 1:0.0611934 2:0.125 3:-0.146875 4:0.88035 5:0.125495 6:-0.799622 7:-0.63319 
0.02926701875684163 1:0.724825 2:-0.308185 3:-0.352313 4:0.845654 5:-0.193704 6:-0.120023 7:-0.875755 
0.05420550249245575 1:0.0379841 2:-0.0191304 3:-0.261449 4:0.716124 5:0.269538 6:-0.0785619 7:-0.646835 
0.115218707605853 1:-0.0518168 2:-0.125714 3:-0.22 4:0.817315 5:0.0560664 6:-0.810696 7:-0.63319 
0.02495031788995353 1:0.743863 2:-0.230534 3:-0.305344 4:0.864093 5:-0.210102 6:-0.089524 7:-0.536125 
0.1840810617650861 1:0.380666 2:0.157789 3:0.280402 4:0.879389 5:-0.458683 6:-0.36001 7:-0.574073 
0.2620193200157526 1:-0.152039 2:-0.490129 3:-0.53133 4:0.790961 5:0.714464 6:0.0694162 7:-0.692518 
0.03886873412611937 1:0.919376 2:-0.577391 3:-0.762609 4:0.82661 5:-0.511866 6:-0.716165 7:-0.427587 
0.005807256545750772 1:0.184588 2:-0.0790698 3:-0.294574 4:0.855439 5:0.505293 6:0.633141 7:-0.510921 
0.4258028905736321 1:0.129309 2:-0.574441 3:-0.738339 4:0.644595 5:0.0251445 6:-0.608241 7:-0.772951 
0.06558829100320747 1:-0.325113 2:-0.532468 3:-0.645455 4:0.548638 5:0.0200188 6:-0.588555 7:-0.772951 
0.1689268532873151 1:0.675859 2:-0.36 3:-0.191111 4:0.78083 5:-0.072131 6:0.111556 7:0.0509218 
0.06922750752884282 1:-0.111287 2:-0.290909 3:-0.172727 4:0.514126 5:-0.371507 6:-0.250691 7:-0.419702 
0.218242065865143 1:-0.223307 2:-0.197452 3:-0.420382 4:-0.333381 5:-0.388287 6:-0.55199 7:-0.176102 
0.1630278094834942 1:-0.018276 2:-0.0344828 3:0.115709 4:0.259934 5:-0.325136 6:-0.203618 7:-0.176102 
0.09188961609753216 1:0.874316 2:0.168831 3:0.0636364 4:0.954233 5:0.55187 6:-0.235006 7:-0.218877 
0.5 1:0.162677 2:-0.289351 3:-0.527273 4:0.262575 5:-0.0241105 6:-0.17985 7:-0.218877 
0.1818166043983797 1:0.622711 2:0.361538 3:0.05 4:0.878686 5:0.565388 6:-0.248214 7:-0.218877 
0.5 1:-0.585066 2:-0.496774 3:-0.804301 4:-0.488097 5:-0.563651 6:-0.643189 7:0.0626074 
0.2076864996305982 1:0.00853728 2:-0.569721 3:-0.56494 4:0.278199 5:-0.32632 6:-0.269656 7:0.0626062 
0.3298737557922847 1:-0.480388 2:-0.322772 3:-0.819802 4:-0.516274 5:-0.52107 6:-0.723544 7:0.0626079 
0.2652589487260422 1:0.00819477 2:-0.48962 3:-0.447089 4:-0.125784 5:-0.472171 6:-0.451186 7:0.456597 
0.2651221714203743 1:-0.00415871 2:0.290323 3:-0.217204 4:0.28003 5:0.0395828 6:-0.247902 7:0.456598 
0.5 1:-0.259853 2:-0.67541 3:-0.701639 4:-0.115608 5:-0.427309 6:-0.421541 7:-0.221673 
0.1748308446774659 1:0.0879266 2:-0.544578 3:-0.561446 4:0.750738 5:-0.504043 6:-0.424015 7:-0.828264 
0.2726341111247351 1:0.588953 2:0.270588 3:0.605882 4:0.87613 5:0.525483 6:0.827477 7:0.0966181 
0.2014624597915423 1:-0.293498 2:-0.319403 3:-0.275622 4:0.663023 5:-0.848543 6:-0.837975 7:-0.0964881 
0.4671371543093947 1:-0.0539508 2:-0.303226 3:-0.559677 4:-0.265428 5:-0.407526 6:-0.891377 7:0.279933 
0.5 1:-0.304314 2:-0.256338 3:-0.829108 4:-0.561271 5:-0.576591 6:-0.954597 7:-0.362447 
0.05730168713747526 1:0.119929 2:-0.568454 3:-0.540694 4:0.835485 5:0.16654 6:0.388683 7:-0.362447 
0.5 1:0.106931 2:-0.541036 3:-0.70996 4:0.866232 5:0.184973 6:-0.679535 7:-0.362447 
0.005816012813132067 1:0.621799 2:-0.303226 3:-0.496774 4:0.503979 5:-0.0542264 6:-0.251703 7:-0.257638 
0.1709019062022297 1:0.41936 2:0.655172 3:0.882759 4:0.681119 5:-0.54598 6:-0.564237 7:0.103252 
0.2249597572457843 1:0.551552 2:0.678756 3:0.697409 4:0.928486 5:0.45009 6:-0.488882 7:0.103253 
0.06432866935590818 1:-0.257531 2:0.23038 3:-0.539241 4:0.49349 5:-0.615621 6:-0.932044 7:0.103252 
0.09615201143282336 1:0.574737 2:0.454545 3:0.654545 4:0.711667 5:-0.540155 6:-0.457924 7:0.103253 
0.04581452117167319 1:0.319277 2:0.384615 3:0.244444 4:0.707231 5:0.183974 6:-0.535096 7:0.103252 
0.1474925504681299 1:0.513582 2:0.398058 3:0.590291 4:0.916064 5:-0.301494 6:-0.503769 7:0.103252 
0.1944228941475239 1:0.110471 2:0.139568 3:0.309353 4:0.795063 5:0.333067 6:0.565447 7:0.103253 
0.08165733545635497 1:-0.47913 2:-0.2 3:-0.700412 4:0.367783 5:-0.0786249 6:-0.731383 7:0.103252 
0.01473804004101567 1:0.229037 2:-0.0294671 3:0.0269592 4:0.686562 5:0.11931 6:0.0719601 7:0.103252 
0.008099507450124421 1:0.0957328 2:-0.0444444 3:0.0111111 4:0.620698 5:0.155283 6:-0.330878 7:0.103252 
0.209844539066546 1:-0.560885 2:-0.0689655 3:-1 4:-0.183817 5:-0.0580277 6:-1 7:0.103252 
0.02587404698094833 1:0.0954254 2:-0.0709677 3:-0.217204 4:0.578998 5:0.0340453 6:-0.448796 7:0.103251 
0.0673873888469786 1:0.0714705 2:0.0391753 3:0.000687285 4:0.748273 5:0.26762 6:-0.610636 7:0.103252 
0.1251714536712059 1:0.51024 2:0.372662 3:0.571223 4:0.671857 5:0.37898 6:-0.101107 7:0.127638 
0.02363234854573237 1:-0.149066 2:-0.0769231 3:-0.533333 4:-0.134101 5:-0.174752 6:-0.70689 7:0.127637 
0.1415350868504175 1:-0.0357648 2:-0.220151 3:-0.0831234 4:0.562198 5:0.291422 6:0.515543 7:-0.234394 
0.5 1:-0.189101 2:-0.402765 3:-0.580645 4:0.251284 5:0.178685 6:-0.439526 7:-0.234394 
0.07793784335633713 1:-0.147731 2:0.104294 3:-0.106748 4:0.266267 5:-0.00860148 6:-0.176351 7:0.342093 
0.1196231466015547 1:-0.167928 2:-0.55 3:-0.43125 4:0.862808 5:-0.353248 6:-0.225214 7:-0.0188327 
0.05425014139770066 1:0.2764 2:-0.284615 3:-0.416667 4:0.53603 5:-0.388448 6:-0.795139 7:0.279933 
0.1185177940447238 1:0.120506 2:-0.52 3:-0.640494 4:0.682154 5:0.387834 6:0.643285 7:-0.940844 
0.2637529941902561 1:0.198933 2:-0.581238 3:-0.795122 4:0.593361 5:0.141355 6:-0.145568 7:-0.940844 
0.2554857820962712 1:0.029036 2:-0.636364 3:-0.632323 4:0.932185 5:0.660979 6:0.987711 7:-0.940844 
0.2681839668177292 1:-0.32739 2:-0.597765 3:-0.593296 4:0.427663 5:0.152986 6:0.341779 7:-0.940843 
0.02338780574300694 1:0.484545 2:-0.507445 3:-0.707042 4:0.836534 5:0.186181 6:0.349786 7:-0.940844 
0.02795360758130402 1:0.564616 2:0.0105263 3:-0.432359 4:0.847645 5:-0.0517672 6:-0.0929453 7:-0.774921 
0.5 1:-0.0755185 2:-0.152941 3:-0.22139 4:0.844563 5:-0.750554 6:-0.714628 7:0.264371 
0.5 1:-0.263304 2:-0.488636 3:-0.586364 4:-0.157017 5:-0.597326 6:-0.607127 7:-0.0956814 
0.5 1:-0.343169 2:-0.496657 3:-0.557447 4:-0.358371 5:-0.661118 6:-0.705384 7:-0.55071 
0.5 1:-0.0689674 2:-0.504762 3:-0.614815 4:-0.10206 5:-0.524225 6:-0.594239 7:-0.550711 
0.5 1:-0.170293 2:-0.494431 3:-0.647458 4:-0.0925445 5:-0.260226 6:-0.601409 7:-0.550712 
0.1180033634026855 1:-0.124287 2:-0.46361 3:-0.582808 4:-0.0349381 5:-0.460786 6:-0.540287 7:-0.550711 
0.1769096819232046 1:0.377065 2:-0.605119 3:-0.667276 4:0.690395 5:0.0135701 6:0.155574 7:-0.791356 
0.5 1:-0.662166 2:-0.565283 3:-0.862642 4:-0.720736 5:-0.740166 6:-0.889291 7:0.350867 
0.1467792148851311 1:0.435864 2:-0.727907 3:-0.894186 4:0.77644 5:-0.0324956 6:-0.596772 7:-0.728344 
0.03866146626910182 1:-0.190267 2:-0.511007 3:-0.57377 4:0.596747 5:0.110652 6:0.275725 7:-0.427485 
0.004357515795690553 1:0.702525 2:0.00465116 3:-0.274419 4:0.934636 5:0.0377574 6:0.0664373 7:-0.365381 
0.3473073081630039 1:0.0954254 2:-0.0129032 3:0.0274194 4:0.790809 5:-0.770968 6:-0.746134 7:0.0480216 
0.418536509459875 1:-0.307283 2:-0.613659 3:-0.644878 4:0.355087 5:0.0177527 6:-0.324513 7:-0.372142 
0.2734470458101395 1:-0.191079 2:-0.460963 3:-0.610695 4:0.720579 5:0.418425 6:-0.0972808 7:-0.372142 
0.1012058115123977 1:0.211397 2:0.23038 3:0.382278 4:0.822404 5:-0.599536 6:-0.535464 7:-0.179024 
0.1349590703174744 1:0.587034 2:0.267606 3:0.0253521 4:0.796887 5:0.291301 6:0.488445 7:-0.31008 
0.08818209875480776 1:0.53276 2:-0.194406 3:0.0181818 4:0.94019 5:0.271011 6:0.522628 7:-0.31008 
0.1071322928640944 1:0.519928 2:-0.338776 3:-0.535714 4:0.76987 5:0.0807671 6:0.146387 7:-0.0538837 
0.2518959078682376 1:0.100889 2:-0.317706 3:-0.273815 4:0.826407 5:-0.729406 6:-0.731194 7:0.198373 
0.1745981585118844 1:0.192052 2:-0.144554 3:-0.459406 4:0.562849 5:-0.30844 6:-0.613473 7:-0.321726 
0.04573520583308101 1:0.574271 2:-0.319403 3:-0.275622 4:0.490787 5:-0.0940505 6:-0.0903689 7:-0.483783 
0.2009155600277468 1:-0.0246254 2:-0.24908 3:-0.218405 4:0.428603 5:-0.350442 6:-0.281246 7:0.45466 
0.02913444977832839 1:0.414457 2:0.152 3:-0.338182 4:0.673164 5:0.0599025 6:-0.801066 7:-0.391549 
0.06453414071699119 1:0.143718 2:-0.631325 3:-0.780723 4:0.50774 5:-0.045669 6:-0.158169 7:-0.0974713 
0.1903585858543695 1:0.664617 2:0.447059 3:0.427451 4:0.494954 5:-0.427752 6:-0.504389 7:-0.216978 
0.09763121053298283 1:0.491131 2:0.304151 3:0.236226 4:0.362215 5:-0.420958 6:-0.388808 7:-0.216978 
-0.09057501510078905 1:-0.602944 2:-0.79164 3:-1 4:0.131279 5:-0.257876 6:-1 7:-0.356627 
-0.9499663537288847 1:-1 2:-1 3:-1 4:-1 5:-1 6:-1 7:0.0208239 
-1.874677605114468 1:-0.0546655 2:-0.311005 3:-0.825837 4:0.75458 5:-0.649379 6:-0.975517 7:-0.216945 
-0.01939258407900939 1:-0.194667 2:-0.505721 3:-0.916705 4:-0.129236 5:-0.293806 6:-0.97706 7:-0.396414 
-0.6326711053163946 1:-0.660953 2:-0.625434 3:-1 4:0.266693 5:-0.823653 6:-1 7:0.0848387 
-0.5257625856151702 1:-0.480388 2:-0.287129 3:-0.819802 4:-0.192253 5:-0.830267 6:-0.909029 7:0.0626001 
-2.5 1:0.00666566 2:-0.347826 3:-0.604348 4:0.417256 5:0.0380671 6:-0.351767 7:-0.216946 
-1.609583598517231 1:0.129667 2:-0.318612 3:-0.655521 4:0.34262 5:0.114299 6:-0.435598 7:-0.216946 
-1.082569363483732 1:-0.389241 2:-0.430216 3:-0.738129 4:-0.385845 5:-0.417702 6:-0.761216 7:-0.216945 
-0.3357381930208312 1:-0.241629 2:-0.535484 3:-0.909677 4:0.375042 5:-0.198184 6:-0.742115 7:-0.216946 
-1.722650116247689 1:-0.144788 2:-0.513514 3:-0.836036 4:-0.136481 5:-0.485532 6:-0.850985 7:-0.216946 
-0.3218923399228844 1:-0.512161 2:-0.715556 3:-0.910123 4:-0.308444 5:-0.417701 6:-0.986539 7:-0.216945 
-1.001170827254035 1:-0.624541 2:-0.708108 3:-1 4:-0.777314 5:-0.752784 6:-1 7:0.248855 
-0.1566775687852406 1:-0.459456 2:-0.551751 3:-1 4:-0.433269 5:-0.43444 6:-1 7:-0.563352 
-0.6956739066865235 1:-0.0429965 2:-0.7 3:-0.939333 4:-0.310099 5:-0.751676 6:-0.861919 7:-0.412957 
-0.01591320645583935 1:-0.198594 2:-0.868373 3:-0.933455 4:-0.296988 5:-0.805883 6:-0.87164 7:-0.412955 
-0.5548105398756751 1:0.0242939 2:-0.657143 3:-1 4:0.132485 5:-0.421125 6:-1 7:-0.644903 
-0.2518288964404831 1:-0.722952 2:-0.723077 3:-1 4:-0.419765 5:-0.716254 6:-1 7:-0.934989 
-0.6381752194275155 1:-0.77281 2:-0.906494 3:-1 4:-0.545034 5:-0.928396 6:-1 7:-0.934989 
-0.6612278693856 1:-0.63428 2:-0.698955 3:-1 4:-0.141834 5:-0.523958 6:-1 7:-0.934989 
-0.5146810773638147 1:-0.629862 2:-0.614286 3:-1 4:-0.169478 5:-0.134702 6:-1 7:-0.934989 
-1.056845278853695 1:-0.529085 2:-0.686199 3:-1 4:0.452327 5:-0.165196 6:-1 7:-0.934989 
-0.1036914997000398 1:-0.512004 2:-0.45567 3:-0.874914 4:-0.409512 5:-0.601844 6:-0.86267 7:-0.216946 
-1.440300175022436 1:-0.414193 2:-0.457831 3:-0.890361 4:-0.68443 5:-0.763584 6:-0.980277 7:-0.216946 
-2.399372892275643 1:-0.072814 2:-0.189078 3:-0.751536 4:0.698019 5:-0.441488 6:-0.885753 7:-0.216945 
-0.4436718868460435 1:-0.803786 2:-0.908475 3:-1 4:-0.928189 5:-0.961843 6:-1 7:-0.782627 
-0.9112897570491114 1:-0.15472 2:-0.142857 3:0.0833333 4:0.867118 5:-0.710723 6:-0.653456 7:0.248855 
-1.962556826273574 1:0.0737767 2:-0.463354 3:-0.886957 4:0.738488 5:0.165633 6:-0.729957 7:-0.216946 
-1.926038034761544 1:-0.380673 2:-0.6 3:-0.887654 4:0.0345772 5:-0.179303 6:-0.902753 7:-0.216945 
-0.3569544409521943 1:-0.510164 2:-0.601476 3:-1 4:0.114233 5:-0.658971 6:-1 7:-0.484779 
-0.1814279936006236 1:-0.457496 2:-0.789121 3:-0.847699 4:-0.322419 5:-0.95958 6:-0.957733 7:-0.467319 
-0.5707646418013941 1:-0.42423 2:-0.714286 3:-0.855556 4:-0.523802 5:-0.88976 6:-0.945912 7:0.0626062 
-0.8457879454304205 1:-0.897096 2:-1 3:-1 4:-0.975163 5:-1 6:-1 7:-0.528392 
-0.1552573379073304 1:-0.490035 2:-0.553982 3:-1 4:-0.507505 5:-0.555882 6:-1 7:-0.272235 
-0.4397598487985163 1:-0.159621 2:-0.2 3:-1 4:0.0344446 5:-0.354661 6:-1 7:-0.746786 
-0.06523794132797149 1:-0.688457 2:-0.801835 3:-1 4:0.100306 5:-0.864143 6:-1 7:0.0848387 
-0.9359570058748141 1:-0.446569 2:-0.858824 3:-0.898039 4:0.653338 5:-0.189325 6:-0.0678718 7:-0.685618 
-1.043298718847924 1:-0.271366 2:-0.10559 3:-1 4:-0.152778 5:-0.352339 6:-1 7:-0.746786 
-1.892022401922225 1:-0.0225771 2:-0.503448 3:-0.543574 4:0.943532 5:0.207999 6:-0.689738 7:-0.919586 
-0.1056483177989499 1:-0.763358 2:-1 3:-1 4:-0.255367 5:-1 6:-1 7:-0.350773 
-0.1326079533075475 1:-0.356852 2:-0.8875 3:-1 4:-0.374861 5:-0.490493 6:-1 7:-0.644901 
-0.250352620409231 1:-0.256807 2:-0.792593 3:-1 4:-0.214261 5:-0.367196 6:-1 7:-0.859312 
-0.5875584377226568 1:-0.572423 2:-0.74072 3:-0.899169 4:-0.56831 5:-0.659431 6:-0.638105 7:-0.638979 
-0.1700720613223653 1:-0.264696 2:-0.877505 3:-1 4:-0.606029 5:-0.919466 6:-1 7:-0.364491 
-0.007098417110093473 1:-0.302177 2:-0.893857 3:-1 4:-0.541988 5:-0.864691 6:-1 7:-0.840905 
-1.327443581277258 1:-0.662166 2:-0.755472 3:-1 4:-0.664637 5:-0.901847 6:-1 7:0.652637 
-0.358659519726052 1:-0.629146 2:-0.672727 3:-1 4:-0.115006 5:-0.0149709 6:-1 7:-0.711845 
-0.1432535392920304 1:-0.590486 2:-0.779592 3:-1 4:-0.0170718 5:-0.0466769 6:-1 7:-0.484779 
-0.3466235227051445 1:-0.692519 2:-0.569721 3:-1 4:-0.575228 5:-0.618678 6:-1 7:-0.530351 
-0.02660776345893703 1:-0.539711 2:-0.648329 3:-1 4:0.173561 5:-0.551015 6:-1 7:-0.247957 
-0.2686063695994004 1:-0.0883708 2:-0.480537 3:-1 4:-0.176931 5:-0.309356 6:-1 7:-0.614801 
-0.8945042497171944 1:-0.297417 2:-0.834483 3:-0.916322 4:0.531194 5:-0.282228 6:-0.176364 7:-0.685618 
-0.2786979796004643 1:-0.475393 2:-0.858824 3:-1 4:0.337404 5:-0.143738 6:-1 7:-0.364488 
-0.3951481861302938 1:-0.440403 2:-0.869486 3:-1 4:-0.204922 5:-0.240428 6:-1 7:-0.364488 
-0.9937670356223364 1:-0.852995 2:-1 3:-1 4:-0.881733 5:-1 6:-1 7:0.652637 
-1.160354185332872 1:-0.157463 2:-0.570149 3:-0.922388 4:0.126565 5:-0.27288 6:-0.427465 7:-0.609939 
-1.725717780399753 1:-0.129859 2:-0.435294 3:-0.910784 4:0.153165 5:-0.205786 6:-0.410003 7:-0.396414 
-1.662519767392246 1:-0.401781 2:-0.741627 3:-0.738756 4:0.183606 5:-0.347128 6:-0.584298 7:-0.43426 
-0.2646357506133085 1:-0.380949 2:-0.658047 3:-1 4:0.295519 5:-0.4768 6:-1 7:-0.484779 
-0.9108712336779603 1:-0.533602 2:-0.922302 3:-1 4:-0.187617 5:-0.971245 6:-1 7:0.0973956 
-0.2130580706138674 1:-0.458659 2:-1 3:-1 4:-0.694718 5:-1 6:-1 7:-0.300412 
-0.5127148682131937 1:-0.599077 2:-0.775584 3:-0.905455 4:-0.192857 5:-0.501206 6:-0.441646 7:-0.638979 
-0.03904233894343054 1:-0.0738676 2:-0.428571 3:-1 4:-0.276258 5:-0.704605 6:-1 7:-0.645902 
-0.5977774723929785 1:-0.419093 2:-0.941935 3:-1 4:-0.700957 5:-0.992998 6:-1 7:-0.880645 
-0.8831134279817846 1:0.0578202 2:-0.496503 3:-0.872727 4:0.528788 5:-0.282126 6:-0.78062 7:-0.216946 
-0.1295449639694462 1:-0.271099 2:-0.475 3:-0.873611 4:-0.13654 5:-0.32702 6:-0.860719 7:-0.216945 
-0.4874829544165618 1:-0.468885 2:-0.922581 3:-0.902151 4:-0.386751 5:-0.713075 6:-0.656274 7:-0.769089 
-0.5020059901396376 1:-0.309117 2:-0.551275 3:-0.896884 4:-0.129607 5:-0.442895 6:-0.545355 7:-0.396414 
-2.5 1:-0.0800009 2:-0.427815 3:-0.517881 4:0.587527 5:-0.246196 6:-0.166527 7:-0.713657 
-2.269743271143596 1:-0.0501206 2:-0.60905 3:-0.835294 4:0.329425 5:-0.237847 6:-0.892389 7:-0.62646 
-1.956737299229667 1:-0.392114 2:-0.416216 3:-0.718919 4:-0.332919 5:-0.546211 6:-0.603809 7:-0.216946 
-2.462609782359344 1:-0.0614287 2:-0.314286 3:-0.733333 4:0.692901 5:-0.441848 6:-0.460223 7:-0.216946 
-0.2326501442077811 1:-0.144938 2:-0.689209 3:-1 4:0.0299802 5:-0.831652 6:-1 7:-0.828274 
-0.4866847422809864 1:-0.496314 2:-0.658947 3:-1 4:-0.860227 5:-0.924671 6:-1 7:-0.773966 
-2.16808692276585 1:-0.209847 2:-0.185714 3:-0.133333 4:0.897733 5:-0.71593 6:-0.66338 7:0.248855 
-0.3531972413036553 1:-0.22259 2:-0.763504 3:-1 4:0.0465594 5:-0.876399 6:-1 7:-0.556527 
-0.05769446706335284 1:-0.550164 2:-1 3:-1 4:-0.829452 5:-1 6:-1 7:-0.280947 
-0.3157824325198239 1:-0.805183 2:-1 3:-1 4:-0.255213 5:-1 6:-1 7:-0.570158 
-0.5205163915332424 1:-0.688321 2:-0.653846 3:-0.825 4:-0.697249 5:-0.658205 6:-0.90135 7:-0.136311 
-0.32578963070072 1:-0.503615 2:-0.857269 3:-1 4:-0.538771 5:-0.683998 6:-1 7:0.0722915 
-2.176275607523533 1:-0.539029 2:-0.511312 3:-0.505882 4:0.658373 5:-0.716862 6:-0.671526 7:-0.0295035 
-1.55342477440716 1:-0.168856 2:-0.469231 3:-0.766667 4:0.603112 5:0.0651207 6:-0.929699 7:-0.923373 
-0.7003738428469695 1:-0.860941 2:-1 3:-1 4:-0.586504 5:-1 6:-1 7:0.211981 
-0.0008374118194579848 1:-0.475491 2:-0.720388 3:-0.823301 4:-0.751702 5:-0.936937 6:-0.935176 7:-0.563352 
-0.2789321548222995 1:-0.773423 2:-0.86789 3:-0.833028 4:-0.908928 5:-0.948803 6:-0.938668 7:-0.369319 
-0.4036009175616458 1:-0.630602 2:-1 3:-1 4:-0.929785 5:-1 6:-1 7:-0.0140507 
-2.5 1:-0.0375067 2:-0.45127 3:-0.663741 4:0.610513 5:0.281032 6:-0.0393832 7:-0.690447 
-0.08182297600702117 1:-0.56017 2:-0.806452 3:-1 4:0.114971 5:-0.928229 6:-1 7:0.133517 
-0.4830611083971791 1:-0.564319 2:-0.564516 3:-0.559677 4:0.603678 5:-0.753708 6:-0.713998 7:-0.0295035 
-0.8699425240671427 1:-0.392226 2:-0.8425 3:-0.88625 4:0.0259486 5:-0.756981 6:-0.712894 7:-0.611798 
-0.05481354825144939 1:-0.620697 2:-0.92628 3:-1 4:-0.227885 5:-0.978198 6:-1 7:0.0973956 
-0.3657793093618554 1:-0.67361 2:-0.619383 3:-1 4:-0.88832 5:-0.912493 6:-1 7:-0.0693454 
-2.049783198003202 1:0.233495 2:-0.827074 3:-0.841048 4:0.74828 5:-0.109547 6:0.0636227 7:-1 
-0.3506017160413207 1:-0.117969 2:-0.6 3:-0.807407 4:-0.314936 5:-0.503615 6:-0.935671 7:-0.923373 
-0.5495077352925951 1:-0.342947 2:-0.635135 3:-0.754054 4:-0.0595566 5:-0.126528 6:-0.929598 7:-0.923373 
-1.261984594774128 1:-0.562887 2:-0.723894 3:-0.892625 4:-0.123946 5:-0.200399 6:-0.125568 7:-0.672057 
-0.391047794404843 1:-0.430533 2:-0.930097 3:-0.91165 4:0.469841 5:-0.307545 6:-0.170463 7:-0.611797 
-0.7749031592203326 1:-0.470781 2:-0.84 3:-0.884444 4:0.243417 5:-0.936527 6:-0.927241 7:-0.364483 
-0.6899542141274828 1:-0.856717 2:-1 3:-1 4:-0.411682 5:-1 6:-1 7:-0.350773 
-0.3515370480858324 1:-0.78462 2:-0.916279 3:-1 4:-0.671715 5:-0.628737 6:-1 7:-0.350773 
-1.749522550112075 1:-0.232222 2:-0.459067 3:-0.481347 4:-0.0814921 5:-0.397112 6:-0.714417 7:-0.804962 
-0.686364006084531 1:-0.172432 2:-0.804819 3:-1 4:-0.15933 5:-0.937101 6:-1 7:-0.891387 
-1.291906362709188 1:-0.251212 2:-0.356596 3:-0.535319 4:0.0296049 5:-0.774261 6:-0.87827 7:-0.923373 
-1.045027004127317 1:-0.502079 2:-0.236866 3:-0.832258 4:-0.122055 5:-0.842599 6:-0.914971 7:0.0626001 
-0.5162366540522535 1:-0.283896 2:-0.938897 3:-1 4:-0.539552 5:-0.913042 6:-1 7:-0.351815 
-0.3755846826079681 1:-0.656988 2:-0.88 3:-1 4:-0.26728 5:-0.220237 6:-1 7:-0.678832 
-0.9111824990293762 1:0.0614977 2:-0.602524 3:-1 4:-0.406831 5:-0.873783 6:-1 7:-0.665226 
-1.036057939409566 1:-0.372114 2:-0.847458 3:-1 4:0.604027 5:-0.240028 6:-1 7:-0.611797 
-0.9236138461036177 1:-0.660637 2:-0.923404 3:-1 4:0.335128 5:-0.755654 6:-1 7:-0.179024 
-1.047182126068403 1:-0.45274 2:-0.476364 3:-0.834545 4:-0.654679 5:-0.710794 6:-0.988519 7:-0.923373 
-0.2740250581783403 1:-0.463112 2:-0.459289 3:-0.856126 4:0.0666462 5:0.0909629 6:-0.985496 7:-0.923373 
-0.1474025448617904 1:-0.422296 2:-0.663158 3:-0.787135 4:-0.43017 5:-0.504057 6:-0.978724 7:-0.923373 
-0.7612523284726773 1:0.0106005 2:-0.542671 3:-0.940717 4:-0.0261553 5:-0.656788 6:-0.842957 7:-0.794313 
-0.02953422773063813 1:-0.107519 2:-0.778199 3:-0.913744 4:-0.0812155 5:-0.671215 6:-0.794916 7:-0.794312 
-0.1104599470466766 1:-0.321228 2:-0.954334 3:-1 4:-0.0902431 5:-0.922866 6:-1 7:-0.576012 
-2.5 1:0.21033 2:-0.624814 3:-0.729032 4:0.764366 5:-0.00657476 6:-0.786459 7:-0.919586 
-0.08716337493538417 1:-0.595928 2:-0.905759 3:-0.904712 4:-0.783932 5:-0.886935 6:-0.919367 7:-0.932103 
-0.6495173808290527 1:-0.687686 2:-0.915953 3:-1 4:-0.146899 5:-0.960327 6:-1 7:-0.736054 
-0.2931507629476258 1:-0.517289 2:-1 3:-1 4:-0.893602 5:-1 6:-1 7:-0.605995 
-1.335246273646711 1:-0.39897 2:-0.585841 3:-0.838938 4:0.158194 5:-0.786488 6:-0.960182 7:0.248855 
-0.206249734538157 1:-0.895352 2:-1 3:-1 4:-0.985407 5:-1 6:-1 7:0.350867 
-0.06568716371629739 1:-0.506627 2:-1 3:-1 4:-0.873471 5:-1 6:-1 7:-0.739039 
-2.5 1:-0.0771634 2:-0.461922 3:-0.611388 4:-0.13991 5:-0.611424 6:-0.658814 7:0.0626001 
-1.170671819093276 1:-0.375399 2:-0.782326 3:-1 4:0.242666 5:0.138662 6:-1 7:-0.52068 
-1.544971559458908 1:0.029036 2:-0.554639 3:-0.749828 4:0.313135 5:-0.121916 6:-0.467137 7:-0.216946 
-1.229220681090828 1:-0.209145 2:-0.644045 3:-0.918202 4:0.475323 5:0.0904092 6:-0.654935 7:-0.216945 
-0.1964199524630334 1:-0.770304 2:-0.935714 3:-1 4:-0.294829 5:-0.608713 6:-1 7:-0.350773 
-0.717345617147283 1:-0.740579 2:-0.878992 3:-1 4:-0.38034 5:-0.332523 6:-1 7:-0.350773 
-0.1145131699319315 1:-0.384444 2:-0.782477 3:-0.89003 4:-0.101563 5:-0.0527575 6:-0.952032 7:-0.736053 
-0.9076609591014105 1:-0.392344 2:-0.595079 3:-0.872056 4:-0.23036 5:-0.310497 6:-0.4575 7:-0.914624 
-1.248820646057762 1:-0.401723 2:-0.218605 3:-1 4:0.0591111 5:0.144751 6:-1 7:-0.914621 
-0.4208334430121531 1:-0.644198 2:-0.633898 3:-1 4:-0.0339047 5:-0.82671 6:-1 7:-0.330493 
-0.3850187797564679 1:-0.801897 2:-0.768984 3:-1 4:-0.965887 5:-0.975373 6:-1 7:0.257719 
