svm_type c_svc
kernel_type rbf
gamma 2
nr_class 2
total_sv 248
rho -0.489992
label 1 -1
nr_sv 125 123
SV
0.125 1:0.000675105 2:-0.662859 3:0.78363 
0.125 1:-0.362473 2:-0.427223 3:-0.216946 
0.125 1:-0.486302 2:-0.712899 3:-0.216945 
0.125 1:-0.376984 2:-0.539467 3:-0.176171 
0.125 1:-0.220571 2:-0.492683 3:-0.350769 
0.125 1:-0.348559 2:-0.411864 3:-0.350768 
0.125 1:-0.455969 2:-0.328985 3:0.0626062 
0.125 1:-0.257867 2:-0.467317 3:-0.399309 
0.125 1:-0.434602 2:-0.57085 3:-0.216946 
0.125 1:-0.43639 2:-0.631697 3:-0.216946 
0.125 1:-0.501459 2:-0.466555 3:0.0548794 
0.0774769921634809 1:0.538872 2:-0.0439024 3:0.279934 
0.125 1:-0.671068 2:-0.612124 3:1 
0.125 1:-0.521975 2:-0.634648 3:-0.216945 
0.07150119304893307 1:0.879506 2:0.195697 3:-0.218877 
0.125 1:-0.391832 2:-0.442217 3:0.248855 
0.125 1:-0.426561 2:-0.552565 3:-0.216946 
0.125 1:-0.107518 2:-0.395537 3:-0.940843 
0.125 1:-0.416867 2:-0.750416 3:-0.427485 
0.125 1:-0.328968 2:-0.410749 3:-0.540959 
0.02543370998361257 1:0.897085 2:-0.19696 3:-0.940844 
0.125 1:0.708986 2:0.298371 3:0.456598 
0.125 1:-0.300889 2:-0.531436 3:-0.572092 
0.125 1:-0.315947 2:-0.467317 3:-0.414864 
0.125 1:-0.0899145 2:-0.658537 3:-0.399309 
0.125 1:-0.329249 2:-0.766878 3:-0.372142 
0.125 1:-0.0945212 2:-0.66386 3:-0.372143 
0.125 1:-0.408444 2:-0.682927 3:-0.372142 
0.125 1:-0.309096 2:-0.534863 3:-0.372142 
0.125 1:-0.313931 2:-0.410096 3:-0.424545 
0.125 1:-0.210023 2:-0.571405 3:-0.193663 
0.125 1:-0.112406 2:-0.396637 3:-0.88749 
0.125 1:-0.0588889 2:-0.658537 3:-0.58858 
0.125 1:-0.00331852 2:-0.565962 3:-0.85931 
0.125 1:-0.336287 2:-0.410003 3:-0.350768 
0.125 1:-0.220044 2:-0.382652 3:-0.598247 
0.125 1:-0.0597792 2:-0.666828 3:-0.811712 
0.125 1:0.0142897 2:-0.85016 3:-0.811712 
0.125 1:0.172356 2:-0.792846 3:-0.941834 
0.125 1:-0.180999 2:-0.5113 3:-0.467318 
0.125 1:-0.431111 2:-0.608681 3:-0.585643 
0.125 1:1 2:-0.364107 3:-0.348901 
0.125 1:0.479632 2:-1 3:0.600026 
0.125 1:-0.0790283 2:-0.568678 3:-0.716684 
0.125 1:-0.466594 2:-0.254148 3:-0.214958 
0.125 1:-0.190067 2:-0.604621 3:-0.0898474 
0.125 1:-0.139556 2:-0.585691 3:-0.372142 
0.125 1:-0.116066 2:-0.47276 3:-0.772987 
0.125 1:-0.506368 2:-0.536221 3:-0.648726 
0.125 1:-0.576296 2:-0.596452 3:0.321647 
0.125 1:-0.1904 2:-0.499601 3:-0.495405 
0.125 1:0.00951267 2:-0.610612 3:-0.981596 
0.125 1:-0.488989 2:-0.357245 3:0.103252 
0.125 1:-0.207241 2:-0.885198 3:0.0780769 
0.125 1:-0.31871 2:-0.427223 3:-0.216946 
0.125 1:-0.391832 2:-0.442217 3:0.248855 
0.125 1:0.0140952 2:-0.71252 3:-0.556527 
0.125 1:-0.305149 2:-0.516542 3:-0.566252 
0.125 1:0.707132 2:0.548497 3:-0.474981 
0.125 1:0.0165155 2:-0.660981 3:-0.789492 
0.125 1:-0.126667 2:-0.724854 3:-0.585643 
0.125 1:-0.303647 2:-0.544715 3:-0.757435 
0.125 1:-0.0255651 2:-0.595303 3:-0.940844 
0.125 1:-0.322209 2:-0.658537 3:-0.559406 
0.125 1:-0.340273 2:-0.372926 3:-0.350768 
0.125 1:-0.800118 2:-0.725016 3:0.350867 
0.125 1:0.478889 2:0.911247 3:0.103252 
0.125 1:-0.310541 2:-0.544715 3:0.103252 
0.125 1:-0.105774 2:-0.794964 3:-0.877735 
0.125 1:-0.2764 2:-0.796841 3:-0.877735 
0.125 1:-0.150877 2:-0.617692 3:-0.648726 
0.125 1:-0.593033 2:-0.65341 3:-0.648726 
0.0468982177963775 1:-0.0537634 2:-0.453258 3:-0.928218 
0.125 1:0.892779 2:-0.774461 3:-0.427587 
0.125 1:-0.56679 2:-0.342367 3:0.103252 
0.125 1:-0.181972 2:-0.774923 3:-0.0693708 
0.125 1:-0.202975 2:-0.610922 3:-0.495406 
0.125 1:-0.319546 2:-0.557104 3:-0.495405 
0.125 1:0.135072 2:-0.754362 3:-0.941834 
0.125 1:-0.171362 2:-0.516371 3:-0.427486 
0.125 1:-0.159336 2:-0.31969 3:-0.940843 
0.06210886853516802 1:0.409544 2:0.63543 3:-0.472178 
0.125 1:-0.189154 2:-0.470997 3:-0.838019 
0.125 1:0.838853 2:0.0978232 3:-0.923373 
0.125 1:-0.47728 2:-0.307512 3:0.127638 
0.125 1:-0.129888 2:-0.70074 3:0.127637 
0.125 1:-0.314016 2:-0.475706 3:-0.437165 
0.125 1:-0.449609 2:-0.583546 3:-0.362447 
0.125 1:-0.343457 2:-0.603462 3:-0.362447 
0.125 1:-0.279925 2:-0.473336 3:-0.350769 
0.125 1:-0.345641 2:-0.472284 3:-0.350768 
0.125 1:-0.0609896 2:-0.566502 3:-0.940844 
0.125 1:-0.0449067 2:-0.526504 3:-0.940844 
0.125 1:-0.301048 2:-0.552146 3:-0.940843 
0.125 1:-0.156223 2:-0.699049 3:-0.0693708 
0.125 1:-0.228791 2:-0.414634 3:-0.537186 
0.125 1:-0.0972653 2:-0.865738 3:-0.155732 
0.125 1:-0.52549 2:-0.434242 3:0.103252 
0.125 1:-0.199353 2:-0.619039 3:-0.707932 
0.125 1:-0.257462 2:-0.368507 3:-0.55071 
0.125 1:0.0991941 2:1 3:0.103252 
0.004943418915681432 1:-0.354667 2:0.374666 3:0.103252 
0.125 1:-0.0271841 2:-0.602475 3:-0.812749 
0.125 1:-0.196795 2:-0.466555 3:-0.692518 
0.125 1:-0.267459 2:-0.520105 3:-0.350769 
0.125 1:-0.378413 2:-0.44272 3:-0.772951 
0.125 1:-0.70509 2:-0.713611 3:0.0626074 
0.125 1:-0.632607 2:-0.42864 3:0.0626079 
0.125 1:-0.0632258 2:0.304659 3:0.456598 
0.125 1:-0.318962 2:-0.581567 3:-0.221673 
0.125 1:-0.239693 2:-0.523783 3:-0.368268 
0.125 1:-0.220017 2:-0.548191 3:-0.350769 
0.108617630649311 1:0.335172 2:0.938884 3:0.103252 
0.125 1:-0.575089 2:-0.525043 3:0.103252 
0.125 1:-0.610575 2:-0.425988 3:0.103252 
0.07410153974092407 1:-0.109202 2:0.361664 3:0.342093 
0.125 1:-0.0466667 2:-0.618872 3:-0.940844 
0.125 1:-0.305996 2:-0.578417 3:-0.940843 
0.125 1:-0.421358 2:-0.595226 3:-0.55071 
0.125 1:-0.137848 2:-0.530262 3:-0.550711 
0.125 1:-0.71995 2:-0.664979 3:0.350867 
0.125 1:-0.233667 2:-0.648577 3:-0.427486 
0.125 1:-0.323187 2:-0.523617 3:-0.372142 
0.125 1:-0.289365 2:-0.418699 3:-0.372142 
0.125 1:-0.223529 2:-0.477762 3:-0.372142 
-0.125 1:-0.501192 2:-0.485331 3:-0.216946 
-0.125 1:-0.401505 2:-0.642014 3:-0.216946 
-0.125 1:-0.166316 2:-0.575213 3:-0.216945 
-0.125 1:-0.261632 2:-0.431155 3:-0.396414 
-0.125 1:-0.520792 2:-0.296788 3:0.0626001 
-0.125 1:-0.354667 2:-0.809756 3:-0.646835 
-0.125 1:-0.0998068 2:-0.420997 3:-0.216946 
-0.125 1:0.00769716 2:-0.439871 3:-0.216946 
-0.125 1:-0.489305 2:-0.616775 3:-0.216945 
-0.125 1:-0.937949 2:-1 3:0.361424 
-0.125 1:-0.423524 2:-0.581432 3:-0.216946 
-0.125 1:-0.200601 2:-0.600088 3:-0.216946 
-0.125 1:-0.569778 2:-0.736947 3:-0.216945 
-0.125 1:-0.660351 2:-1 3:0.248855 
-0.125 1:-0.651171 2:-0.640079 3:0.248855 
-0.0688458428067652 1:-0.748571 2:-1 3:0.267379 
-0.1060229486158157 1:-0.496758 2:-0.6742 3:-0.563352 
-0.125 1:-0.54087 2:-0.578907 3:-0.230506 
-0.125 1:-0.230978 2:-0.807642 3:-0.412957 
-0.125 1:-0.398318 2:-0.837696 3:-0.412955 
-0.125 1:-0.243624 2:-0.800742 3:-0.644903 
-0.125 1:-0.242946 2:-0.87866 3:-0.644901 
-0.125 1:-0.197051 2:-0.795437 3:-0.644903 
-0.125 1:-0.578648 2:-0.51186 3:-0.216946 
-0.125 1:-0.4849 2:-0.491919 3:-0.216946 
-0.125 1:-0.107986 2:-0.484891 3:-0.216945 
-0.125 1:-0.308571 2:0.0569106 3:0.248855 
-0.125 1:-0.0279917 2:-0.558855 3:-0.216946 
-0.125 1:0.0311111 2:-0.437479 3:-0.216946 
-0.125 1:-0.452263 2:-0.643782 3:-0.216945 
-0.125 1:-0.252698 2:-0.673319 3:-0.757425 
-0.125 1:-0.202824 2:-0.817217 3:-0.757426 
-0.125 1:-0.623689 2:-0.801731 3:-0.0955187 
-0.125 1:-0.487831 2:-0.753388 3:0.0626062 
-0.125 1:-0.360056 2:-0.703447 3:-0.609939 
-0.125 1:-0.533926 2:-0.556098 3:-0.746786 
-0.125 1:-0.619213 2:-0.503712 3:-0.746786 
-0.125 1:-0.0795402 2:-0.443383 3:-0.919586 
-0.125 1:-0.338578 2:-0.606513 3:-0.396414 
-0.125 1:-0.418619 2:-0.520105 3:-0.907801 
-0.125 1:-0.759367 2:-0.81943 3:0.45466 
-0.125 1:-0.318672 2:-0.787776 3:-0.840906 
-0.125 1:-0.817358 2:-0.899494 3:0.652637 
-0.125 1:-0.613797 2:-0.691496 3:-0.259625 
-0.125 1:-0.678619 2:-0.469439 3:-0.530351 
-0.125 1:-0.344922 2:-0.687183 3:-0.614801 
-0.125 1:-0.38367 2:-0.600987 3:-0.614798 
-0.125 1:-0.332414 2:-0.857135 3:-0.685618 
-0.125 1:-0.923175 2:-1 3:0.652637 
-0.125 1:-0.346411 2:-0.640335 3:-0.609939 
-0.125 1:-0.280327 2:-0.521282 3:-0.396414 
-0.125 1:-0.921301 2:-1 3:0.410986 
-0.125 1:-0.467368 2:-0.68141 3:-0.43426 
-0.125 1:-0.497696 2:-0.648626 3:-0.484779 
-0.125 1:-0.663405 2:-0.904194 3:0.0973956 
-0.01819221686837511 1:-0.924522 2:-1 3:0.315847 
-0.125 1:-0.789565 2:-1 3:0.361424 
-0.125 1:-0.569778 2:-0.719641 3:-0.300412 
-0.125 1:-0.671864 2:-0.548574 3:-0.530351 
-0.125 1:-0.620936 2:-0.618422 3:-0.412957 
-0.125 1:-0.607568 2:-0.640079 3:-0.412955 
-0.125 1:-0.308571 2:-0.746341 3:-0.645902 
-0.125 1:-0.142564 2:-0.534368 3:-0.216946 
-0.125 1:-0.0231193 2:-0.48415 3:-0.216946 
-0.125 1:-0.383796 2:-0.722561 3:-0.216945 
-0.125 1:-0.378432 2:-0.673046 3:-0.396414 
-0.125 1:-0.432776 2:-0.6546 3:-0.714709 
-0.125 1:-0.0384106 2:-0.76482 3:-0.713657 
-0.125 1:-0.080181 2:-0.718795 3:-0.62646 
-0.125 1:-0.402008 2:-0.314436 3:-0.216946 
-0.125 1:-0.624988 2:-0.656056 3:-0.216945 
-0.125 1:-0.208107 2:-0.317073 3:-0.216946 
-0.125 1:-0.350024 2:-0.664678 3:-0.828276 
-0.125 1:-0.507509 2:-0.579461 3:-0.773966 
-0.125 1:-0.270159 2:-0.207317 3:0.248855 
-0.125 1:-0.408947 2:-0.684705 3:-0.396414 
-0.125 1:-0.352311 2:-0.756988 3:-0.556527 
-0.125 1:-0.720769 2:-0.70122 3:-0.136311 
-0.125 1:-0.36473 2:-0.723102 3:-0.769066 
-0.08993182856387484 1:-0.587139 2:-1 3:0.072291 
-0.125 1:-0.561991 2:-0.758967 3:-0.0295035 
-0.125 1:-0.296752 2:-0.51626 3:-0.923373 
-0.125 1:-0.974593 2:-1 3:0.315847 
-0.125 1:-0.351579 2:-0.872564 3:-0.57118 
-0.125 1:-0.406135 2:-0.782134 3:-0.571183 
-0.125 1:-0.0983218 2:-0.446403 3:-0.690447 
-0.125 1:-0.687742 2:-0.83294 3:0.133517 
-0.125 1:-0.333431 2:-0.902617 3:-0.571183 
-0.125 1:0.134265 2:-0.844925 3:-1 
-0.125 1:-0.257354 2:-0.577236 3:-0.923373 
-0.125 1:-0.433153 2:-0.616084 3:-0.923373 
-0.125 1:-0.422252 2:-0.550099 3:-0.923373 
-0.125 1:-0.391195 2:-0.760699 3:-0.715703 
-0.125 1:-0.289465 2:-0.470997 3:-0.804962 
-0.125 1:-0.280803 2:-0.839553 3:-0.891387 
-0.125 1:-0.490526 2:-0.672914 3:-0.43426 
-0.125 1:-0.299745 2:-0.357758 3:-0.923373 
-0.125 1:-0.553231 2:-0.487805 3:-0.923373 
-0.125 1:-0.539048 2:-0.222659 3:0.0626001 
-0.125 1:-0.549767 2:-0.699685 3:-0.318817 
-0.125 1:-0.341789 2:-0.704721 3:-0.66523 
-0.125 1:-0.206057 2:-0.817958 3:-0.665226 
-0.09847814159717569 1:-0.349006 2:-0.85982 3:-0.665227 
-0.08961059238148206 1:-0.495833 2:-0.643293 3:-0.907801 
-0.125 1:-0.692226 2:-0.590244 3:-0.400332 
-0.125 1:-0.472 2:-0.475388 3:-0.923373 
-0.125 1:-0.54087 2:-0.508725 3:-0.923373 
-0.125 1:-0.396179 2:-0.636571 3:-0.923373 
-0.125 1:-0.201216 2:-0.696353 3:-0.794313 
-0.125 1:-0.243033 2:-0.726506 3:-0.794312 
-0.125 1:0.0328536 2:-0.581432 3:-0.919586 
-0.125 1:-0.457463 2:-0.646449 3:0.248855 
-0.125 1:-0.945311 2:-1 3:0.350867 
-0.125 1:-0.314738 2:-0.584305 3:-0.645902 
-0.125 1:-0.336359 2:-0.811105 3:-0.508056 
-0.125 1:-0.915088 2:-1 3:0.410986 
-0.125 1:-0.150273 2:-0.336516 3:0.0626001 
-0.125 1:-0.0796793 2:-0.603386 3:-0.216946 
-0.125 1:-0.376419 2:-0.740641 3:-0.216945 
-0.125 1:-0.439465 2:-0.624314 3:-0.412957 
-0.125 1:-0.654061 2:-0.896163 3:0.0781426 
-0.125 1:-0.499742 2:-0.449423 3:-0.914621 
-0.125 1:-0.276262 2:-0.585138 3:-0.626461 
