svm_type c_svc
kernel_type rbf
gamma 8
nr_class 2
total_sv 611
rho -1.47235
label 1 -1
nr_sv 380 231
SV
0.8110000837575038 1:-0.321955 2:-0.538947 3:-0.83812 4:-0.00733365 5:-0.139366 6:-0.350464 7:0.00868209 
32 1:-0.437513 2:-0.565649 3:-0.909884 4:-0.318141 5:-0.592819 6:-0.915644 7:-0.523915 
32 1:-0.372961 2:-0.509731 3:-0.934183 4:-0.12169 5:-0.401713 6:-0.882695 7:-0.523913 
11.46021286343861 1:-0.513462 2:-0.555519 3:-0.918848 4:-0.397323 5:-0.508997 6:-0.940693 7:-0.503268 
2.657567771601763 1:-0.104187 2:-0.0944444 3:-0.655556 4:0.729053 5:0.624192 6:-0.0139509 7:-0.503268 
12.29078765588921 1:-0.433284 2:-0.435908 3:-0.89701 4:-0.0257892 5:-0.161388 6:-0.88053 7:-0.503268 
32 1:-0.212226 2:-0.299514 3:-0.304933 4:0.357468 5:-0.053853 6:-0.0723942 7:-0.415957 
0.80987431680073 1:-0.387672 2:-0.168952 3:-0.738397 4:0.783263 5:-0.583197 6:-0.887169 7:-0.427984 
28.68353642734662 1:-0.547107 2:-0.70613 3:-1 4:0.0210981 5:-0.57617 6:-1 7:-0.668246 
4.218500473112854 1:-0.243256 2:-0.555206 3:-0.843829 4:0.269037 5:-0.261727 6:-0.810755 7:-0.77194 
10.98116956006024 1:-0.219977 2:-0.517259 3:-0.848039 4:0.355853 5:-0.386711 6:-0.88403 7:-0.771942 
14.48617573357857 1:0.463842 2:-0.440555 3:-0.744646 4:0.752963 5:-0.450703 6:-0.546843 7:-0.970908 
0.001077363889280115 1:-0.674425 2:-0.75682 3:-0.841432 4:0.445267 5:-0.634091 6:-0.819668 7:-0.499578 
5.878561031410735 1:0.213722 2:-0.548226 3:-0.793792 4:0.896053 5:-0.543067 6:-0.602415 7:-0.821672 
4.717155154364264 1:0.02743 2:-0.457871 3:-0.793792 4:0.725597 5:0.114771 6:-0.631316 7:-0.503268 
6.115893161415314 1:-0.0345247 2:-0.866456 3:-0.912921 4:0.288837 5:-0.583987 6:-0.62045 7:-0.269119 
0.4157904318519235 1:-0.617405 2:-0.573201 3:-0.830601 4:0.110274 5:-0.31776 6:-0.948744 7:-0.220559 
5.007363717501852 1:0.267438 2:-0.199236 3:-0.187773 4:0.587636 5:0.540642 6:0.517497 7:0.131807 
0.2640001231584338 1:0.12145 2:-0.272321 3:-0.261905 4:0.663965 5:-0.0366877 6:-0.0411405 7:-0.264909 
14.51278446554949 1:-0.148683 2:-0.554297 3:-0.709375 4:0.497487 5:-0.0767756 6:-0.555238 7:-0.419585 
32 1:-0.520127 2:-0.608857 3:-0.918848 4:-0.400266 5:-0.539703 6:-0.940693 7:-0.503269 
32 1:-0.508284 2:-0.533619 3:-0.866953 4:-0.0789081 5:-0.076158 6:-0.934754 7:-0.503268 
0.4314707366494245 1:-0.313954 2:-0.38997 3:-1 4:0.549947 5:-0.457157 6:-1 7:-0.220066 
16.38532432927476 1:-0.125004 2:-0.546142 3:-0.704057 4:0.582605 5:-0.197622 6:-0.403789 7:-0.707046 
0.08251343965775766 1:-0.0144539 2:-0.561828 3:-0.666667 4:0.679169 5:-0.887226 6:-0.949237 7:-0.100448 
16.70770870970002 1:-0.270204 2:-0.601792 3:-0.848534 4:0.419133 5:-0.0306597 6:-0.505348 7:-0.47174 
5.378480351004113 1:-0.490801 2:-0.637778 3:-0.896667 4:-0.156736 5:-0.625459 6:-0.755166 7:-0.645717 
10.39073897879899 1:-0.314336 2:-0.617171 3:-0.805846 4:0.338247 5:0.0829455 6:-0.595746 7:-0.541439 
0.03989654627828706 1:0.20658 2:-0.202717 3:-0.191304 4:0.725187 5:0.432783 6:0.321046 7:0.0910911 
10.36119033243723 1:-0.268393 2:-0.661718 3:-0.703065 4:0.24582 5:-0.374595 6:-0.399915 7:-0.633034 
4.620142384657883 1:-0.113617 2:-0.195062 3:-0.77037 4:0.731116 5:-0.391939 6:-0.966552 7:-0.503269 
32 1:-0.508284 2:-0.533619 3:-0.866953 4:-0.608508 5:-0.737976 6:-0.934754 7:-0.503268 
6.595682127127406 1:-0.497414 2:-0.541342 3:-0.838961 4:-0.573979 5:-0.716121 6:-0.918317 7:-0.503268 
0.02989316208401569 1:-0.333054 2:-0.458523 3:-0.646925 4:-0.0368416 5:-0.323904 6:-0.529854 7:-0.504475 
5.070401506395237 1:-0.0513556 2:-0.51621 3:-0.575342 4:0.509955 5:-0.272167 6:-0.482389 7:-0.678529 
0.5295521158469229 1:0.0259976 2:-0.533706 3:-0.814925 4:0.707868 5:-0.19027 6:-0.510119 7:-0.992703 
32 1:-0.450201 2:-0.57129 3:-0.89701 4:-0.0282196 5:-0.328357 6:-0.88053 7:-0.503269 
4.065100507084367 1:-0.484188 2:-0.541342 3:-0.838961 4:0.0173342 5:0.0186718 6:-0.918317 7:-0.503268 
1.535436607635715 1:-0.552353 2:-0.477564 3:-0.659341 4:-0.0703814 5:-0.239931 6:-0.602787 7:-0.00223899 
1.461333012683631 1:0.0159496 2:0.0122196 3:-0.403846 4:0.604524 5:0.291808 6:0.0818062 7:-0.395224 
1.812249232403339 1:-0.174104 2:-0.619004 3:-0.621951 4:0.485604 5:-0.311111 6:-0.312639 7:-0.718538 
0.1127642057751876 1:0.203366 2:-0.657083 3:-0.869565 4:0.203916 5:-0.478687 6:-0.626287 7:-0.203089 
24.29362937347757 1:-0.77815 2:-1 3:-1 4:-0.631625 5:-1 6:-1 7:-0.203087 
0.2178026301600552 1:0.492479 2:-0.203736 3:-0.251724 4:0.886515 5:0.466442 6:0.466107 7:0.149971 
22.50784477082837 1:-0.178065 2:-0.69696 3:-0.83727 4:0.229423 5:-0.17523 6:-0.595269 7:-0.401364 
0.7774065245127284 1:-0.460848 2:-0.254248 3:-0.878431 4:0.0923782 5:-0.0560819 6:-0.966163 7:-0.248579 
0.3094035090855481 1:-0.392173 2:-0.663476 3:-0.720721 4:0.542064 5:0.207579 6:-0.331188 7:-0.600264 
9.176698309192883 1:-0.519624 2:-0.530136 3:-0.902516 4:0.064056 5:0.163258 6:-0.916218 7:-0.597863 
8.176652647746623 1:-0.117028 2:-0.436436 3:-0.604255 4:0.587823 5:-0.253821 6:-0.531314 7:-0.517824 
4.890651106334009 1:0.128165 2:-0.511976 3:-0.443114 4:0.60227 5:-0.210183 6:-0.20036 7:-0.464369 
18.25710491741499 1:-0.787834 2:-0.845644 3:-1 4:-0.58579 5:-0.585609 6:-1 7:-0.203087 
0.05715171108491385 1:-0.418508 2:-0.45499 3:-0.808642 4:0.209932 5:-0.0693438 6:-0.665559 7:-0.506927 
2.658343928719507 1:-0.437513 2:-0.499839 3:-0.879845 4:0.078486 5:-0.549139 6:-0.928313 7:-0.738622 
0.31671618112559 1:0.0338279 2:0.152525 3:-0.248485 4:0.175164 5:-0.089628 6:-0.35743 7:-0.349278 
1.8606944028639 1:0.0719975 2:-0.00706628 3:-0.274854 4:0.635527 5:0.510451 6:0.112283 7:-0.258277 
9.010538021602558 1:0.160788 2:-0.298126 3:-0.340426 4:0.673851 5:0.0853872 6:0.0687834 7:-0.25828 
2.11396247284509 1:-0.451819 2:-0.0576156 3:-0.703349 4:-0.198963 5:-0.138254 6:-0.961123 7:-0.258276 
3.709104916729972 1:0.291446 2:-0.11413 3:-0.213768 4:0.733469 5:0.12653 6:0.0970572 7:-0.258276 
14.04133893774026 1:-0.0595273 2:-0.390721 3:-0.427441 4:0.499257 5:-0.0117512 6:-0.088511 7:-0.267973 
0.6224785144860949 1:0.458058 2:-0.461454 3:-0.590308 4:0.906608 5:-0.457765 6:-0.499782 7:-0.959973 
4.677218475744184 1:0.0496642 2:-0.0666423 3:-0.274854 4:0.632666 5:0.524928 6:0.135153 7:-0.25828 
4.320120569080925 1:-0.32248 2:-0.618763 3:-0.806653 4:0.0589502 5:-0.593061 6:-0.878909 7:-0.550604 
0.2326222596955742 1:-0.258341 2:0.122101 3:-0.326087 4:0.50925 5:0.706193 6:0.320788 7:-0.34127 
0.4511928528692455 1:-0.604732 2:-0.441781 3:-0.575342 4:0.364032 5:-0.787891 6:-0.801296 7:-0.333382 
32 1:-0.621829 2:-0.730038 3:-0.935146 4:-0.1918 5:-0.305684 6:-0.904688 7:-0.506927 
13.43602440797164 1:-0.501088 2:-0.629545 3:-0.812121 4:-0.0421638 5:-0.230491 6:-0.502409 7:-0.465031 
2.710999790487071 1:0.0366425 2:-0.18146 3:-0.29316 4:0.672617 5:0.462138 6:0.333013 7:0.0322272 
1.208554983816761 1:-0.308704 2:-0.550221 3:-0.794702 4:0.200529 5:-0.460633 6:-0.607575 7:-0.838071 
2.077427489298376 1:0.404898 2:-0.361747 3:-0.551807 4:0.805522 5:-0.474866 6:-0.56088 7:-0.9169 
0.06195715514669468 1:-0.527895 2:-0.595199 3:-1 4:0.307969 5:-0.0772078 6:-1 7:-0.419585 
1.612942545263273 1:0.609725 2:-0.255108 3:-0.6 4:0.925225 5:-0.44692 6:-0.47908 7:-0.834408 
11.91568467341557 1:-0.496218 2:-0.436436 3:-0.73617 4:-0.150256 5:-0.36448 6:-0.503501 7:-0.463813 
0.01853130002142951 1:-0.441347 2:-0.4381 3:-0.442446 4:-0.0787646 5:-0.494752 6:-0.493461 7:-0.238854 
32 1:-0.760377 2:-1 3:-1 4:-0.677485 5:-1 6:-1 7:-0.203087 
5.814790072172999 1:-0.504123 2:-0.545906 3:-0.819767 4:-0.213438 5:-0.188126 6:-0.454247 7:-0.100448 
0.1515284911389168 1:0.189026 2:-0.462401 3:-0.509235 4:0.512362 5:-0.465717 6:-0.566123 7:0.19366 
6.823101387814111 1:-0.424227 2:-0.520024 3:-0.780919 4:-0.0859522 5:-0.160228 6:-0.260523 7:0.0183768 
32 1:-0.407667 2:-0.556463 3:-0.873469 4:-0.0868202 5:-0.335888 6:-0.674865 7:-0.560327 
0.1787117193518923 1:-0.0965828 2:-0.342742 3:-1 4:0.422365 5:-0.50622 6:-1 7:-0.306807 
1.184368561848558 1:-0.432758 2:-0.58945 3:-0.732297 4:-0.194112 5:-0.442688 6:-0.547228 7:-0.315249 
0.1388694032252181 1:-0.345608 2:-0.345382 3:-0.626506 4:0.859419 5:-0.485884 6:-0.954355 7:-0.626965 
1.009690584862074 1:-0.080019 2:-0.429272 3:-0.739496 4:0.842426 5:-0.853953 6:-0.928755 7:-0.492375 
12.86623915806033 1:-0.397275 2:-0.556463 3:-0.873469 4:-0.0854511 5:-0.335888 6:-0.674865 7:-0.560327 
0.4667440794911024 1:-0.0144539 2:-0.561828 3:-0.666667 4:0.679169 5:-0.887226 6:-0.949237 7:-0.100448 
1.867956629945432 1:-0.0199943 2:-0.164517 3:-0.507937 4:0.693244 5:-0.362753 6:-0.473529 7:0.0183768 
24.66567257281005 1:-0.474197 2:-0.557065 3:-1 4:-0.104909 5:-0.232778 6:-1 7:-0.456513 
3.422829404415645 1:-0.151335 2:-0.40424 3:-0.72807 4:0.734401 5:0.260027 6:-0.612237 7:-0.617243 
16.99841409254284 1:-0.462007 2:-0.535094 3:-0.815476 4:-0.329786 5:-0.593178 6:-0.794337 7:-0.633036 
21.79309673908734 1:-0.5013 2:-0.649914 3:-0.840206 4:-0.154909 5:-0.475962 6:-0.719372 7:-0.633035 
2.615768933048656 1:-0.43522 2:-0.449971 3:-0.78169 4:0.439157 5:0.120908 6:-0.333664 7:-0.633035 
15.56413205065645 1:-0.565147 2:-0.625803 3:-0.829201 4:-0.293799 5:-0.641957 6:-0.776856 7:-0.633035 
0.01591196976126336 1:-0.650666 2:-0.731492 3:-0.855814 4:0.243569 5:0.0158725 6:-0.522309 7:-0.600264 
10.99335962914946 1:-0.213056 2:-0.506061 3:-0.436364 4:0.50401 5:0.01649 6:0.0291317 7:-0.586905 
1.217310000667923 1:-0.0984677 2:-0.153825 3:-0.491803 4:0.558918 5:0.194137 6:0.0965594 7:-0.325556 
0.06224058130853423 1:-0.0808686 2:-0.362515 3:-0.440433 4:0.816978 5:0.687805 6:0.280007 7:-0.553012 
27.68095865347185 1:-0.51207 2:-0.499386 3:-0.771499 4:-0.296978 5:-0.354644 6:-0.701028 7:-0.471739 
3.114793247760815 1:-0.328602 2:-0.521214 3:-0.75718 4:-0.0262387 5:-0.156344 6:-0.33162 7:0.00868268 
6.933194809105022 1:0.0883639 2:-0.170483 3:-0.408397 4:0.704609 5:0.567202 6:0.077667 7:-0.258276 
0.2917291323110334 1:-0.347824 2:-0.230501 3:-0.694581 4:-0.465592 5:-0.625752 6:-0.890961 7:-0.364369 
0.01745542427993092 1:-0.00129515 2:-0.530962 3:-0.914365 4:0.432831 5:-0.288959 6:-0.977729 7:-0.266583 
32 1:-0.490801 2:-0.624291 3:-0.868085 4:0.0217015 5:-0.329941 6:-0.756456 7:-0.734344 
20.33565341419235 1:-0.670926 2:-0.614985 3:-0.929705 4:-0.130504 5:-0.415112 6:-0.823394 7:-0.734345 
1.029163748425992 1:0.0763552 2:-0.392615 3:-0.495935 4:0.47477 5:0.126946 6:0.0999343 7:-0.400716 
11.09388673663551 1:-0.468491 2:-0.702427 3:-0.840206 4:0.156214 5:-0.212901 6:-0.419882 7:-0.833836 
13.71535974720732 1:-0.0207715 2:-0.561154 3:-0.713846 4:0.568603 5:-0.287538 6:-0.519295 7:-0.559092 
5.413969906832486 1:-0.188234 2:-0.63909 3:-0.700483 4:0.447721 5:-0.141779 6:-0.315939 7:-0.559094 
2.767271396602247 1:-0.0888918 2:-0.522993 3:-0.688963 4:0.724006 5:0.502463 6:-0.37604 7:-0.280628 
24.79070110353178 1:-0.546258 2:-0.562913 3:-0.846535 4:0.0321636 5:-0.252492 6:-0.529504 7:-0.633034 
3.191617835690931 1:-0.180677 2:-0.548426 3:-0.670213 4:0.676856 5:-0.00142211 6:-0.365791 7:-0.586905 
3.257366274735829 1:-0.350735 2:-0.47457 3:-1 4:-0.433381 5:-0.533128 6:-1 7:0.00868114 
1.054144438632476 1:-0.443653 2:-0.572377 3:-0.77037 4:0.526739 5:-0.0499236 6:-0.516094 7:-0.8496 
4.803969599688772 1:-0.162502 2:-0.410197 3:-0.755263 4:0.587777 5:0.268574 6:-0.313156 7:-0.549397 
32 1:-0.166076 2:-0.494417 3:-0.769231 4:0.412321 5:-0.000296236 6:-0.509287 7:-0.549397 
8.805989627168305 1:-0.131008 2:-0.525532 3:-0.690619 4:0.371616 5:-0.0327474 6:-0.317825 7:-0.549399 
6.537022529621119 1:0.0363091 2:-0.351549 3:-0.376884 4:0.652582 5:0.272251 6:0.0413155 7:-0.221172 
6.382840898018843 1:0.0676749 2:-0.298925 3:-0.5 4:0.682853 5:0.0564068 6:-0.0170757 7:-0.474112 
11.72477493951809 1:-0.487203 2:-0.496025 3:-0.671378 4:-0.24672 5:-0.745212 6:-0.788443 7:-0.522649 
23.65511612298623 1:-0.125558 2:-0.381133 3:-0.78271 4:0.457014 5:0.115525 6:-0.496232 7:-0.549397 
0.230808887596112 1:0.116442 2:-0.755331 3:-0.807453 4:-0.132055 5:-0.81541 6:-0.827127 7:-0.577883 
0.8448622903213099 1:-0.0361119 2:-0.55668 3:-0.67624 4:0.606508 5:0.157446 6:-0.555486 7:-0.408651 
18.11175551204328 1:-0.127761 2:-0.559799 3:-0.712963 4:0.473624 5:-0.21721 6:-0.511237 7:-0.597906 
8.388113068286591 1:-0.335597 2:-0.645529 3:-0.935282 4:0.321425 5:-0.563727 6:-0.710949 7:-0.942967 
17.3436396125792 1:-0.367626 2:-0.794636 3:-0.866091 4:-0.339918 5:-0.63934 6:-0.80279 7:-0.358327 
10.03102872682738 1:-0.122445 2:-0.479787 3:-0.604255 4:0.645903 5:-0.468274 6:-0.528494 7:-0.517824 
7.855642752594736 1:-0.0721757 2:-0.764281 3:-0.932755 4:0.12362 5:-0.622423 6:-0.919582 7:-0.53241 
0.899474221717621 1:0.15727 2:-0.158058 3:-0.231405 4:0.281276 5:-0.298716 6:-0.367866 7:-0.422596 
0.0627901668950045 1:-0.189439 2:-0.279252 3:-0.746939 4:0.767596 5:-0.0262142 6:-0.491474 7:-0.438934 
0.4773803520031693 1:0.324668 2:-0.0226015 3:0.0295203 4:0.88692 5:0.521917 6:0.528205 7:0.356851 
5.291484567198206 1:-0.394431 2:-0.56575 3:-0.682864 4:-0.271529 5:-0.758378 6:-0.867471 7:-0.388049 
3.150144951840344 1:0.0975213 2:-0.421261 3:-0.689223 4:0.741732 5:-0.247131 6:-0.662358 7:-0.990906 
0.09790150304759936 1:-0.148497 2:0.0675864 3:-0.481605 4:0.55351 5:0.653424 6:0.0729176 7:-0.346144 
1.931114060398937 1:-0.0709355 2:-0.0229532 3:-0.45614 4:0.555871 5:0.652283 6:0.068692 7:-0.346146 
5.349401089798882 1:-0.120134 2:-0.400735 3:-0.658088 4:0.597355 5:-0.14137 6:-0.302188 7:-0.45471 
1.473446024834907 1:-0.220289 2:-0.731163 3:-0.935417 4:0.00288221 5:-0.537872 6:-0.709337 7:-0.525689 
0.9946328913189875 1:0.365521 2:-0.268066 3:-0.689223 4:0.79039 5:-0.437549 6:-0.518553 7:-0.818644 
5.10334741112749 1:-0.368896 2:-0.654661 3:-0.802966 4:0.536948 5:0.268428 6:-0.671612 7:-0.54144 
1.481304341596823 1:-0.50432 2:-0.398968 3:-0.725664 4:-0.235275 5:-0.300601 6:-0.492966 7:-0.0022378 
2.378313940270173 1:-0.0149925 2:-0.643716 3:-0.593443 4:0.645949 5:-0.385767 6:-0.378128 7:-0.676118 
0.2736896538623816 1:0.260007 2:0.00488946 3:-0.209184 4:0.820646 5:0.30076 6:0.106552 7:-0.248484 
1.020491405651262 1:0.0685742 2:-0.132451 3:-0.434307 4:0.625468 5:0.12335 6:-0.00846397 7:-0.473541 
1.273151878012336 1:-0.347824 2:-0.197044 3:-0.541872 4:-0.472142 5:-0.625403 6:-0.838711 7:-0.364371 
3.168198664769737 1:-0.188034 2:-0.265766 3:-0.664865 4:0.426136 5:-0.811805 6:-0.920249 7:-0.36437 
2.391867785914699 1:-0.354608 2:-0.579757 3:-0.752495 4:-0.0571865 5:-0.405486 6:-0.534649 7:-0.203089 
0.2016272731139801 1:0.211016 2:-0.567572 3:-0.76779 4:0.867723 5:-0.501122 6:-0.700438 7:-0.959973 
15.78993748260915 1:0.362645 2:-0.521714 3:-0.78169 4:0.819331 5:-0.510953 6:-0.737971 7:-0.959973 
12.40372269687011 1:-0.575668 2:-0.580761 3:-0.808642 4:-0.528755 5:-0.610897 6:-0.889925 7:-0.320689 
3.703390758420704 1:-0.132986 2:-0.522748 3:-0.581081 4:0.641086 5:-0.357669 6:-0.414127 7:-0.275133 
3.751471787287218 1:-0.0169907 2:-0.423102 3:-0.521236 4:0.50321 5:-0.288561 6:-0.520535 7:-0.5154 
1.397608383873375 1:0.305022 2:-0.551494 3:-0.707547 4:0.647004 5:-0.416375 6:-0.650168 7:-0.907195 
2.927704056259496 1:-0.0706638 2:-0.431876 3:-0.351711 4:0.478413 5:-0.139687 6:-0.128988 7:-0.638512 
1.086654620346262 1:-0.3804 2:-0.429019 3:-0.862832 4:-0.0809575 5:-0.0753122 6:-0.651901 7:0.131807 
1.265011452715226 1:0.124974 2:-0.526163 3:-0.567442 4:0.488843 5:-0.289017 6:-0.304077 7:-0.010736 
2.62275403919836 1:0.0203411 2:-0.222328 3:-0.290076 4:0.733508 5:-0.196718 6:-0.19824 7:-0.626917 
0.03743761043235628 1:-0.617405 2:-0.498975 3:-0.745902 4:0.109328 5:-0.293961 6:-0.862813 7:-0.220562 
4.509101930785548 1:-0.151335 2:-0.273847 3:-0.415094 4:0.725196 5:0.370736 6:0.150752 7:-0.267295 
0.7869871870403267 1:-0.447992 2:-0.669432 3:-0.725664 4:0.122774 5:-0.528936 6:-0.527727 7:-0.734346 
0.5367229207699166 1:-0.399681 2:-0.599649 3:-0.738947 4:-0.0426213 5:-0.110631 6:-0.418788 7:-0.751902 
0.7090585920612862 1:-0.310692 2:-0.525473 3:-0.458515 4:0.695972 5:-0.780095 6:-0.77736 7:-0.185936 
2.591655220033024 1:-0.0580755 2:-0.179029 3:-0.318681 4:0.536467 5:-0.0546784 6:-0.289099 7:-0.408574 
14.66914917638472 1:-0.140627 2:-0.292981 3:-0.413249 4:0.62415 5:0.154736 6:-0.0855677 7:-0.326157 
2.163031313962827 1:-0.403561 2:-0.5963 3:-0.783217 4:0.131172 5:-0.0613992 6:-0.478708 7:-0.470474 
4.520551480539401 1:-0.396207 2:-0.275198 3:-0.632411 4:-0.191711 5:-0.339126 6:-0.618753 7:-0.503852 
2.698730114909159 1:-0.375695 2:-0.583653 3:-0.881226 4:0.395598 5:-0.385496 6:-0.563337 7:-0.992703 
1.137219776293769 1:-0.117995 2:-0.442113 3:-0.778571 4:0.547692 5:-0.150563 6:-0.528384 7:-0.992702 
1.509027364291869 1:-0.171187 2:-0.655783 3:-0.697856 4:0.522342 5:-0.297456 6:-0.323598 7:-0.773126 
1.164304694555436 1:-0.242808 2:-0.579757 3:-0.752495 4:0.144279 5:-0.0899459 6:-0.69694 7:-0.677301 
8.079520472541649 1:-0.221822 2:-0.481035 3:-0.69103 4:0.62394 5:0.0325289 6:-0.575742 7:-0.590564 
2.257962951876562 1:-0.148409 2:-0.461351 3:-0.465517 4:0.547339 5:-0.0179969 6:-0.131345 7:-0.590564 
9.010889682808816 1:-0.343542 2:-0.337398 3:-0.567944 4:-0.301379 5:-0.497673 6:-0.682239 7:-0.542109 
9.76071762775859 1:-0.212226 2:-0.32997 3:-0.443946 4:0.359042 5:-0.0939708 6:-0.141535 7:-0.415959 
2.64999101683218 1:-0.319864 2:-0.438042 3:-0.63357 4:0.388272 5:0.198001 6:-0.550675 7:-0.504475 
0.7362293025245643 1:-0.292023 2:-0.273619 3:-0.502674 4:0.692709 5:-0.790356 6:-0.892557 7:-0.427984 
0.1401151597661629 1:-0.32888 2:0.0798466 3:-0.351464 4:0.480443 5:0.661436 6:0.177554 7:-0.341269 
0.0129519866603153 1:-0.14643 2:-0.528902 3:-0.462428 4:0.452913 5:-0.0837185 6:-0.0723231 7:-0.273421 
0.5037018897632816 1:-0.214643 2:-0.657678 3:-0.75 4:0.149152 5:-0.278596 6:-0.416556 7:-0.633035 
0.7940151308221712 1:-0.63301 2:-0.0822072 3:-1 4:-0.064392 5:-0.393209 6:-1 7:-0.306807 
32 1:-0.77815 2:-1 3:-1 4:-0.631625 5:-1 6:-1 7:-0.203087 
32 1:-0.760377 2:-1 3:-1 4:-0.677485 5:-1 6:-1 7:-0.203089 
32 1:-0.761313 2:-0.90904 3:-1 4:-0.890434 5:-0.938513 6:-1 7:-0.203087 
32 1:-0.802466 2:-1 3:-1 4:-0.958904 5:-1 6:-1 7:-0.203089 
32 1:-0.784846 2:-1 3:-1 4:-0.956255 5:-1 6:-1 7:-0.203089 
32 1:-0.812181 2:-1 3:-1 4:-0.960071 5:-1 6:-1 7:-0.203087 
0.2472695383239723 1:-0.474636 2:-0.24537 3:-0.876984 4:-0.0704897 5:-0.28937 6:-0.980412 7:-0.248579 
28.75721049330018 1:-0.434224 2:-0.475952 3:-0.904321 4:0.0909467 5:-0.27534 6:-0.806021 7:-0.506927 
32 1:-0.627156 2:-0.772664 3:-0.935146 4:-0.538377 5:-0.73964 6:-0.904688 7:-0.506926 
2.702960936808214 1:0.124373 2:-0.344966 3:-0.370558 4:0.872378 5:-0.220805 6:-0.226025 7:-0.000375855 
0.835795815296541 1:-0.00302498 2:0.0989752 3:-0.197411 4:0.565924 5:0.0522378 6:-0.0524417 7:-0.471739 
3.108609821062745 1:0.153049 2:-0.277482 3:-0.246201 4:0.691423 5:0.11091 6:0.121527 7:-0.25828 
0.8561704789543098 1:0.0768555 2:-0.261329 3:-0.1571 4:0.671762 5:0.0279966 6:0.0407813 7:-0.258276 
3.726901274116936 1:-0.474279 2:-0.479105 3:-0.542773 4:0.496187 5:-0.792982 6:-0.825579 7:-0.239403 
32 1:-0.159759 2:-0.443859 3:-0.769231 4:0.397383 5:0.0216146 6:-0.509287 7:-0.549399 
2.833619187388233 1:-0.222976 2:-0.338474 3:-0.396104 4:0.297001 5:0.0326288 6:-0.0861049 7:-0.471739 
23.87925555727636 1:-0.0545216 2:-0.456007 3:-0.774272 4:0.447157 5:-0.0631217 6:-0.458266 7:-0.47174 
13.9866876936633 1:-0.65713 2:-0.552412 3:-0.82235 4:-0.298308 5:-0.690333 6:-0.828424 7:-0.31099 
0.2914255776700498 1:-0.292269 2:-0.411552 3:-0.552347 4:0.427858 5:-0.819701 6:-0.843029 7:-0.701577 
0.6886519291325375 1:-0.348699 2:-0.399806 3:-0.855814 4:0.321048 5:-0.0200816 6:-0.871071 7:-0.47174 
1.239762426735115 1:0.298155 2:-0.597332 3:-0.632411 4:0.924423 5:-0.447757 6:-0.473333 7:-0.985428 
1.812239048811531 1:0.156455 2:0.0283157 3:-0.235915 4:0.858277 5:0.103869 6:0.0836098 7:-0.438933 
15.86489465574089 1:0.492479 2:-0.203736 3:-0.251724 4:0.886515 5:0.466442 6:0.466107 7:0.149971 
32 1:0.392917 2:-0.237168 3:-0.213768 4:0.89059 5:0.458537 6:0.339703 7:0.149972 
0.02057887694431324 1:0.148873 2:-0.768991 3:-0.789116 4:-0.153071 5:-0.759039 6:-0.759705 7:-0.587557 
0.8370694936164328 1:-0.113376 2:0.0632322 3:-0.306709 4:0.165654 5:-0.114974 6:-0.196308 7:-0.554207 
0.06726202542761173 1:-0.513687 2:-0.809223 3:-0.912921 4:-0.561693 5:-0.83697 6:-0.909823 7:-0.692463 
1.939696913297625 1:-0.573846 2:-0.154685 3:-0.733906 4:0.153997 5:-0.640243 6:-0.920137 7:-0.306806 
1.577615084113363 1:-0.63301 2:-0.0822072 3:-1 4:-0.241399 5:-0.614098 6:-1 7:-0.306807 
0.4950329192071437 1:0.00753794 2:-0.565462 3:-0.559242 4:0.583476 5:-0.0284767 6:-0.119976 7:-0.504532 
1.37533230733016 1:-0.410401 2:-0.332749 3:-0.891228 4:-0.54285 5:-0.583794 6:-0.943491 7:-0.523915 
1.343300580977613 1:-0.326726 2:-0.894352 3:-0.931111 4:-0.216264 5:-0.847219 6:-0.862922 7:-0.523913 
7.02499563378676 1:-0.633909 2:-0.5561 3:-0.797386 4:-0.649292 5:-0.737946 6:-0.78855 7:-0.332209 
2.978832751388618 1:0.175591 2:-0.587841 3:-0.591029 4:0.618736 5:-0.299192 6:-0.310831 7:0.0899638 
0.1016963527742046 1:-0.510386 2:-0.320833 3:-0.403846 4:0.0317527 5:-0.30267 6:-0.404429 7:-0.238852 
1.614067169687706 1:-0.0756935 2:-0.57183 3:-0.663043 4:0.373279 5:-0.120294 6:-0.495157 7:-0.615432 
3.471655062116205 1:-0.40242 2:-0.437377 3:-0.816568 4:0.00649117 5:-0.097723 6:-0.828984 7:-0.615432 
8.708793835388489 1:0.49657 2:-0.391428 3:-0.722222 4:0.925524 5:-0.505435 6:-0.705242 7:-0.956314 
0.3150322945885334 1:0.119445 2:-0.392185 3:-0.396887 4:0.538568 5:-0.30269 6:-0.339058 7:-0.294041 
3.61855272641384 1:-0.293544 2:-0.473799 3:-0.776577 4:0.599181 5:-0.032216 6:-0.198326 7:-0.881131 
11.33151965074044 1:-0.074184 2:-0.355731 3:-0.632411 4:0.608431 5:-0.162435 6:-0.302621 7:-0.45471 
14.15532726286165 1:-0.140826 2:-0.390222 3:-0.520124 4:0.582944 5:0.114256 6:0.0977049 7:-0.319482 
7.725239202375198 1:0.509117 2:-0.0962702 3:-0.25 4:0.840478 5:0.485409 6:0.351721 7:0.149971 
28.1129754063162 1:0.392917 2:-0.237168 3:-0.213768 4:0.765128 5:0.458537 6:0.339703 7:0.149971 
13.17330743147561 1:-0.402471 2:-0.549532 3:-0.841837 4:-0.440022 5:-0.585047 6:-0.829712 7:-0.499587 
4.56390102965505 1:-0.0769263 2:-0.662026 3:-0.779621 4:0.259458 5:-0.611666 6:-0.745671 7:-0.238852 
6.881023563285349 1:-0.144546 2:-0.583444 3:-0.834667 4:0.17081 5:-0.109823 6:-0.671839 7:-0.330957 
1.872924496954204 1:-0.0965828 2:-0.440114 3:-0.444444 4:0.607387 5:0.0463183 6:-0.0764079 7:-0.590564 
8.354433534191326 1:-0.202328 2:-0.329578 3:-0.334764 4:0.459938 5:-0.0240601 6:-0.133071 7:-0.590564 
1.151045080039289 1:-0.00106873 2:-0.631036 3:-0.750503 4:0.631056 5:-0.260269 6:-0.366114 7:-0.642167 
2.68218628422474 1:-0.220088 2:-0.363819 3:-0.686076 4:0.474306 5:0.083653 6:-0.638188 7:-0.334036 
7.48815381803504 1:-0.413269 2:-0.385117 3:-0.872428 4:-0.199226 5:-0.26516 6:-0.629535 7:0.131807 
1.487531185463547 1:-0.571466 2:-0.170655 3:-0.89769 4:-0.336103 5:-0.315043 6:-0.910471 7:-0.271539 
6.514063747317731 1:-0.361118 2:-0.593009 3:-0.883895 4:0.309403 5:-0.252364 6:-0.655338 7:-0.597906 
7.455529217727404 1:-0.527895 2:-0.595199 3:-1 4:0.307969 5:-0.0772078 6:-1 7:-0.419585 
0.3041835098611951 1:-0.433156 2:-0.51305 3:-0.883019 4:0.353549 5:-0.0387572 6:-0.937104 7:-0.419585 
32 1:-0.505814 2:-0.449324 3:-0.771499 4:-0.101092 5:-0.313572 6:-0.701028 7:-0.47174 
0.7261697489426907 1:-0.451217 2:-0.448027 3:-0.780919 4:-0.486043 5:-0.63479 6:-0.818106 7:-0.633034 
2.535441022441552 1:0.335603 2:-0.331967 3:-0.390164 4:0.823037 5:0.733649 6:0.512326 7:0.262832 
3.523026371823399 1:-0.228858 2:-0.281651 3:-0.627404 4:0.727089 5:0.408812 6:0.0303016 7:-0.325558 
2.526840649992418 1:-0.0636633 2:-0.0177342 3:-0.359504 4:0.535643 5:0.594903 6:0.0683554 7:-0.355844 
0.9620795676405557 1:-0.195669 2:-0.611422 3:-0.614428 4:0.92775 5:-0.24148 6:-0.238245 7:-0.680961 
5.071374238852538 1:-0.232967 2:-0.605566 3:-0.718693 4:0.193379 5:-0.324624 6:-0.474678 7:-0.680961 
3.505320717160736 1:-0.127843 2:-0.17748 3:-0.463668 4:0.465043 5:0.596465 6:-0.100998 7:-0.355844 
8.632155646613338 1:-0.248904 2:-0.616956 3:-0.764642 4:0.355268 5:-0.16771 6:-0.267134 7:-0.861728 
5.460458598857244 1:-0.372726 2:-0.50785 3:-0.775362 4:-0.0606554 5:-0.586395 6:-0.648062 7:-0.381899 
1.165508597065282 1:-0.199373 2:-0.0602725 3:-0.220126 4:0.664175 5:0.446047 6:0.385257 7:-0.267298 
3.56819422511643 1:-0.64819 2:-0.703636 3:-1 4:-0.203003 5:-0.412085 6:-1 7:-0.353424 
14.85394240370221 1:-0.233559 2:-0.553489 3:-0.892734 4:0.549359 5:0.0996937 6:-0.585947 7:-0.438881 
19.8158849300524 1:-0.27009 2:-0.490046 3:-0.894198 4:0.402465 5:0.132588 6:-0.582717 7:-0.438879 
0.956766153177794 1:-0.242032 2:-0.187765 3:-0.605598 4:0.475943 5:0.401039 6:0.0425602 7:-0.325558 
1.627008149163073 1:-0.494842 2:-0.24537 3:-0.876984 4:-0.294927 5:-0.284566 6:-0.976055 7:-0.248582 
0.8243228816030244 1:-0.189054 2:-0.446605 3:-0.540741 4:0.966376 5:-0.911749 6:-0.919707 7:-0.148393 
1.332157593384339 1:0.00655579 2:-0.236596 3:-0.27907 4:0.572835 5:0.558294 6:0.486658 7:0.0640144 
9.606567201817581 1:-0.452927 2:-0.513545 3:-0.829201 4:0.273191 5:0.0517016 6:-0.729516 7:-0.660402 
4.937273608021795 1:-0.749947 2:-0.81808 3:-1 4:-0.877173 5:-0.915597 6:-1 7:-0.203087 
0.4521425340026688 1:0.0163022 2:-0.133573 3:-0.489712 4:0.419922 5:0.362432 6:-0.0325696 7:-0.203089 
5.595866350145664 1:-0.0429292 2:-0.2316 3:-0.547445 4:0.401639 5:0.295321 6:-0.0669491 7:-0.203087 
1.627806532824881 1:-0.0256072 2:-0.24537 3:-0.234568 4:0.671719 5:-0.23969 6:-0.301669 7:-0.599696 
1.853339478927048 1:0.0333482 2:-0.63637 3:-0.785838 4:-0.127743 5:-0.567086 6:-0.666385 7:-0.315247 
1.164203263135318 1:-0.674425 2:-0.75682 3:-0.841432 4:0.445267 5:-0.634091 6:-0.819668 7:-0.499578 
5.842507417913098 1:-0.846803 2:-0.747015 3:-0.911175 4:-0.833165 5:-0.825844 6:-0.91829 7:-0.148392 
32 1:-0.52293 2:-0.623407 3:-0.881453 4:-0.109186 5:-0.348741 6:-0.811948 7:-0.660403 
1.953432687277856 1:-0.4199 2:-0.570148 3:-0.803797 4:-0.0172589 5:-0.310886 6:-0.794182 7:-0.660401 
8.54738345676359 1:-0.127088 2:-0.514881 3:-0.778571 4:0.523219 5:-0.21687 6:-0.528384 7:-0.992703 
26.11885167597393 1:-0.527666 2:-0.723416 3:-1 4:-0.0250225 5:-0.754506 6:-1 7:-0.620362 
0.09475083952548445 1:0.464819 2:-0.162671 3:-0.0445205 4:0.885286 5:0.64645 6:0.666926 7:0.159673 
6.191745053457356 1:-0.265335 2:-0.45937 3:-0.383085 4:0.130361 5:-0.0585618 6:-0.0468536 7:-0.4893 
1.259652549136296 1:-0.155415 2:-0.510216 3:-0.552885 4:0.322057 5:-0.0735062 6:-0.118912 7:-0.489298 
1.470466837058103 1:-0.479651 2:-0.603406 3:-0.547445 4:-0.298716 5:-0.460189 6:-0.453475 7:-0.489299 
32 1:-0.151335 2:-0.400735 3:-0.544118 4:0.475989 5:0.0386288 6:-0.0407446 7:-0.489298 
20.1236151642487 1:-0.188776 2:-0.500613 3:-0.544118 4:0.399529 5:-0.166088 6:-0.229132 7:-0.4893 
2.52747427555206 1:-0.190923 2:-0.346574 3:-0.728863 4:0.560723 5:0.374886 6:0.118522 7:-0.457729 
7.364026642720719 1:-0.701821 2:-0.571697 3:-0.93018 4:-0.583415 5:-0.589093 6:-0.979516 7:-0.347946 
3.751999786887422 1:0.411033 2:-0.329016 3:-0.626506 4:0.728004 5:-0.462836 6:-0.569664 7:-0.916901 
1.172286407577442 1:0.547045 2:-0.410446 3:-0.569444 4:0.902794 5:-0.526105 6:-0.589438 7:-0.910264 
1.846688617769273 1:-0.134545 2:-0.572467 3:-0.721223 4:0.469002 5:0.0674552 6:-0.206202 7:-0.324395 
0.05160934085247326 1:0.100011 2:-0.361063 3:-0.351916 4:-0.129543 5:-0.743902 6:-0.751597 7:-0.411014 
14.53291933580118 1:-0.291549 2:-0.80314 3:-0.910145 4:-0.379401 5:-0.840995 6:-0.887123 7:-0.692463 
14.2958616729999 1:-0.361822 2:-0.552001 3:-0.918206 4:-0.16224 5:-0.529761 6:-0.814571 7:-0.692463 
7.615099685297711 1:-0.513687 2:-0.809223 3:-0.912921 4:-0.561693 5:-0.83697 6:-0.909823 7:-0.692463 
3.842343614462894 1:-0.0117523 2:-0.240406 3:-0.592105 4:0.527172 5:0.401551 6:-0.0109137 7:-0.436557 
1.657773978309948 1:-0.638581 2:-0.37868 3:-0.804416 4:-0.203316 5:-0.375239 6:-0.788498 7:-0.239404 
0.5891416211231586 1:0.0155766 2:-0.285088 3:-0.313019 4:0.587628 5:0.0868731 6:0.0349606 7:-0.150913 
6.778683407419541 1:-0.258054 2:-0.728876 3:-0.876248 4:0.26026 5:-0.417353 6:-0.702126 7:-0.32317 
1.298686763513756 1:-0.696123 2:-0.802823 3:-1 4:-0.239679 5:-0.48481 6:-1 7:-0.353423 
9.12620096481645 1:-0.295177 2:-0.693032 3:-0.912429 4:0.0107853 5:-0.310594 6:-0.82928 7:-0.401366 
2.22885295201699 1:-0.26602 2:-0.510511 3:-0.441441 4:0.726636 5:-0.783005 6:-0.780306 7:-0.185936 
1.274980662997836 1:0.118334 2:-0.111371 3:-0.420561 4:0.673529 5:0.183872 6:-0.125309 7:-0.144833 
2.129742352128699 1:0.434206 2:-0.555131 3:-0.593886 4:0.901754 5:-0.525145 6:-0.703116 7:-0.956314 
1.740618541561052 1:0.209134 2:-0.591137 3:-0.688963 4:0.765467 5:-0.347852 6:-0.639345 7:-0.779813 
9.180494000652413 1:-0.27878 2:-0.559585 3:-0.894198 4:0.401173 5:-0.0879487 6:-0.582717 7:-0.438879 
0.1524320133375823 1:-0.319323 2:-0.825407 3:-0.920308 4:0.824357 5:-0.311718 6:-0.312433 7:-0.967255 
0.7360022152221354 1:-0.080019 2:-0.514881 3:-0.739496 4:0.842426 5:-0.869017 6:-0.928755 7:-0.492375 
1.388743233803736 1:0.113104 2:-0.24537 3:-0.400966 4:0.74926 5:-0.25068 6:-0.374233 7:-0.349277 
2.438057600733704 1:-0.0570392 2:-0.295679 3:-0.311111 4:0.679032 5:-0.320609 6:-0.35467 7:-0.349278 
5.536930593812569 1:-0.0520881 2:-0.319212 3:-0.334129 4:0.237854 5:-0.0542056 6:-0.107668 7:-0.611779 
8.100412948994318 1:0.395065 2:-0.561399 3:-0.818004 4:0.806004 5:-0.500893 6:-0.561836 7:-0.876892 
10.89134258307629 1:-0.641246 2:-0.413447 3:-0.859091 4:-0.532411 5:-0.560531 6:-0.787296 7:-0.328553 
4.430372115776695 1:0.00916345 2:-0.71848 3:-0.919689 4:0.681177 5:0.294839 6:-0.583559 7:-0.525689 
1.001018661066014 1:0.401908 2:-0.441192 3:-0.803797 4:0.888398 5:-0.321569 6:-0.517033 7:-0.861115 
3.412730295571366 1:-0.452068 2:-0.647186 3:-0.769944 4:-0.148721 5:-0.376914 6:-0.558007 7:-0.315248 
0.4060877381644254 1:-0.0972653 2:-0.62373 3:-0.828255 4:0.48408 5:-0.445589 6:-0.964812 7:-0.411036 
0.2677873892594364 1:-0.384618 2:-0.0665482 3:-0.706161 4:-0.0884464 5:-0.26157 6:-0.940274 7:-0.258276 
0.7016292596381538 1:-0.490801 2:-0.624291 3:-0.868085 4:0.0171827 5:-0.333342 6:-0.756456 7:-0.734346 
2.774389874666961 1:0.490338 2:0.0767276 3:-0.054878 4:0.846325 5:0.567207 6:0.430214 7:0.0305216 
22.40097379787844 1:-0.337415 2:-0.73557 3:-0.936475 4:-0.337897 5:-0.846771 6:-0.978653 7:-0.393494 
0.1622085758165389 1:-0.598536 2:-0.769544 3:-0.876248 4:0.464717 5:0.189697 6:-0.722302 7:-0.203087 
2.244697076596827 1:-0.0837945 2:-0.20098 3:-0.570934 4:0.787637 5:0.00239418 6:-0.0356307 7:-0.203089 
0.1398239820961566 1:0.0267795 2:-0.0497257 3:-0.489712 4:0.476415 5:0.366543 6:-0.0325696 7:-0.203087 
4.03662811824862 1:-0.520963 2:-0.503049 3:-0.675958 4:0.784823 5:-0.686974 6:-0.748207 7:-0.404282 
0.2010579793937028 1:-0.0318051 2:-0.59004 3:-0.750503 4:0.691775 5:-0.141461 6:-0.883682 7:-0.810128 
4.519027503697473 1:-0.645158 2:-0.574042 3:-1 4:-0.273405 5:-0.177789 6:-1 7:-0.341903 
0.6302881401588019 1:-0.261662 2:-0.898125 3:-1 4:0.340537 5:-0.974283 6:-1 7:-0.411036 
3.494938222680284 1:-0.30503 2:-0.714786 3:-0.918635 4:0.356606 5:-0.521886 6:-0.981263 7:-0.411035 
0.2525955926303822 1:-0.188234 2:-0.63909 3:-0.700483 4:0.246265 5:-0.365594 6:-0.542538 7:-0.559094 
1.282022605721026 1:0.199311 2:-0.430639 3:-0.628743 4:0.761543 5:-0.248778 6:-0.455273 7:-0.560301 
0.5987112288057652 1:-0.311163 2:-0.603669 3:-0.835544 4:0.676304 5:0.086942 6:-0.78495 7:-0.783437 
3.95455619640055 1:-0.194111 2:-0.493364 3:-0.75 4:0.17142 5:-0.272276 6:-0.495631 7:-0.539719 
0.5785252942929004 1:0.000211954 2:-0.676587 3:-0.778571 4:0.882407 5:-0.00709583 6:-0.829459 7:-0.750046 
6.030075717767486 1:-0.287649 2:-0.50734 3:-0.678756 4:0.167 5:-0.324879 6:-0.524248 7:-0.910222 
6.327637809231597 1:0.537912 2:-0.474678 3:-0.657459 4:0.795913 5:-0.555562 6:-0.682191 7:-0.816864 
0.1982778197148183 1:0.0493624 2:-0.586993 3:-1 4:0.602939 5:-0.658033 6:-1 7:-0.124154 
24.17749739688897 1:-0.801746 2:-0.916496 3:-1 4:-0.958744 5:-0.990995 6:-1 7:-0.203087 
1.901025750379022 1:-0.653803 2:-0.692162 3:-0.912181 4:-0.390465 5:-0.714484 6:-0.960036 7:-0.310992 
5.863934602007774 1:0.479101 2:-0.0944444 3:0.0333333 4:0.800566 5:0.455448 6:0.473549 7:0.308928 
5.744088628869555 1:-0.403561 2:-0.5963 3:-0.783217 4:0.131172 5:-0.0613992 6:-0.478708 7:-0.470474 
0.1152900654154716 1:-0.30383 2:-0.522461 3:-0.636719 4:0.232331 5:0.0580753 6:-0.340471 7:-0.470473 
8.930534168426437 1:-0.314865 2:-0.390781 3:-0.69103 4:-0.18601 5:-0.245084 6:-0.354918 7:0.0183766 
17.71322486406218 1:-0.5013 2:-0.50988 3:-0.680412 4:-0.241882 5:-0.255427 6:-0.302087 7:0.0183768 
32 1:-0.407908 2:-0.565649 3:-0.909884 4:-0.325489 5:-0.57859 6:-0.925522 7:-0.523915 
13.49999909169219 1:-0.516261 2:-0.705694 3:-0.896667 4:-0.161966 5:-0.654082 6:-0.755166 7:-0.645717 
4.08964432170317 1:0.0763552 2:-0.47544 3:-0.495935 4:0.587526 5:-0.306715 6:-0.315665 7:-0.610005 
0.2925262080767876 1:-0.411287 2:-0.73486 3:-0.906907 4:0.505081 5:0.29216 6:-0.679085 7:-0.781603 
10.56739579090952 1:-0.419536 2:-0.800696 3:-0.930023 4:0.0249091 5:-0.387156 6:-0.730142 7:-0.781602 
0.202985946901725 1:0.926698 2:-0.281062 3:-0.650901 4:0.967999 5:-0.312953 6:-0.531041 7:-0.67007 
13.9022941118762 1:-0.124648 2:-0.544375 3:-0.870021 4:0.144208 5:-0.198866 6:-0.654433 7:-0.539722 
15.12699260229618 1:0.207586 2:-0.248353 3:-0.142292 4:0.901748 5:0.485876 6:0.504355 7:0.0632864 
3.656940708366643 1:-0.0504694 2:-0.137124 3:-0.491803 4:0.521611 5:0.156324 6:0.135809 7:-0.203087 
0.857177355233175 1:0.761622 2:-0.302539 3:-0.63468 4:0.892795 5:-0.375779 6:-0.439146 7:-0.695541 
3.256075596921541 1:-0.43506 2:-0.216346 3:-0.724852 4:-0.326285 5:-0.320576 6:-0.604316 7:-0.490514 
0.2443439785634637 1:0.0956773 2:-0.505804 3:-0.677755 4:0.753577 5:-0.650433 6:-0.681819 7:-0.995772 
0.5055956488469443 1:-0.159575 2:-0.384574 3:-0.598706 4:0.537364 5:0.51812 6:0.254386 7:-0.00223828 
0.6010034897159952 1:-0.0553325 2:-0.508296 3:-0.438914 4:0.82638 5:0.455369 6:0.473469 7:0.167002 
0.7736946050678639 1:-0.256287 2:-0.493159 3:-0.66951 4:0.706611 5:0.70067 6:-0.147593 7:-0.800494 
1.645129890267848 1:0.138288 2:-0.766424 3:-0.917989 4:0.0837921 5:-0.609862 6:-0.961282 7:0.00868114 
1.726940449513567 1:-0.30388 2:-0.415401 3:-0.921519 4:-0.22739 5:-0.304164 6:-0.769888 7:0.00868265 
0.208088013458662 1:0.172308 2:-0.309322 3:-0.474576 4:-0.326708 5:-0.68369 6:-0.73224 7:-0.216995 
3.670677959510525 1:-0.258913 2:-0.537656 3:-0.56338 4:-0.450097 5:-0.769029 6:-0.79264 7:-0.239403 
4.327173828606241 1:-0.413789 2:-0.754703 3:-0.930023 4:0.231392 5:-0.103699 6:-0.730142 7:-0.781603 
5.927463560215005 1:-0.0769504 2:-0.350598 3:-0.505976 4:0.843222 5:-0.351227 6:-0.401966 7:-0.634853 
0.614245178541899 1:-0.664392 2:-0.413447 3:-0.859091 4:0.0205185 5:0.153368 6:-0.787296 7:-0.32855 
0.8231302972770103 1:0.714035 2:-0.518701 3:-0.633858 4:0.839498 5:-0.47803 6:-0.515227 7:-0.899899 
0.04750686387279614 1:-0.605738 2:-0.661308 3:-0.674541 4:-0.616238 5:-0.674265 6:-0.673316 7:-0.499578 
9.248083945045893 1:-0.6646 2:-0.715319 3:-0.814371 4:-0.614079 5:-0.635655 6:-0.812822 7:-0.499578 
0.8266662878046193 1:-0.433156 2:-0.51305 3:-0.883019 4:0.353549 5:-0.0387572 6:-0.937104 7:-0.419585 
32 1:0.0349569 2:-0.47544 3:-0.495935 4:0.578251 5:-0.297414 6:-0.315665 7:-0.610005 
0.1240969312017512 1:-0.479851 2:-0.269713 3:-0.666667 4:0.686814 5:-0.822172 6:-0.894276 7:-0.427984 
1.495861278798606 1:0.0335223 2:-0.52929 3:-0.693069 4:0.742373 5:-0.15208 6:-0.400769 7:-0.992702 
1.566336809287091 1:0.0296818 2:-0.303901 3:-0.398892 4:0.606795 5:0.0854134 6:-0.00411989 7:-0.150911 
12.8442335971666 1:-0.622298 2:-0.589515 3:-0.914835 4:-0.457477 5:-0.545304 6:-0.954099 7:-0.594205 
10.56762238213144 1:-0.354782 2:-0.674372 3:-0.787671 4:0.0242999 5:-0.339515 6:-0.565903 7:-0.633036 
5.593886028154443 1:-0.590504 2:-0.335082 3:-0.891608 4:-0.346516 5:-0.234279 6:-0.936783 7:-0.194522 
10.14224617828826 1:-0.401948 2:-0.772092 3:-0.895973 4:0.488043 5:-0.181501 6:-0.273123 7:-0.726444 
12.24592369532851 1:-0.270475 2:-0.673478 3:-0.761538 4:0.0595994 5:-0.364432 6:-0.402306 7:-0.633034 
1.8513944521592 1:-0.527269 2:-0.639699 3:-0.835544 4:-0.0779035 5:-0.375747 6:-0.604579 7:-0.633034 
1.51759906961229 1:-0.0599407 2:-0.442735 3:-0.682051 4:0.939734 5:0.631458 6:-0.12855 7:-0.603923 
0.03378397089698723 1:-0.0988406 2:-0.696592 3:-0.893471 4:0.736699 5:0.668164 6:0.232445 7:-0.42558 
21.95713015849405 1:-0.372961 2:-0.509731 3:-0.934183 4:-0.162606 5:-0.434883 6:-0.886801 7:-0.523915 
5.831102254949865 1:-0.326726 2:-0.894352 3:-0.931111 4:-0.216264 5:-0.847219 6:-0.862922 7:-0.523913 
0.6057355069153791 1:-0.00695667 2:-0.718188 3:-0.871369 4:-0.068548 5:-0.729268 6:-0.868197 7:-0.216357 
0.1856248979440636 1:-0.207913 2:-0.597531 3:-0.540741 4:0.966131 5:-0.920693 6:-0.919707 7:-0.148392 
10.80496647798675 1:-0.653803 2:-0.692162 3:-0.912181 4:-0.390465 5:-0.714484 6:-0.960036 7:-0.310992 
7.536249712589151 1:-0.204377 2:-0.685064 3:-0.875 4:0.086817 5:-0.55797 6:-0.912256 7:-0.393494 
4.716547991178109 1:0.0422198 2:-0.523392 3:-0.637427 4:0.478471 5:-0.40255 6:-0.423659 7:-0.393492 
1.08598861596352 1:-0.146672 2:-0.589515 3:-0.82967 4:0.644561 5:-0.0100367 6:-0.553811 7:-0.734346 
0.3159854666817181 1:-0.573215 2:-0.489644 3:-0.820809 4:-0.117433 5:-0.411217 6:-0.780706 7:0.234322 
1.807397907221682 1:-0.392173 2:-0.663476 3:-0.720721 4:0.542064 5:0.207579 6:-0.331188 7:-0.600264 
1.861433678566568 1:-0.650666 2:-0.731492 3:-0.855814 4:0.243569 5:0.0158725 6:-0.522309 7:-0.600264 
9.344261906020785 1:0.0436282 2:-0.60229 3:-0.650901 4:0.673328 5:-0.42398 6:-0.459236 7:-0.457166 
6.434912840022522 1:-0.830893 2:-0.749385 3:-0.885609 4:-0.713211 5:-0.681642 6:-0.906162 7:-0.194519 
11.16290873727721 1:-0.393106 2:-0.44719 3:-0.639535 4:0.680088 5:-0.649638 6:-0.739413 7:-0.19452 
2.860668906277848 1:-0.441668 2:-0.463816 3:-0.864035 4:0.383699 5:-0.774435 6:-0.892463 7:-0.105452 
21.42971745424169 1:-0.707357 2:-0.687739 3:-1 4:-0.632993 5:-0.769777 6:-1 7:-0.172082 
-4.96521631786629 1:-0.431428 2:-0.58391 3:-0.938735 4:0.232845 5:0.0489095 6:-0.746744 7:-0.770102 
-8.816857426848102 1:-0.469585 2:-0.575521 3:-0.757812 4:-0.190543 5:-0.227297 6:-0.338336 7:0.00868265 
-32 1:-0.431826 2:-0.481992 3:-0.737288 4:-0.18448 5:-0.255005 6:-0.361902 7:0.00868061 
-4.13172343581375 1:-0.0876341 2:-0.703995 3:-0.774818 4:0.367588 5:-0.282694 6:-0.379901 7:0.00868337 
-3.534587069148021 1:-0.22457 2:-0.207064 3:-0.685279 4:0.80953 5:0.704268 6:0.029734 7:-0.503269 
-7.173670062597694 1:-0.516583 2:-0.828059 3:-1 4:-0.0393958 5:-0.566329 6:-1 7:-0.599699 
-21.73471576443445 1:-0.559715 2:-0.336153 3:-0.766917 4:-0.203734 5:-0.332239 6:-0.626897 7:-0.503269 
-16.50544166971331 1:-0.17127 2:-0.521393 3:-0.687919 4:0.403229 5:0.0203722 6:-0.384905 7:-0.503268 
-0.2427206131815719 1:-0.41876 2:-0.497722 3:-0.501608 4:0.329131 5:-0.873381 6:-0.880135 7:-0.356498 
-14.17519584346758 1:-0.418914 2:-0.648431 3:-0.927059 4:0.367249 5:-0.174045 6:-0.759252 7:-0.503268 
-14.81310451662631 1:-0.877301 2:-1 3:-1 4:-0.984565 5:-1 6:-1 7:-0.212149 
-3.925204887554513 1:-0.908527 2:-1 3:-1 4:-0.691476 5:-1 6:-1 7:-0.22364 
-5.528496102619678 1:-0.461822 2:-0.337398 3:-0.243902 4:0.0791676 5:-0.141209 6:-0.130528 7:-0.223644 
-9.537321594265494 1:-0.445201 2:-0.594527 3:-0.814925 4:-0.107245 5:-0.435043 6:-0.629292 7:-0.47174 
-3.931120972287117 1:-0.404129 2:-0.598601 3:-0.926714 4:0.451875 5:0.135165 6:-0.700792 7:-0.506926 
-11.1300896064031 1:-0.130194 2:-0.492438 3:-0.669039 4:0.782709 5:-0.438037 6:-0.483515 7:-0.503269 
-19.81189975792197 1:-0.675511 2:-0.700368 3:-1 4:-0.0374339 5:-0.701583 6:-1 7:-0.617882 
-20.36780688091373 1:-0.835742 2:-1 3:-1 4:-0.924016 5:-1 6:-1 7:-0.116918 
-32 1:-0.502226 2:-0.455796 3:-0.900641 4:0.0657283 5:0.0258117 6:-0.932296 7:-0.503269 
-1.023904393409872 1:-0.000845352 2:-0.624879 3:-0.909884 4:0.772897 5:0.227266 6:-0.686315 7:-0.503268 
-0.4845893856491663 1:-0.351929 2:-1 3:-1 4:-0.402564 5:-1 6:-1 7:-0.549397 
-0.6265125756183599 1:-0.746553 2:-0.692685 3:-0.859729 4:0.288438 5:-0.672926 6:-0.980538 7:-0.32855 
-9.590108837093668 1:-0.428268 2:-0.618713 3:-0.891228 4:-0.466615 5:-0.833123 6:-0.917884 7:-0.328553 
-1.617510419939514 1:-0.844756 2:-0.875762 3:-1 4:-0.446102 5:-0.461591 6:-1 7:-0.542109 
-31.60231951238685 1:-0.214433 2:-0.4193 3:-0.769517 4:0.477873 5:0.0442305 6:-0.515478 7:-0.506927 
-32 1:-0.137647 2:-0.430376 3:-0.8 4:0.504167 5:0.0795754 6:-0.528593 7:-0.506926 
-32 1:-0.483285 2:-0.523831 3:-0.885609 4:-0.170567 5:-0.352107 6:-0.82958 7:-0.506926 
-18.30299535180875 1:0.155562 2:-0.17297 3:-0.313653 4:0.727385 5:0.151897 6:0.103923 7:-0.258279 
-5.919179069142931 1:-0.59383 2:-0.603599 3:-1 4:-0.123746 5:-0.604039 6:-1 7:-0.787706 
-9.211526202840767 1:-0.256082 2:-0.555206 3:-0.609572 4:-0.40984 5:-0.837819 6:-0.863083 7:-0.366195 
-3.383080907518477 1:-0.17446 2:-0.759423 3:-0.915531 4:-0.0858471 5:-0.524922 6:-0.961743 7:0.00868268 
-6.744883207147163 1:-0.465927 2:-0.707256 3:-1 4:-0.511314 5:-0.579862 6:-1 7:0.00868209 
-31.05690118247611 1:-0.39811 2:-0.582545 3:-0.853428 4:0.453592 5:0.136039 6:-0.574056 7:-0.506927 
-3.531528115739188 1:-0.314118 2:-0.648707 3:-0.799569 4:0.0935103 5:-0.310319 6:-0.643229 7:-0.506926 
-12.40908672203778 1:-0.628584 2:-0.712353 3:-1 4:-0.319868 5:-0.339469 6:-1 7:-0.506926 
-8.686904225921083 1:-0.830267 2:-0.876515 3:-1 4:-0.931681 5:-0.96829 6:-1 7:-0.341898 
-26.07944136872581 1:0.380691 2:-0.454899 3:-0.73102 4:0.820964 5:-0.478664 6:-0.633719 7:-0.916901 
-1.123875670307058 1:-0.267819 2:-0.5561 3:-0.797386 4:0.2645 5:-0.511494 6:-0.710766 7:-0.990906 
-26.39811761796811 1:-0.808091 2:-0.897613 3:-1 4:-0.729963 5:-0.981778 6:-1 7:-0.123581 
-22.78997506236199 1:-0.28121 2:-0.76704 3:-0.918206 4:-0.361691 5:-0.754262 6:-0.889892 7:-0.471737 
-9.475013825893519 1:0.017261 2:-0.499721 3:-0.584821 4:0.564953 5:-0.273372 6:-0.392414 7:-0.549399 
-0.3179014129997987 1:-0.146472 2:-0.47457 3:-0.467049 4:0.538085 5:-0.319887 6:-0.323491 7:-0.549397 
-0.7673592205768682 1:-0.680012 2:-0.517532 3:-0.830601 4:-0.053355 5:-0.876507 6:-0.911 7:-0.332209 
-5.083544975145519 1:0.119005 2:-0.534442 3:-0.75 4:-0.109295 5:-0.68847 6:-0.804973 7:-0.33221 
-7.854603751821747 1:-0.616182 2:-0.453936 3:-0.844221 4:-0.174911 5:-0.852056 6:-0.914576 7:-0.332209 
-4.329520617047565 1:-0.666099 2:-0.406193 3:-0.830601 4:0.220993 5:-0.511843 6:-0.911 7:-0.332214 
-11.84917794041274 1:-0.046191 2:-0.0183137 3:-0.359882 4:0.654912 5:0.556359 6:0.0710077 7:-0.258277 
-9.800163797057468 1:-0.517991 2:-0.241707 3:-0.699029 4:-0.104712 5:-0.222094 6:-0.944408 7:-0.258276 
-2.045592015837961 1:-0.501193 2:-0.445578 3:-0.746939 4:0.0625656 5:0.140199 6:-0.935211 7:-0.948435 
-32 1:-0.137647 2:-0.430376 3:-0.8 4:0.500603 5:0.0721701 6:-0.533096 7:-0.506927 
-32 1:-0.319605 2:-0.604795 3:-0.799569 4:0.0930108 5:-0.260197 6:-0.567358 7:-0.506926 
-32 1:-0.504946 2:-0.601723 3:-0.904321 4:-0.130294 5:-0.17582 6:-0.98057 7:-0.506927 
-32 1:-0.447694 2:-0.532848 3:-0.835979 4:-0.0370302 5:-0.251438 6:-0.685907 7:-0.549399 
-0.3376226147819256 1:-0.245324 2:-0.579669 3:-0.899023 4:0.541757 5:-0.283382 6:-0.862641 7:-0.990906 
-0.1551426980620651 1:-1 2:-1 3:-1 4:-1 5:-1 6:-1 7:-0.728897 
-2.112638916704496 1:-0.016479 2:-0.460388 3:-0.575342 4:0.595721 5:-0.310097 6:-0.361323 7:0.00868209 
-2.380045640487247 1:-0.0345466 2:-0.522299 3:-0.525994 4:0.54695 5:-0.343501 6:-0.345884 7:0.00868037 
-2.891032021355267 1:-0.566639 2:-0.602615 3:-0.917553 4:0.0403231 5:-0.068609 6:-0.416221 7:-0.619092 
-4.617674635740109 1:-0.169122 2:-0.53231 3:-0.535928 4:0.63986 5:-0.859532 6:-0.866565 7:-0.366195 
-20.94797243945233 1:0.011578 2:-0.560361 3:-0.654018 4:0.646834 5:-0.324927 6:-0.42397 7:-0.549399 
-6.072268085863946 1:-0.0719036 2:-0.414511 3:-0.618227 4:0.706104 5:-0.201397 6:-0.373623 7:-0.549397 
-6.912707902295921 1:-0.538863 2:-0.636161 3:-1 4:-0.0427706 5:-0.488603 6:-1 7:-0.549397 
-20.34734206802452 1:-0.441722 2:-0.672691 3:-0.850602 4:-0.0447968 5:-0.501228 6:-0.771105 7:-0.549399 
-2.377965514219364 1:-0.537668 2:-0.949316 3:-1 4:0.36795 5:-0.938519 6:-1 7:-0.595477 
-19.89242824787749 1:0.0562328 2:-0.369195 3:-0.424149 4:0.624086 5:-0.262043 6:-0.291562 7:-0.549397 
-0.1062762706031072 1:-0.351929 2:-1 3:-1 4:-0.402564 5:-1 6:-1 7:-0.549397 
-0.5809011191708451 1:-0.285968 2:-0.94228 3:-1 4:-0.149055 5:-0.910792 6:-1 7:-0.549397 
-7.925460024328092 1:-0.65439 2:-0.692685 3:-0.859729 4:-0.554259 5:-0.641004 6:-0.869751 7:-0.320689 
-1.226023655506955 1:-0.28885 2:-0.67509 3:-0.95216 4:0.304709 5:-0.0328671 6:-0.889258 7:-0.471739 
-7.733326721905605 1:-0.480845 2:-0.525722 3:-0.913408 4:-0.560504 5:-0.724453 6:-0.883347 7:-0.47174 
-32 1:-0.195101 2:-0.558389 3:-0.860987 4:0.203843 5:-0.0586723 6:-0.655628 7:-0.471738 
-32 1:0.380691 2:-0.499096 3:-0.73102 4:0.820479 5:-0.498996 6:-0.633719 7:-0.916901 
-5.465903137414678 1:0.706133 2:-0.29547 3:-0.678423 4:0.887996 5:-0.498484 6:-0.551831 7:-0.9169 
-1.729887315593347 1:-0.65965 2:-0.89388 3:-1 4:0.426579 5:0.0480891 6:-1 7:-0.765898 
-3.817092256095775 1:-0.132234 2:-0.432208 3:-0.800643 4:0.288428 5:0.100366 6:-0.664231 7:-0.942966 
-2.95002258935503 1:-0.264491 2:-0.698148 3:-0.913889 4:0.454626 5:-0.443717 6:-0.87152 7:-0.990905 
-0.5480787552673861 1:-0.864214 2:-0.891333 3:-1 4:-0.17224 5:-0.0631249 6:-1 7:-0.775536 
-11.08454889228967 1:-0.466886 2:-0.667727 3:-0.939335 4:-0.267214 5:-0.395959 6:-0.875543 7:-0.619092 
-6.144905802109569 1:-0.573336 2:-0.720124 3:-1 4:-0.671803 5:-0.716823 6:-1 7:-0.718622 
-11.74193915642014 1:-0.461618 2:-0.58391 3:-0.938735 4:0.0934072 5:-0.292233 6:-0.746744 7:-0.770102 
-9.160824343994685 1:-0.572428 2:-0.619805 3:-0.92112 4:0.0877859 5:-0.419932 6:-0.690405 7:-0.770102 
-19.91016711850037 1:-0.639775 2:-0.690548 3:-0.925659 4:-0.0418841 5:-0.436327 6:-0.701236 7:-0.770103 
-32 1:-0.447185 2:-0.66177 3:-0.938247 4:-0.0893146 5:-0.494269 6:-0.815489 7:-0.770103 
-14.04709451368293 1:-0.100123 2:-0.795079 3:-0.866379 4:0.19234 5:-0.567371 6:-0.745287 7:-0.320689 
-2.618906795195578 1:-0.194488 2:-0.731403 3:-0.824859 4:0.108406 5:-0.461229 6:-0.526654 7:-0.859835 
-2.954740242021684 1:-0.387076 2:-0.946098 3:-1 4:-0.576277 5:-0.989367 6:-1 7:-0.859835 
-0.4696653358308067 1:-0.372103 2:-0.747607 3:-0.790541 4:-0.0466004 5:-0.44489 6:-0.459524 7:-0.859836 
-0.3405799777607006 1:-0.62399 2:-0.891237 3:-1 4:0.113908 5:0.0118145 6:-1 7:-0.765896 
-3.013406790015352 1:-0.125898 2:-0.389305 3:-0.873297 4:0.454441 5:-0.315354 6:-0.873552 7:-0.990906 
-5.882743286472029 1:-0.52338 2:-0.501086 3:-0.92654 4:-0.566879 5:-0.690532 6:-0.882218 7:-0.471739 
-32 1:-0.630831 2:-0.558542 3:-0.845 4:-0.530233 5:-0.661695 6:-0.861325 7:-0.471738 
-15.27427046783284 1:-0.0710562 2:-0.479917 3:-0.511261 4:0.492441 5:0.0064794 6:-0.00832775 7:-0.47174 
-31.91316426382013 1:-0.483285 2:-0.523831 3:-0.885609 4:-0.281852 5:-0.490982 6:-0.82958 7:-0.506927 
-10.09419629250617 1:-0.169202 2:-0.356579 3:-0.673684 4:0.623321 5:0.448228 6:0.0284965 7:-0.506927 
-1.930446635353686 1:-0.537092 2:-0.61411 3:-0.823864 4:0.0278017 5:0.0331358 6:-0.362875 7:-0.948436 
-0.3316408981650488 1:-0.396182 2:-0.750917 3:-1 4:0.319657 5:-0.514086 6:-1 7:-0.918078 
-32 1:0.341438 2:-0.24537 3:-0.222222 4:0.877573 5:0.497737 6:0.396089 7:0.149971 
-11.65403476952984 1:0.439507 2:-0.197609 3:-0.0843882 4:0.890382 5:0.399185 6:0.416586 7:0.149972 
-2.408712457581222 1:-0.713024 2:-0.862596 3:-0.910405 4:-0.639259 5:-0.734422 6:-0.860324 7:-0.284827 
-32 1:-0.722255 2:-1 3:-1 4:-0.910559 5:-1 6:-1 7:-0.226692 
-1.599386502819823 1:-0.482997 2:-0.869891 3:-1 4:-0.0105122 5:-0.854742 6:-1 7:-0.753704 
-0.4849621547991139 1:-0.590644 2:-0.813562 3:-0.878431 4:0.438121 5:-0.340949 6:-0.355256 7:-0.993934 
-18.90842940352599 1:-0.52032 2:-0.532458 3:-0.887681 4:-0.120843 5:-0.22972 6:-0.892415 7:-0.503269 
-32 1:-0.156846 2:-0.558983 3:-0.798701 4:0.393905 5:-0.119851 6:-0.519779 7:-0.503268 
-32 1:-0.637109 2:-0.646587 3:-0.859729 4:-0.547183 5:-0.632503 6:-0.869751 7:-0.320689 
-14.54566848111394 1:-0.10561 2:-0.751167 3:-0.866379 4:0.194744 5:-0.366177 6:-0.745287 7:-0.320686 
-1.291809392321496 1:-0.552936 2:-0.413814 3:-0.815476 4:-0.551392 5:-0.657119 6:-0.863907 7:-0.471738 
-32 1:-0.196002 2:-0.392325 3:-0.428947 4:0.324035 5:-0.0803163 6:-0.0928776 7:-0.47174 
-11.89247746540444 1:-0.0412575 2:-0.119073 3:-0.351464 4:0.40387 5:-0.052821 6:-0.215563 7:-0.471739 
-5.658465795238474 1:-0.0907164 2:-0.261775 3:-0.229814 4:0.408736 5:-0.0836133 6:-0.0752082 7:-0.471738 
-14.42202694600035 1:-0.497088 2:-0.664609 3:-0.904321 4:-0.64125 5:-0.866939 6:-0.98057 7:-0.506926 
-10.18548526031096 1:-0.160269 2:-0.332749 3:-0.782456 4:0.623837 5:-0.475501 6:-0.918604 7:-0.506926 
-14.44267579120978 1:-0.456601 2:-0.564117 3:-0.814925 4:-0.164711 5:-0.456002 6:-0.634538 7:-0.471739 
-22.06799980722784 1:-0.202702 2:-0.374452 3:-0.347368 4:0.332818 5:-0.0658599 6:-0.0572576 7:-0.47174 
-10.19782729753715 1:-0.471357 2:-0.529932 3:-0.852029 4:0.215192 5:-0.202833 6:-0.562148 7:-0.910222 
-29.09912223292845 1:-0.0550145 2:-0.3125 3:-0.429448 4:0.63455 5:0.0609166 6:0.02539 7:-0.258279 
-3.466403118541309 1:-0.369341 2:-0.594992 3:-0.857798 4:0.530977 5:-0.607549 6:-0.929222 7:-0.813705 
-4.882632954384434 1:-0.612039 2:-0.719709 3:-0.901587 4:-0.486656 5:-0.492781 6:-0.592473 7:-0.770692 
-5.482364272000913 1:-0.285968 2:-0.94228 3:-1 4:-0.149055 5:-0.910792 6:-1 7:-0.549397 
-12.84912123246849 1:-0.270307 2:-0.746106 3:-1 4:0.0707788 5:-0.605461 6:-1 7:-0.549397 
-2.37396880326454 1:-0.21891 2:-0.634173 3:-0.854801 4:0.205147 5:-0.096831 6:-0.660345 7:-0.471737 
-7.568815729476206 1:-0.618101 2:-0.660417 3:-1 4:0.0895808 5:-0.264681 6:-1 7:-0.47174 
-30.39088436294276 1:-0.505577 2:-0.711961 3:-0.930804 4:-0.392132 5:-0.632894 6:-0.973517 7:-0.471738 
-32 1:-0.289043 2:-0.641195 3:-0.766038 4:0.157254 5:-0.350556 6:-0.394715 7:-0.759209 
-2.322289769373259 1:-0.237494 2:-0.276015 3:-0.84264 4:0.808852 5:0.604442 6:-0.97176 7:-0.503269 
-6.049014768447048 1:-0.148315 2:-0.444098 3:-0.669039 4:0.780358 5:0.518697 6:-0.483515 7:-0.503268 
-29.32281869089576 1:-0.502226 2:-0.455796 3:-0.900641 4:-0.466244 5:-0.638043 6:-0.932296 7:-0.503268 
-0.7121326906872463 1:0.341438 2:-0.24537 3:-0.222222 4:0.877573 5:0.497737 6:0.396089 7:0.149972 
-4.774700258727154 1:0.0885047 2:-0.31099 3:-0.213768 4:0.766066 5:0.460249 6:0.47841 7:0.149974 
-3.799376071239119 1:-0.267819 2:-0.5561 3:-0.797386 4:0.2645 5:-0.511494 6:-0.710766 7:-0.990906 
-1.114065423118477 1:-0.105087 2:-0.426317 3:-0.788828 4:0.456218 5:-0.315675 6:-0.859744 7:-0.990905 
-2.702518123094407 1:-0.238698 2:-0.384089 3:-0.810049 4:0.27042 5:-0.483709 6:-0.74965 7:-0.990907 
-29.12222502521512 1:-0.877301 2:-1 3:-1 4:-0.984565 5:-1 6:-1 7:-0.212149 
-3.762971389685376 1:-0.343341 2:-0.477564 3:-0.719457 4:0.384998 5:-0.707932 6:-0.942032 7:-0.212149 
-1.874104679020357 1:-0.707255 2:-0.692364 3:-0.891986 4:-0.409576 5:-0.377706 6:-0.99444 7:-0.779195 
-2.103396427030607 1:-0.483215 2:-0.886173 3:-1 4:0.0461736 5:-0.937024 6:-1 7:-0.715501 
-1.607277656877528 1:-0.450455 2:-0.870105 3:-0.915301 4:0.286083 5:-0.509211 6:-0.519557 7:-0.993934 
-2.00826866979982 1:-0.651057 2:-0.689721 3:-1 4:-0.114333 5:-0.403951 6:-1 7:-0.47174 
-32 1:0.425321 2:-0.216346 3:-0.205128 4:0.808891 5:0.480229 6:0.380132 7:0.149974 
-0.4900947521900063 1:-0.681751 2:-0.79625 3:-1 4:-0.58764 5:-0.664185 6:-1 7:-0.600343 
-32 1:-0.7341 2:-1 3:-1 4:-0.636526 5:-1 6:-1 7:-0.238847 
-3.277695146668703 1:-0.372103 2:-0.747607 3:-0.790541 4:-0.0466004 5:-0.44489 6:-0.459524 7:-0.859836 
-19.98068901012832 1:-0.210154 2:-0.327558 3:-0.386139 4:0.502649 5:0.0135869 6:-0.0389826 7:-0.471739 
-8.51746306396991 1:-0.494842 2:-0.353175 3:-0.630952 4:-0.498172 5:-0.601719 6:-0.797635 7:-0.471739 
-6.529543968558549 1:-0.45105 2:-0.469796 3:-1 4:-0.425451 5:-0.407934 6:-1 7:-0.719767 
-16.90603834411307 1:-0.411331 2:-0.450385 3:-0.641618 4:0.769134 5:-0.716113 6:-0.738882 7:-0.215807 
-4.708304455972959 1:0.0639975 2:-0.351244 3:-0.537313 4:0.745501 5:-0.262763 6:-0.346385 7:0.00868209 
-20.30222089840761 1:-0.39822 2:-0.567803 3:-0.929545 4:0.000157327 5:-0.339354 6:-0.876038 7:-0.549399 
-10.50070871283847 1:-0.0107921 2:-0.480892 3:-0.407643 4:0.600525 5:-0.305552 6:-0.296916 7:-0.549397 
-0.0809816871972804 1:-0.456195 2:-0.736246 3:-1 4:0.0940778 5:-0.617444 6:-1 7:-0.990906 
-10.79427761569955 1:-0.566639 2:-0.602615 3:-0.917553 4:0.0403231 5:-0.068609 6:-0.416221 7:-0.619092 
-0.007400489762422293 1:-0.561306 2:-0.665641 3:-0.904615 4:-0.0022916 5:-0.0201871 6:-0.749241 7:-0.619091 
-4.142064515533309 1:-0.518523 2:-0.688634 3:-0.911175 4:-0.132824 5:-0.20852 6:-0.803783 7:-0.619091 
-14.73427158744458 1:-0.290864 2:-0.632173 3:-0.760155 4:0.512105 5:-0.125321 6:-0.156383 7:-0.7992 
-13.7372610168296 1:-0.835334 2:-0.898632 3:-1 4:-0.928501 5:-0.973998 6:-1 7:-0.123581 
-32 1:-0.394371 2:-0.513761 3:-0.928406 4:-0.0367115 5:-0.338064 6:-0.880313 7:-0.549397 
-3.460714110395941 1:-0.621206 2:-0.652134 3:-1 4:-0.621353 5:-0.724186 6:-1 7:-0.465031 
-10.79834976960247 1:-0.757524 2:-0.915631 3:-1 4:-0.753529 5:-0.834165 6:-1 7:-0.207257 
-2.795501060193295 1:-0.653606 2:-0.722789 3:-1 4:-0.574655 5:-0.705581 6:-1 7:-0.692463 
-32 1:-0.129349 2:-0.40177 3:-0.518135 4:0.548436 5:0.0210047 6:-0.0486701 7:-0.471739 
-23.03673119567393 1:-0.428704 2:-0.370528 3:-0.621951 4:-0.239558 5:-0.440935 6:-0.613921 7:-0.471738 
-6.736044339495913 1:-0.592641 2:-0.857018 3:-0.934737 4:-0.486238 5:-0.715263 6:-0.865936 7:-0.471739 
-6.558108434640155 1:0.711415 2:-0.337742 3:-0.678423 4:0.748553 5:-0.501243 6:-0.551831 7:-0.916901 
-0.908623513522246 1:-0.659724 2:-0.805489 3:-1 4:-0.557893 5:-0.575361 6:-1 7:-0.537196 
-32 1:-0.798622 2:-0.769774 3:-1 4:-0.628336 5:-0.69573 6:-1 7:-0.223639 
-0.9339114041089168 1:-0.875805 2:-0.751524 3:-1 4:-0.608091 5:-0.677556 6:-1 7:-0.22364 
-0.7061411434277421 1:-0.277583 2:-0.681933 3:-0.829201 4:0.427252 5:-0.00506616 6:-0.943084 7:-0.944776 
-4.690707316066331 1:-0.474777 2:-0.643794 3:-0.674825 4:-0.0667461 5:-0.141281 6:-0.893335 7:-0.944776 
-10.136369612881 1:-0.83933 2:-0.703277 3:-1 4:-0.925283 5:-0.940625 6:-1 7:-0.131998 
-13.51053868181843 1:-0.296108 2:-0.60049 3:-0.817647 4:0.227789 5:-0.387895 6:-0.901442 7:-0.762869 
-9.14329318149705 1:-0.443233 2:-0.899062 3:-0.934183 4:0.438466 5:-0.278713 6:-0.272826 7:-0.750045 
-29.21351321116955 1:-0.0870938 2:-0.567065 3:-0.691235 4:0.577493 5:-0.153098 6:-0.519427 7:-0.870771 
-2.59831483431539 1:-0.391071 2:-0.756984 3:-0.94162 4:-0.180379 5:-0.803079 6:-0.82537 7:-0.876895 
-2.913577276905769 1:-0.456973 2:-0.643794 3:-0.674825 4:-0.533279 5:-0.870719 6:-0.893335 7:-0.944776 
-32 1:-0.4199 2:-0.570148 3:-0.803797 4:-0.277862 5:-0.601391 6:-0.779523 7:-0.549399 
-15.46316819267296 1:-0.592641 2:-0.38875 3:-1 4:-0.330892 5:-0.306745 6:-1 7:-0.258276 
-7.496109077753681 1:-0.0530909 2:-0.397783 3:-0.541872 4:0.718241 5:-0.172463 6:-0.322612 7:-0.549399 
-32 1:-0.382611 2:-0.513761 3:-0.928406 4:-0.0252122 5:-0.338064 6:-0.880313 7:-0.549399 
-3.215673875457198 1:-0.351823 2:-0.563838 3:-0.928899 4:-0.492029 5:-0.799096 6:-0.972987 7:-0.7853 
-3.138808543202388 1:-0.835742 2:-1 3:-1 4:-0.924016 5:-1 6:-1 7:-0.116913 
-0.3748830966141867 1:-0.499432 2:-0.884887 3:-1 4:0.551713 5:-0.221772 6:-1 7:-0.750045 
-3.840787753867587 1:-0.68568 2:-0.874228 3:-1 4:-0.0863913 5:-0.890099 6:-1 7:-0.303739 
-1.697444429334457 1:-0.47815 2:-0.451605 3:-0.807453 4:-0.439185 5:-0.442381 6:-0.980392 7:-0.944776 
-4.398378719833958 1:-0.02964 2:-0.256761 3:-0.415094 4:0.616855 5:0.494211 6:0.111548 7:-0.25828 
-5.115480560967702 1:-0.151335 2:-0.0822072 3:-0.441441 4:0.519207 5:0.419055 6:0.330432 7:-0.258277 
-20.22008745160964 1:-0.0929896 2:-0.320833 3:-0.515625 4:0.501262 5:0.311604 6:-0.0546485 7:-0.25828 
-3.209680136054389 1:-0.547703 2:-0.688634 3:-0.911175 4:-0.1526 5:-0.218941 6:-0.803783 7:-0.619092 
-1.395844813377917 1:-0.441524 2:-0.605645 3:-1 4:-0.430695 5:-0.481386 6:-1 7:0.00868114 
-0.08282885550818517 1:-0.0345466 2:-0.501529 3:-0.431193 4:0.593132 5:-0.290722 6:-0.281901 7:0.00868265 
-3.336851494629474 1:0.00296736 2:-0.382576 3:-0.373737 4:0.660239 5:-0.280369 6:-0.285104 7:0.00868061 
-9.544868999537584 1:-0.392108 2:-0.523057 3:-0.912921 4:-0.180182 5:-0.281912 6:-0.779278 7:0.00868337 
-0.623354338671014 1:-0.873847 2:-0.908221 3:-1 4:-0.959542 5:-0.99734 6:-1 7:-0.812575 
-32 1:-0.722255 2:-1 3:-1 4:-0.910559 5:-1 6:-1 7:-0.226688 
-32 1:-0.720805 2:-1 3:-1 4:-0.60042 5:-1 6:-1 7:-0.238854 
-28.95916554050768 1:-0.788933 2:-1 3:-1 4:-0.706223 5:-1 6:-1 7:-0.238851 
-12.23109554046509 1:-0.503567 2:-0.697307 3:-0.913649 4:-0.144055 5:-0.833947 6:-0.980255 7:-0.665171 
-8.297241035806028 1:-0.392699 2:-0.563838 3:-0.715596 4:0.517741 5:-0.156659 6:-0.271313 7:-0.813706 
-2.638353908916198 1:-0.126878 2:-0.745557 3:-0.910663 4:0.508455 5:-0.452713 6:-0.959275 7:0.00868114 
-5.242349540706847 1:-0.405427 2:-0.471307 3:-0.814371 4:-0.128074 5:-0.197476 6:-0.537742 7:0.00868061 
-0.008951089826579366 1:-0.621791 2:-0.827748 3:-0.887681 4:-0.802832 5:-0.886854 6:-0.954181 7:-0.827704 
-8.761438897780888 1:-0.639775 2:-0.690548 3:-0.925659 4:-0.0626413 5:-0.303461 6:-0.701236 7:-0.770102 
-5.606392630377296 1:-0.634838 2:-0.891766 3:-0.876494 4:-0.467362 5:-0.794237 6:-0.791678 7:-0.845926 
-1.781270182316586 1:-0.435504 2:-0.354638 3:-0.579186 4:0.251734 5:-0.733092 6:-0.943568 7:-0.212149 
-3.203813648577733 1:-0.3203 2:-0.477564 3:-0.719457 4:0.386491 5:-0.707932 6:-0.942032 7:-0.212149 
-6.556626976953039 1:0.0977293 2:-0.237168 3:-0.213768 4:0.687303 5:0.4716 6:0.47841 7:0.149971 
-20.032623955469 1:0.436202 2:-0.129274 3:-0.205128 4:0.833386 5:0.488922 6:0.380132 7:0.149972 
-3.618300833102987 1:-0.736166 2:-0.78886 3:-1 4:0.261064 5:-0.628878 6:-1 7:-0.779786 
-1.885448282097648 1:-0.073595 2:-0.740776 3:-0.763359 4:0.0870253 5:-0.300777 6:-0.329298 7:0.0086809 
-0.2120290224113825 1:-0.637491 2:-0.932533 3:-1 4:0.140397 5:-0.207509 6:-1 7:-0.599136 
-3.084889047118091 1:-0.41876 2:-0.497722 3:-0.501608 4:0.329131 5:-0.873381 6:-0.880135 7:-0.356498 
-2.15559022828801 1:-0.148606 2:-0.432208 3:-0.800643 4:0.402633 5:0.284571 6:-0.664231 7:-0.942966 
-1.417600179561755 1:-0.707255 2:-0.692364 3:-0.891986 4:-0.409407 5:-0.377706 6:-0.99444 7:-0.779195 
-32 1:-0.154183 2:-0.521393 3:-0.687919 4:0.404479 5:0.0178419 6:-0.387467 7:-0.503268 
-15.27671656801847 1:-0.666499 2:-0.717918 3:-0.900958 4:-0.199192 5:-0.363006 6:-0.866488 7:-0.503268 
-9.447579826441126 1:-0.0082465 2:-0.684109 3:-0.909884 4:0.772548 5:0.192079 6:-0.686315 7:-0.503268 
-32 1:-0.156846 2:-0.558983 3:-0.798701 4:0.388171 5:-0.119851 6:-0.519779 7:-0.503268 
-19.16582124561309 1:-0.473828 2:-0.637778 3:-0.896667 4:-0.324946 5:-0.567229 6:-0.896871 7:-0.549399 
-32 1:-0.03749 2:-0.482342 3:-0.621951 4:0.531315 5:-0.28809 6:-0.432314 7:-0.549397 
-26.53464041829614 1:-0.134362 2:-0.558542 3:-0.6125 4:0.467068 5:-0.306176 6:-0.402523 7:-0.549397 
-32 1:-0.545358 2:-0.549532 3:-0.841837 4:-0.0612156 5:-0.285942 6:-0.709593 7:-0.549399 
-2.704057871377329 1:-0.307295 2:-0.740652 3:-0.926014 4:0.135148 5:-0.517774 6:-0.918014 7:-0.549399 
-20.10780272168092 1:-0.435189 2:-0.559585 3:-0.894198 4:-0.263137 5:-0.569482 6:-0.901837 7:-0.549397 
-27.45707654730791 1:-0.354679 2:-0.542739 3:-0.938614 4:-0.239055 5:-0.609222 6:-0.918698 7:-0.549399 
-1.46611715382049 1:0.212378 2:-0.104396 3:-0.318681 4:0.821304 5:0.123073 6:0.0610201 7:-0.258279 
-7.249172551120194 1:0.0107692 2:-0.186017 3:-0.419476 4:0.639916 5:0.481392 6:0.0267891 7:-0.258276 
-1.003490239305375 1:-0.501193 2:-0.445578 3:-0.746939 4:-0.654271 5:-0.754409 6:-0.935211 7:-0.948436 
-2.320710356664134 1:-0.704135 2:-0.875382 3:-1 4:-0.0626889 5:-0.0337181 6:-1 7:-0.599136 
-32 1:-0.447857 2:-0.607229 3:-0.775904 4:-0.0614719 5:-0.301191 6:-0.573255 7:-0.549399 
-22.25551161141431 1:-0.547549 2:-0.652234 3:-0.813253 4:-0.341811 5:-0.6192 6:-0.772219 7:-0.549397 
-8.387360079925914 1:-0.357401 2:-0.84811 3:-0.900958 4:-0.34766 5:-0.795064 6:-0.92064 7:-0.549398 
-2.956888865609173 1:-0.427957 2:-0.634626 3:-0.803797 4:-0.28872 5:-0.603167 6:-0.779523 7:-0.549397 
