svm_type c_svc
kernel_type rbf
gamma 8
nr_class 2
total_sv 738
rho -1.05512
label 1 -1
nr_sv 411 327
SV
3.773225137657031 1:-0.321955 2:-0.538947 3:-0.83812 4:-0.00733365 5:-0.139366 6:-0.350464 7:0.00868209 
40 1:-0.437513 2:-0.565649 3:-0.909884 4:-0.318141 5:-0.592819 6:-0.915644 7:-0.523915 
2.734543820421858 1:-0.104187 2:-0.0944444 3:-0.655556 4:0.729053 5:0.624192 6:-0.0139509 7:-0.503268 
21.91088683439645 1:-0.212226 2:-0.299514 3:-0.304933 4:0.357468 5:-0.053853 6:-0.0723942 7:-0.415957 
0.6416704714668418 1:-0.387672 2:-0.168952 3:-0.738397 4:0.783263 5:-0.583197 6:-0.887169 7:-0.427984 
25.20567407241754 1:-0.547107 2:-0.70613 3:-1 4:0.0210981 5:-0.57617 6:-1 7:-0.668246 
7.485660594462359 1:-0.243256 2:-0.555206 3:-0.843829 4:0.269037 5:-0.261727 6:-0.810755 7:-0.77194 
7.969237318680308 1:-0.219977 2:-0.517259 3:-0.848039 4:0.355853 5:-0.386711 6:-0.88403 7:-0.771942 
5.914389113245954 1:0.463842 2:-0.440555 3:-0.744646 4:0.752963 5:-0.450703 6:-0.546843 7:-0.970908 
1.541383667196251 1:0.213722 2:-0.548226 3:-0.793792 4:0.896053 5:-0.543067 6:-0.602415 7:-0.821672 
2.729771588093295 1:0.02743 2:-0.457871 3:-0.793792 4:0.725597 5:0.114771 6:-0.631316 7:-0.503268 
3.223474127973052 1:-0.0345247 2:-0.866456 3:-0.912921 4:0.288837 5:-0.583987 6:-0.62045 7:-0.269119 
0.397031784669729 1:-0.512469 2:-0.450887 3:-0.868085 4:-0.323337 5:-0.293023 6:-0.656279 7:0.131807 
5.29370352468606 1:0.267438 2:-0.199236 3:-0.187773 4:0.587636 5:0.540642 6:0.517497 7:0.131807 
0.07079094012186229 1:-0.151335 2:-0.707026 3:-0.756863 4:0.771063 5:-0.724741 6:-0.841105 7:-0.727681 
0.04154341641555358 1:0.12145 2:-0.272321 3:-0.261905 4:0.663965 5:-0.0366877 6:-0.0411405 7:-0.264909 
6.174967326281335 1:-0.668874 2:-0.548531 3:-0.820809 4:-0.285582 5:-0.662562 6:-0.8178 7:-0.310992 
25.21260165710442 1:-0.520127 2:-0.608857 3:-0.918848 4:-0.400266 5:-0.539703 6:-0.940693 7:-0.503269 
7.031663562242225 1:-0.508284 2:-0.533619 3:-0.866953 4:-0.0789081 5:-0.076158 6:-0.934754 7:-0.503268 
0.4930777868242433 1:-0.313954 2:-0.38997 3:-1 4:0.549947 5:-0.457157 6:-1 7:-0.220066 
12.00647106112217 1:-0.125004 2:-0.546142 3:-0.704057 4:0.582605 5:-0.197622 6:-0.403789 7:-0.707046 
0.002744665842934609 1:-0.0144539 2:-0.561828 3:-0.666667 4:0.679169 5:-0.887226 6:-0.949237 7:-0.100448 
0.8371696380598469 1:-0.490801 2:-0.637778 3:-0.896667 4:-0.156736 5:-0.625459 6:-0.755166 7:-0.645717 
0.3330534388968549 1:-0.0877546 2:-0.469055 3:-0.394137 4:0.650085 5:0.0765564 6:0.089945 7:-0.586905 
0.04187903354707513 1:-0.103404 2:-0.593854 3:-0.69103 4:0.67805 5:-0.77233 6:-0.815899 7:-0.754314 
0.01096728384612701 1:-0.411287 2:-0.73486 3:-0.906907 4:0.505081 5:0.29216 6:-0.679085 7:-0.781603 
5.084691421156776 1:-0.314336 2:-0.617171 3:-0.805846 4:0.338247 5:0.0829455 6:-0.595746 7:-0.541439 
4.022195183754831 1:0.20658 2:-0.202717 3:-0.191304 4:0.725187 5:0.432783 6:0.321046 7:0.0910911 
0.9584570890647718 1:-0.268393 2:-0.661718 3:-0.703065 4:0.24582 5:-0.374595 6:-0.399915 7:-0.633034 
0.8702686754234785 1:-0.361822 2:-0.552001 3:-0.918206 4:-0.16224 5:-0.529761 6:-0.814571 7:-0.692463 
3.667526788473831 1:-0.113617 2:-0.195062 3:-0.77037 4:0.731116 5:-0.391939 6:-0.966552 7:-0.503269 
32.7696524884045 1:-0.508284 2:-0.533619 3:-0.866953 4:-0.608508 5:-0.737976 6:-0.934754 7:-0.503268 
2.061965463412339 1:-0.497414 2:-0.541342 3:-0.838961 4:-0.573979 5:-0.716121 6:-0.918317 7:-0.503268 
1.901064608712009 1:0.0259976 2:-0.533706 3:-0.814925 4:0.707868 5:-0.19027 6:-0.510119 7:-0.992703 
40 1:-0.450201 2:-0.57129 3:-0.89701 4:-0.0282196 5:-0.328357 6:-0.88053 7:-0.503269 
0.4048986882707862 1:-0.484188 2:-0.541342 3:-0.838961 4:0.0173342 5:0.0186718 6:-0.918317 7:-0.503268 
2.756556339970009 1:-0.552353 2:-0.477564 3:-0.659341 4:-0.0703814 5:-0.239931 6:-0.602787 7:-0.00223899 
0.7601762638062165 1:0.0159496 2:0.0122196 3:-0.403846 4:0.604524 5:0.291808 6:0.0818062 7:-0.395224 
3.697580766667089 1:-0.174104 2:-0.619004 3:-0.621951 4:0.485604 5:-0.311111 6:-0.312639 7:-0.718538 
0.1748425462704297 1:0.492479 2:-0.203736 3:-0.251724 4:0.886515 5:0.466442 6:0.466107 7:0.149971 
0.8313340029124061 1:-0.182602 2:-0.356579 3:-0.755263 4:0.555479 5:0.281167 6:-0.313156 7:-0.549399 
17.2281700109058 1:-0.178065 2:-0.69696 3:-0.83727 4:0.229423 5:-0.17523 6:-0.595269 7:-0.401364 
0.02722660411516868 1:0.106191 2:-0.48477 3:-0.572414 4:0.741523 5:0.486347 6:-0.0545525 7:-0.33406 
4.30443057851833 1:-0.519624 2:-0.530136 3:-0.902516 4:0.064056 5:0.163258 6:-0.916218 7:-0.597863 
12.18858275642977 1:-0.117028 2:-0.436436 3:-0.604255 4:0.587823 5:-0.253821 6:-0.531314 7:-0.517824 
1.757394889213314 1:-0.134563 2:-0.40942 3:-0.509881 4:0.485404 5:0.238028 6:0.0966416 7:-0.196943 
4.451220482421338 1:0.128165 2:-0.511976 3:-0.443114 4:0.60227 5:-0.210183 6:-0.20036 7:-0.464369 
0.1179091856767693 1:0.111566 2:-0.593976 3:-0.831522 4:0.830893 5:0.110539 6:-0.5262 7:-0.203087 
12.83984254409624 1:-0.787834 2:-0.845644 3:-1 4:-0.58579 5:-0.585609 6:-1 7:-0.203087 
0.3215098718068769 1:-0.222802 2:-0.142105 3:-0.510526 4:0.77351 5:0.931986 6:-0.804911 7:-0.508086 
0.312865938968548 1:-0.437513 2:-0.499839 3:-0.879845 4:0.078486 5:-0.549139 6:-0.928313 7:-0.738622 
0.2643783923027963 1:0.0338279 2:0.152525 3:-0.248485 4:0.175164 5:-0.089628 6:-0.35743 7:-0.349278 
1.43394395044956 1:0.0719975 2:-0.00706628 3:-0.274854 4:0.635527 5:0.510451 6:0.112283 7:-0.258277 
7.265818606573902 1:0.160788 2:-0.298126 3:-0.340426 4:0.673851 5:0.0853872 6:0.0687834 7:-0.25828 
2.824354946012632 1:-0.451819 2:-0.0576156 3:-0.703349 4:-0.198963 5:-0.138254 6:-0.961123 7:-0.258276 
4.354785223300856 1:0.291446 2:-0.11413 3:-0.213768 4:0.733469 5:0.12653 6:0.0970572 7:-0.258276 
9.026704471835705 1:-0.0595273 2:-0.390721 3:-0.427441 4:0.499257 5:-0.0117512 6:-0.088511 7:-0.267973 
4.706361230359767 1:0.0496642 2:-0.0666423 3:-0.274854 4:0.632666 5:0.524928 6:0.135153 7:-0.25828 
4.207938768045756 1:-0.32248 2:-0.618763 3:-0.806653 4:0.0589502 5:-0.593061 6:-0.878909 7:-0.550604 
0.4333520527873774 1:-0.258341 2:0.122101 3:-0.326087 4:0.50925 5:0.706193 6:0.320788 7:-0.34127 
0.7023488783234406 1:-0.604732 2:-0.441781 3:-0.575342 4:0.364032 5:-0.787891 6:-0.801296 7:-0.333382 
40 1:-0.621829 2:-0.730038 3:-0.935146 4:-0.1918 5:-0.305684 6:-0.904688 7:-0.506927 
1.871074552681379 1:0.0366425 2:-0.18146 3:-0.29316 4:0.672617 5:0.462138 6:0.333013 7:0.0322272 
1.110971838593936 1:-0.308704 2:-0.550221 3:-0.794702 4:0.200529 5:-0.460633 6:-0.607575 7:-0.838071 
0.02764911548301544 1:-0.527895 2:-0.595199 3:-1 4:0.307969 5:-0.0772078 6:-1 7:-0.419585 
3.503582824851768 1:0.609725 2:-0.255108 3:-0.6 4:0.925225 5:-0.44692 6:-0.47908 7:-0.834408 
8.423534880982659 1:-0.496218 2:-0.436436 3:-0.73617 4:-0.150256 5:-0.36448 6:-0.503501 7:-0.463813 
1.997984966970152 1:-0.188234 2:-0.27818 3:-0.400966 4:0.400963 5:0.148961 6:0.0702771 7:-0.471739 
40 1:-0.760377 2:-1 3:-1 4:-0.677485 5:-1 6:-1 7:-0.203087 
0.1151486151531132 1:-0.066951 2:-0.479048 3:-0.735795 4:0.726138 5:-0.594845 6:-0.699158 7:-0.995772 
8.671633813969111 1:-0.504123 2:-0.545906 3:-0.819767 4:-0.213438 5:-0.188126 6:-0.454247 7:-0.100448 
0.3517316831779814 1:0.189026 2:-0.462401 3:-0.509235 4:0.512362 5:-0.465717 6:-0.566123 7:0.19366 
2.344905226053787 1:-0.424227 2:-0.520024 3:-0.780919 4:-0.0859522 5:-0.160228 6:-0.260523 7:0.0183768 
13.48209277289263 1:-0.407667 2:-0.556463 3:-0.873469 4:-0.0868202 5:-0.335888 6:-0.674865 7:-0.560327 
0.1362546279774283 1:-0.420079 2:-0.056713 3:-0.827778 4:0.59286 5:0.308566 6:-0.951041 7:-0.306806 
0.2310461835672417 1:-0.0965828 2:-0.342742 3:-1 4:0.422365 5:-0.50622 6:-1 7:-0.306807 
3.479758979580742 1:-0.432758 2:-0.58945 3:-0.732297 4:-0.194112 5:-0.442688 6:-0.547228 7:-0.315249 
0.09310262413006282 1:-0.345608 2:-0.345382 3:-0.626506 4:0.859419 5:-0.485884 6:-0.954355 7:-0.626965 
0.4817572798357017 1:-0.080019 2:-0.429272 3:-0.739496 4:0.842426 5:-0.853953 6:-0.928755 7:-0.492375 
0.7407256969088284 1:-0.0144539 2:-0.561828 3:-0.666667 4:0.679169 5:-0.887226 6:-0.949237 7:-0.100448 
2.080230725399256 1:-0.0199943 2:-0.164517 3:-0.507937 4:0.693244 5:-0.362753 6:-0.473529 7:0.0183768 
1.974957819831128 1:-0.388737 2:-0.61105 3:-0.863436 4:0.328683 5:-0.102125 6:-0.822869 7:-0.334038 
10.12050082371533 1:-0.474197 2:-0.557065 3:-1 4:-0.104909 5:-0.232778 6:-1 7:-0.456513 
2.940129927975991 1:-0.151335 2:-0.40424 3:-0.72807 4:0.734401 5:0.260027 6:-0.612237 7:-0.617243 
3.168334224589061 1:-0.52708 2:-0.602523 3:-0.842239 4:0.0469603 5:-0.210846 6:-0.474838 7:-0.633035 
0.6142398804528687 1:-0.462007 2:-0.535094 3:-0.815476 4:-0.329786 5:-0.593178 6:-0.794337 7:-0.633036 
0.7953041657049896 1:-0.43522 2:-0.449971 3:-0.78169 4:0.439157 5:0.120908 6:-0.333664 7:-0.633035 
24.09921451938218 1:-0.565147 2:-0.625803 3:-0.829201 4:-0.293799 5:-0.641957 6:-0.776856 7:-0.633035 
8.909648991740935 1:-0.516766 2:-0.672923 3:-0.824363 4:-0.251952 5:-0.47084 6:-0.607215 7:-0.633036 
0.170719973385351 1:0.427127 2:-0.786809 3:-0.860987 4:-0.0693922 5:-0.880869 6:-0.901793 7:-0.216358 
4.975978106275307 1:-0.213056 2:-0.506061 3:-0.436364 4:0.50401 5:0.01649 6:0.0291317 7:-0.586905 
2.729704505986785 1:-0.0984677 2:-0.153825 3:-0.491803 4:0.558918 5:0.194137 6:0.0965594 7:-0.325556 
0.0008264275105894285 1:-0.0808686 2:-0.362515 3:-0.440433 4:0.816978 5:0.687805 6:0.280007 7:-0.553012 
14.97150830499498 1:-0.51207 2:-0.499386 3:-0.771499 4:-0.296978 5:-0.354644 6:-0.701028 7:-0.471739 
1.378933968626727 1:-0.328602 2:-0.521214 3:-0.75718 4:-0.0262387 5:-0.156344 6:-0.33162 7:0.00868268 
8.646512007799823 1:0.0883639 2:-0.170483 3:-0.408397 4:0.704609 5:0.567202 6:0.077667 7:-0.258276 
0.5605046975860148 1:-0.347824 2:-0.230501 3:-0.694581 4:-0.465592 5:-0.625752 6:-0.890961 7:-0.364369 
0.4483475217804376 1:-0.402471 2:-0.653486 3:-0.683673 4:0.30481 5:-0.602474 6:-0.813952 7:-0.779811 
0.2525088887009486 1:0.106954 2:-0.543643 3:-0.754941 4:0.192061 5:-0.702748 6:-0.769767 7:-0.264253 
12.75142176597353 1:-0.490801 2:-0.624291 3:-0.868085 4:0.0217015 5:-0.329941 6:-0.756456 7:-0.734344 
14.49361931735188 1:-0.670926 2:-0.614985 3:-0.929705 4:-0.130504 5:-0.415112 6:-0.823394 7:-0.734345 
1.434924287738811 1:0.0763552 2:-0.392615 3:-0.495935 4:0.47477 5:0.126946 6:0.0999343 7:-0.400716 
6.207629297897881 1:-0.468491 2:-0.702427 3:-0.840206 4:0.156214 5:-0.212901 6:-0.419882 7:-0.833836 
7.105765016028917 1:-0.0207715 2:-0.561154 3:-0.713846 4:0.568603 5:-0.287538 6:-0.519295 7:-0.559092 
2.770282698032852 1:-0.0888918 2:-0.522993 3:-0.688963 4:0.724006 5:0.502463 6:-0.37604 7:-0.280628 
9.759957923262256 1:-0.546258 2:-0.562913 3:-0.846535 4:0.0321636 5:-0.252492 6:-0.529504 7:-0.633034 
0.6234144937010954 1:-0.175241 2:-0.681142 3:-0.63615 4:0.645259 5:-0.160926 6:-0.150491 7:-0.586905 
3.849972159690513 1:-0.180677 2:-0.548426 3:-0.670213 4:0.676856 5:-0.00142211 6:-0.365791 7:-0.586905 
3.626435994207275 1:-0.350735 2:-0.47457 3:-1 4:-0.433381 5:-0.533128 6:-1 7:0.00868114 
0.3407603365315306 1:-0.259532 2:-0.64824 3:-0.691235 4:0.494155 5:-0.0411969 6:-0.085252 7:-0.633035 
0.7610152097199356 1:-0.443653 2:-0.572377 3:-0.77037 4:0.526739 5:-0.0499236 6:-0.516094 7:-0.8496 
0.1923941054528013 1:-0.162502 2:-0.410197 3:-0.755263 4:0.587777 5:0.268574 6:-0.313156 7:-0.549397 
29.54144637122098 1:-0.166076 2:-0.494417 3:-0.769231 4:0.412321 5:-0.000296236 6:-0.509287 7:-0.549397 
5.693225891345485 1:0.0363091 2:-0.351549 3:-0.376884 4:0.652582 5:0.272251 6:0.0413155 7:-0.221172 
1.705989004517277 1:0.0676749 2:-0.298925 3:-0.5 4:0.682853 5:0.0564068 6:-0.0170757 7:-0.474112 
9.346490094352845 1:-0.487203 2:-0.496025 3:-0.671378 4:-0.24672 5:-0.745212 6:-0.788443 7:-0.522649 
5.897393481865364 1:-0.125558 2:-0.381133 3:-0.78271 4:0.457014 5:0.115525 6:-0.496232 7:-0.549397 
1.050779658229033 1:0.324668 2:-0.0226015 3:0.0295203 4:0.884499 5:0.518895 6:0.528205 7:0.35685 
0.2892852487813228 1:0.116442 2:-0.755331 3:-0.807453 4:-0.132055 5:-0.81541 6:-0.827127 7:-0.577883 
0.009927973682982818 1:-0.156956 2:-0.77511 3:-0.897351 4:0.580964 5:0.624543 6:0.19477 7:-0.42558 
0.5360697175498463 1:-0.0361119 2:-0.55668 3:-0.67624 4:0.606508 5:0.157446 6:-0.555486 7:-0.408651 
7.484301162292141 1:-0.335597 2:-0.645529 3:-0.935282 4:0.321425 5:-0.563727 6:-0.710949 7:-0.942967 
0.4780925455929554 1:-0.148497 2:0.0675864 3:-0.481605 4:0.572616 5:0.683864 6:0.0729176 7:-0.346145 
13.82835535352526 1:-0.367626 2:-0.794636 3:-0.866091 4:-0.339918 5:-0.63934 6:-0.80279 7:-0.358327 
0.1937061307380173 1:-0.107814 2:0.10292 3:-0.470085 4:0.223114 5:-0.113628 6:-0.392653 7:-0.554207 
5.573487805792666 1:-0.122445 2:-0.479787 3:-0.604255 4:0.645903 5:-0.468274 6:-0.528494 7:-0.517824 
5.445107810176905 1:-0.0721757 2:-0.764281 3:-0.932755 4:0.12362 5:-0.622423 6:-0.919582 7:-0.53241 
0.6685035628459076 1:0.15727 2:-0.158058 3:-0.231405 4:0.281276 5:-0.298716 6:-0.367866 7:-0.422596 
3.911503830642904 1:-0.394431 2:-0.56575 3:-0.682864 4:-0.271529 5:-0.758378 6:-0.867471 7:-0.388049 
0.4395225479836827 1:0.0150142 2:-0.616417 3:-0.69103 4:0.978353 5:0.193835 6:-0.761746 7:-0.733699 
0.9376006054568983 1:-0.0709355 2:-0.0229532 3:-0.45614 4:0.555871 5:0.652283 6:0.068692 7:-0.346146 
3.438869679194226 1:-0.220289 2:-0.731163 3:-0.935417 4:0.00288221 5:-0.537872 6:-0.709337 7:-0.525689 
0.1996867148656698 1:-0.0808686 2:-0.362515 3:-0.440433 4:0.816978 5:0.687805 6:0.280007 7:-0.553012 
0.1322715495462951 1:-0.437513 2:-0.499839 3:-0.879845 4:0.765006 5:0.307577 6:-0.928313 7:-0.738622 
3.098664596504893 1:-0.368896 2:-0.654661 3:-0.802966 4:0.536948 5:0.268428 6:-0.671612 7:-0.54144 
0.5090491142590021 1:0.260007 2:0.00488946 3:-0.209184 4:0.820646 5:0.30076 6:0.106552 7:-0.248484 
2.259639344259208 1:0.0685742 2:-0.132451 3:-0.434307 4:0.625468 5:0.12335 6:-0.00846397 7:-0.473541 
0.4338417509099515 1:-0.0579043 2:-0.148445 3:-0.525994 4:0.467009 5:0.0120283 6:-0.119692 7:-0.473541 
1.242131746807437 1:-0.347824 2:-0.197044 3:-0.541872 4:-0.472142 5:-0.625403 6:-0.838711 7:-0.364371 
0.3715821381985601 1:-0.188034 2:-0.265766 3:-0.664865 4:0.426136 5:-0.811805 6:-0.920249 7:-0.36437 
0.6353799747397143 1:0.211016 2:-0.567572 3:-0.76779 4:0.867723 5:-0.501122 6:-0.700438 7:-0.959973 
3.532482729644593 1:0.362645 2:-0.521714 3:-0.78169 4:0.819331 5:-0.510953 6:-0.737971 7:-0.959973 
4.44012732895091 1:-0.132986 2:-0.522748 3:-0.581081 4:0.641086 5:-0.357669 6:-0.414127 7:-0.275133 
2.587314081606149 1:-0.0169907 2:-0.423102 3:-0.521236 4:0.50321 5:-0.288561 6:-0.520535 7:-0.5154 
0.1783295939428999 1:-0.129434 2:-0.386559 3:-0.3 4:0.536909 5:-0.469871 6:-0.463278 7:-0.587581 
4.191728812814318 1:-0.0706638 2:-0.431876 3:-0.351711 4:0.478413 5:-0.139687 6:-0.128988 7:-0.638512 
0.8179852748246392 1:-0.0327227 2:-0.438484 3:-0.633858 4:0.435132 5:-0.256335 6:-0.315826 7:-0.539719 
0.5432276854524748 1:-0.323119 2:-0.589627 3:-0.812689 4:0.0248615 5:0.0689846 6:-0.16467 7:-0.741577 
2.460210680843383 1:-0.3804 2:-0.429019 3:-0.862832 4:-0.0809575 5:-0.0753122 6:-0.651901 7:0.131807 
2.417705256930404 1:0.124974 2:-0.526163 3:-0.567442 4:0.488843 5:-0.289017 6:-0.304077 7:-0.010736 
0.5532714774119351 1:0.216128 2:-0.183133 3:-0.467354 4:0.885883 5:0.151071 6:0.0992873 7:-0.474112 
0.09155826182836371 1:0.287857 2:0.109922 3:-0.276265 4:0.823696 5:0.411376 6:0.283125 7:-0.107199 
2.426687967873423 1:0.0203411 2:-0.222328 3:-0.290076 4:0.733508 5:-0.196718 6:-0.19824 7:-0.626917 
0.2954510972728513 1:-0.617405 2:-0.498975 3:-0.745902 4:0.109328 5:-0.293961 6:-0.862813 7:-0.220562 
5.593648833706504 1:-0.151335 2:-0.273847 3:-0.415094 4:0.725196 5:0.370736 6:0.150752 7:-0.267295 
0.03144465646683949 1:-0.447992 2:-0.669432 3:-0.725664 4:0.122774 5:-0.528936 6:-0.527727 7:-0.734346 
1.400489662313587 1:-0.310692 2:-0.525473 3:-0.458515 4:0.695972 5:-0.780095 6:-0.77736 7:-0.185936 
3.162104607018102 1:-0.0580755 2:-0.179029 3:-0.318681 4:0.536467 5:-0.0546784 6:-0.289099 7:-0.408574 
1.994341891728735 1:-0.479391 2:-0.524393 3:-0.913165 4:-0.570546 5:-0.724871 6:-0.915235 7:-0.216995 
0.1335994896595245 1:-0.137778 2:-0.21885 3:-0.405751 4:0.638223 5:0.178123 6:-0.0701243 7:-0.326156 
10.12494280158582 1:-0.140627 2:-0.292981 3:-0.413249 4:0.62415 5:0.154736 6:-0.0855677 7:-0.326157 
0.8482550866450503 1:-0.403561 2:-0.5963 3:-0.783217 4:0.131172 5:-0.0613992 6:-0.478708 7:-0.470474 
2.178842058079991 1:-0.396207 2:-0.275198 3:-0.632411 4:-0.191711 5:-0.339126 6:-0.618753 7:-0.503852 
2.560632505012256 1:-0.375695 2:-0.583653 3:-0.881226 4:0.395598 5:-0.385496 6:-0.563337 7:-0.992703 
2.346990070385913 1:-0.117995 2:-0.442113 3:-0.778571 4:0.547692 5:-0.150563 6:-0.528384 7:-0.992702 
0.4291375168817985 1:0.210133 2:-0.371142 3:-0.425926 4:0.743004 5:0.59208 6:0.582326 7:0.136673 
3.431907006707864 1:-0.242808 2:-0.579757 3:-0.752495 4:0.144279 5:-0.0899459 6:-0.69694 7:-0.677301 
0.8588855182594923 1:-0.231969 2:-0.451504 3:-0.631829 4:0.87484 5:-0.220034 6:-0.239159 7:-0.677301 
0.3074961190932961 1:0.227657 2:-0.478995 3:-0.660274 4:-0.0147539 5:-0.519672 6:-0.581513 7:-0.0617355 
0.1047119039382474 1:0.00425321 2:-0.396296 3:-0.569444 4:0.326301 5:0.00140536 6:-0.487671 7:-0.466862 
0.09677321128790975 1:0.164912 2:-0.391313 3:-0.415094 4:-0.0382545 5:-0.641943 6:-0.648585 7:-0.264255 
0.453395361780205 1:-0.179862 2:-0.258053 3:-0.739496 4:0.469391 5:0.452818 6:-0.00854769 7:-0.532995 
7.101910710379029 1:-0.343542 2:-0.337398 3:-0.567944 4:-0.301379 5:-0.497673 6:-0.682239 7:-0.542109 
0.008451883517000793 1:-0.410844 2:-0.607094 3:-0.743802 4:0.578571 5:0.568219 6:0.349653 7:-0.414678 
0.3149210255032245 1:0.0924975 2:-0.417133 3:-0.768657 4:0.671996 5:-0.208983 6:-0.800389 7:-0.907194 
0.735409937236373 1:-0.292023 2:-0.273619 3:-0.502674 4:0.692709 5:-0.790356 6:-0.892557 7:-0.427984 
0.1989113172281181 1:-0.14643 2:-0.528902 3:-0.462428 4:0.452913 5:-0.0837185 6:-0.0723231 7:-0.273421 
0.773919624435753 1:-0.63301 2:-0.0822072 3:-1 4:-0.064392 5:-0.393209 6:-1 7:-0.306807 
40 1:-0.760377 2:-1 3:-1 4:-0.677485 5:-1 6:-1 7:-0.203089 
40 1:-0.761313 2:-0.90904 3:-1 4:-0.890434 5:-0.938513 6:-1 7:-0.203087 
16.24821019319984 1:-0.802466 2:-1 3:-1 4:-0.958904 5:-1 6:-1 7:-0.203089 
40 1:-0.812181 2:-1 3:-1 4:-0.960071 5:-1 6:-1 7:-0.203087 
3.920094898239019 1:-0.474636 2:-0.24537 3:-0.876984 4:-0.0704897 5:-0.28937 6:-0.980412 7:-0.248579 
7.278058285658331 1:-0.434224 2:-0.475952 3:-0.904321 4:0.0909467 5:-0.27534 6:-0.806021 7:-0.506927 
40 1:-0.627156 2:-0.772664 3:-0.935146 4:-0.538377 5:-0.73964 6:-0.904688 7:-0.506926 
3.269054310676255 1:0.124373 2:-0.344966 3:-0.370558 4:0.872378 5:-0.220805 6:-0.226025 7:-0.000375855 
0.04770477544933924 1:0.515155 2:-0.466623 3:-0.675393 4:0.545235 5:-0.620002 6:-0.646249 7:-0.915689 
0.5316434938160429 1:-0.00302498 2:0.0989752 3:-0.197411 4:0.565924 5:0.0522378 6:-0.0524417 7:-0.471739 
2.670908879315014 1:0.153049 2:-0.277482 3:-0.246201 4:0.691423 5:0.11091 6:0.121527 7:-0.25828 
0.8614953709473755 1:0.0768555 2:-0.261329 3:-0.1571 4:0.671762 5:0.0279966 6:0.0407813 7:-0.258276 
3.520378853136965 1:-0.474279 2:-0.479105 3:-0.542773 4:0.496187 5:-0.792982 6:-0.825579 7:-0.239403 
7.33441038508797 1:-0.65713 2:-0.552412 3:-0.82235 4:-0.298308 5:-0.690333 6:-0.828424 7:-0.31099 
0.5111414760859804 1:-0.292269 2:-0.411552 3:-0.552347 4:0.427858 5:-0.819701 6:-0.843029 7:-0.701577 
1.928027492731461 1:0.156455 2:0.0283157 3:-0.235915 4:0.858277 5:0.103869 6:0.0836098 7:-0.438933 
0.6607959053994508 1:-0.582146 2:-0.663009 3:-0.94084 4:0.162357 5:0.276309 6:-0.989721 7:-0.81679 
10.00499831453445 1:0.492479 2:-0.203736 3:-0.251724 4:0.886515 5:0.466442 6:0.466107 7:0.149971 
21.19438656134294 1:0.392917 2:-0.237168 3:-0.213768 4:0.89059 5:0.458537 6:0.339703 7:0.149972 
0.006606358780880631 1:0.148873 2:-0.768991 3:-0.789116 4:-0.153071 5:-0.759039 6:-0.759705 7:-0.587557 
0.7653055616728206 1:-0.113376 2:0.0632322 3:-0.306709 4:0.165654 5:-0.114974 6:-0.196308 7:-0.554207 
0.9795929592222946 1:-0.19889 2:-0.677981 3:-0.732759 4:0.809776 5:-0.313724 6:-0.49792 7:-0.692463 
0.422816540011644 1:-0.513687 2:-0.809223 3:-0.912921 4:-0.561693 5:-0.83697 6:-0.909823 7:-0.692463 
1.871290153674907 1:-0.573846 2:-0.154685 3:-0.733906 4:0.153997 5:-0.640243 6:-0.920137 7:-0.306806 
1.088359131082954 1:-0.63301 2:-0.0822072 3:-1 4:-0.241399 5:-0.614098 6:-1 7:-0.306807 
1.636662178235943 1:-0.326726 2:-0.894352 3:-0.931111 4:-0.216264 5:-0.847219 6:-0.862922 7:-0.523913 
4.407552109838672 1:-0.633909 2:-0.5561 3:-0.797386 4:-0.649292 5:-0.737946 6:-0.78855 7:-0.332209 
1.307712966925829 1:-0.608309 2:-0.357002 3:-0.816568 4:-0.643614 5:-0.698431 6:-0.835905 7:-0.332209 
0.2656109393634983 1:-0.490801 2:-0.534286 3:-0.734286 4:0.183456 5:-0.855884 6:-0.900516 7:0.089964 
2.42121575861424 1:0.175591 2:-0.587841 3:-0.591029 4:0.618736 5:-0.299192 6:-0.310831 7:0.0899638 
1.263202979747276 1:0.0847594 2:-0.421261 3:-0.689223 4:0.739917 5:-0.266911 6:-0.662358 7:-0.990906 
0.2071257984142569 1:-0.510386 2:-0.320833 3:-0.403846 4:0.0317527 5:-0.30267 6:-0.404429 7:-0.238852 
1.578336370737863 1:-0.40242 2:-0.437377 3:-0.816568 4:0.00649117 5:-0.097723 6:-0.828984 7:-0.615432 
4.323111302994843 1:0.49657 2:-0.391428 3:-0.722222 4:0.925524 5:-0.505435 6:-0.705242 7:-0.956314 
1.698447268334596 1:0.119445 2:-0.392185 3:-0.396887 4:0.538568 5:-0.30269 6:-0.339058 7:-0.294041 
3.266409618116816 1:-0.293544 2:-0.473799 3:-0.776577 4:0.599181 5:-0.032216 6:-0.198326 7:-0.881131 
16.2034376088806 1:-0.074184 2:-0.355731 3:-0.632411 4:0.608431 5:-0.162435 6:-0.302621 7:-0.45471 
5.907900568415098 1:-0.229745 2:-0.717014 3:-0.719203 4:0.0708303 5:-0.432818 6:-0.426944 7:-0.633036 
0.1291433956998568 1:0.0831024 2:-0.587247 3:-0.657459 4:0.743934 5:-0.117319 6:-0.252819 7:-0.484984 
1.505900500340564 1:-0.0545216 2:-0.456007 3:-0.774272 4:0.447715 5:-0.0478715 6:-0.442826 7:-0.471738 
3.954983795663493 1:-0.140826 2:-0.390222 3:-0.520124 4:0.582944 5:0.114256 6:0.0977049 7:-0.319482 
10.19905563789371 1:0.509117 2:-0.0962702 3:-0.25 4:0.840478 5:0.485409 6:0.351721 7:0.149971 
7.347238203976612 1:0.392917 2:-0.237168 3:-0.213768 4:0.765128 5:0.458537 6:0.339703 7:0.149971 
10.53816632872932 1:-0.402471 2:-0.549532 3:-0.841837 4:-0.440022 5:-0.585047 6:-0.829712 7:-0.499587 
0.9052926045225239 1:-0.403972 2:-0.214836 3:-0.641618 4:-0.0947488 5:-0.186373 6:-0.772869 7:-0.291566 
2.545025068120735 1:-0.0769263 2:-0.662026 3:-0.779621 4:0.259458 5:-0.611666 6:-0.745671 7:-0.238852 
2.115650468426499 1:-0.590504 2:-0.335082 3:-0.891608 4:-0.346516 5:-0.234279 6:-0.936783 7:-0.19452 
6.753965950150699 1:-0.144546 2:-0.583444 3:-0.834667 4:0.17081 5:-0.109823 6:-0.671839 7:-0.330957 
4.810969994314235 1:-0.202328 2:-0.329578 3:-0.334764 4:0.459938 5:-0.0240601 6:-0.133071 7:-0.590564 
1.901942720753647 1:-0.0858014 2:-0.396879 3:-0.401544 4:0.66469 5:0.0569775 6:-0.071266 7:-0.590564 
0.9560937036781171 1:-0.220088 2:-0.363819 3:-0.686076 4:0.474306 5:0.083653 6:-0.638188 7:-0.334036 
6.103586020861259 1:-0.413269 2:-0.385117 3:-0.872428 4:-0.199226 5:-0.26516 6:-0.629535 7:0.131807 
1.433907679776862 1:-0.571466 2:-0.170655 3:-0.89769 4:-0.336103 5:-0.315043 6:-0.910471 7:-0.271539 
3.277335874969797 1:-0.361118 2:-0.593009 3:-0.883895 4:0.309403 5:-0.252364 6:-0.655338 7:-0.597906 
4.828982256756063 1:-0.527895 2:-0.595199 3:-1 4:0.307969 5:-0.0772078 6:-1 7:-0.419585 
12.60924108969079 1:-0.505814 2:-0.449324 3:-0.771499 4:-0.101092 5:-0.313572 6:-0.701028 7:-0.47174 
0.4447536694990238 1:0.0401921 2:-0.656453 3:-0.879377 4:0.762525 5:-0.0299771 6:-0.551835 7:-0.625754 
5.779164608113254 1:-0.451217 2:-0.448027 3:-0.780919 4:-0.486043 5:-0.63479 6:-0.818106 7:-0.633034 
1.573764407044451 1:0.335603 2:-0.331967 3:-0.390164 4:0.823037 5:0.733649 6:0.512326 7:0.262832 
3.314262080011746 1:-0.228858 2:-0.281651 3:-0.627404 4:0.727089 5:0.408812 6:0.0303016 7:-0.325558 
3.57513754565946 1:-0.0636633 2:-0.0177342 3:-0.359504 4:0.535643 5:0.594903 6:0.0683554 7:-0.355844 
0.4421261058472877 1:-0.195669 2:-0.611422 3:-0.614428 4:0.92775 5:-0.24148 6:-0.238245 7:-0.680961 
3.57459974512634 1:-0.127843 2:-0.17748 3:-0.463668 4:0.465043 5:0.596465 6:-0.100998 7:-0.355844 
1.116086871483615 1:0.122201 2:-0.438705 3:-0.743802 4:0.73294 5:-0.173299 6:-0.517573 7:-0.559092 
0.06796852965640546 1:0.416779 2:-0.588384 3:-0.658402 4:0.0651055 5:-0.648635 6:-0.67699 7:-0.633047 
4.429953717376748 1:-0.248904 2:-0.616956 3:-0.764642 4:0.355268 5:-0.16771 6:-0.267134 7:-0.861728 
5.759959366305207 1:-0.372726 2:-0.50785 3:-0.775362 4:-0.0606554 5:-0.586395 6:-0.648062 7:-0.381899 
0.07636246313784359 1:0.159481 2:-0.416003 3:-0.407643 4:0.317855 5:0.0572268 6:0.0540984 7:-0.381963 
1.232299267708399 1:-0.199373 2:-0.0602725 3:-0.220126 4:0.664175 5:0.446047 6:0.385257 7:-0.267298 
1.966887411372289 1:-0.670926 2:-0.722789 3:-1 4:-0.243196 5:-0.454187 6:-1 7:-0.353424 
5.008281980804881 1:-0.233559 2:-0.553489 3:-0.892734 4:0.549359 5:0.0996937 6:-0.585947 7:-0.438881 
9.879928804287744 1:-0.27009 2:-0.490046 3:-0.894198 4:0.402465 5:0.132588 6:-0.582717 7:-0.438879 
0.8584999112262729 1:-0.242032 2:-0.187765 3:-0.605598 4:0.475943 5:0.401039 6:0.0425602 7:-0.325558 
0.07800027279810152 1:-0.402349 2:-0.0434272 3:-0.56338 4:0.81833 5:-0.777762 6:-0.912054 7:-0.100448 
0.2822364744715561 1:-0.363501 2:-0.785321 3:-0.821839 4:0.631828 5:0.166138 6:0.13199 7:-0.717301 
0.4503232813713022 1:0.0322939 2:-0.523392 3:-0.637427 4:0.435835 5:-0.40255 6:-0.423659 7:-0.393494 
0.7570427135478864 1:-0.494842 2:-0.24537 3:-0.876984 4:-0.294927 5:-0.284566 6:-0.976055 7:-0.248582 
0.9777329699465073 1:-0.189054 2:-0.446605 3:-0.540741 4:0.966376 5:-0.911749 6:-0.919707 7:-0.148393 
0.8346425290550029 1:0.00655579 2:-0.236596 3:-0.27907 4:0.572835 5:0.558294 6:0.486658 7:0.0640144 
5.509119529584497 1:-0.447935 2:-0.774766 3:-0.920918 4:0.104976 5:-0.196173 6:-0.721502 7:-0.781603 
7.597431582743978 1:-0.749947 2:-0.81808 3:-1 4:-0.877173 5:-0.915597 6:-1 7:-0.203087 
0.2295849795369083 1:0.0163022 2:-0.133573 3:-0.489712 4:0.419922 5:0.362432 6:-0.0325696 7:-0.203089 
4.414081862990276 1:-0.0429292 2:-0.2316 3:-0.547445 4:0.401639 5:0.295321 6:-0.0669491 7:-0.203087 
1.883209132578905 1:-0.0256072 2:-0.24537 3:-0.234568 4:0.671719 5:-0.23969 6:-0.301669 7:-0.599696 
1.157761625476701 1:0.0333482 2:-0.63637 3:-0.785838 4:-0.127743 5:-0.567086 6:-0.666385 7:-0.315247 
1.504281899762597 1:-0.674425 2:-0.75682 3:-0.841432 4:0.445267 5:-0.634091 6:-0.819668 7:-0.499578 
5.199501212364838 1:-0.846803 2:-0.747015 3:-0.911175 4:-0.833165 5:-0.825844 6:-0.91829 7:-0.148392 
8.206937710912472 1:-0.438899 2:-0.513545 3:-0.829201 4:0.26415 5:0.0517016 6:-0.729516 7:-0.660403 
25.29910572789649 1:-0.52293 2:-0.623407 3:-0.881453 4:-0.109186 5:-0.348741 6:-0.811948 7:-0.660403 
0.8346939486650905 1:0.608818 2:-0.354167 3:-0.619632 4:0.691591 5:-0.495777 6:-0.661718 7:-0.727703 
0.3740094999374433 1:-0.476851 2:-0.534817 3:-0.915068 4:0.19935 5:0.0591435 6:-0.771317 7:-0.315299 
0.2800692575702267 1:0.519157 2:-0.499693 3:-0.714549 4:0.778173 5:-0.561759 6:-0.696266 7:-0.816865 
2.139121562699795 1:-0.127088 2:-0.514881 3:-0.778571 4:0.523219 5:-0.21687 6:-0.528384 7:-0.992703 
0.2698594347635527 1:0.0335223 2:-0.52929 3:-0.693069 4:0.742373 5:-0.15208 6:-0.400769 7:-0.992703 
0.6804768085545168 1:-0.0401466 2:-0.509693 3:-0.751337 4:0.715799 5:-0.657677 6:-0.790776 7:-0.584523 
0.3279584068718193 1:-0.265335 2:-0.45937 3:-0.383085 4:0.130361 5:-0.0585618 6:-0.0468536 7:-0.4893 
1.479759822449734 1:-0.479651 2:-0.603406 3:-0.547445 4:-0.298716 5:-0.460189 6:-0.453475 7:-0.489299 
18.6331170709732 1:-0.151335 2:-0.400735 3:-0.544118 4:0.475989 5:0.0386288 6:-0.0407446 7:-0.489298 
11.82989238804567 1:-0.188776 2:-0.500613 3:-0.544118 4:0.399529 5:-0.166088 6:-0.229132 7:-0.4893 
2.46599041917249 1:-0.190923 2:-0.346574 3:-0.728863 4:0.560723 5:0.374886 6:0.118522 7:-0.457729 
0.01647922031226226 1:-0.294738 2:-0.698984 3:-0.914127 4:0.327787 5:-0.167567 6:-0.596242 7:-0.438879 
0.9176283456995885 1:-0.082258 2:-0.44719 3:-0.639535 4:0.845916 5:-0.192283 6:-0.581745 7:-0.644561 
0.2543677816037158 1:-0.54909 2:-0.706623 3:-0.866091 4:0.203444 5:-0.454422 6:-0.724133 7:-0.203089 
0.8090190779302908 1:-0.43933 2:-0.239922 3:-0.552347 4:-0.473387 5:-0.44488 6:-0.803872 7:-0.341904 
0.6094625852337505 1:-0.291716 2:-0.387218 3:-0.825188 4:0.157764 5:-0.0698792 6:-0.731787 7:-0.47174 
0.5798991377088222 1:-0.246444 2:-0.31693 3:-0.554598 4:0.413025 5:0.270909 6:-0.530631 7:-0.504475 
3.109456633895686 1:-0.701821 2:-0.571697 3:-0.93018 4:-0.583415 5:-0.589093 6:-0.979516 7:-0.347946 
0.3403971297251639 1:0.411033 2:-0.329016 3:-0.626506 4:0.728004 5:-0.462836 6:-0.569664 7:-0.916901 
0.6824736201374794 1:0.547045 2:-0.410446 3:-0.569444 4:0.902794 5:-0.526105 6:-0.589438 7:-0.910264 
0.3443338263953058 1:-0.407643 2:-0.574571 3:-0.722595 4:-0.02997 5:-0.447127 6:-0.606915 7:-0.910221 
0.2179105606433591 1:0.100011 2:-0.361063 3:-0.351916 4:-0.129543 5:-0.743902 6:-0.751597 7:-0.411014 
0.05954479386287955 1:0.262209 2:-0.194209 3:-0.474576 4:0.60945 5:-0.0985535 6:-0.52164 7:0.0844174 
1.067959917056983 1:0.00655579 2:-0.26292 3:-0.158915 4:0.581849 5:0.523115 6:0.542057 7:0.0640107 
0.08535725599906888 1:-0.339533 2:0.0798466 3:-0.351464 4:0.486143 5:0.670415 6:0.186645 7:-0.34127 
15.83119603394136 1:-0.291549 2:-0.80314 3:-0.910145 4:-0.379401 5:-0.840995 6:-0.887123 7:-0.692463 
14.17115994625292 1:-0.361822 2:-0.552001 3:-0.918206 4:-0.16224 5:-0.529761 6:-0.814571 7:-0.692463 
4.65005540799341 1:-0.513687 2:-0.809223 3:-0.912921 4:-0.561693 5:-0.83697 6:-0.909823 7:-0.692463 
2.903969121195415 1:-0.0117523 2:-0.240406 3:-0.592105 4:0.527172 5:0.401551 6:-0.0109137 7:-0.436557 
1.049626731815368 1:-0.373669 2:-0.457535 3:-0.603834 4:0.408283 5:-0.0415466 6:-0.156379 7:-0.959355 
3.434899284539935 1:-0.258054 2:-0.728876 3:-0.876248 4:0.26026 5:-0.417353 6:-0.702126 7:-0.32317 
5.414283952437239 1:-0.696123 2:-0.802823 3:-1 4:-0.239679 5:-0.48481 6:-1 7:-0.353423 
5.858066415433014 1:-0.295177 2:-0.693032 3:-0.912429 4:0.0107853 5:-0.310594 6:-0.82928 7:-0.401366 
1.843631719288616 1:-0.26602 2:-0.510511 3:-0.441441 4:0.726636 5:-0.783005 6:-0.780306 7:-0.185936 
1.519523286492511 1:0.118334 2:-0.111371 3:-0.420561 4:0.673529 5:0.183872 6:-0.125309 7:-0.144833 
16.39502505985379 1:-0.504626 2:-0.723416 3:-1 4:-0.0293635 5:-0.764826 6:-1 7:-0.620364 
0.4639002648504077 1:-0.501088 2:-0.629545 3:-0.812121 4:0.0465214 5:-0.230491 6:-0.502409 7:-0.465033 
0.6190308871799994 1:-0.344744 2:-0.452931 3:-0.695481 4:0.599237 5:-0.0391192 6:-0.34287 7:-0.780396 
0.2654970510911255 1:0.031496 2:-0.606913 3:-0.700965 4:0.701586 5:-0.283252 6:-0.684295 7:-0.779812 
7.100261427468018 1:-0.27878 2:-0.559585 3:-0.894198 4:0.401173 5:-0.0879487 6:-0.582717 7:-0.438879 
0.07590544568527735 1:-0.259475 2:-0.642544 3:-0.914127 4:0.337752 5:-0.153033 6:-0.596242 7:-0.438881 
0.3894608755256229 1:-0.319323 2:-0.825407 3:-0.920308 4:0.824357 5:-0.311718 6:-0.312433 7:-0.967255 
1.136486484756916 1:-0.080019 2:-0.514881 3:-0.739496 4:0.842426 5:-0.869017 6:-0.928755 7:-0.492375 
0.2332996221695321 1:0.113104 2:-0.24537 3:-0.400966 4:0.74926 5:-0.25068 6:-0.374233 7:-0.349277 
3.448485376405735 1:-0.0570392 2:-0.295679 3:-0.311111 4:0.679032 5:-0.320609 6:-0.35467 7:-0.349278 
2.474940778978673 1:-0.0520881 2:-0.319212 3:-0.334129 4:0.237854 5:-0.0542056 6:-0.107668 7:-0.611779 
1.417828970344311 1:0.395065 2:-0.561399 3:-0.818004 4:0.806004 5:-0.500893 6:-0.561836 7:-0.876892 
9.389232408392866 1:-0.641246 2:-0.413447 3:-0.859091 4:-0.532411 5:-0.560531 6:-0.787296 7:-0.328553 
4.407613731330641 1:0.00916345 2:-0.71848 3:-0.919689 4:0.681177 5:0.294839 6:-0.583559 7:-0.525689 
3.842803839258623 1:-0.452068 2:-0.647186 3:-0.769944 4:-0.148721 5:-0.376914 6:-0.558007 7:-0.315248 
1.833654737198609 1:-0.274825 2:-0.684598 3:-1 4:0.090455 5:-0.6021 6:-1 7:-0.411036 
0.009898102595335211 1:-0.0972653 2:-0.62373 3:-0.828255 4:0.48408 5:-0.445589 6:-0.964812 7:-0.411036 
0.2431989200690194 1:-0.225921 2:-0.403108 3:-0.631829 4:0.874754 5:0.421645 6:-0.239159 7:-0.677302 
0.1279281466019763 1:-0.200297 2:-0.390491 3:-0.602564 4:0.847889 5:0.364207 6:-0.400748 7:-0.677301 
2.314147562331428 1:0.490338 2:0.0767276 3:-0.054878 4:0.846325 5:0.567207 6:0.430214 7:0.0305216 
20.12653474799525 1:-0.337415 2:-0.73557 3:-0.936475 4:-0.337897 5:-0.846771 6:-0.978653 7:-0.393494 
0.4215289114439414 1:-0.598536 2:-0.769544 3:-0.876248 4:0.464717 5:0.189697 6:-0.722302 7:-0.203087 
0.8106952575549954 1:-0.0837945 2:-0.20098 3:-0.570934 4:0.787637 5:0.00239418 6:-0.0356307 7:-0.203089 
0.8169061502612921 1:0.0267795 2:-0.0497257 3:-0.489712 4:0.476415 5:0.366543 6:-0.0325696 7:-0.203087 
3.807143596838223 1:-0.520963 2:-0.503049 3:-0.675958 4:0.784823 5:-0.686974 6:-0.748207 7:-0.404282 
0.4869889984989264 1:-0.0318051 2:-0.59004 3:-0.750503 4:0.691775 5:-0.141461 6:-0.883682 7:-0.810128 
4.326437453162243 1:-0.645158 2:-0.574042 3:-1 4:-0.273405 5:-0.177789 6:-1 7:-0.341903 
0.083700087483656 1:-0.363501 2:-0.765805 3:-0.91092 4:0.152443 5:-0.430647 6:-0.69821 7:-0.717302 
0.7660274712055138 1:-0.261662 2:-0.898125 3:-1 4:0.340537 5:-0.974283 6:-1 7:-0.411036 
4.265156994235423 1:-0.30503 2:-0.714786 3:-0.918635 4:0.356606 5:-0.521886 6:-0.981263 7:-0.411035 
2.02613312191855 1:-0.419513 2:-0.538167 3:-0.752 4:0.370592 5:-0.373158 6:-0.825153 7:-0.779812 
0.112945348494536 1:-0.204906 2:-0.232835 3:-0.58804 4:0.887208 5:0.792227 6:0.253803 7:-0.951463 
1.16699831251402 1:0.199311 2:-0.430639 3:-0.628743 4:0.761543 5:-0.248778 6:-0.455273 7:-0.560301 
1.308848060972114 1:-0.311163 2:-0.603669 3:-0.835544 4:0.676304 5:0.086942 6:-0.78495 7:-0.783437 
0.01467302599653557 1:0.152202 2:-0.2316 3:-0.208029 4:0.774025 5:0.793083 6:0.771936 7:0.454454 
0.3788714696837365 1:0.000211954 2:-0.676587 3:-0.778571 4:0.882407 5:-0.00709583 6:-0.829459 7:-0.750046 
3.577053114978897 1:-0.287649 2:-0.50734 3:-0.678756 4:0.167 5:-0.324879 6:-0.524248 7:-0.910222 
1.316578124806164 1:0.537912 2:-0.474678 3:-0.657459 4:0.795913 5:-0.555562 6:-0.682191 7:-0.816864 
0.4447304155752203 1:0.0493624 2:-0.586993 3:-1 4:0.602939 5:-0.658033 6:-1 7:-0.124154 
0.6823955107927496 1:-0.136951 2:-0.175024 3:-0.387006 4:0.40061 5:0.000521613 6:-0.150033 7:-0.642169 
9.486172854942778 1:-0.801746 2:-0.916496 3:-1 4:-0.958744 5:-0.990995 6:-1 7:-0.203087 
0.8994782207889115 1:-0.653803 2:-0.692162 3:-0.912181 4:-0.390465 5:-0.714484 6:-0.960036 7:-0.310992 
5.083108500191519 1:0.479101 2:-0.0944444 3:0.0333333 4:0.800566 5:0.455448 6:0.473549 7:0.308928 
4.543862462403944 1:-0.403561 2:-0.5963 3:-0.783217 4:0.131172 5:-0.0613992 6:-0.478708 7:-0.470474 
2.660030007220727 1:-0.314865 2:-0.390781 3:-0.69103 4:-0.18601 5:-0.245084 6:-0.354918 7:0.0183766 
9.668527374983215 1:-0.5013 2:-0.50988 3:-0.680412 4:-0.241882 5:-0.255427 6:-0.302087 7:0.0183768 
40 1:-0.407908 2:-0.565649 3:-0.909884 4:-0.325489 5:-0.57859 6:-0.925522 7:-0.523915 
7.16102621686524 1:-0.516261 2:-0.705694 3:-0.896667 4:-0.161966 5:-0.654082 6:-0.755166 7:-0.645717 
0.8494932798410322 1:0.0984389 2:-0.204989 3:-0.170569 4:0.317962 5:-0.028324 6:-0.0224542 7:-0.684025 
0.1395767724481665 1:-0.0149015 2:-0.555858 3:-0.746594 4:0.670923 5:0.501786 6:0.366066 7:-0.781604 
0.01533633853002454 1:-0.411287 2:-0.73486 3:-0.906907 4:0.505081 5:0.29216 6:-0.679085 7:-0.781603 
0.2163147966956857 1:-0.293202 2:-0.614801 3:-0.907463 4:0.510429 5:0.318718 6:-0.688281 7:-0.781603 
7.015760786702277 1:-0.419536 2:-0.800696 3:-0.930023 4:0.0249091 5:-0.387156 6:-0.730142 7:-0.781602 
0.5204739269604309 1:0.926698 2:-0.281062 3:-0.650901 4:0.967999 5:-0.312953 6:-0.531041 7:-0.67007 
0.030346874949741 1:-0.274777 2:-0.176768 3:-0.342424 4:-0.0295054 5:-0.210944 6:-0.366505 7:-0.158761 
0.368553678704006 1:-0.535584 2:-0.42481 3:-0.495114 4:-0.133256 5:-0.471938 6:-0.506254 7:-0.238852 
9.794409086452761 1:-0.124648 2:-0.544375 3:-0.870021 4:0.144208 5:-0.198866 6:-0.654433 7:-0.539722 
11.6617837122425 1:0.207586 2:-0.248353 3:-0.142292 4:0.901748 5:0.485876 6:0.504355 7:0.0632864 
2.453571493534835 1:-0.0504694 2:-0.137124 3:-0.491803 4:0.521611 5:0.156324 6:0.135809 7:-0.203087 
0.9998034504034715 1:-0.43506 2:-0.216346 3:-0.724852 4:-0.326285 5:-0.320576 6:-0.604316 7:-0.490514 
0.09698430588728393 1:0.0956773 2:-0.505804 3:-0.677755 4:0.753577 5:-0.650433 6:-0.681819 7:-0.995772 
0.7393860135830749 1:-0.159575 2:-0.384574 3:-0.598706 4:0.537364 5:0.51812 6:0.254386 7:-0.00223828 
0.9220943949056413 1:-0.0553325 2:-0.508296 3:-0.438914 4:0.82638 5:0.455369 6:0.473469 7:0.167002 
0.9642202032994049 1:-0.256287 2:-0.493159 3:-0.66951 4:0.706611 5:0.70067 6:-0.147593 7:-0.800494 
1.588262171721555 1:0.138288 2:-0.766424 3:-0.917989 4:0.0837921 5:-0.609862 6:-0.961282 7:0.00868114 
3.027247782221159 1:-0.30388 2:-0.415401 3:-0.921519 4:-0.22739 5:-0.304164 6:-0.769888 7:0.00868265 
0.3005402193122984 1:0.172308 2:-0.309322 3:-0.474576 4:-0.326708 5:-0.68369 6:-0.73224 7:-0.216995 
2.6941842309185 1:-0.188034 2:-0.265766 3:-0.664865 4:0.418415 5:-0.804927 6:-0.920249 7:-0.364369 
0.2073887631324415 1:-0.392173 2:-0.724662 3:-0.790541 4:0.014888 5:-0.398926 6:-0.506844 7:-0.207242 
0.5106103535275478 1:-0.638581 2:-0.37868 3:-0.804416 4:-0.0519167 5:-0.306905 6:-0.719314 7:-0.239407 
3.850458033716571 1:-0.258913 2:-0.537656 3:-0.56338 4:-0.450097 5:-0.769029 6:-0.79264 7:-0.239403 
0.0674836610190402 1:-0.0672005 2:-0.033944 3:-0.599138 4:0.608317 5:0.632525 6:-0.602633 7:-0.419475 
4.377411049542966 1:-0.413789 2:-0.754703 3:-0.930023 4:0.231392 5:-0.103699 6:-0.730142 7:-0.781603 
0.01494903636387399 1:-0.137778 2:-0.21885 3:-0.405751 4:0.638223 5:0.178123 6:-0.0701243 7:-0.326156 
6.418557045821185 1:-0.0769504 2:-0.350598 3:-0.505976 4:0.843222 5:-0.351227 6:-0.401966 7:-0.634853 
2.258985186809297 1:0.714035 2:-0.518701 3:-0.633858 4:0.839498 5:-0.47803 6:-0.515227 7:-0.899899 
0.2144622019122744 1:0.190954 2:-0.731722 3:-0.742204 4:-0.258899 5:-0.600056 6:-0.599468 7:-0.499578 
1.20347916376092 1:-0.605738 2:-0.661308 3:-0.674541 4:-0.616238 5:-0.674265 6:-0.673316 7:-0.499578 
1.788217137904754 1:-0.6646 2:-0.715319 3:-0.814371 4:-0.614079 5:-0.635655 6:-0.812822 7:-0.499578 
40 1:0.0349569 2:-0.47544 3:-0.495935 4:0.578251 5:-0.297414 6:-0.315665 7:-0.610005 
0.2963116962640543 1:-0.479851 2:-0.269713 3:-0.666667 4:0.686814 5:-0.822172 6:-0.894276 7:-0.427984 
0.6899784078242774 1:-0.175241 2:-0.789554 3:-0.825352 4:0.405319 5:-0.364817 6:-0.771444 7:-0.878648 
0.2764454803621527 1:-0.00885876 2:-0.669505 3:-0.849148 4:-0.119958 5:-0.783375 6:-0.867465 7:-0.106046 
15.16154804477453 1:-0.622298 2:-0.589515 3:-0.914835 4:-0.457477 5:-0.545304 6:-0.954099 7:-0.594205 
3.160234936394303 1:-0.354782 2:-0.674372 3:-0.787671 4:0.0242999 5:-0.339515 6:-0.565903 7:-0.633036 
3.016465589802745 1:-0.590504 2:-0.335082 3:-0.891608 4:-0.346516 5:-0.234279 6:-0.936783 7:-0.194522 
11.04979045300429 1:-0.401948 2:-0.772092 3:-0.895973 4:0.488043 5:-0.181501 6:-0.273123 7:-0.726444 
4.09360870980566 1:-0.527269 2:-0.639699 3:-0.835544 4:-0.0779035 5:-0.375747 6:-0.604579 7:-0.633034 
1.485102587543253 1:-0.0599407 2:-0.442735 3:-0.682051 4:0.939734 5:0.631458 6:-0.12855 7:-0.603923 
0.2457145025165217 1:-0.0988406 2:-0.696592 3:-0.893471 4:0.736699 5:0.668164 6:0.232445 7:-0.42558 
1.033396616811468 1:-0.235109 2:-0.300429 3:-0.201717 4:0.621509 5:0.0819527 6:0.0954085 7:-0.590564 
6.416808132597413 1:-0.372961 2:-0.509731 3:-0.934183 4:-0.162606 5:-0.434883 6:-0.886801 7:-0.523915 
7.518183156065489 1:-0.326726 2:-0.894352 3:-0.931111 4:-0.216264 5:-0.847219 6:-0.862922 7:-0.523913 
0.2713361723215565 1:-0.207913 2:-0.597531 3:-0.540741 4:0.966131 5:-0.920693 6:-0.919707 7:-0.148392 
4.712734585473242 1:-0.653803 2:-0.692162 3:-0.912181 4:-0.390465 5:-0.714484 6:-0.960036 7:-0.310992 
4.077597115430801 1:-0.204377 2:-0.685064 3:-0.875 4:0.086817 5:-0.55797 6:-0.912256 7:-0.393494 
0.01668091532654825 1:0.0422198 2:-0.523392 3:-0.637427 4:0.478471 5:-0.40255 6:-0.423659 7:-0.393492 
1.237736879471512 1:-0.447992 2:-0.669432 3:-0.725664 4:0.147111 5:-0.498565 6:-0.527727 7:-0.734345 
0.09286511031099173 1:-0.620334 2:-0.582968 3:-0.72807 4:0.205851 5:0.0411383 6:0.0082336 7:-0.620919 
0.5573246135913245 1:-0.573215 2:-0.489644 3:-0.820809 4:-0.117433 5:-0.411217 6:-0.780706 7:0.234322 
0.4580381784447186 1:-0.0988189 2:-0.68059 3:-0.923267 4:0.757753 5:-0.132724 6:-0.852732 7:-0.408696 
0.004464922861130914 1:0.0343101 2:0.238064 3:-0.03125 4:0.753986 5:0.757498 6:0.262587 7:0.282332 
1.238053790988279 1:-0.650666 2:-0.731492 3:-0.855814 4:0.243569 5:0.0158725 6:-0.522309 7:-0.600264 
0.186164581647745 1:-0.575668 2:-0.570642 3:-0.643678 4:0.819075 5:0.561197 6:-0.159279 7:-0.600262 
6.357387186415025 1:0.0436282 2:-0.60229 3:-0.650901 4:0.673328 5:-0.42398 6:-0.459236 7:-0.457166 
4.723958246601311 1:-0.830893 2:-0.749385 3:-0.885609 4:-0.713211 5:-0.681642 6:-0.906162 7:-0.194519 
10.25508189054727 1:-0.393106 2:-0.44719 3:-0.639535 4:0.680088 5:-0.649638 6:-0.739413 7:-0.19452 
3.02708840996956 1:-0.441668 2:-0.463816 3:-0.864035 4:0.383699 5:-0.774435 6:-0.892463 7:-0.105452 
11.48990588392047 1:-0.707357 2:-0.687739 3:-1 4:-0.632993 5:-0.769777 6:-1 7:-0.172082 
-5.039807420331825 1:-0.431428 2:-0.58391 3:-0.938735 4:0.232845 5:0.0489095 6:-0.746744 7:-0.770102 
-8 1:-0.469585 2:-0.575521 3:-0.757812 4:-0.190543 5:-0.227297 6:-0.338336 7:0.00868265 
-8 1:-0.431826 2:-0.481992 3:-0.737288 4:-0.18448 5:-0.255005 6:-0.361902 7:0.00868061 
-3.149407936605917 1:-0.0876341 2:-0.703995 3:-0.774818 4:0.367588 5:-0.282694 6:-0.379901 7:0.00868337 
-3.907099062825988 1:-0.22457 2:-0.207064 3:-0.685279 4:0.80953 5:0.704268 6:0.029734 7:-0.503269 
-3.709910377366316 1:-0.666464 2:-0.525473 3:-0.864629 4:-0.253735 5:-0.405997 6:-0.83359 7:-0.503268 
-1.449717384446555 1:-0.454065 2:-0.795842 3:-1 4:-0.0295317 5:-0.6786 6:-1 7:-0.852006 
-5.699436353271546 1:-0.516583 2:-0.828059 3:-1 4:-0.0393958 5:-0.566329 6:-1 7:-0.599699 
-8 1:-0.559715 2:-0.336153 3:-0.766917 4:-0.203734 5:-0.332239 6:-0.626897 7:-0.503269 
-8 1:-0.17127 2:-0.521393 3:-0.687919 4:0.403229 5:0.0203722 6:-0.384905 7:-0.503268 
-1.532971527210511 1:-0.540307 2:-0.905671 3:-1 4:-0.307149 5:-0.830254 6:-1 7:-0.411644 
-5.211631055362077 1:-0.650169 2:-0.637087 3:-1 4:-0.223716 5:-0.223166 6:-1 7:-0.503269 
-7.910643884502162 1:-0.418914 2:-0.648431 3:-0.927059 4:0.367249 5:-0.174045 6:-0.759252 7:-0.503268 
-8 1:-0.877301 2:-1 3:-1 4:-0.984565 5:-1 6:-1 7:-0.212149 
-0.07268790928751906 1:-0.898667 2:-1 3:-1 4:-0.994787 5:-1 6:-1 7:-0.212149 
-1.25442348542258 1:-0.908527 2:-1 3:-1 4:-0.691476 5:-1 6:-1 7:-0.22364 
-4.235851375170809 1:-0.461822 2:-0.337398 3:-0.243902 4:0.0791676 5:-0.141209 6:-0.130528 7:-0.223644 
-8 1:-0.445201 2:-0.594527 3:-0.814925 4:-0.107245 5:-0.435043 6:-0.629292 7:-0.47174 
-0.2750703658686023 1:-0.51775 2:-0.697307 3:-0.913649 4:-0.145837 5:-0.833947 6:-0.980255 7:-0.665171 
-8 1:-0.233362 2:-0.4193 3:-0.769517 4:0.473306 5:0.0408529 6:-0.518897 7:-0.506927 
-8 1:-0.404129 2:-0.598601 3:-0.926714 4:0.451875 5:0.135165 6:-0.700792 7:-0.506926 
-8 1:-0.130194 2:-0.492438 3:-0.669039 4:0.782709 5:-0.438037 6:-0.483515 7:-0.503269 
-4.43377995197209 1:-0.682768 2:-0.717918 3:-0.900958 4:-0.392008 5:-0.595628 6:-0.866488 7:-0.503268 
-8 1:-0.675511 2:-0.700368 3:-1 4:-0.0374339 5:-0.701583 6:-1 7:-0.617882 
-0.007554405995644439 1:-0.435504 2:-0.354638 3:-0.579186 4:0.251734 5:-0.733092 6:-0.943568 7:-0.212149 
-8 1:-0.835742 2:-1 3:-1 4:-0.924016 5:-1 6:-1 7:-0.116918 
-8 1:-0.502226 2:-0.455796 3:-0.900641 4:0.0657283 5:0.0258117 6:-0.932296 7:-0.503269 
-4.029373835207782 1:-0.000845352 2:-0.624879 3:-0.909884 4:0.772897 5:0.227266 6:-0.686315 7:-0.503268 
-1.596339101591239 1:-0.757896 2:-0.9375 3:-1 4:-0.563606 5:-0.957727 6:-1 7:-0.303739 
-6.926119393430725 1:0.409933 2:-0.107072 3:-0.258964 4:0.839578 5:0.516989 6:0.398927 7:0.149972 
-0.04430814538827728 1:-0.351929 2:-1 3:-1 4:-0.402564 5:-1 6:-1 7:-0.549397 
-1.085190885464713 1:-0.746553 2:-0.692685 3:-0.859729 4:0.288438 5:-0.672926 6:-0.980538 7:-0.32855 
-8 1:-0.428268 2:-0.618713 3:-0.891228 4:-0.466615 5:-0.833123 6:-0.917884 7:-0.328553 
-8 1:-0.214433 2:-0.4193 3:-0.769517 4:0.477873 5:0.0442305 6:-0.515478 7:-0.506927 
-8 1:-0.137647 2:-0.430376 3:-0.8 4:0.504167 5:0.0795754 6:-0.528593 7:-0.506926 
-8 1:-0.483285 2:-0.523831 3:-0.885609 4:-0.170567 5:-0.352107 6:-0.82958 7:-0.506926 
-8 1:0.155562 2:-0.17297 3:-0.313653 4:0.727385 5:0.151897 6:0.103923 7:-0.258279 
-6.844058795261215 1:-0.59383 2:-0.603599 3:-1 4:-0.123746 5:-0.604039 6:-1 7:-0.787706 
-3.75820427879218 1:-0.046191 2:-0.0183137 3:-0.359882 4:0.65155 5:0.552163 6:0.0682002 7:-0.258279 
-8 1:-0.256082 2:-0.555206 3:-0.609572 4:-0.40984 5:-0.837819 6:-0.863083 7:-0.366195 
-3.054064513414437 1:-0.17446 2:-0.759423 3:-0.915531 4:-0.0858471 5:-0.524922 6:-0.961743 7:0.00868268 
-4.736478633110078 1:-0.465927 2:-0.707256 3:-1 4:-0.511314 5:-0.579862 6:-1 7:0.00868209 
-8 1:-0.39811 2:-0.582545 3:-0.853428 4:0.453592 5:0.136039 6:-0.574056 7:-0.506927 
-8 1:-0.314118 2:-0.648707 3:-0.799569 4:0.0935103 5:-0.310319 6:-0.643229 7:-0.506926 
-8 1:-0.628584 2:-0.712353 3:-1 4:-0.319868 5:-0.339469 6:-1 7:-0.506926 
-8 1:-0.830267 2:-0.876515 3:-1 4:-0.931681 5:-0.96829 6:-1 7:-0.341898 
-8 1:0.380691 2:-0.454899 3:-0.73102 4:0.820964 5:-0.478664 6:-0.633719 7:-0.916901 
-0.6702028042283615 1:-0.29187 2:-0.53048 3:-0.950161 4:-0.11125 5:-0.519473 6:-0.852192 7:-0.942966 
-1.727059949127226 1:-0.267819 2:-0.5561 3:-0.797386 4:0.2645 5:-0.511494 6:-0.710766 7:-0.990906 
-6.796773465667592 1:-0.850236 2:-1 3:-1 4:-0.926424 5:-1 6:-1 7:-0.123584 
-8 1:-0.808091 2:-0.897613 3:-1 4:-0.729963 5:-0.981778 6:-1 7:-0.123581 
-8 1:-0.764727 2:-1 3:-1 4:-0.804864 5:-1 6:-1 7:-0.238847 
-8 1:-0.28121 2:-0.76704 3:-0.918206 4:-0.361691 5:-0.754262 6:-0.889892 7:-0.471737 
-8 1:0.017261 2:-0.499721 3:-0.584821 4:0.564953 5:-0.273372 6:-0.392414 7:-0.549399 
-8 1:-0.100183 2:-0.497603 3:-0.490411 4:0.501214 5:-0.334024 6:-0.330302 7:-0.549397 
-5.199917861468736 1:-0.453281 2:-0.599649 3:-0.934737 4:-0.3174 5:-0.590884 6:-0.908429 7:-0.549399 
-1.118937480424651 1:-0.680012 2:-0.517532 3:-0.830601 4:-0.053355 5:-0.876507 6:-0.911 7:-0.332209 
-4.483394929886245 1:0.119005 2:-0.534442 3:-0.75 4:-0.109295 5:-0.68847 6:-0.804973 7:-0.33221 
-6.132827342126549 1:-0.616182 2:-0.453936 3:-0.844221 4:-0.174911 5:-0.852056 6:-0.914576 7:-0.332209 
-3.164646112832402 1:-0.666099 2:-0.406193 3:-0.830601 4:0.220993 5:-0.511843 6:-0.911 7:-0.332214 
-1.923194812699285 1:-0.564433 2:-0.861677 3:-0.936864 4:-0.469424 5:-0.733815 6:-0.873739 7:-0.471739 
-8 1:0.155562 2:-0.17297 3:-0.313653 4:0.739872 5:0.16748 6:0.112928 7:-0.25828 
-8 1:-0.046191 2:-0.0183137 3:-0.359882 4:0.654912 5:0.556359 6:0.0710077 7:-0.258277 
-8 1:-0.0550145 2:-0.3125 3:-0.429448 4:0.636606 5:0.0634829 6:0.0279882 7:-0.25828 
-8 1:-0.517991 2:-0.241707 3:-0.699029 4:-0.104712 5:-0.222094 6:-0.944408 7:-0.258276 
-1.554617532100921 1:-0.501193 2:-0.445578 3:-0.746939 4:0.0625656 5:0.140199 6:-0.935211 7:-0.948435 
-8 1:-0.137647 2:-0.430376 3:-0.8 4:0.500603 5:0.0721701 6:-0.533096 7:-0.506927 
-8 1:-0.319605 2:-0.604795 3:-0.799569 4:0.0930108 5:-0.260197 6:-0.567358 7:-0.506926 
-8 1:-0.504946 2:-0.601723 3:-0.904321 4:-0.130294 5:-0.17582 6:-0.98057 7:-0.506927 
-8 1:-0.662223 2:-0.752211 3:-0.94859 4:-0.204093 5:-0.381526 6:-0.971923 7:-0.506923 
-8 1:-0.447694 2:-0.532848 3:-0.835979 4:-0.0370302 5:-0.251438 6:-0.685907 7:-0.549399 
-0.835474528158705 1:-0.188234 2:-0.753925 3:-0.887681 4:-0.173101 5:-0.667065 6:-0.917966 7:-0.549398 
-8 1:-0.415973 2:-0.610514 3:-0.888889 4:-0.302553 5:-0.617035 6:-0.904911 7:-0.549397 
-0.4116935768093681 1:-0.363501 2:-0.705694 3:-0.896667 4:0.496307 5:-0.396367 6:-0.855549 7:-0.990906 
-0.7272149636131139 1:-0.245324 2:-0.579669 3:-0.899023 4:0.541757 5:-0.283382 6:-0.862641 7:-0.990906 
-0.6178989442088456 1:-1 2:-1 3:-1 4:-1 5:-1 6:-1 7:-0.728897 
-2.668180848594439 1:-0.819177 2:-0.942116 3:-1 4:-0.856154 5:-0.972355 6:-1 7:-0.207264 
-4.138148408500893 1:-0.469585 2:-0.575521 3:-0.757812 4:-0.236672 5:-0.274453 6:-0.386078 7:0.00868268 
-0.9463667856568995 1:-0.016479 2:-0.460388 3:-0.575342 4:0.595721 5:-0.310097 6:-0.361323 7:0.00868209 
-3.196984345775402 1:-0.0345466 2:-0.522299 3:-0.525994 4:0.54695 5:-0.343501 6:-0.345884 7:0.00868037 
-0.7307880326743923 1:-0.566639 2:-0.602615 3:-0.917553 4:0.0403231 5:-0.068609 6:-0.416221 7:-0.619092 
-4.585199351505802 1:-0.169122 2:-0.53231 3:-0.535928 4:0.63986 5:-0.859532 6:-0.866565 7:-0.366195 
-8 1:0.011578 2:-0.560361 3:-0.654018 4:0.646834 5:-0.324927 6:-0.42397 7:-0.549399 
-8 1:-0.440959 2:-0.604718 3:-0.917989 4:-0.014066 5:-0.475567 6:-0.907811 7:-0.549399 
-8 1:-0.0719036 2:-0.414511 3:-0.618227 4:0.706104 5:-0.201397 6:-0.373623 7:-0.549397 
-3.393072348533188 1:-0.538863 2:-0.636161 3:-1 4:-0.0427706 5:-0.488603 6:-1 7:-0.549397 
-8 1:-0.0252784 2:-0.460077 3:-0.675732 4:0.643258 5:-0.299858 6:-0.43063 7:-0.549397 
-8 1:-0.441722 2:-0.672691 3:-0.850602 4:-0.0447968 5:-0.501228 6:-0.771105 7:-0.549399 
-1.975127526413846 1:-0.537668 2:-0.949316 3:-1 4:0.36795 5:-0.938519 6:-1 7:-0.595477 
-8 1:0.0106825 2:-0.444318 3:-0.436364 4:0.616576 5:-0.30153 6:-0.297237 7:-0.549399 
-8 1:0.0562328 2:-0.369195 3:-0.424149 4:0.624086 5:-0.262043 6:-0.291562 7:-0.549397 
-8 1:-0.532212 2:-0.652234 3:-0.813253 4:-0.327451 5:-0.6192 6:-0.772219 7:-0.549399 
-0.6478948870947316 1:-0.351929 2:-1 3:-1 4:-0.402564 5:-1 6:-1 7:-0.549397 
-8 1:-0.531633 2:-0.647602 3:-0.926887 4:-0.109969 5:-0.373618 6:-0.845335 7:-0.549399 
-0.7186291822075793 1:-0.285968 2:-0.94228 3:-1 4:-0.149055 5:-0.910792 6:-1 7:-0.549397 
-8 1:-0.65439 2:-0.692685 3:-0.859729 4:-0.554259 5:-0.641004 6:-0.869751 7:-0.320689 
-7.834896799712198 1:-0.480845 2:-0.525722 3:-0.913408 4:-0.560504 5:-0.724453 6:-0.883347 7:-0.47174 
-8 1:-0.195101 2:-0.558389 3:-0.860987 4:0.203843 5:-0.0586723 6:-0.655628 7:-0.471738 
-8 1:0.380691 2:-0.499096 3:-0.73102 4:0.820479 5:-0.498996 6:-0.633719 7:-0.916901 
-6.228686408946833 1:0.706133 2:-0.29547 3:-0.678423 4:0.887996 5:-0.498484 6:-0.551831 7:-0.9169 
-1.532775697727914 1:-0.65965 2:-0.89388 3:-1 4:0.426579 5:0.0480891 6:-1 7:-0.765898 
-2.749201311299363 1:-0.132234 2:-0.432208 3:-0.800643 4:0.288428 5:0.100366 6:-0.664231 7:-0.942966 
-8 1:-0.0870938 2:-0.567065 3:-0.691235 4:0.642011 5:-0.153098 6:-0.519427 7:-0.870771 
-2.332632628340785 1:-0.264491 2:-0.698148 3:-0.913889 4:0.454626 5:-0.443717 6:-0.87152 7:-0.990905 
-0.3097221000391832 1:-0.864214 2:-0.891333 3:-1 4:-0.17224 5:-0.0631249 6:-1 7:-0.775536 
-8 1:-0.466886 2:-0.667727 3:-0.939335 4:-0.267214 5:-0.395959 6:-0.875543 7:-0.619092 
-3.397273685955049 1:-0.573336 2:-0.720124 3:-1 4:-0.671803 5:-0.716823 6:-1 7:-0.718622 
-8 1:-0.461618 2:-0.58391 3:-0.938735 4:0.0934072 5:-0.292233 6:-0.746744 7:-0.770102 
-8 1:-0.572428 2:-0.619805 3:-0.92112 4:0.0877859 5:-0.419932 6:-0.690405 7:-0.770102 
-8 1:-0.639775 2:-0.690548 3:-0.925659 4:-0.0418841 5:-0.436327 6:-0.701236 7:-0.770103 
-8 1:-0.447185 2:-0.66177 3:-0.938247 4:-0.0893146 5:-0.494269 6:-0.815489 7:-0.770103 
-8 1:-0.100123 2:-0.795079 3:-0.866379 4:0.19234 5:-0.567371 6:-0.745287 7:-0.320689 
-4.631766409330035 1:-0.194488 2:-0.731403 3:-0.824859 4:0.108406 5:-0.461229 6:-0.526654 7:-0.859835 
-2.117099242959544 1:-0.387076 2:-0.946098 3:-1 4:-0.576277 5:-0.989367 6:-1 7:-0.859835 
-0.03215805250308646 1:-0.372103 2:-0.747607 3:-0.790541 4:-0.0466004 5:-0.44489 6:-0.459524 7:-0.859836 
-0.4288071706265585 1:-0.62399 2:-0.891237 3:-1 4:0.113908 5:0.0118145 6:-1 7:-0.765896 
-2.332471920708532 1:-0.125898 2:-0.389305 3:-0.873297 4:0.454441 5:-0.315354 6:-0.873552 7:-0.990906 
-8 1:-0.52338 2:-0.501086 3:-0.92654 4:-0.566879 5:-0.690532 6:-0.882218 7:-0.471739 
-8 1:-0.630831 2:-0.558542 3:-0.845 4:-0.530233 5:-0.661695 6:-0.861325 7:-0.471738 
-8 1:-0.0710562 2:-0.479917 3:-0.511261 4:0.492441 5:0.0064794 6:-0.00832775 7:-0.47174 
-8 1:-0.210154 2:-0.327558 3:-0.386139 4:0.509073 5:0.0216029 6:-0.0256851 7:-0.471739 
-5.114605739368875 1:-0.589356 2:-0.578681 3:-0.923077 4:-0.51606 5:-0.664768 6:-0.870517 7:-0.471737 
-1.196861211432002 1:-0.627297 2:-0.677202 3:-0.941065 4:-0.0267067 5:-0.351675 6:-0.889721 7:-0.471738 
-8 1:-0.483285 2:-0.523831 3:-0.885609 4:-0.281852 5:-0.490982 6:-0.82958 7:-0.506927 
-8 1:-0.169202 2:-0.356579 3:-0.673684 4:0.623321 5:0.448228 6:0.0284965 7:-0.506927 
-8 1:-0.624466 2:-0.609479 3:-0.845 4:-0.506517 5:-0.69466 6:-0.861325 7:-0.471739 
-5.719733995753547 1:-0.545358 2:-0.474454 3:-0.815476 4:-0.522329 5:-0.683378 6:-0.863907 7:-0.47174 
-2.98941808315457 1:-0.315464 2:-0.58353 3:-0.853774 4:0.202845 5:-0.0601405 6:-0.643311 7:-0.471738 
-1.579855342580244 1:-0.537092 2:-0.61411 3:-0.823864 4:0.0278017 5:0.0331358 6:-0.362875 7:-0.948436 
-7.921651426848845 1:-0.411331 2:-0.450385 3:-0.641618 4:0.769134 5:-0.726676 6:-0.738882 7:-0.215806 
-0.6111307560013906 1:-0.339927 2:-0.811343 3:-1 4:-0.645482 5:-0.976433 6:-1 7:-0.647053 
-8 1:0.409933 2:-0.107072 3:-0.258964 4:0.839578 5:0.516989 6:0.398927 7:0.149971 
-8 1:0.341438 2:-0.24537 3:-0.222222 4:0.877573 5:0.497737 6:0.396089 7:0.149971 
-8 1:0.439507 2:-0.197609 3:-0.0843882 4:0.890382 5:0.399185 6:0.416586 7:0.149972 
-5.536403248270554 1:-0.713024 2:-0.862596 3:-0.910405 4:-0.639259 5:-0.734422 6:-0.860324 7:-0.284827 
-8 1:-0.722255 2:-1 3:-1 4:-0.910559 5:-1 6:-1 7:-0.226692 
-0.01099997389307804 1:-0.482997 2:-0.869891 3:-1 4:-0.0105122 5:-0.854742 6:-1 7:-0.753704 
-0.001273299992224062 1:-0.590644 2:-0.813562 3:-0.878431 4:0.438121 5:-0.340949 6:-0.355256 7:-0.993934 
-8 1:-0.729755 2:-1 3:-1 4:-0.687379 5:-1 6:-1 7:-0.238847 
-8 1:-0.52032 2:-0.532458 3:-0.887681 4:-0.120843 5:-0.22972 6:-0.892415 7:-0.503269 
-8 1:-0.156846 2:-0.558983 3:-0.798701 4:0.393905 5:-0.119851 6:-0.519779 7:-0.503268 
-8 1:-0.637109 2:-0.646587 3:-0.859729 4:-0.547183 5:-0.632503 6:-0.869751 7:-0.320689 
-8 1:-0.10561 2:-0.751167 3:-0.866379 4:0.194744 5:-0.366177 6:-0.745287 7:-0.320686 
-8 1:-0.552936 2:-0.413814 3:-0.815476 4:-0.551392 5:-0.657119 6:-0.863907 7:-0.471738 
-8 1:-0.196002 2:-0.392325 3:-0.428947 4:0.324035 5:-0.0803163 6:-0.0928776 7:-0.47174 
-8 1:-0.0412575 2:-0.119073 3:-0.351464 4:0.40387 5:-0.052821 6:-0.215563 7:-0.471739 
-7.051087962131039 1:-0.0907164 2:-0.261775 3:-0.229814 4:0.408736 5:-0.0836133 6:-0.0752082 7:-0.471738 
-8 1:-0.497088 2:-0.664609 3:-0.904321 4:-0.64125 5:-0.866939 6:-0.98057 7:-0.506926 
-8 1:-0.160269 2:-0.332749 3:-0.782456 4:0.623837 5:-0.475501 6:-0.918604 7:-0.506926 
-8 1:-0.456601 2:-0.564117 3:-0.814925 4:-0.164711 5:-0.456002 6:-0.634538 7:-0.471739 
-7.481390223228879 1:-0.065322 2:-0.464621 3:-0.441441 4:0.433859 5:-0.0649405 6:-0.0609102 7:-0.471739 
-8 1:-0.202702 2:-0.374452 3:-0.347368 4:0.332818 5:-0.0658599 6:-0.0572576 7:-0.47174 
-4.120269448917834 1:-0.504946 2:-0.492076 3:-0.668803 4:-0.161991 5:-0.448279 6:-0.588383 7:-0.471738 
-7.790591341134477 1:-0.471357 2:-0.529932 3:-0.852029 4:0.215192 5:-0.202833 6:-0.562148 7:-0.910222 
-8 1:-0.0550145 2:-0.3125 3:-0.429448 4:0.63455 5:0.0609166 6:0.02539 7:-0.258279 
-8 1:-0.108902 2:-0.320833 3:-0.515625 4:0.502998 5:0.318451 6:-0.0546485 7:-0.258276 
-3.693218653267119 1:-0.369341 2:-0.594992 3:-0.857798 4:0.530977 5:-0.607549 6:-0.929222 7:-0.813705 
-5.467272176434697 1:-0.612039 2:-0.719709 3:-0.901587 4:-0.486656 5:-0.492781 6:-0.592473 7:-0.770692 
-6.35604057224107 1:-0.285968 2:-0.94228 3:-1 4:-0.149055 5:-0.910792 6:-1 7:-0.549397 
-3.382006815003544 1:-0.452801 2:-0.513433 3:-1 4:-0.119405 5:-0.425452 6:-1 7:-0.549397 
-8 1:-0.270307 2:-0.746106 3:-1 4:0.0707788 5:-0.605461 6:-1 7:-0.549397 
-6.039079125368002 1:-0.296108 2:-0.60049 3:-0.817647 4:0.227789 5:-0.223487 6:-0.901442 7:-0.762868 
-8 1:-0.206518 2:-0.558389 3:-0.860987 4:0.175799 5:-0.0844782 6:-0.655628 7:-0.471739 
-5.909375555442184 1:-0.515826 2:-0.550125 3:-0.735043 4:-0.115959 5:-0.434822 6:-0.663974 7:-0.47174 
-8 1:-0.528309 2:-0.711961 3:-0.930804 4:-0.39507 5:-0.632894 6:-0.973517 7:-0.471739 
-8 1:-0.21891 2:-0.634173 3:-0.854801 4:0.205147 5:-0.096831 6:-0.660345 7:-0.471737 
-5.664648248061231 1:-0.441123 2:-0.370528 3:-0.621951 4:-0.243977 5:-0.452391 6:-0.613921 7:-0.471738 
-7.254399812252222 1:-0.618101 2:-0.660417 3:-1 4:0.0895808 5:-0.264681 6:-1 7:-0.47174 
-8 1:-0.505577 2:-0.711961 3:-0.930804 4:-0.392132 5:-0.632894 6:-0.973517 7:-0.471738 
-8 1:-0.289043 2:-0.641195 3:-0.766038 4:0.157254 5:-0.350556 6:-0.394715 7:-0.759209 
-1.936695139018148 1:-0.237494 2:-0.276015 3:-0.84264 4:0.808852 5:0.604442 6:-0.97176 7:-0.503269 
-5.162035317431091 1:-0.148315 2:-0.444098 3:-0.669039 4:0.780358 5:0.518697 6:-0.483515 7:-0.503268 
-8 1:-0.502226 2:-0.455796 3:-0.900641 4:-0.466244 5:-0.638043 6:-0.932296 7:-0.503268 
-8 1:-0.52032 2:-0.532458 3:-0.887681 4:-0.46665 5:-0.662021 6:-0.892415 7:-0.503268 
-8 1:0.341438 2:-0.24537 3:-0.222222 4:0.877573 5:0.497737 6:0.396089 7:0.149972 
-5.685584851182079 1:0.0885047 2:-0.31099 3:-0.213768 4:0.766066 5:0.460249 6:0.47841 7:0.149974 
-3.718431316614591 1:-0.267819 2:-0.5561 3:-0.797386 4:0.2645 5:-0.511494 6:-0.710766 7:-0.990906 
-1.094658849405062 1:-0.105087 2:-0.426317 3:-0.788828 4:0.456218 5:-0.315675 6:-0.859744 7:-0.990905 
-1.554089506700148 1:-0.238698 2:-0.384089 3:-0.810049 4:0.27042 5:-0.483709 6:-0.74965 7:-0.990907 
-8 1:-0.877301 2:-1 3:-1 4:-0.984565 5:-1 6:-1 7:-0.212149 
-6.736587123226271 1:-0.343341 2:-0.477564 3:-0.719457 4:0.384998 5:-0.707932 6:-0.942032 7:-0.212149 
-1.826519759994126 1:-0.875805 2:-0.751524 3:-1 4:-0.608091 5:-0.677556 6:-1 7:-0.223644 
-1.698769933386848 1:-0.707255 2:-0.692364 3:-0.891986 4:-0.409576 5:-0.377706 6:-0.99444 7:-0.779195 
-2.166991892674578 1:-0.483215 2:-0.886173 3:-1 4:0.0461736 5:-0.937024 6:-1 7:-0.715501 
-1.980618990363856 1:-0.450455 2:-0.870105 3:-0.915301 4:0.286083 5:-0.509211 6:-0.519557 7:-0.993934 
-6.609344809204069 1:0.439507 2:-0.197609 3:-0.0843882 4:0.875999 5:0.399185 6:0.416586 7:0.149972 
-8 1:0.425321 2:-0.216346 3:-0.205128 4:0.808891 5:0.480229 6:0.380132 7:0.149974 
-4.419979011117864 1:-0.768067 2:-0.915631 3:-1 4:-0.751999 5:-0.834165 6:-1 7:-0.207262 
-8 1:-0.7341 2:-1 3:-1 4:-0.636526 5:-1 6:-1 7:-0.238847 
-1.017104691095015 1:-0.498516 2:-0.650126 3:-0.95303 4:-0.246524 5:-0.425635 6:-0.906094 7:-0.719767 
-5.339425613670895 1:-0.372103 2:-0.747607 3:-0.790541 4:-0.0466004 5:-0.44489 6:-0.459524 7:-0.859836 
-2.030799089672788 1:-0.639099 2:-0.947487 3:-1 4:-0.819662 5:-0.977396 6:-1 7:-0.247357 
-0.2939097116911978 1:-0.830267 2:-0.876515 3:-1 4:-0.930909 5:-0.96829 6:-1 7:-0.341903 
-8 1:-0.210154 2:-0.327558 3:-0.386139 4:0.502649 5:0.0135869 6:-0.0389826 7:-0.471739 
-3.147072142721372 1:-0.454986 2:-0.293833 3:-0.620795 4:-0.438683 5:-0.558659 6:-0.762659 7:-0.471738 
-4.262805450815793 1:-0.494842 2:-0.353175 3:-0.630952 4:-0.498172 5:-0.601719 6:-0.797635 7:-0.471739 
-5.374800740577479 1:-0.45105 2:-0.469796 3:-1 4:-0.425451 5:-0.407934 6:-1 7:-0.719767 
-8 1:-0.411331 2:-0.450385 3:-0.641618 4:0.769134 5:-0.716113 6:-0.738882 7:-0.215807 
-0.7168789916299749 1:-0.431826 2:-0.501177 3:-0.824859 4:-0.209676 5:-0.289362 6:-0.590795 7:0.00868268 
-5.078497870535492 1:0.0639975 2:-0.351244 3:-0.537313 4:0.745501 5:-0.262763 6:-0.346385 7:0.00868209 
-1.891684103414321 1:-0.405427 2:-0.471307 3:-0.814371 4:-0.162836 5:-0.245666 6:-0.537742 7:0.0086809 
-8 1:-0.0506463 2:-0.40799 3:-0.549637 4:0.692077 5:-0.178132 6:-0.329514 7:-0.549399 
-8 1:-0.39822 2:-0.567803 3:-0.929545 4:0.000157327 5:-0.339354 6:-0.876038 7:-0.549399 
-6.706774725399374 1:-0.0107921 2:-0.480892 3:-0.407643 4:0.600525 5:-0.305552 6:-0.296916 7:-0.549397 
-0.4143715041211276 1:-0.437897 2:-0.523701 3:-0.879221 4:-0.00745675 5:-0.617465 6:-0.856247 7:-0.990907 
-0.3820753060162855 1:-0.456195 2:-0.736246 3:-1 4:0.0940778 5:-0.617444 6:-1 7:-0.990906 
-8 1:-0.726605 2:-1 3:-1 4:-0.732895 5:-1 6:-1 7:-0.238847 
-2.656183715433524 1:-0.295789 2:-0.671583 3:-0.760155 4:0.504001 5:-0.134399 6:-0.156383 7:-0.7992 
-8 1:-0.28121 2:-0.76704 3:-0.918206 4:-0.3697 5:-0.754262 6:-0.889892 7:-0.471738 
-8 1:-0.21891 2:-0.634173 3:-0.854801 4:0.187028 5:-0.119442 6:-0.660345 7:-0.471738 
-4.142916138197193 1:-0.298405 2:-0.749171 3:-0.911932 4:-0.413022 5:-0.764857 6:-0.89078 7:-0.471739 
-8 1:-0.566639 2:-0.602615 3:-0.917553 4:0.0403231 5:-0.068609 6:-0.416221 7:-0.619092 
-0.751748699408698 1:-0.461903 2:-0.707599 3:-0.939335 4:-0.261192 5:-0.408332 6:-0.875543 7:-0.619092 
-8 1:-0.518523 2:-0.688634 3:-0.911175 4:-0.132824 5:-0.20852 6:-0.803783 7:-0.619091 
-8 1:-0.290864 2:-0.632173 3:-0.760155 4:0.512105 5:-0.125321 6:-0.156383 7:-0.7992 
-8 1:-0.835334 2:-0.898632 3:-1 4:-0.928501 5:-0.973998 6:-1 7:-0.123581 
-8 1:-0.409792 2:-0.567803 3:-0.929545 4:-0.00858225 5:-0.339354 6:-0.876038 7:-0.549399 
-8 1:-0.394371 2:-0.513761 3:-0.928406 4:-0.0367115 5:-0.338064 6:-0.880313 7:-0.549397 
-8 1:-0.38997 2:-0.583086 3:-0.938614 4:-0.302467 5:-0.611703 6:-0.918698 7:-0.549397 
-8 1:-0.621206 2:-0.652134 3:-1 4:-0.621353 5:-0.724186 6:-1 7:-0.465031 
-8 1:-0.770487 2:-0.871855 3:-1 4:-0.772074 5:-0.91612 6:-1 7:-0.207259 
-8 1:-0.757524 2:-0.915631 3:-1 4:-0.753529 5:-0.834165 6:-1 7:-0.207257 
-0.8659525148346192 1:-0.499432 2:-0.90791 3:-0.894915 4:0.551199 5:-0.224399 6:-0.214753 7:-0.750045 
-2.452579479935515 1:-0.622518 2:-0.678628 3:-1 4:-0.629359 5:-0.760819 6:-1 7:-0.692463 
-2.518150213422124 1:-0.653606 2:-0.722789 3:-1 4:-0.574655 5:-0.705581 6:-1 7:-0.692463 
-7.896318764956247 1:-0.509106 2:-0.5561 3:-0.797386 4:-0.265787 5:-0.459786 6:-0.660537 7:-0.471739 
-8 1:-0.129349 2:-0.40177 3:-0.518135 4:0.548436 5:0.0210047 6:-0.0486701 7:-0.471739 
-8 1:-0.114437 2:-0.282867 3:-0.42236 4:0.503039 5:0.0358066 6:-0.0320855 7:-0.47174 
-8 1:-0.428704 2:-0.370528 3:-0.621951 4:-0.239558 5:-0.440935 6:-0.613921 7:-0.471738 
-8 1:-0.612777 2:-0.715938 3:-0.941065 4:-0.144083 5:-0.39941 6:-0.887127 7:-0.471739 
-8 1:-0.592641 2:-0.857018 3:-0.934737 4:-0.486238 5:-0.715263 6:-0.865936 7:-0.471739 
-3.489366670922209 1:0.711415 2:-0.337742 3:-0.678423 4:0.748553 5:-0.501243 6:-0.551831 7:-0.916901 
-1.147160247497151 1:-0.569606 2:-0.75744 3:-1 4:0.0225265 5:-0.386583 6:-1 7:-0.865927 
-4.283548348133129 1:-0.659724 2:-0.805489 3:-1 4:-0.557893 5:-0.575361 6:-1 7:-0.537196 
-8 1:-0.798622 2:-0.769774 3:-1 4:-0.628336 5:-0.69573 6:-1 7:-0.223639 
-8 1:-0.875805 2:-0.751524 3:-1 4:-0.608091 5:-0.677556 6:-1 7:-0.22364 
-0.8411994166261695 1:-0.277583 2:-0.681933 3:-0.829201 4:0.427252 5:-0.00506616 6:-0.943084 7:-0.944776 
-2.281567284078616 1:-0.474777 2:-0.643794 3:-0.674825 4:-0.0667461 5:-0.141281 6:-0.893335 7:-0.944776 
-8 1:-0.83933 2:-0.703277 3:-1 4:-0.925283 5:-0.940625 6:-1 7:-0.131998 
-8 1:-0.296108 2:-0.60049 3:-0.817647 4:0.227789 5:-0.387895 6:-0.901442 7:-0.762869 
-8 1:-0.443233 2:-0.899062 3:-0.934183 4:0.438466 5:-0.278713 6:-0.272826 7:-0.750045 
-8 1:-0.0870938 2:-0.567065 3:-0.691235 4:0.577493 5:-0.153098 6:-0.519427 7:-0.870771 
-0.5916821006944529 1:-0.59383 2:-0.603599 3:-1 4:-0.123746 5:-0.604039 6:-1 7:-0.787707 
-2.166309211578644 1:-0.477556 2:-0.627047 3:-0.910405 4:-0.418877 5:-0.710279 6:-0.915696 7:-0.549399 
-8 1:-0.402387 2:-0.585075 3:-0.900322 4:-0.289452 5:-0.617434 6:-0.897218 7:-0.549399 
-8 1:-0.413751 2:-0.508498 3:-0.898026 4:-0.301643 5:-0.613588 6:-0.900718 7:-0.549397 
-2.412042461284625 1:-0.373669 2:-0.84811 3:-0.900958 4:-0.349661 5:-0.795064 6:-0.92064 7:-0.549399 
-4.57061820921796 1:-0.391071 2:-0.756984 3:-0.94162 4:-0.180379 5:-0.803079 6:-0.82537 7:-0.876895 
-2.456989393144528 1:-0.456973 2:-0.643794 3:-0.674825 4:-0.533279 5:-0.870719 6:-0.893335 7:-0.944776 
-8 1:-0.415973 2:-0.610514 3:-0.888889 4:-0.287047 5:-0.617035 6:-0.904911 7:-0.549399 
-8 1:-0.4199 2:-0.570148 3:-0.803797 4:-0.277862 5:-0.601391 6:-0.779523 7:-0.549399 
-2.124591730748956 1:-0.517991 2:-0.241707 3:-0.699029 4:-0.109073 5:-0.227535 6:-0.949918 7:-0.258279 
-8 1:-0.592641 2:-0.38875 3:-1 4:-0.330892 5:-0.306745 6:-1 7:-0.258276 
-2.548863152281095 1:-0.0530909 2:-0.397783 3:-0.541872 4:0.718241 5:-0.172463 6:-0.322612 7:-0.549399 
-8 1:0.0562328 2:-0.369195 3:-0.424149 4:0.633093 5:-0.262043 6:-0.291562 7:-0.549397 
-8 1:-0.382611 2:-0.513761 3:-0.928406 4:-0.0252122 5:-0.338064 6:-0.880313 7:-0.549399 
-8 1:-0.413751 2:-0.508498 3:-0.898026 4:-0.301643 5:-0.613588 6:-0.900718 7:-0.549398 
-2.561546455303784 1:-0.351823 2:-0.563838 3:-0.928899 4:-0.492029 5:-0.799096 6:-0.972987 7:-0.7853 
-0.3461834922661229 1:-0.590644 2:-0.813562 3:-0.878431 4:0.438121 5:-0.340949 6:-0.355256 7:-0.993934 
-8 1:-0.835742 2:-1 3:-1 4:-0.924016 5:-1 6:-1 7:-0.116913 
-2.257071460997663 1:-0.670667 2:-0.752211 3:-0.94859 4:-0.207262 5:-0.381526 6:-0.971923 7:-0.506926 
-0.5147032758509937 1:-0.499432 2:-0.884887 3:-1 4:0.551713 5:-0.221772 6:-1 7:-0.750045 
-3.184118993805237 1:-0.68568 2:-0.874228 3:-1 4:-0.0863913 5:-0.890099 6:-1 7:-0.303739 
-0.8014169258489505 1:-0.639409 2:-0.650215 3:-1 4:-0.106104 5:-0.746185 6:-1 7:-0.617882 
-1.775586531166544 1:-0.47815 2:-0.451605 3:-0.807453 4:-0.439185 5:-0.442381 6:-0.980392 7:-0.944776 
-6.12089197017522 1:-0.02964 2:-0.256761 3:-0.415094 4:0.616855 5:0.494211 6:0.111548 7:-0.25828 
-4.777411400666259 1:-0.151335 2:-0.0822072 3:-0.441441 4:0.519207 5:0.419055 6:0.330432 7:-0.258277 
-8 1:-0.0929896 2:-0.320833 3:-0.515625 4:0.501262 5:0.311604 6:-0.0546485 7:-0.25828 
-4.363624164910744 1:-0.579911 2:-0.286875 3:-1 4:-0.29857 5:-0.260234 6:-1 7:-0.258276 
-0.2662166977057873 1:0.0107692 2:-0.186017 3:-0.419476 4:0.636099 5:0.476629 6:0.0267891 7:-0.258276 
-8 1:-0.547703 2:-0.688634 3:-0.911175 4:-0.1526 5:-0.218941 6:-0.803783 7:-0.619092 
-3.716797716245591 1:-0.441524 2:-0.605645 3:-1 4:-0.430695 5:-0.481386 6:-1 7:0.00868114 
-3.565271267021971 1:0.00296736 2:-0.382576 3:-0.373737 4:0.660239 5:-0.280369 6:-0.285104 7:0.00868061 
-8 1:-0.392108 2:-0.523057 3:-0.912921 4:-0.180182 5:-0.281912 6:-0.779278 7:0.00868337 
-0.01640094674464168 1:-0.873847 2:-0.908221 3:-1 4:-0.959542 5:-0.99734 6:-1 7:-0.812575 
-8 1:-0.722255 2:-1 3:-1 4:-0.910559 5:-1 6:-1 7:-0.226688 
-8 1:-0.747921 2:-1 3:-1 4:-0.799456 5:-1 6:-1 7:-0.238852 
-8 1:-0.729755 2:-1 3:-1 4:-0.686872 5:-1 6:-1 7:-0.238852 
-8 1:-0.720805 2:-1 3:-1 4:-0.60042 5:-1 6:-1 7:-0.238854 
-4.95876818557383 1:-0.715213 2:-1 3:-1 4:-0.725935 5:-1 6:-1 7:-0.238852 
-8 1:-0.788933 2:-1 3:-1 4:-0.706223 5:-1 6:-1 7:-0.238851 
-8 1:-0.503567 2:-0.697307 3:-0.913649 4:-0.144055 5:-0.833947 6:-0.980255 7:-0.665171 
-8 1:-0.392699 2:-0.563838 3:-0.715596 4:0.517741 5:-0.156659 6:-0.271313 7:-0.813706 
-2.597975885560508 1:-0.126878 2:-0.745557 3:-0.910663 4:0.508455 5:-0.452713 6:-0.959275 7:0.00868114 
-2.492078972159871 1:-0.489402 2:-0.570856 3:-0.82967 4:-0.115758 5:-0.15841 6:-0.468844 7:0.00868265 
-8 1:-0.405427 2:-0.471307 3:-0.814371 4:-0.128074 5:-0.197476 6:-0.537742 7:0.00868061 
-1.953202859524209 1:-0.809782 2:-1 3:-1 4:-0.727222 5:-1 6:-1 7:-0.238845 
-0.05139679767460535 1:-0.621791 2:-0.827748 3:-0.887681 4:-0.802832 5:-0.886854 6:-0.954181 7:-0.827704 
-8 1:-0.639775 2:-0.690548 3:-0.925659 4:-0.0626413 5:-0.303461 6:-0.701236 7:-0.770102 
-4.714945020541221 1:-0.634838 2:-0.891766 3:-0.876494 4:-0.467362 5:-0.794237 6:-0.791678 7:-0.845926 
-6.618194777910225 1:-0.898667 2:-1 3:-1 4:-0.994787 5:-1 6:-1 7:-0.212149 
-1.704850345305778 1:-0.435504 2:-0.354638 3:-0.579186 4:0.251734 5:-0.733092 6:-0.943568 7:-0.212149 
-2.357626631750059 1:0.2114 2:-0.233199 3:-0.125 4:0.737439 5:0.484008 6:0.502464 7:0.149971 
-5.493960884683544 1:0.0977293 2:-0.237168 3:-0.213768 4:0.687303 5:0.4716 6:0.47841 7:0.149971 
-8 1:0.436202 2:-0.129274 3:-0.205128 4:0.833386 5:0.488922 6:0.380132 7:0.149972 
-3.983198586252267 1:-0.736166 2:-0.78886 3:-1 4:0.261064 5:-0.628878 6:-1 7:-0.779786 
-1.895110308693025 1:-0.073595 2:-0.740776 3:-0.763359 4:0.0870253 5:-0.300777 6:-0.329298 7:0.0086809 
-3.061247085414073 1:-0.41876 2:-0.497722 3:-0.501608 4:0.329131 5:-0.873381 6:-0.880135 7:-0.356498 
-8 1:-0.652222 2:-0.947487 3:-1 4:-0.842843 5:-0.977396 6:-1 7:-0.247351 
-0.8101453556553673 1:-0.410401 2:-0.618713 3:-0.891228 4:-0.468401 5:-0.836444 6:-0.917884 7:-0.328555 
-1.655624075432791 1:-0.148606 2:-0.432208 3:-0.800643 4:0.402633 5:0.284571 6:-0.664231 7:-0.942966 
-2.571241917575585 1:-0.447185 2:-0.66177 3:-0.938247 4:0.00360766 5:-0.259079 6:-0.815489 7:-0.770102 
-4.745053645177529 1:-0.677582 2:-0.614447 3:-0.864629 4:-0.253874 5:-0.416459 6:-0.83359 7:-0.503269 
-8 1:-0.154183 2:-0.521393 3:-0.687919 4:0.404479 5:0.0178419 6:-0.387467 7:-0.503268 
-8 1:-0.666499 2:-0.717918 3:-0.900958 4:-0.199192 5:-0.363006 6:-0.866488 7:-0.503268 
-4.856581497660464 1:-0.0082465 2:-0.684109 3:-0.909884 4:0.772548 5:0.192079 6:-0.686315 7:-0.503268 
-8 1:-0.156846 2:-0.558983 3:-0.798701 4:0.388171 5:-0.119851 6:-0.519779 7:-0.503268 
-8 1:-0.473828 2:-0.637778 3:-0.896667 4:-0.324946 5:-0.567229 6:-0.896871 7:-0.549399 
-8 1:-0.0424022 2:-0.472886 3:-0.537313 4:0.529828 5:-0.314763 6:-0.38467 7:-0.549399 
-8 1:-0.03749 2:-0.482342 3:-0.621951 4:0.531315 5:-0.28809 6:-0.432314 7:-0.549397 
-8 1:-0.134362 2:-0.558542 3:-0.6125 4:0.467068 5:-0.306176 6:-0.402523 7:-0.549397 
-0.4072907468271659 1:-0.486268 2:-0.717854 3:-0.816024 4:-0.317478 5:-0.59167 6:-0.808977 7:-0.549399 
-8 1:-0.545358 2:-0.549532 3:-0.841837 4:-0.0612156 5:-0.285942 6:-0.709593 7:-0.549399 
-8 1:-0.530351 2:-0.582389 3:-0.899676 4:-0.313879 5:-0.590556 6:-0.903994 7:-0.549397 
-8 1:-0.307295 2:-0.740652 3:-0.926014 4:0.135148 5:-0.517774 6:-0.918014 7:-0.549399 
-8 1:-0.435189 2:-0.559585 3:-0.894198 4:-0.263137 5:-0.569482 6:-0.901837 7:-0.549397 
-8 1:-0.354679 2:-0.542739 3:-0.938614 4:-0.239055 5:-0.609222 6:-0.918698 7:-0.549399 
-2.886061195045312 1:0.212378 2:-0.104396 3:-0.318681 4:0.821304 5:0.123073 6:0.0610201 7:-0.258279 
-8 1:0.0107692 2:-0.186017 3:-0.419476 4:0.639916 5:0.481392 6:0.0267891 7:-0.258276 
-8 1:-0.835334 2:-0.898632 3:-1 4:-0.928501 5:-0.973998 6:-1 7:-0.12358 
-0.7808430004134651 1:-0.609945 2:-0.867572 3:-0.913649 4:-0.556459 5:-0.970732 6:-0.995247 7:-0.719767 
-1.308548983294391 1:-0.501193 2:-0.445578 3:-0.746939 4:-0.654271 5:-0.754409 6:-0.935211 7:-0.948436 
-1.119701522445446 1:-0.704135 2:-0.875382 3:-1 4:-0.0626889 5:-0.0337181 6:-1 7:-0.599136 
-8 1:-0.447857 2:-0.607229 3:-0.775904 4:-0.0614719 5:-0.301191 6:-0.573255 7:-0.549399 
-8 1:-0.547549 2:-0.652234 3:-0.813253 4:-0.341811 5:-0.6192 6:-0.772219 7:-0.549397 
-8 1:-0.357401 2:-0.84811 3:-0.900958 4:-0.34766 5:-0.795064 6:-0.92064 7:-0.549398 
-8 1:-0.427957 2:-0.634626 3:-0.803797 4:-0.28872 5:-0.603167 6:-0.779523 7:-0.549397 
