svm_type c_svc
kernel_type rbf
gamma 0.00012207
nr_class 2
total_sv 283
rho -0.317597
label 1 -1
nr_sv 142 141
SV
512 1:-0.579915 2:-0.576458 3:0.0626079 
512 1:-0.59766 2:-0.225575 3:0.103252 
512 1:-0.487047 2:-0.202073 3:0.103252 
512 1:-0.57529 2:-0.640307 3:-0.648726 
512 1:-0.571429 2:-0.567901 3:0.321647 
512 1:-0.104625 2:-0.476819 3:-0.598247 
512 1:0.0937143 2:-0.714815 3:-0.941834 
512 1:-0.22551 2:-0.439815 3:-0.372142 
512 1:0.0466579 2:-0.555216 3:-0.928218 
512 1:-0.0294931 2:-0.422939 3:-0.928218 
512 1:-0.179275 2:-0.490213 3:-0.838019 
79.90682981247687 1:-0.0571429 2:-0.344402 3:-0.940843 
512 1:-0.0571429 2:-0.518965 3:-0.760321 
512 1:-0.101513 2:-0.496732 3:-0.598247 
512 1:-0.259396 2:-0.37925 3:-0.350768 
512 1:-0.258242 2:-0.371795 3:-0.350768 
512 1:-0.406774 2:-0.479905 3:-0.55071 
512 1:-0.0194286 2:-0.543704 3:-0.940844 
512 1:-0.0846047 2:-0.418554 3:-0.88749 
512 1:-0.16384 2:-0.822171 3:-0.877735 
512 1:-0.032 2:-0.524691 3:-0.85931 
512 1:-0.104969 2:-0.48336 3:-0.646775 
512 1:0.0762369 2:-0.603523 3:-0.940844 
512 1:-0.309457 2:-0.317162 3:-0.362447 
512 1:-0.139456 2:-0.502058 3:-0.550711 
512 1:-0.0571429 2:-0.819503 3:-0.811712 
512 1:-0.175781 2:-0.433407 3:-0.598247 
512 1:0.0560708 2:-0.695018 3:-0.940844 
512 1:-0.100851 2:-0.716703 3:-0.811712 
512 1:-0.183193 2:-0.405229 3:-0.372142 
512 1:-0.249401 2:-0.593731 3:-0.940843 
512 1:-0.347253 2:-0.67094 3:-0.559406 
512 1:0.100908 2:-0.736245 3:-0.820478 
512 1:-0.215513 2:-0.431858 3:-0.414864 
512 1:-0.0285714 2:-0.632716 3:-0.940844 
512 1:-0.269286 2:-0.500926 3:-0.572092 
512 1:0.00075188 2:-0.624756 3:-0.981596 
512 1:-0.0168498 2:-0.610003 3:-0.940844 
512 1:-0.244595 2:-0.492252 3:-0.940843 
512 1:-0.451173 2:-0.553068 3:-0.648726 
512 1:0.084472 2:-0.729469 3:-0.941834 
512 1:-0.264571 2:-0.486667 3:-0.399309 
512 1:0.0811914 2:-0.603604 3:-0.897172 
485.280652035248 1:0.134495 2:-0.721771 3:-0.812749 
512 1:-0.178085 2:-0.440081 3:-0.350768 
512 1:0.0058643 2:-0.673296 3:-0.789492 
512 1:-0.14485 2:-0.502584 3:-0.350769 
512 1:-0.0553013 2:-0.598958 3:-0.940844 
512 1:-0.105911 2:-0.459132 3:-0.772987 
512 1:-0.313893 2:-0.823799 3:-0.877735 
512 1:-0.522751 2:-0.577503 3:-0.216945 
512 1:-0.152529 2:-0.434068 3:-0.427486 
512 1:-0.298901 2:-0.524691 3:-0.757435 
512 1:0.0387409 2:-0.516635 3:-0.940844 
512 1:-0.140602 2:-0.590643 3:-0.648726 
512 1:-0.00414201 2:-0.620316 3:-0.940844 
512 1:-0.12967 2:-0.67094 3:-0.399309 
512 1:-0.150744 2:-0.378531 3:-0.550712 
512 1:-0.302041 2:-0.462963 3:-0.772951 
512 1:-0.229531 2:-0.537106 3:-0.707932 
512 1:-0.337731 2:-0.737904 3:-0.372142 
512 1:-0.23915 2:-0.431435 3:-0.350768 
512 1:0.00310361 2:-0.562655 3:-0.772951 
512 1:-0.0517551 2:-0.722963 3:-0.556527 
512 1:-0.137441 2:-0.435897 3:-0.537186 
512 1:0.0216216 2:-0.57958 3:-0.940844 
512 1:-0.141327 2:-0.480556 3:-0.598246 
512 1:-0.375328 2:-0.617866 3:-0.362447 
512 1:-0.199184 2:-0.511111 3:-0.350769 
512 1:-0.432014 2:-0.759482 3:-0.427485 
512 1:-0.253257 2:-0.418222 3:-0.414864 
512 1:-0.331834 2:-0.494751 3:-0.437165 
512 1:-0.282509 2:-0.540921 3:-0.372142 
512 1:-0.137867 2:-0.501903 3:-0.37106 
512 1:-0.173312 2:-0.387138 3:-0.550711 
512 1:0.00550546 2:-0.687339 3:-0.448822 
512 1:-0.25785 2:-0.534103 3:-0.566252 
512 1:-0.214286 2:-0.524691 3:-0.368268 
512 1:-0.24891 2:-0.492467 3:-0.350769 
512 1:-0.0289979 2:-0.616915 3:-0.812749 
512 1:-0.152294 2:-0.502888 3:-0.467318 
512 1:-0.186696 2:-0.564603 3:-0.350769 
512 1:-0.132571 2:-0.629259 3:-0.372142 
512 1:-0.162354 2:-0.449213 3:-0.692518 
512 1:-0.0609601 2:-0.567027 3:-0.716684 
512 1:-0.111222 2:-0.509282 3:-0.495406 
512 1:-0.276412 2:-0.459948 3:-0.424545 
512 1:-0.152091 2:-0.499089 3:-0.427485 
375.1027140304714 1:-0.132474 2:-0.42669 3:-0.503227 
512 1:-0.0699534 2:-0.511775 3:-0.672042 
512 1:-0.158442 2:-0.734848 3:-0.585643 
512 1:-0.0621849 2:-0.679739 3:-0.448823 
512 1:-0.450343 2:-0.607715 3:-0.216946 
512 1:-0.349885 2:-0.41353 3:-0.216946 
512 1:-0.310576 2:-0.629714 3:-0.372142 
512 1:-0.451173 2:-0.635158 3:-0.362447 
512 1:-0.220232 2:-0.537538 3:-0.350769 
512 1:-0.12434 2:-0.618906 3:-0.372143 
512 1:-0.186929 2:-0.584345 3:-0.0898474 
512 1:-0.500426 2:-0.723328 3:-0.216945 
512 1:-0.194252 2:-0.590969 3:-0.495406 
512 1:-0.177143 2:-0.595556 3:-0.495405 
512 1:-0.0843407 2:-0.725783 3:-0.58858 
512 1:-0.366146 2:-0.185185 3:-0.214958 
512 1:-0.184066 2:-0.435897 3:-0.350768 
512 1:-0.7622 2:-0.659292 3:0.350867 
512 1:-0.164514 2:-0.451957 3:-0.487577 
512 1:-0.24291 2:-0.395704 3:-0.350768 
512 1:-0.222143 2:-0.643519 3:-0.427486 
512 1:-0.187116 2:-0.400312 3:-0.396414 
512 1:-0.331577 2:-0.53154 3:-0.176171 
512 1:-0.258994 2:-0.734898 3:-0.0693708 
512 1:-0.319816 2:-0.34767 3:-0.216946 
512 1:-0.0870999 2:-0.699554 3:-0.216945 
512 1:-0.393878 2:-0.755556 3:-0.372142 
512 1:-0.44157 2:-0.339056 3:0.0548794 
512 1:-0.392208 2:-0.599327 3:-0.585643 
512 1:-0.288047 2:-0.573192 3:-0.495405 
512 1:-0.0370821 2:-0.768322 3:-0.216945 
512 1:-0.219704 2:-0.557471 3:-0.193663 
512 1:-0.30445 2:-0.614299 3:-0.221673 
512 1:-0.435995 2:-0.483048 3:-0.216946 
512 1:-0.160518 2:-0.870615 3:-0.155732 
512 1:-0.243976 2:-0.369176 3:-0.234394 
512 1:-0.38676 2:-0.234869 3:-0.214958 
512 1:-0.429784 2:-0.659593 3:-0.216946 
512 1:-0.178139 2:-0.709981 3:-0.0693708 
512 1:-0.276786 2:-0.416667 3:-0.0956814 
512 1:-0.486975 2:-0.496732 3:0.103252 
512 1:-0.208 2:-0.396078 3:-0.365385 
512 1:-0.695853 2:-0.678017 3:0.0626074 
512 1:-0.178973 2:-0.663546 3:0.127637 
512 1:-0.515476 2:-0.405864 3:0.103252 
512 1:-0.407973 2:-0.253876 3:0.0626062 
512 1:-0.341626 2:-0.446839 3:0.132567 
512 1:-0.690458 2:-0.612579 3:0.350867 
512 1:-0.292857 2:-0.889368 3:0.0780769 
512 1:-0.449644 2:-0.380593 3:0.103252 
512 1:-0.417314 2:-0.332667 3:0.127638 
512 1:-0.546032 2:-0.471879 3:0.103252 
512 1:-0.42521 2:-0.405229 3:0.0626062 
512 1:-0.670458 2:-0.626214 3:1 
-512 1:-0.553956 2:-0.50641 3:-0.923373 
-512 1:-0.426641 2:-0.537538 3:-0.907801 
-512 1:-0.388417 2:-0.566441 3:-0.923373 
-512 1:-0.613487 2:-0.521739 3:-0.746786 
-512 1:-0.259184 2:-0.592593 3:-0.923373 
-512 1:-0.404511 2:-0.59974 3:-0.923373 
-512 1:-0.283791 2:-0.533832 3:-0.923373 
-512 1:-0.447143 2:-0.494444 3:-0.923373 
-512 1:-0.119584 2:-0.660044 3:-0.713657 
-512 1:-0.441931 2:-0.63003 3:-0.923373 
-512 1:-0.472978 2:-0.77804 3:-0.739038 
-512 1:-0.25958 2:-0.823856 3:-0.757426 
-512 1:-0.352496 2:-0.845382 3:-0.891387 
-512 1:-0.405314 2:-0.769392 3:-0.715703 
-512 1:-0.661924 2:-0.522798 3:-0.530351 
-512 1:-0.455653 2:-0.738409 3:-0.828274 
-512 1:-0.241702 2:-0.344681 3:-0.923373 
-512 1:-0.523609 2:-0.594737 3:-0.773966 
-512 1:-0.496894 2:-0.492754 3:-0.923373 
-512 1:-0.431815 2:-0.813197 3:-0.765196 
-512 1:-0.375764 2:-0.822989 3:-0.685618 
-512 1:-0.368924 2:-0.812528 3:-0.840906 
-512 1:-0.366738 2:-0.708126 3:-0.609939 
-512 1:-0.655985 2:-0.653153 3:0.248855 
-512 1:-0.575314 2:-0.78187 3:-0.356627 
-512 1:-0.286248 2:-0.600208 3:-0.626461 
-512 1:-0.484294 2:-0.787293 3:-0.495442 
-512 1:-0.0919828 2:-0.407236 3:-0.690447 
-512 1:-0.474694 2:-0.663889 3:-0.746787 
-512 1:-0.289506 2:-0.797262 3:-0.794312 
-512 1:-0.470177 2:-0.741524 3:-0.736053 
-512 1:0.0437305 2:-0.850558 3:-1 
-512 1:-0.495681 2:-0.436262 3:-0.914621 
-512 1:-0.289796 2:-0.648148 3:-0.757425 
-512 1:-0.406413 2:-0.781427 3:-0.556527 
-512 1:-0.525364 2:-0.747795 3:-0.609937 
-512 1:-0.412819 2:-0.904514 3:-0.644901 
-512 1:-0.29769 2:-0.84409 3:-0.644901 
-512 1:-0.0778325 2:-0.463602 3:-0.919586 
-512 1:-0.424697 2:-0.746234 3:-0.757426 
-512 1:-0.393484 2:-0.749838 3:-0.769066 
-512 1:-0.477802 2:-0.703846 3:-0.853535 
-512 1:-0.617761 2:-0.653153 3:-0.412955 
-512 1:-0.496161 2:-0.786111 3:-0.611798 
-512 1:-0.612082 2:-0.56 3:-0.470223 
-512 1:-0.510697 2:-0.73644 3:-0.563359 
-512 1:-0.624249 2:-0.558016 3:-0.484779 
-512 1:-0.44127 2:-0.841564 3:-0.54495 
-512 1:-0.294621 2:-0.765309 3:-0.644903 
-512 1:-0.407347 2:-0.775926 3:-0.646835 
-512 1:-0.664407 2:-0.564972 3:-0.530351 
-512 1:-0.385366 2:-0.677507 3:-0.66523 
-512 1:-0.253699 2:-0.665581 3:-0.794313 
-512 1:-0.56797 2:-0.778098 3:-0.356627 
-512 1:-0.400157 2:-0.906155 3:-0.571183 
-512 1:-0.510316 2:-0.766135 3:-0.638034 
-512 1:-0.456266 2:-0.755056 3:-0.571183 
-512 1:-0.248321 2:-0.829152 3:-0.644903 
-512 1:-0.535249 2:-0.757633 3:-0.408099 
-512 1:-0.519417 2:-0.750809 3:-0.563352 
-512 1:-0.379342 2:-0.692246 3:-0.828276 
-512 1:-0.351983 2:-0.628019 3:-0.645902 
-512 1:-0.12967 2:-0.651584 3:-0.62646 
-512 1:-0.544286 2:-0.524691 3:-0.746786 
-512 1:-0.237898 2:-0.468048 3:-0.804962 
-512 1:-0.00333215 2:-0.554177 3:-0.919586 
-512 1:-0.471773 2:-0.536145 3:-0.216946 
-512 1:-0.418045 2:-0.795322 3:-0.57118 
-512 1:-0.574194 2:-0.601354 3:-0.761374 
-512 1:-0.597561 2:-0.513098 3:-0.672057 
-512 1:-0.522352 2:-0.616242 3:-0.484779 
-512 1:-0.398176 2:-0.817967 3:-0.508056 
-512 1:-0.366939 2:-0.687654 3:-0.645902 
-512 1:-0.272781 2:-0.811076 3:-0.665226 
-512 1:-0.454135 2:-0.849903 3:-0.544953 
-512 1:-0.399029 2:-0.684923 3:-0.396414 
-512 1:-0.29979 2:-0.517702 3:-0.396414 
-512 1:-0.404511 2:-0.864912 3:-0.665227 
-512 1:-0.406912 2:-0.655018 3:-0.216946 
-512 1:-0.494647 2:-0.787703 3:-0.563359 
-512 1:-0.391769 2:-0.714219 3:-0.609939 
-512 1:-0.115464 2:-0.735395 3:-0.216946 
-512 1:-0.511614 2:-0.507594 3:-0.216945 
-512 1:-0.508075 2:-0.504026 3:-0.216946 
-512 1:-0.441525 2:-0.843591 3:-0.412955 
-512 1:-0.563455 2:-0.764858 3:-0.318817 
-512 1:-0.43554 2:-0.886179 3:-0.54495 
-512 1:-0.552872 2:-0.500191 3:-0.216946 
-512 1:-0.255639 2:-0.451818 3:-0.396414 
-512 1:-0.451925 2:-0.695125 3:-0.412957 
-512 1:-0.445113 2:-0.692982 3:-0.43426 
-512 1:-0.0657929 2:-0.502888 3:-0.216946 
-512 1:-0.594921 2:-0.746502 3:-0.216945 
-512 1:-0.515596 2:-0.738362 3:-0.563352 
-512 1:-0.406742 2:-0.631502 3:-0.614798 
-512 1:-0.623314 2:-0.709981 3:-0.216945 
-512 1:-0.431513 2:-0.853214 3:-0.54495 
-512 1:-0.457204 2:-0.781095 3:-0.544953 
-512 1:-0.5367 2:-0.778736 3:-0.356627 
-512 1:-0.514286 2:-0.740741 3:-0.412955 
-512 1:-0.593083 2:-0.729825 3:-0.300412 
-512 1:-0.47619 2:-0.656722 3:-0.216945 
-512 1:-0.586593 2:-0.72359 3:-0.466336 
-512 1:-0.621481 2:-0.666937 3:-0.394476 
-512 1:-0.478947 2:-0.684795 3:-0.43426 
-512 1:-0.462001 2:-0.667147 3:-0.714709 
-512 1:-0.431478 2:-0.617866 3:-0.216946 
-512 1:-0.189011 2:-0.491453 3:-0.216946 
-512 1:-0.365334 2:-0.620806 3:-0.396414 
-512 1:-0.439573 2:-0.696158 3:-0.396414 
-512 1:-0.430357 2:-0.673225 3:-0.216945 
-512 1:-0.687225 2:-0.712073 3:-0.136311 
-512 1:-0.45449 2:-0.755556 3:-0.470142 
-512 1:-0.22278 2:-0.614615 3:-0.216946 
-512 1:-0.583158 2:-0.549708 3:-0.470223 
-512 1:-0.292857 2:-0.81463 3:-0.412957 
-512 1:-0.0952085 2:-0.468599 3:-0.216946 
-512 1:-0.118634 2:-0.349034 3:-0.216946 
-512 1:-0.468813 2:-0.879499 3:-0.544953 
-512 1:-0.0103896 2:-0.505051 3:-0.216946 
-512 1:-0.0925402 2:-0.416003 3:-0.216945 
-512 1:-0.355654 2:-0.405405 3:-0.216946 
-512 1:-0.38303 2:-0.669836 3:-0.614801 
-512 1:-0.18797 2:-0.426901 3:-0.216945 
-512 1:-0.565763 2:-0.689884 3:-0.431343 
-512 1:-0.12449 2:-0.0833333 3:0.248855 
-512 1:-0.40886 2:-0.865418 3:-0.216945 
-512 1:-0.000630915 2:-0.433228 3:-0.216946 
-512 1:-0.150392 2:-0.216524 3:-0.216946 
-512 1:-0.0571429 2:0.0185185 3:0.248855 
-512 1:-0.628682 2:-0.735736 3:-0.259625 
-512 1:-0.552795 2:-0.695652 3:-0.230506 
-512 1:-0.478604 2:-0.250896 3:0.0626001 
-512 1:-0.590433 2:-0.72901 3:-0.0295035 
-512 1:-0.0940519 2:-0.360617 3:0.0626001 
-512 1:-0.494898 2:-0.762346 3:0.0626062 
-512 1:-0.474336 2:-0.735005 3:0.248855 
-512 1:-0.467893 2:-0.322332 3:0.0626001 
-512 1:-0.58192 2:-0.802412 3:-0.211093 
-512 1:-0.829218 2:-0.838574 3:0.652637 
-428.2901958781963 1:-0.769879 2:-0.854991 3:0.45466 
