svm_type c_svc
kernel_type rbf
gamma 0.125
nr_class 2
total_sv 131
rho -2.37145
label 1 -1
nr_sv 72 59
SV
512 1:-0.401009 2:-0.641791 3:-0.909453 4:-0.298101 5:-0.579222 6:-0.821669 7:-0.216945 
512 1:0.0133255 2:-0.120611 3:-0.861069 4:0.542024 5:-0.364402 6:-0.988473 7:-0.216946 
420.2364923241527 1:-0.348141 2:-0.168127 3:-0.56494 4:0.613075 5:-0.810024 6:-0.852141 7:-0.0964881 
316.2180673216947 1:-0.407706 2:-0.288372 3:-0.788372 4:-0.601272 5:-0.70051 6:-0.832413 7:0.0626062 
329.5791220644537 1:0.186341 2:-0.342675 3:-0.768153 4:0.559892 5:0.101344 6:-0.165602 7:-0.216945 
428.9600801077056 1:-0.300504 2:-0.434441 3:-0.78006 4:0.0569864 5:-0.0887925 6:-0.643565 7:-0.216946 
512 1:-0.34618 2:-0.622707 3:-0.841048 4:-0.210914 5:-0.39958 6:-0.910652 7:-0.216946 
512 1:-0.509773 2:-0.351073 3:-0.53133 4:0.486185 5:-0.62566 6:-0.827893 7:0.0548794 
161.3755544110741 1:-0.610365 2:-0.790291 3:-1 4:-0.450281 5:-0.79496 6:-1 7:1 
215.8900028207889 1:-0.291702 2:-0.220779 3:-0.369697 4:0.80328 5:-0.809437 6:-0.859003 7:0.493381 
512 1:-0.383849 2:-0.57037 3:-0.925103 4:-0.560851 5:-0.719721 6:-0.926855 7:-0.216945 
512 1:-0.385811 2:-0.472251 3:-0.618848 4:0.397706 5:-0.777603 6:-0.750963 7:0.248855 
512 1:0.134527 2:-0.596132 3:-0.859188 4:0.271956 5:-0.281473 6:-0.624564 7:-0.216945 
512 1:-0.303968 2:-0.598939 3:-0.806897 4:-0.0642519 5:-0.275618 6:-0.875481 7:-0.216946 
512 1:-0.380099 2:-0.710843 3:-0.853815 4:0.801082 5:-0.730312 6:-0.728517 7:-0.427485 
512 1:0.0777478 2:-0.531361 3:-0.784615 4:0.837779 5:0.0804012 6:-0.576096 7:-0.940844 
46.31973732860392 1:-0.415459 2:0.150296 3:-1 4:-0.081194 5:-0.623855 6:-1 7:0.103252 
512 1:-0.271099 2:-0.56 3:-0.696667 4:0.371784 5:-0.334824 6:-0.470026 7:-0.572092 
322.5564992840637 1:-0.270443 2:-0.669147 3:-0.76105 4:0.476426 5:0.125897 6:0.284586 7:-0.372142 
512 1:-0.271812 2:-0.425914 3:-0.75814 4:0.173016 5:-0.426614 6:-0.582814 7:-0.424545 
512 1:0.11314 2:-0.596154 3:-0.883333 4:0.457053 5:-0.250637 6:-0.802692 7:-0.58858 
512 1:0.0214135 2:-0.395556 3:-0.73037 4:0.157924 5:-0.643924 6:-0.91133 7:-0.364488 
512 1:-0.176771 2:-0.392 3:-0.838222 4:0.742075 5:0.246299 6:-0.919446 7:-0.59352 
304.3633094043404 1:0.0426656 2:-0.237086 3:-0.75894 4:0.258621 5:-0.351154 6:-0.352808 7:-0.52068 
438.6716603627718 1:-0.0844318 2:-0.561977 3:-0.723194 4:0.932583 5:-0.0153379 6:-0.0338387 7:-0.372142 
512 1:-0.50468 2:-0.623881 3:-0.728358 4:0.266463 5:-0.421138 6:-0.878895 7:-0.648726 
142.3963501849906 1:0.0380626 2:-0.536842 3:-0.574269 4:0.81439 5:0.00702175 6:0.200761 7:-0.981596 
396.0364853965174 1:0.389199 2:-0.485714 3:-0.74 4:0.520295 5:0.163829 6:-0.70324 7:-0.794276 
214.9478183732216 1:-0.257646 2:-0.32434 3:-0.78651 4:0.127332 5:-0.109954 6:-0.694771 7:-0.216946 
512 1:-0.369648 2:-0.434555 3:-0.428272 4:0.798297 5:-0.728919 6:-0.687803 7:0.248855 
512 1:-0.159451 2:-0.536634 3:-0.729703 4:0.527423 5:-0.120982 6:-0.779545 7:-0.566252 
467.0555387576489 1:0.0980384 2:-0.601166 3:-0.787755 4:0.533907 5:0.272517 6:-0.804845 7:-0.314906 
512 1:-0.221627 2:-0.523077 3:-0.844444 4:0.407538 5:0.189396 6:-0.206499 7:-0.757435 
512 1:-0.241923 2:-0.680473 3:-0.892308 4:0.694785 5:-0.00850364 6:-0.642658 7:-0.559406 
473.9180158540523 1:-0.726805 2:-0.585841 3:-0.838938 4:-0.835846 5:-0.843476 6:-0.921534 7:0.350867 
512 1:-0.115932 2:-0.833718 3:-0.915935 4:0.245996 5:-0.584037 6:-0.565137 7:-0.877735 
512 1:-0.237053 2:-0.802288 3:-0.916705 4:0.224269 5:-0.560172 6:-0.538354 7:-0.877735 
512 1:-0.545741 2:-0.697297 3:-0.781381 4:-0.115045 5:-0.793011 6:-0.86725 7:-0.648726 
16.30448580015776 1:-0.260833 2:-0.340845 3:-0.743662 4:0.769919 5:-0.011336 6:-0.400956 7:0.22955 
512 1:-0.075359 2:-0.513043 3:-0.736232 4:0.211759 5:-0.313224 6:-0.542514 7:-0.646775 
512 1:-0.51811 2:-0.0517073 3:-1 4:0.0737067 5:-0.405714 6:-1 7:0.103252 
279.659429444971 1:0.122585 2:0.0909091 3:0.240909 4:0.807275 5:-0.334179 6:-0.533613 7:0.103252 
512 1:-0.0521274 2:-0.736338 3:-1 4:-0.0343466 5:-0.706976 6:-1 7:-0.0693708 
512 1:-0.264974 2:-0.640816 3:-0.669841 4:0.119693 5:-0.667573 6:-0.694974 7:-0.495405 
46.34295266021076 1:0.267772 2:-0.5008 3:-0.805867 4:0.784049 5:0.552272 6:-0.663758 7:-0.940844 
512 1:-0.120254 2:-0.552332 3:-0.717098 4:0.145154 5:-0.135415 6:-0.761191 7:-0.838019 
512 1:-0.028775 2:-0.689888 3:-0.86367 4:0.0837461 5:-0.568867 6:-0.707257 7:0.127637 
512 1:-0.258608 2:-0.546457 3:-0.856693 4:0.020198 5:-0.260239 6:-0.737403 7:-0.437165 
512 1:-0.289109 2:-0.616205 3:-0.922388 4:0.125834 5:0.00965336 6:-0.896462 7:-0.362447 
512 1:-0.295251 2:-0.660546 3:-0.909677 4:0.11383 5:-0.0382438 6:-0.855006 7:-0.362447 
512 1:-0.00574255 2:-0.484692 3:-0.855268 4:0.522502 5:-0.19826 6:-0.172996 7:-0.707932 
512 1:-0.0805949 2:-0.703632 3:-0.911864 4:0.274426 5:-0.64744 6:-0.983944 7:-0.0693708 
27.15878150380754 1:0.154627 2:-0.418898 3:-0.641732 4:-0.107699 5:-0.365342 6:-0.670902 7:-0.598308 
39.69760134885171 1:0.247316 2:-0.0909091 3:0.10303 4:0.912575 5:-0.66675 6:-0.601558 7:0.0888188 
512 1:-0.0208799 2:-0.543284 3:-0.93209 4:0.485807 5:-0.293019 6:-0.946128 7:-0.707932 
25.17426606307493 1:0.12426 2:-0.591642 3:-0.565373 4:0.974408 5:0.0710225 6:0.281647 7:-0.812749 
97.20529299918468 1:0.255067 2:-0.764162 3:-0.85973 4:0.670253 5:0.0430332 6:-0.599747 7:-0.820478 
342.6707629062518 1:-0.325113 2:-0.532468 3:-0.645455 4:0.548638 5:0.0200188 6:-0.588555 7:-0.772951 
512 1:-0.585066 2:-0.496774 3:-0.804301 4:-0.488097 5:-0.563651 6:-0.643189 7:0.0626074 
310.8454928053554 1:-0.259853 2:-0.67541 3:-0.701639 4:-0.115608 5:-0.427309 6:-0.421541 7:-0.221673 
65.17590959725861 1:-0.293498 2:-0.319403 3:-0.275622 4:0.663023 5:-0.848543 6:-0.837975 7:-0.0964881 
512 1:-0.304314 2:-0.256338 3:-0.829108 4:-0.561271 5:-0.576591 6:-0.954597 7:-0.362447 
179.0751530046463 1:0.106931 2:-0.541036 3:-0.70996 4:0.866232 5:0.184973 6:-0.679535 7:-0.362447 
149.8607298002408 1:-0.167928 2:-0.55 3:-0.43125 4:0.862808 5:-0.353248 6:-0.225214 7:-0.0188327 
10.68663654141603 1:0.198933 2:-0.581238 3:-0.795122 4:0.593361 5:0.141355 6:-0.145568 7:-0.940844 
164.2280819388666 1:-0.0755185 2:-0.152941 3:-0.22139 4:0.844563 5:-0.750554 6:-0.714628 7:0.264371 
512 1:-0.343169 2:-0.496657 3:-0.557447 4:-0.358371 5:-0.661118 6:-0.705384 7:-0.55071 
195.8476236787361 1:-0.170293 2:-0.494431 3:-0.647458 4:-0.0925445 5:-0.260226 6:-0.601409 7:-0.550712 
36.11954692924015 1:-0.662166 2:-0.565283 3:-0.862642 4:-0.720736 5:-0.740166 6:-0.889291 7:0.350867 
36.24018372048892 1:-0.188303 2:-0.286207 3:-0.215517 4:0.880638 5:-0.544291 6:-0.460057 7:-0.414864 
105.8522423249802 1:0.211397 2:0.23038 3:0.382278 4:0.822404 5:-0.599536 6:-0.535464 7:-0.179024 
295.8318022154319 1:0.143718 2:-0.631325 3:-0.780723 4:0.50774 5:-0.045669 6:-0.158169 7:-0.0974713 
-512 1:-0.448198 2:-0.443478 3:-0.824155 4:-0.188339 5:-0.483479 6:-0.777644 7:-0.216946 
-512 1:-0.302911 2:-0.535484 3:-0.853226 4:-0.37466 5:-0.669013 6:-0.959985 7:-0.216946 
-512 1:-0.0546655 2:-0.311005 3:-0.825837 4:0.75458 5:-0.649379 6:-0.975517 7:-0.216945 
-273.8641695776826 1:-0.194667 2:-0.505721 3:-0.916705 4:-0.129236 5:-0.293806 6:-0.97706 7:-0.396414 
-512 1:-0.480388 2:-0.287129 3:-0.819802 4:-0.192253 5:-0.830267 6:-0.909029 7:0.0626001 
-512 1:0.00666566 2:-0.347826 3:-0.604348 4:0.417256 5:0.0380671 6:-0.351767 7:-0.216946 
-512 1:0.129667 2:-0.318612 3:-0.655521 4:0.34262 5:0.114299 6:-0.435598 7:-0.216946 
-512 1:-0.389241 2:-0.430216 3:-0.738129 4:-0.385845 5:-0.417702 6:-0.761216 7:-0.216945 
-512 1:-0.241629 2:-0.535484 3:-0.909677 4:0.375042 5:-0.198184 6:-0.742115 7:-0.216946 
-512 1:-0.144788 2:-0.513514 3:-0.836036 4:-0.136481 5:-0.485532 6:-0.850985 7:-0.216946 
-420.6955871515985 1:-0.0429965 2:-0.7 3:-0.939333 4:-0.310099 5:-0.751676 6:-0.861919 7:-0.412957 
-510.0251604275387 1:0.0242939 2:-0.657143 3:-1 4:0.132485 5:-0.421125 6:-1 7:-0.644903 
-512 1:-0.072814 2:-0.189078 3:-0.751536 4:0.698019 5:-0.441488 6:-0.885753 7:-0.216945 
-512 1:-0.15472 2:-0.142857 3:0.0833333 4:0.867118 5:-0.710723 6:-0.653456 7:0.248855 
-512 1:0.0737767 2:-0.463354 3:-0.886957 4:0.738488 5:0.165633 6:-0.729957 7:-0.216946 
-512 1:0.165107 2:-0.444628 3:-0.799449 4:0.437176 5:-0.0132582 6:-0.656966 7:-0.216946 
-512 1:-0.380673 2:-0.6 3:-0.887654 4:0.0345772 5:-0.179303 6:-0.902753 7:-0.216945 
-64.68710252527913 1:-0.164665 2:-0.724706 3:-0.892941 4:-0.0709691 5:-0.775746 6:-0.90219 7:-0.757426 
-74.73926318264145 1:-0.42423 2:-0.714286 3:-0.855556 4:-0.523802 5:-0.88976 6:-0.945912 7:0.0626062 
-468.5685779819501 1:-0.446569 2:-0.858824 3:-0.898039 4:0.653338 5:-0.189325 6:-0.0678718 7:-0.685618 
-512 1:-0.0225771 2:-0.503448 3:-0.543574 4:0.943532 5:0.207999 6:-0.689738 7:-0.919586 
-512 1:-0.662166 2:-0.755472 3:-1 4:-0.664637 5:-0.901847 6:-1 7:0.652637 
-512 1:-0.297417 2:-0.834483 3:-0.916322 4:0.531194 5:-0.282228 6:-0.176364 7:-0.685618 
-512 1:-0.157463 2:-0.570149 3:-0.922388 4:0.126565 5:-0.27288 6:-0.427465 7:-0.609939 
-512 1:-0.129859 2:-0.435294 3:-0.910784 4:0.153165 5:-0.205786 6:-0.410003 7:-0.396414 
-512 1:-0.401781 2:-0.741627 3:-0.738756 4:0.183606 5:-0.347128 6:-0.584298 7:-0.43426 
-512 1:0.0578202 2:-0.496503 3:-0.872727 4:0.528788 5:-0.282126 6:-0.78062 7:-0.216946 
-512 1:0.0856802 2:-0.493578 3:-0.888685 4:0.446402 5:-0.101982 6:-0.784463 7:-0.216946 
-512 1:-0.271099 2:-0.475 3:-0.873611 4:-0.13654 5:-0.32702 6:-0.860719 7:-0.216945 
-512 1:-0.309117 2:-0.551275 3:-0.896884 4:-0.129607 5:-0.442895 6:-0.545355 7:-0.396414 
-512 1:-0.0800009 2:-0.427815 3:-0.517881 4:0.587527 5:-0.246196 6:-0.166527 7:-0.713657 
-512 1:-0.0501206 2:-0.60905 3:-0.835294 4:0.329425 5:-0.237847 6:-0.892389 7:-0.62646 
-512 1:-0.392114 2:-0.416216 3:-0.718919 4:-0.332919 5:-0.546211 6:-0.603809 7:-0.216946 
-512 1:-0.0614287 2:-0.314286 3:-0.733333 4:0.692901 5:-0.441848 6:-0.460223 7:-0.216946 
-512 1:-0.209847 2:-0.185714 3:-0.133333 4:0.897733 5:-0.71593 6:-0.66338 7:0.248855 
-512 1:-0.688321 2:-0.653846 3:-0.825 4:-0.697249 5:-0.658205 6:-0.90135 7:-0.136311 
-512 1:-0.539029 2:-0.511312 3:-0.505882 4:0.658373 5:-0.716862 6:-0.671526 7:-0.0295035 
-512 1:-0.168856 2:-0.469231 3:-0.766667 4:0.603112 5:0.0651207 6:-0.929699 7:-0.923373 
-512 1:-0.0375067 2:-0.45127 3:-0.663741 4:0.610513 5:0.281032 6:-0.0393832 7:-0.690447 
-512 1:-0.564319 2:-0.564516 3:-0.559677 4:0.603678 5:-0.753708 6:-0.713998 7:-0.0295035 
-512 1:0.233495 2:-0.827074 3:-0.841048 4:0.74828 5:-0.109547 6:0.0636227 7:-1 
-31.49931835228813 1:-0.562887 2:-0.723894 3:-0.892625 4:-0.123946 5:-0.200399 6:-0.125568 7:-0.672057 
-263.3820378068357 1:-0.470781 2:-0.84 3:-0.884444 4:0.243417 5:-0.936527 6:-0.927241 7:-0.364483 
-512 1:-0.232222 2:-0.459067 3:-0.481347 4:-0.0814921 5:-0.397112 6:-0.714417 7:-0.804962 
-512 1:-0.350083 2:-0.677895 3:-0.808421 4:0.201559 5:-0.340003 6:-0.63512 7:-0.43426 
-512 1:-0.251212 2:-0.356596 3:-0.535319 4:0.0296049 5:-0.774261 6:-0.87827 7:-0.923373 
-512 1:-0.502079 2:-0.236866 3:-0.832258 4:-0.122055 5:-0.842599 6:-0.914971 7:0.0626001 
-384.6120546646729 1:-0.372114 2:-0.847458 3:-1 4:0.604027 5:-0.240028 6:-1 7:-0.611797 
-177.3747694812529 1:-0.463112 2:-0.459289 3:-0.856126 4:0.0666462 5:0.0909629 6:-0.985496 7:-0.923373 
-1.315680834103987 1:0.0106005 2:-0.542671 3:-0.940717 4:-0.0261553 5:-0.656788 6:-0.842957 7:-0.794313 
-512 1:-0.107519 2:-0.778199 3:-0.913744 4:-0.0812155 5:-0.671215 6:-0.794916 7:-0.794312 
-512 1:0.21033 2:-0.624814 3:-0.729032 4:0.764366 5:-0.00657476 6:-0.786459 7:-0.919586 
-512 1:-0.39897 2:-0.585841 3:-0.838938 4:0.158194 5:-0.786488 6:-0.960182 7:0.248855 
-512 1:-0.0771634 2:-0.461922 3:-0.611388 4:-0.13991 5:-0.611424 6:-0.658814 7:0.0626001 
-127.6530558264567 1:-0.375399 2:-0.782326 3:-1 4:0.242666 5:0.138662 6:-1 7:-0.52068 
-512 1:0.029036 2:-0.554639 3:-0.749828 4:0.313135 5:-0.121916 6:-0.467137 7:-0.216946 
-512 1:-0.209145 2:-0.644045 3:-0.918202 4:0.475323 5:0.0904092 6:-0.654935 7:-0.216945 
-208.0849314669519 1:-0.401723 2:-0.218605 3:-1 4:0.0591111 5:0.144751 6:-1 7:-0.914621 
-512 1:-0.22101 2:-0.596262 3:-0.829907 4:0.197026 5:-0.315154 6:-0.881923 7:-0.626461 
