svm_type c_svc
kernel_type rbf
gamma 8
nr_class 2
total_sv 803
rho -0.973118
label 1 -1
nr_sv 521 282
SV
0.003674907628905927 1:0.974732 2:-0.303901 3:-0.398892 4:0.971501 5:0.119562 6:0.104548 7:0.99995 8:0.999947 9:0.99969 10:-0.668238 
0.7494793572394695 1:-0.682613 2:-0.521454 3:-0.831978 4:0.268172 5:0.219202 6:-0.506361 7:0.78985 8:0.973538 9:0.821843 10:-0.239403 
2.352135174846356 1:-0.321955 2:-0.538947 3:-0.83812 4:-0.00733365 5:-0.139366 6:-0.350464 7:0.995611 8:0.99789 9:0.984589 10:0.00868209 
32 1:-0.437513 2:-0.565649 3:-0.909884 4:-0.318141 5:-0.592819 6:-0.915644 7:0.974481 8:0.997652 9:0.951161 10:-0.523915 
32 1:-0.372961 2:-0.509731 3:-0.934183 4:-0.12169 5:-0.401713 6:-0.882695 7:0.974978 8:0.996834 9:0.946638 10:-0.523913 
0.01667806877769745 1:0.631027 2:0.62717 3:0.614583 4:0.814292 5:0.0657033 6:-0.07343 7:0.998992 8:0.999894 9:0.998931 10:-0.158763 
5.879477160539537 1:-0.408966 2:-0.811343 3:-0.876984 4:-0.258704 5:-0.565316 6:-0.779812 7:0.980215 8:0.996102 9:0.98659 10:-0.358328 
5.555993612522565 1:-0.513462 2:-0.555519 3:-0.918848 4:-0.397323 5:-0.508997 6:-0.940693 7:0.951932 8:0.990366 9:0.881049 10:-0.503268 
3.212110668273812 1:-0.104187 2:-0.0944444 3:-0.655556 4:0.729053 5:0.624192 6:-0.0139509 7:0.998175 8:0.999894 9:0.996727 10:-0.503268 
3.58227579754074 1:-0.433284 2:-0.435908 3:-0.89701 4:-0.0257892 5:-0.161388 6:-0.88053 7:0.991993 8:0.997207 9:0.729752 10:-0.503268 
32 1:-0.212226 2:-0.299514 3:-0.304933 4:0.357468 5:-0.053853 6:-0.0723942 7:0.989102 8:0.99916 9:0.994992 10:-0.415957 
0.814839265085189 1:-0.387672 2:-0.168952 3:-0.738397 4:0.783263 5:-0.583197 6:-0.887169 7:0.993267 8:0.999961 9:0.962274 10:-0.427984 
0.2353131350269283 1:-0.590157 2:-0.370528 3:-0.84878 4:-0.508301 5:-0.536592 6:-0.77506 7:0.926033 8:0.981798 9:0.845773 10:-0.328553 
21.37260210229467 1:-0.547107 2:-0.70613 3:-1 4:0.0210981 5:-0.57617 6:-1 7:0.979036 8:0.995088 9:0.814742 10:-0.668246 
5.505322554046455 1:-0.243256 2:-0.555206 3:-0.843829 4:0.269037 5:-0.261727 6:-0.810755 7:0.991538 8:0.998443 9:0.994002 10:-0.77194 
8.896197695615179 1:-0.219977 2:-0.517259 3:-0.848039 4:0.355853 5:-0.386711 6:-0.88403 7:0.986204 8:0.995232 9:0.921656 10:-0.771942 
14.54281284429783 1:0.463842 2:-0.440555 3:-0.744646 4:0.752963 5:-0.450703 6:-0.546843 7:0.994189 8:0.99962 9:0.996026 10:-0.970908 
0.005234680889530548 1:0.244065 2:-0.434028 3:-0.530303 4:0.95799 5:0.783017 6:0.793429 7:0.99817 8:0.999433 9:0.996913 10:-0.959355 
6.301223444420822 1:0.213722 2:-0.548226 3:-0.793792 4:0.896053 5:-0.543067 6:-0.602415 7:0.992683 8:0.998746 9:0.99268 10:-0.821672 
1.347552714733842 1:0.02743 2:-0.457871 3:-0.793792 4:0.725597 5:0.114771 6:-0.631316 7:0.940283 8:0.991335 9:0.954608 10:-0.503268 
0.02052399083783518 1:0.409765 2:-0.494835 3:-0.615702 4:0.766662 5:-0.223697 6:-0.352037 7:0.999066 8:0.999402 9:0.999788 10:0.929283 
0.005597029975375866 1:-0.215559 2:-0.449324 3:-0.497297 4:0.321926 5:-0.146165 6:-0.219602 7:0.990958 8:0.997029 9:0.982561 10:0.929284 
6.348202155268699 1:-0.0345247 2:-0.866456 3:-0.912921 4:0.288837 5:-0.583987 6:-0.62045 7:0.990576 8:0.997775 9:0.988778 10:-0.269119 
1.425322594552769 1:-0.617405 2:-0.573201 3:-0.830601 4:0.110274 5:-0.31776 6:-0.948744 7:0.978963 8:0.990113 9:0.947632 10:-0.220559 
0.4854971855345351 1:-0.512469 2:-0.450887 3:-0.868085 4:-0.323337 5:-0.293023 6:-0.656279 7:0.941562 8:0.992246 9:0.991522 10:0.131807 
5.191424866686655 1:0.267438 2:-0.199236 3:-0.187773 4:0.587636 5:0.540642 6:0.517497 7:0.992583 8:0.999445 9:0.995421 10:0.131807 
0.01121105847212342 1:0.241172 2:0.358333 3:0.55 4:0.940794 5:-0.743812 6:-0.740625 7:0.999936 8:0.999559 9:0.997581 10:-0.0453468 
5.179945105163056 1:-0.668874 2:-0.548531 3:-0.820809 4:-0.285582 5:-0.662562 6:-0.8178 7:0.996394 8:0.99593 9:0.96325 10:-0.310992 
0.009632537742587302 1:0.525576 2:-0.056713 3:-0.384921 4:0.936386 5:0.664657 6:0.657618 7:0.999698 8:0.999473 9:0.99713 10:-0.959355 
13.1286572836374 1:-0.148683 2:-0.554297 3:-0.709375 4:0.497487 5:-0.0767756 6:-0.555238 7:0.996306 8:0.995277 9:0.997777 10:-0.419585 
32 1:-0.520127 2:-0.608857 3:-0.918848 4:-0.400266 5:-0.539703 6:-0.940693 7:0.95187 8:0.991849 9:0.881049 10:-0.503269 
26.1312238295778 1:-0.508284 2:-0.533619 3:-0.866953 4:-0.0789081 5:-0.076158 6:-0.934754 7:0.956916 8:0.991696 9:0.942077 10:-0.503268 
0.2283228761906663 1:-0.313954 2:-0.38997 3:-1 4:0.549947 5:-0.457157 6:-1 7:0.993171 8:0.999447 9:0.814742 10:-0.220066 
0.02162773473314628 1:0.0676749 2:0.88414 3:1 4:0.861695 5:0.621163 6:-0.126532 7:0.999896 8:0.997958 9:0.994345 10:-0.306806 
0.01303870206754181 1:0.129785 2:0.655469 3:0.74375 4:0.622577 5:-0.509633 6:-0.508055 7:0.991384 8:0.994895 9:0.986417 10:-0.306806 
0.01037971629718422 1:-0.0647369 2:0.386054 3:0.107143 4:0.700875 5:0.317146 6:-0.627166 7:0.99284 8:0.999588 9:0.978737 10:-0.306806 
0.01686076695422195 1:-0.0880021 2:0.351575 3:0.542289 4:0.682891 5:-0.181711 6:-0.171535 7:0.992217 8:0.998363 9:0.991024 10:-0.306807 
0.01849733697075704 1:-0.0950258 2:0.384084 3:0.469194 4:0.303048 5:-0.521562 6:-0.523163 7:0.971807 8:0.991213 9:0.953478 10:-0.306807 
11.59706614314901 1:-0.125004 2:-0.546142 3:-0.704057 4:0.582605 5:-0.197622 6:-0.403789 7:0.988192 8:0.998619 9:0.996925 10:-0.707046 
32 1:-0.270204 2:-0.601792 3:-0.848534 4:0.419133 5:-0.0306597 6:-0.505348 7:0.987574 8:0.999925 9:0.997514 10:-0.47174 
3.285187156142641 1:-0.490801 2:-0.637778 3:-0.896667 4:-0.156736 5:-0.625459 6:-0.755166 7:0.963803 8:0.994179 9:0.901186 10:-0.645717 
0.4862636722443505 1:-0.37429 2:-0.654661 3:-0.802966 4:0.504287 5:0.265818 6:-0.671612 7:0.986774 8:0.997249 9:0.977381 10:-0.54144 
8.104808096630746 1:-0.314336 2:-0.617171 3:-0.805846 4:0.338247 5:0.0829455 6:-0.595746 7:0.988111 8:0.997563 9:0.976222 10:-0.541439 
0.407401416400827 1:0.20658 2:-0.202717 3:-0.191304 4:0.725187 5:0.432783 6:0.321046 7:0.998526 8:0.999671 9:0.997458 10:0.0910911 
9.204915869404797 1:-0.268393 2:-0.661718 3:-0.703065 4:0.24582 5:-0.374595 6:-0.399915 7:0.996192 8:0.996992 9:0.982571 10:-0.633034 
4.702495152871681 1:-0.113617 2:-0.195062 3:-0.77037 4:0.731116 5:-0.391939 6:-0.966552 7:0.998391 8:0.999901 9:0.993126 10:-0.503269 
14.82914828614658 1:-0.508284 2:-0.533619 3:-0.866953 4:-0.608508 5:-0.737976 6:-0.934754 7:0.975485 8:0.995087 9:0.942077 10:-0.503268 
16.26503614769614 1:-0.497414 2:-0.541342 3:-0.838961 4:-0.573979 5:-0.716121 6:-0.918317 7:0.941517 8:0.98962 9:0.885384 10:-0.503268 
6.920386736844486 1:-0.379915 2:-0.357808 3:-0.733524 4:-0.283685 5:-0.428857 6:-0.719365 7:0.912738 8:0.983711 9:0.81628 10:-0.503268 
0.3926708097947474 1:-0.333054 2:-0.458523 3:-0.646925 4:-0.0368416 5:-0.323904 6:-0.529854 7:0.98198 8:0.996087 9:0.961745 10:-0.504475 
0.07880231995762062 1:0.0259976 2:-0.533706 3:-0.814925 4:0.707868 5:-0.19027 6:-0.510119 7:0.993595 8:0.998852 9:0.991439 10:-0.992703 
10.2060931279119 1:-0.450201 2:-0.57129 3:-0.89701 4:-0.0282196 5:-0.328357 6:-0.88053 7:0.992135 8:0.996347 9:0.729752 10:-0.503269 
7.954044367591213 1:-0.484188 2:-0.541342 3:-0.838961 4:0.0173342 5:0.0186718 6:-0.918317 7:0.986045 8:0.995968 9:0.885384 10:-0.503268 
0.006915428989230266 1:0.782196 2:0.115774 3:0.107143 4:0.950671 5:-0.0905538 6:-0.0871108 7:0.998318 8:0.999642 9:0.998053 10:-0.761631 
1.355207083793909 1:-0.552353 2:-0.477564 3:-0.659341 4:-0.0703814 5:-0.239931 6:-0.602787 7:0.988522 8:0.997612 9:0.961311 10:-0.00223899 
0.6135424505244501 1:-0.174104 2:-0.619004 3:-0.621951 4:0.485604 5:-0.311111 6:-0.312639 7:0.997674 8:0.997958 9:0.988272 10:-0.718538 
0.008371680306574966 1:-0.552353 2:-0.253663 3:-0.659341 4:-0.101425 5:0.0188461 6:-0.803301 7:0.969709 8:0.990448 9:0.991864 10:0.0856984 
0.01885890818707359 1:0.715981 2:0.293651 3:0.47619 4:0.898068 5:0.947005 6:0.971219 7:0.998496 8:0.99964 9:0.998024 10:0.0857013 
16.87039306331202 1:-0.77815 2:-1 3:-1 4:-0.631625 5:-1 6:-1 7:0.972916 8:0.966224 9:0.814742 10:-0.203087 
11.10566975584564 1:-0.178065 2:-0.69696 3:-0.83727 4:0.229423 5:-0.17523 6:-0.595269 7:0.985601 8:0.996748 9:0.92387 10:-0.401364 
0.2039517158684171 1:-0.460848 2:-0.254248 3:-0.878431 4:0.0923782 5:-0.0560819 6:-0.966163 7:0.983959 8:0.98959 9:0.959019 10:-0.248579 
0.08500539962744275 1:0.106191 2:-0.48477 3:-0.572414 4:0.741523 5:0.486347 6:-0.0545525 7:0.990214 8:0.998315 9:0.991576 10:-0.33406 
1.050286882675558 1:-0.392173 2:-0.663476 3:-0.720721 4:0.542064 5:0.207579 6:-0.331188 7:0.9558 8:0.985018 9:0.929161 10:-0.600264 
0.01806625541882453 1:0.380663 2:0.11505 3:0.079602 4:0.951131 5:-0.00699877 6:-0.846427 7:0.999247 8:0.99972 9:0.998512 10:-0.614273 
3.491017372598261 1:-0.519624 2:-0.530136 3:-0.902516 4:0.064056 5:0.163258 6:-0.916218 7:0.975583 8:0.997984 9:0.620915 10:-0.597863 
0.3878819479668177 1:-0.363501 2:-0.48793 3:-0.876984 4:0.210058 5:0.206889 6:-0.869637 7:0.976753 8:0.998507 9:0.633951 10:-0.597863 
12.23619964600089 1:-0.117028 2:-0.436436 3:-0.604255 4:0.587823 5:-0.253821 6:-0.531314 7:0.991104 8:0.998478 9:0.990553 10:-0.517824 
3.452095614199076 1:0.128165 2:-0.511976 3:-0.443114 4:0.60227 5:-0.210183 6:-0.20036 7:0.995369 8:0.998322 9:0.990794 10:-0.464369 
6.722070294324847 1:-0.787834 2:-0.845644 3:-1 4:-0.58579 5:-0.585609 6:-1 7:0.877198 8:0.97938 9:0.814742 10:-0.203087 
0.02091280107253465 1:0.0676749 2:0.88414 3:1 4:0.655443 5:0.363777 6:-0.387118 7:0.992257 8:0.999332 9:0.97631 10:-0.306807 
0.00367070115852411 1:-0.322289 2:0.416966 3:-0.553957 4:0.482458 5:0.325029 6:-0.896937 7:0.999297 8:0.998668 9:0.906785 10:-0.306806 
0.01220795726880266 1:0.393896 2:0.593575 3:0.558659 4:0.709439 5:0.311578 6:-0.508136 7:0.999933 8:0.999624 9:0.997262 10:-0.306806 
0.0008312704832439599 1:0.168843 2:0.327462 3:0.409091 4:0.719765 5:0.416899 6:-0.366246 7:0.998317 8:0.999594 9:0.986278 10:-0.306807 
0.003326540380514519 1:-0.363501 2:0.591797 3:-1 4:0.0980597 5:0.359222 6:-1 7:0.990654 8:0.998893 9:0.814742 10:-0.306807 
0.004766182106626977 1:0.0958844 2:0.269746 3:0.347826 4:0.477521 5:0.198312 6:-0.539984 7:0.981506 8:0.997352 9:0.982808 10:-0.306807 
0.01171679310273176 1:0.497644 2:0.525401 3:0.491979 4:0.913628 5:0.591558 6:-0.535179 7:0.997555 8:0.999271 9:0.991068 10:-0.306807 
1.356720874943725 1:-0.418508 2:-0.45499 3:-0.808642 4:0.209932 5:-0.0693438 6:-0.665559 7:0.981291 8:0.999652 9:0.781672 10:-0.506927 
0.02878824621637933 1:-0.350686 2:0.276286 3:-0.167785 4:0.412525 5:0.568447 6:-0.00747758 7:0.98806 8:0.998428 9:0.990533 10:0.397376 
0.4081779417687172 1:-0.222802 2:-0.142105 3:-0.510526 4:0.77351 5:0.931986 6:-0.804911 7:0.998442 8:0.999685 9:0.992534 10:-0.508086 
4.88834056109939 1:-0.437513 2:-0.499839 3:-0.879845 4:0.078486 5:-0.549139 6:-0.928313 7:0.96238 8:0.989023 9:0.993513 10:-0.738622 
0.6100777740528235 1:0.0338279 2:0.152525 3:-0.248485 4:0.175164 5:-0.089628 6:-0.35743 7:0.990893 8:0.996917 9:0.980737 10:-0.349278 
0.00199982847662844 1:0.735505 2:0.386534 3:0.50173 4:0.947755 5:0.152684 6:0.161589 7:0.999881 8:0.999786 9:0.998745 10:-0.349278 
1.809278743252243 1:0.0719975 2:-0.00706628 3:-0.274854 4:0.635527 5:0.510451 6:0.112283 7:0.996759 8:0.999015 9:0.992059 10:-0.258277 
8.629276991387357 1:0.160788 2:-0.298126 3:-0.340426 4:0.673851 5:0.0853872 6:0.0687834 7:0.995566 8:0.998073 9:0.988151 10:-0.25828 
3.133715893186682 1:-0.451819 2:-0.0576156 3:-0.703349 4:-0.198963 5:-0.138254 6:-0.961123 7:0.936787 8:0.988671 9:0.950545 10:-0.258276 
3.81532219437686 1:0.291446 2:-0.11413 3:-0.213768 4:0.733469 5:0.12653 6:0.0970572 7:0.997824 8:0.999388 9:0.996391 10:-0.258276 
13.39869961773742 1:-0.0595273 2:-0.390721 3:-0.427441 4:0.499257 5:-0.0117512 6:-0.088511 7:0.994278 8:0.999309 9:0.996413 10:-0.267973 
0.01822116216810614 1:0.760316 2:0.140788 3:0.210938 4:0.970797 5:0.365303 6:0.37287 7:0.999618 8:0.999995 9:0.999982 10:-0.787706 
4.540725435675151 1:0.0496642 2:-0.0666423 3:-0.274854 4:0.632666 5:0.524928 6:0.135153 7:0.996108 8:0.998892 9:0.991751 10:-0.25828 
1.725478890180151 1:-0.32248 2:-0.618763 3:-0.806653 4:0.0589502 5:-0.593061 6:-0.878909 7:0.964767 8:0.981507 9:0.902576 10:-0.550604 
0.3502867287803244 1:-0.258341 2:0.122101 3:-0.326087 4:0.50925 5:0.706193 6:0.320788 7:0.992526 8:0.999975 9:0.948456 10:-0.34127 
0.5810103982999897 1:-0.604732 2:-0.441781 3:-0.575342 4:0.364032 5:-0.787891 6:-0.801296 7:0.991045 8:0.988804 9:0.941788 10:-0.333382 
2.840519188635396 1:-0.621829 2:-0.730038 3:-0.935146 4:-0.1918 5:-0.305684 6:-0.904688 7:0.991977 8:0.996071 9:0.652371 10:-0.506927 
0.0008817871298183291 1:0.37092 2:0.364138 3:0.192308 4:0.933233 5:-0.273796 6:-0.561009 7:0.996399 8:0.999618 9:0.997278 10:-0.303148 
15.99096089410917 1:-0.501088 2:-0.629545 3:-0.812121 4:-0.0421638 5:-0.230491 6:-0.502409 7:0.951598 8:0.986791 9:0.865793 10:-0.465031 
2.442929740921497 1:-0.124228 2:-0.53276 3:-0.695332 4:0.557928 5:-0.252029 6:-0.435541 7:0.984963 8:0.99946 9:0.999157 10:-0.707046 
2.443073412343127 1:0.0366425 2:-0.18146 3:-0.29316 4:0.672617 5:0.462138 6:0.333013 7:0.993463 8:0.998644 9:0.993652 10:0.0322272 
2.677968335132764 1:0.404898 2:-0.361747 3:-0.551807 4:0.805522 5:-0.474866 6:-0.56088 7:0.999542 8:0.99967 9:0.993456 10:-0.9169 
0.4942169831524457 1:-0.527895 2:-0.595199 3:-1 4:0.307969 5:-0.0772078 6:-1 7:0.992317 8:0.995365 9:0.814742 10:-0.419585 
1.74987229355822 1:0.609725 2:-0.255108 3:-0.6 4:0.925225 5:-0.44692 6:-0.47908 7:0.997775 8:0.999631 9:0.997711 10:-0.834408 
6.942579543725154 1:-0.496218 2:-0.436436 3:-0.73617 4:-0.150256 5:-0.36448 6:-0.503501 7:0.954706 8:0.994908 9:0.940754 10:-0.463813 
0.01339248135299981 1:-0.0249384 2:0.625665 3:0.484043 4:0.847103 5:-0.638323 6:-0.665725 7:0.999502 8:0.999531 9:0.995717 10:0.0705469 
0.007992963493566242 1:0.582944 2:0.771739 3:0.617391 4:0.975971 5:-0.618842 6:-0.650757 7:0.999811 8:0.999456 9:0.999409 10:0.0705468 
0.002420348684794571 1:0.679831 2:0.0735968 3:0.0652921 4:0.854581 5:-0.30365 6:-0.520432 7:0.99944 8:0.998184 9:0.998554 10:-0.31466 
4.182200553392716 1:-0.155506 2:-0.582821 3:-0.695332 4:0.539962 5:-0.282737 6:-0.435541 7:0.983221 8:0.999603 9:0.999157 10:-0.707045 
0.02003589181195425 1:0.458385 2:0.582524 3:0.504854 4:0.93221 5:-0.247603 6:-0.293948 7:0.99884 8:0.99891 9:0.99386 10:-0.605124 
0.02131870608560299 1:-0.159342 2:0.473664 3:0.462264 4:0.463868 5:0.59059 6:0.437424 7:0.990346 8:0.998912 9:0.993763 10:0.030445 
32 1:-0.760377 2:-1 3:-1 4:-0.677485 5:-1 6:-1 7:0.956047 8:0.966224 9:0.814742 10:-0.203087 
0.4169707319868801 1:0.189026 2:-0.462401 3:-0.509235 4:0.512362 5:-0.465717 6:-0.566123 7:0.996183 8:0.995304 9:0.988764 10:0.19366 
3.696596975989272 1:-0.424227 2:-0.520024 3:-0.780919 4:-0.0859522 5:-0.160228 6:-0.260523 7:0.974421 8:0.995985 9:0.926575 10:0.0183768 
32 1:-0.407667 2:-0.556463 3:-0.873469 4:-0.0868202 5:-0.335888 6:-0.674865 7:0.956143 8:0.99059 9:0.955288 10:-0.560327 
0.00176264351810879 1:0.18394 2:-0.217421 3:-0.489712 4:0.914849 5:0.79502 6:0.794917 7:0.997358 8:0.999618 9:0.997684 10:-0.959355 
0.001019649976073956 1:0.787963 2:0.208873 3:0.304207 4:0.961824 5:0.325445 6:0.338408 7:0.999701 8:0.999961 9:0.999917 10:-0.642168 
0.002186212643898344 1:-0.322289 2:0.416966 3:-0.553957 4:0.715228 5:0.615505 6:-0.602848 7:0.991009 8:0.999911 9:0.995259 10:-0.306806 
0.1518114361832696 1:-0.420079 2:-0.056713 3:-0.827778 4:0.59286 5:0.308566 6:-0.951041 7:0.998852 8:0.99861 9:0.978418 10:-0.306806 
0.05493376481619869 1:-0.0965828 2:-0.342742 3:-1 4:0.422365 5:-0.50622 6:-1 7:0.999848 8:0.9993 9:0.814742 10:-0.306807 
2.877601245185764 1:-0.432758 2:-0.58945 3:-0.732297 4:-0.194112 5:-0.442688 6:-0.547228 7:0.977593 8:0.994104 9:0.974353 10:-0.315249 
0.3014585308203864 1:-0.345608 2:-0.345382 3:-0.626506 4:0.859419 5:-0.485884 6:-0.954355 7:0.997171 8:0.995809 9:0.990543 10:-0.626965 
0.9496562921252671 1:-0.080019 2:-0.429272 3:-0.739496 4:0.842426 5:-0.853953 6:-0.928755 7:0.995524 8:0.999118 9:0.992519 10:-0.492375 
0.02004654090590612 1:0.697329 2:-0.1128 3:-0.581081 4:0.991445 5:0.81462 6:0.132676 7:0.999721 8:0.999973 9:0.999506 10:-0.959355 
10.62195226422079 1:-0.397275 2:-0.556463 3:-0.873469 4:-0.0854511 5:-0.335888 6:-0.674865 7:0.956201 8:0.99059 9:0.955288 10:-0.560327 
0.8542100149002468 1:-0.0144539 2:-0.561828 3:-0.666667 4:0.679169 5:-0.887226 6:-0.949237 7:0.995893 8:0.998114 9:0.980027 10:-0.100448 
2.205722688489541 1:-0.0199943 2:-0.164517 3:-0.507937 4:0.693244 5:-0.362753 6:-0.473529 7:0.991925 8:0.99891 9:0.996639 10:0.0183768 
15.84427448779599 1:-0.474197 2:-0.557065 3:-1 4:-0.104909 5:-0.232778 6:-1 7:0.999807 8:0.997892 9:0.814742 10:-0.456513 
4.593905314988131 1:-0.151335 2:-0.40424 3:-0.72807 4:0.734401 5:0.260027 6:-0.612237 7:0.997264 8:0.999386 9:0.982326 10:-0.617243 
6.576106724628632 1:-0.52708 2:-0.602523 3:-0.842239 4:0.0469603 5:-0.210846 6:-0.474838 7:0.97807 8:0.996433 9:0.97251 10:-0.633035 
21.14501977415063 1:-0.462007 2:-0.535094 3:-0.815476 4:-0.329786 5:-0.593178 6:-0.794337 7:0.968103 8:0.998567 9:0.987494 10:-0.633036 
2.769503198547858 1:-0.43522 2:-0.449971 3:-0.78169 4:0.439157 5:0.120908 6:-0.333664 7:0.953408 8:0.993449 9:0.960748 10:-0.633035 
17.1231866390282 1:-0.565147 2:-0.625803 3:-0.829201 4:-0.293799 5:-0.641957 6:-0.776856 7:0.996305 8:0.999371 9:0.992012 10:-0.633035 
2.021108415613001 1:-0.516766 2:-0.672923 3:-0.824363 4:-0.251952 5:-0.47084 6:-0.607215 7:0.999318 8:0.997788 9:0.983786 10:-0.633036 
5.200164276875407 1:-0.409263 2:-0.489515 3:-0.797386 4:0.150245 5:-0.220009 6:-0.610203 7:0.994172 8:0.996274 9:0.984603 10:-0.633036 
0.14194611610887 1:-0.650666 2:-0.731492 3:-0.855814 4:0.243569 5:0.0158725 6:-0.522309 7:0.972292 8:0.995419 9:0.95667 10:-0.600264 
0.1165006516331165 1:0.427127 2:-0.786809 3:-0.860987 4:-0.0693922 5:-0.880869 6:-0.901793 7:0.977799 8:0.995444 9:0.981092 10:-0.216358 
0.004251485959727741 1:0.704173 2:0.506216 3:0.25 4:0.944154 5:0.151392 6:-0.0811622 7:1 8:0.999918 9:0.999783 10:-0.333466 
10.48914183047581 1:-0.213056 2:-0.506061 3:-0.436364 4:0.50401 5:0.01649 6:0.0291317 7:0.995301 8:0.999986 9:0.999924 10:-0.586905 
3.289974542736711 1:-0.0984677 2:-0.153825 3:-0.491803 4:0.558918 5:0.194137 6:0.0965594 7:0.99208 8:0.999395 9:0.992614 10:-0.325556 
0.03460874050947618 1:-0.0808686 2:-0.362515 3:-0.440433 4:0.816978 5:0.687805 6:0.280007 7:0.993204 8:0.998947 9:0.995081 10:-0.553012 
0.01105917053739026 1:0.65431 2:-0.405338 3:-0.428571 4:0.983692 5:0.70407 6:0.708362 7:0.999873 8:0.999947 9:0.999677 10:-0.955695 
3.322259068207018 1:-0.270582 2:-0.491864 3:-0.886861 4:0.0578068 5:-0.206388 6:-0.845997 7:0.969684 8:0.996737 9:0.961923 10:-0.47174 
4.299855239097804 1:-0.51207 2:-0.499386 3:-0.771499 4:-0.296978 5:-0.354644 6:-0.701028 7:0.935218 8:0.994974 9:0.962019 10:-0.471739 
3.782234054388829 1:-0.328602 2:-0.521214 3:-0.75718 4:-0.0262387 5:-0.156344 6:-0.33162 7:0.999065 8:0.99937 9:0.996181 10:0.00868268 
0.01292268964509408 1:0.651981 2:0.503499 3:0.538168 4:0.92448 5:0.181252 6:0.16945 7:0.999512 8:0.999962 9:0.999775 10:-0.349278 
7.396060579917278 1:0.0883639 2:-0.170483 3:-0.408397 4:0.704609 5:0.567202 6:0.077667 7:0.996989 8:0.999511 9:0.998767 10:-0.258276 
0.003858219353056908 1:0.353724 2:0.888415 3:0.814634 4:0.98044 5:-0.596627 6:-0.637496 7:0.998906 8:0.999122 9:0.997909 10:0.0705468 
0.3137094333680275 1:-0.402471 2:-0.653486 3:-0.683673 4:0.30481 5:-0.602474 6:-0.813952 7:0.990566 8:0.993951 9:0.964954 10:-0.779811 
0.01340976182705517 1:0.632669 2:0.142725 3:-0.212698 4:0.774845 5:-0.195187 6:-0.586585 7:0.998951 8:0.999333 9:0.993532 10:0.536677 
0.01772125232170542 1:0.668232 2:-0.611905 3:-1 4:0.600077 5:-0.00239408 6:-1 7:0.971693 8:0.987046 9:0.814742 10:-0.40865 
1.091133110523491 1:-0.146672 2:-0.589515 3:-0.82967 4:0.626734 5:-0.0322838 6:-0.576335 7:0.978615 8:0.996325 9:0.978445 10:-0.734346 
1.490287805045498 1:0.0763552 2:-0.392615 3:-0.495935 4:0.47477 5:0.126946 6:0.0999343 7:0.997791 8:0.999928 9:0.998658 10:-0.400716 
7.549362901767938 1:-0.468491 2:-0.702427 3:-0.840206 4:0.156214 5:-0.212901 6:-0.419882 7:0.971124 8:0.998241 9:0.989488 10:-0.833836 
16.81449278622853 1:-0.0207715 2:-0.561154 3:-0.713846 4:0.568603 5:-0.287538 6:-0.519295 7:0.975855 8:0.998643 9:0.97822 10:-0.559092 
0.4390614372668997 1:-0.188234 2:-0.63909 3:-0.700483 4:0.447721 5:-0.141779 6:-0.315939 7:0.993926 8:0.996882 9:0.97069 10:-0.559094 
3.384166078523262 1:-0.0888918 2:-0.522993 3:-0.688963 4:0.724006 5:0.502463 6:-0.37604 7:0.999456 8:0.999461 9:0.985256 10:-0.280628 
0.8251757844129151 1:-0.175241 2:-0.681142 3:-0.63615 4:0.645259 5:-0.160926 6:-0.150491 7:0.995438 8:0.9992 9:0.99561 10:-0.586905 
2.056854856264084 1:-0.180677 2:-0.548426 3:-0.670213 4:0.676856 5:-0.00142211 6:-0.365791 7:0.992802 8:0.998959 9:0.99369 10:-0.586905 
2.939659207262124 1:-0.350735 2:-0.47457 3:-1 4:-0.433381 5:-0.533128 6:-1 7:0.969309 8:0.994394 9:0.814742 10:0.00868114 
1.13737430079948 1:-0.30388 2:-0.415401 3:-0.921519 4:-0.235186 5:-0.299801 6:-0.769888 7:0.992458 8:0.998666 9:0.956152 10:0.00868337 
0.0546515389788664 1:-0.443653 2:-0.572377 3:-0.77037 4:0.526739 5:-0.0499236 6:-0.516094 7:0.986944 8:0.997399 9:0.983096 10:-0.8496 
1.118996543620026 1:-0.162502 2:-0.410197 3:-0.755263 4:0.587777 5:0.268574 6:-0.313156 7:0.982174 8:0.994896 9:0.909643 10:-0.549397 
24.58941111369818 1:-0.166076 2:-0.494417 3:-0.769231 4:0.412321 5:-0.000296236 6:-0.509287 7:0.983129 8:0.995462 9:0.913778 10:-0.549397 
5.992251174978701 1:0.0363091 2:-0.351549 3:-0.376884 4:0.652582 5:0.272251 6:0.0413155 7:0.998831 8:0.999176 9:0.995038 10:-0.221172 
7.076287806396853 1:0.0676749 2:-0.298925 3:-0.5 4:0.682853 5:0.0564068 6:-0.0170757 7:0.991401 8:0.999249 9:0.999062 10:-0.474112 
8.713796355112168 1:-0.487203 2:-0.496025 3:-0.671378 4:-0.24672 5:-0.745212 6:-0.788443 7:0.999993 8:0.999742 9:0.996063 10:-0.522649 
15.37359298892425 1:-0.125558 2:-0.381133 3:-0.78271 4:0.457014 5:0.115525 6:-0.496232 7:0.986941 8:0.996858 9:0.93749 10:-0.549397 
0.1897106315172517 1:0.116442 2:-0.755331 3:-0.807453 4:-0.132055 5:-0.81541 6:-0.827127 7:0.98831 8:0.996982 9:0.98375 10:-0.577883 
0.729035694178254 1:-0.0361119 2:-0.55668 3:-0.67624 4:0.606508 5:0.157446 6:-0.555486 7:0.991967 8:0.999716 9:0.992128 10:-0.408651 
0.01147609203395361 1:0.482832 2:-0.104396 3:-0.318681 4:0.800239 5:0.0175152 6:-0.428844 7:0.994846 8:0.999452 9:0.996984 10:0.999999 
0.003640031525099358 1:0.59234 2:-0.136455 3:-0.254296 4:0.719044 5:-0.0130815 6:-0.303489 7:0.998105 8:0.99961 9:0.998363 10:1 
4.703922290634011 1:-0.335597 2:-0.645529 3:-0.935282 4:0.321425 5:-0.563727 6:-0.710949 7:0.978117 8:0.996184 9:0.980743 10:-0.942967 
4.755716955861291 1:-0.367626 2:-0.794636 3:-0.866091 4:-0.339918 5:-0.63934 6:-0.80279 7:0.987472 8:0.997712 9:0.996333 10:-0.358327 
0.430052081301221 1:-0.107814 2:0.10292 3:-0.470085 4:0.223114 5:-0.113628 6:-0.392653 7:0.979795 8:0.999492 9:0.994024 10:-0.554207 
10.22623898407991 1:-0.122445 2:-0.479787 3:-0.604255 4:0.645903 5:-0.468274 6:-0.528494 7:0.993095 8:0.999192 9:0.991657 10:-0.517824 
7.079513882979262 1:-0.0721757 2:-0.764281 3:-0.932755 4:0.12362 5:-0.622423 6:-0.919582 7:0.989272 8:0.998769 9:0.992425 10:-0.53241 
1.124109621061813 1:0.15727 2:-0.158058 3:-0.231405 4:0.281276 5:-0.298716 6:-0.367866 7:0.989819 8:0.999671 9:0.999774 10:-0.422596 
0.7838541819108198 1:0.324668 2:-0.0226015 3:0.0295203 4:0.88692 5:0.521917 6:0.528205 7:0.998063 8:0.999239 9:0.995848 10:0.356851 
6.914677415885085 1:-0.394431 2:-0.56575 3:-0.682864 4:-0.271529 5:-0.758378 6:-0.867471 7:0.935769 8:0.99328 9:0.973097 10:-0.388049 
0.1883671441398989 1:0.0975213 2:-0.421261 3:-0.689223 4:0.741732 5:-0.247131 6:-0.662358 7:0.991073 8:0.999868 9:0.981296 10:-0.990906 
1.455017819859532 1:-0.0709355 2:-0.0229532 3:-0.45614 4:0.555871 5:0.652283 6:0.068692 7:0.989769 8:0.994564 9:0.907581 10:-0.346146 
0.1791590041825912 1:-0.158179 2:0.0406586 3:-0.375 4:0.495261 5:-0.0422832 6:-0.31079 7:0.993601 8:0.998277 9:0.994211 10:-0.718617 
0.3155482126464146 1:-0.0808686 2:-0.362515 3:-0.440433 4:0.816978 5:0.687805 6:0.280007 7:0.993204 8:0.998947 9:0.995081 10:-0.553012 
0.01484874222322347 1:0.129785 2:0.655469 3:0.74375 4:0.843597 5:-0.233819 6:-0.528947 7:0.998371 8:0.998314 9:0.984676 10:-0.306807 
0.00710482206116722 1:0.393896 2:0.593575 3:0.558659 4:0.927385 5:0.589909 6:-0.528494 7:0.999298 8:0.999577 9:0.995632 10:-0.306806 
0.001215465898072899 1:0.458642 2:0.273438 3:0.453125 4:0.94282 5:-0.538248 6:-0.532505 7:0.998214 8:0.999179 9:0.995499 10:-0.306807 
1.186151844494918 1:0.365521 2:-0.268066 3:-0.689223 4:0.79039 5:-0.437549 6:-0.518553 7:0.996883 8:0.998362 9:0.995418 10:-0.818644 
0.01293737381908213 1:0.485163 2:-0.0378472 3:-0.0958333 4:0.776391 5:-0.121124 6:-0.330585 7:0.997261 8:0.999792 9:0.999097 10:1 
5.4166694271959 1:-0.368896 2:-0.654661 3:-0.802966 4:0.536948 5:0.268428 6:-0.671612 7:0.992666 8:0.997215 9:0.977381 10:-0.54144 
4.11566316675595 1:-0.50432 2:-0.398968 3:-0.725664 4:-0.235275 5:-0.300601 6:-0.492966 7:0.982329 8:0.9969 9:0.957081 10:-0.0022378 
0.006106333988620406 1:0.0111749 2:0.541371 3:0.0992908 4:0.74994 5:-0.28838 6:-0.499907 7:0.99891 8:0.998401 9:0.989418 10:-0.207242 
0.3027494434400959 1:-0.0149925 2:-0.643716 3:-0.593443 4:0.645949 5:-0.385767 6:-0.378128 7:0.994283 8:0.997299 9:0.985186 10:-0.676118 
0.3414992914001703 1:0.260007 2:0.00488946 3:-0.209184 4:0.820646 5:0.30076 6:0.106552 7:0.999422 8:0.998649 9:0.99899 10:-0.248484 
0.84130763150796 1:0.0685742 2:-0.132451 3:-0.434307 4:0.625468 5:0.12335 6:-0.00846397 7:0.990919 8:0.999046 9:0.993583 10:-0.473541 
1.037741281082143 1:-0.0579043 2:-0.148445 3:-0.525994 4:0.467009 5:0.0120283 6:-0.119692 7:0.98358 8:0.998069 9:0.988251 10:-0.473541 
0.4493763921500591 1:-0.347824 2:-0.197044 3:-0.541872 4:-0.472142 5:-0.625403 6:-0.838711 7:0.994493 8:0.998585 9:0.997421 10:-0.364371 
0.7922010827832304 1:-0.188034 2:-0.265766 3:-0.664865 4:0.426136 5:-0.811805 6:-0.920249 7:0.97957 8:0.997277 9:0.990395 10:-0.36437 
0.004962733323376116 1:0.211016 2:-0.567572 3:-0.76779 4:0.867723 5:-0.501122 6:-0.700438 7:0.984323 8:0.998399 9:0.990156 10:-0.959973 
16.5450965404739 1:0.362645 2:-0.521714 3:-0.78169 4:0.819331 5:-0.510953 6:-0.737971 7:0.994659 8:0.998945 9:0.991281 10:-0.959973 
10.88758901408155 1:-0.575668 2:-0.580761 3:-0.808642 4:-0.528755 5:-0.610897 6:-0.889925 7:0.984845 8:0.999463 9:0.800712 10:-0.320689 
3.791301531511123 1:-0.153426 2:-0.548337 3:-0.770936 4:0.413933 5:-0.0486503 6:-0.409429 7:0.957663 8:0.993572 9:0.960313 10:-0.633035 
2.769616940369889 1:-0.132986 2:-0.522748 3:-0.581081 4:0.641086 5:-0.357669 6:-0.414127 7:0.991905 8:0.991836 9:0.955712 10:-0.275133 
1.4430211655364 1:-0.0169907 2:-0.423102 3:-0.521236 4:0.50321 5:-0.288561 6:-0.520535 7:0.991565 8:0.998513 9:0.973361 10:-0.5154 
2.23499092000888 1:0.305022 2:-0.551494 3:-0.707547 4:0.647004 5:-0.416375 6:-0.650168 7:0.996252 8:0.999497 9:0.991968 10:-0.907195 
0.3604510966165864 1:-0.0706638 2:-0.431876 3:-0.351711 4:0.478413 5:-0.139687 6:-0.128988 7:0.975765 8:0.993773 9:0.965844 10:-0.638512 
4.218035290888905 1:-0.0327227 2:-0.438484 3:-0.633858 4:0.435132 5:-0.256335 6:-0.315826 7:0.99119 8:0.998919 9:0.997191 10:-0.539719 
1.039964092700602 1:-0.3804 2:-0.429019 3:-0.862832 4:-0.0809575 5:-0.0753122 6:-0.651901 7:0.922554 8:0.989908 9:0.974075 10:0.131807 
1.15778982123863 1:0.124974 2:-0.526163 3:-0.567442 4:0.488843 5:-0.289017 6:-0.304077 7:0.995371 8:0.999507 9:0.997266 10:-0.010736 
2.516701982368831 1:0.0203411 2:-0.222328 3:-0.290076 4:0.733508 5:-0.196718 6:-0.19824 7:0.990756 8:0.998864 9:0.993867 10:-0.626917 
0.3073358828051245 1:-0.617405 2:-0.498975 3:-0.745902 4:0.109328 5:-0.293961 6:-0.862813 7:0.978034 8:0.991521 9:0.985907 10:-0.220562 
0.9329235053580285 1:-0.0116816 2:-0.656118 3:-0.738397 4:-0.00326785 5:-0.7433 6:-0.774925 7:0.983223 8:0.995658 9:0.972572 10:-0.462064 
4.089936488143784 1:-0.151335 2:-0.273847 3:-0.415094 4:0.725196 5:0.370736 6:0.150752 7:0.996156 8:0.999661 9:0.99758 10:-0.267295 
0.004319546732748731 1:-0.0777266 2:0.420706 3:0.265306 4:0.49855 5:0.094883 6:-0.60747 7:0.983663 8:0.998829 9:0.976887 10:-0.306807 
0.5058924246936883 1:-0.447992 2:-0.669432 3:-0.725664 4:0.122774 5:-0.528936 6:-0.527727 7:0.988424 8:0.995144 9:0.970081 10:-0.734346 
0.9542855626363611 1:-0.399681 2:-0.599649 3:-0.738947 4:-0.0426213 5:-0.110631 6:-0.418788 7:0.973584 8:0.997027 9:0.951563 10:-0.751902 
0.01005377840195968 1:0.188131 2:0.267778 3:0.446667 4:0.799265 5:-0.746065 6:-0.742907 7:0.995785 8:0.99571 9:0.97647 10:-0.340748 
0.004688741403383389 1:0.330487 2:0.183065 3:0.2 4:0.839806 5:-0.777114 6:-0.784549 7:0.997044 8:0.995763 9:0.974912 10:-0.340748 
1.311830505827947 1:-0.310692 2:-0.525473 3:-0.458515 4:0.695972 5:-0.780095 6:-0.77736 7:0.995631 8:0.999384 9:0.99662 10:-0.185936 
3.199906253147808 1:-0.0580755 2:-0.179029 3:-0.318681 4:0.536467 5:-0.0546784 6:-0.289099 7:0.998302 8:0.998804 9:0.996124 10:-0.408574 
0.0145451714777926 1:-0.249731 2:-0.40942 3:-0.550725 4:0.357291 5:-0.126896 6:-0.322203 7:0.993136 8:0.997221 9:0.983452 10:0.929283 
0.0176854117669483 1:0.106191 2:-0.110057 3:-0.144828 4:0.514717 5:0.194783 6:0.125134 7:0.99714 8:0.999441 9:0.998886 10:0.929287 
14.13575745821025 1:-0.140627 2:-0.292981 3:-0.413249 4:0.62415 5:0.154736 6:-0.0855677 7:0.991808 8:0.999065 9:0.993958 10:-0.326157 
0.9964804555701912 1:-0.403561 2:-0.5963 3:-0.783217 4:0.131172 5:-0.0613992 6:-0.478708 7:0.997452 8:0.992344 9:0.96847 10:-0.470474 
0.003886257634657565 1:-0.0249384 2:0.661791 3:0.648936 4:0.847103 5:-0.636664 6:-0.646249 7:0.999502 8:0.999478 9:0.99557 10:0.0705455 
0.01710842493897306 1:0.14023 2:1 3:0.711656 4:0.866178 5:-0.633261 6:-0.661235 7:0.999681 8:0.999692 9:0.996813 10:0.0705456 
3.72308443819823 1:-0.375695 2:-0.583653 3:-0.881226 4:0.395598 5:-0.385496 6:-0.563337 7:0.991207 8:0.999232 9:0.987233 10:-0.992703 
3.363252559625677 1:-0.117995 2:-0.442113 3:-0.778571 4:0.547692 5:-0.150563 6:-0.528384 7:0.994653 8:0.999864 9:0.994372 10:-0.992702 
1.060239930725984 1:-0.171187 2:-0.655783 3:-0.697856 4:0.522342 5:-0.297456 6:-0.323598 7:0.99821 8:0.998827 9:0.992845 10:-0.773126 
0.5610349741622054 1:-0.231969 2:-0.451504 3:-0.631829 4:0.87484 5:-0.220034 6:-0.239159 7:0.976763 8:0.998837 9:0.982052 10:-0.677301 
4.393364575710959 1:-0.221822 2:-0.481035 3:-0.69103 4:0.62394 5:0.0325289 6:-0.575742 7:0.996808 8:0.999327 9:0.996615 10:-0.590564 
0.009086232944702457 1:0.168843 2:0.327462 3:0.409091 4:0.865135 5:0.598308 6:-0.182582 7:0.993971 8:0.998976 9:0.995887 10:-0.306806 
0.2415231884769577 1:0.227657 2:-0.478995 3:-0.660274 4:-0.0147539 5:-0.519672 6:-0.581513 7:0.96509 8:0.996003 9:0.976013 10:-0.0617355 
0.07154185218456835 1:0.164912 2:-0.391313 3:-0.415094 4:-0.0382545 5:-0.641943 6:-0.648585 7:0.95614 8:0.996579 9:0.981803 10:-0.264255 
1.398632035441439 1:-0.179862 2:-0.258053 3:-0.739496 4:0.469391 5:0.452818 6:-0.00854769 7:0.967281 8:0.995487 9:0.967815 10:-0.532995 
5.862818489859362 1:-0.343542 2:-0.337398 3:-0.567944 4:-0.301379 5:-0.497673 6:-0.682239 7:0.999108 8:0.997832 9:0.9846 10:-0.542109 
0.008890977738048299 1:0.735112 2:0.116438 3:-0.0445205 4:0.822129 5:-0.367837 6:-0.534665 7:0.998218 8:0.99932 9:0.999522 10:0.536677 
0.1846397871409842 1:-0.410844 2:-0.607094 3:-0.743802 4:0.578571 5:0.568219 6:0.349653 7:0.984163 8:0.998234 9:0.986638 10:-0.414678 
0.4679390646179957 1:-0.240668 2:-0.669022 3:-0.758285 4:0.181922 5:-0.292327 6:-0.330489 7:0.972365 8:0.997414 9:0.988693 10:-0.633036 
10.24535699059023 1:-0.212226 2:-0.32997 3:-0.443946 4:0.359042 5:-0.0939708 6:-0.141535 7:0.989188 8:0.998766 9:0.995407 10:-0.415959 
3.281663407628866 1:-0.319864 2:-0.438042 3:-0.63357 4:0.388272 5:0.198001 6:-0.550675 7:0.989757 8:0.99854 9:0.959737 10:-0.504475 
0.6773415463490675 1:-0.292023 2:-0.273619 3:-0.502674 4:0.692709 5:-0.790356 6:-0.892557 7:0.995549 8:0.992659 9:0.995751 10:-0.427984 
0.811184776293295 1:-0.32888 2:0.0798466 3:-0.351464 4:0.480443 5:0.661436 6:0.177554 7:0.990037 8:0.999567 9:0.967794 10:-0.341269 
0.7031017360005268 1:-0.14643 2:-0.528902 3:-0.462428 4:0.452913 5:-0.0837185 6:-0.0723231 7:0.995861 8:0.997767 9:0.987752 10:-0.273421 
0.0183816807418638 1:0.128338 2:0.106218 3:0.174242 4:-0.522265 5:-0.67581 6:-0.690204 7:0.988416 8:0.998524 9:0.992643 10:-0.201148 
0.0236347168151342 1:-0.363501 2:0.591797 3:-1 4:0.335143 5:0.655081 6:-1 7:0.998378 8:0.999728 9:0.814742 10:-0.306806 
0.2058941210226304 1:-0.502853 2:0.0850592 3:-1 4:0.157377 5:0.101474 6:-1 7:0.991467 8:0.999152 9:0.814742 10:-0.306806 
0.1161546699781699 1:-0.63301 2:-0.0822072 3:-1 4:-0.064392 5:-0.393209 6:-1 7:0.981001 8:0.998881 9:0.814742 10:-0.306807 
25.54135842916291 1:-0.77815 2:-1 3:-1 4:-0.631625 5:-1 6:-1 7:0.972916 8:0.966224 9:0.814742 10:-0.203087 
32 1:-0.760377 2:-1 3:-1 4:-0.677485 5:-1 6:-1 7:0.956047 8:0.966224 9:0.814742 10:-0.203089 
32 1:-0.761313 2:-0.90904 3:-1 4:-0.890434 5:-0.938513 6:-1 7:0.935008 8:0.987743 9:0.814742 10:-0.203087 
7.894566222426766 1:-0.802466 2:-1 3:-1 4:-0.958904 5:-1 6:-1 7:0.944351 8:0.966224 9:0.814742 10:-0.203089 
32 1:-0.812181 2:-1 3:-1 4:-0.960071 5:-1 6:-1 7:0.954748 8:0.966224 9:0.814742 10:-0.203087 
3.71206320763605 1:-0.474636 2:-0.24537 3:-0.876984 4:-0.0704897 5:-0.28937 6:-0.980412 7:0.993852 8:0.993765 9:0.932933 10:-0.248579 
8.249401328694004 1:-0.627156 2:-0.772664 3:-0.935146 4:-0.538377 5:-0.73964 6:-0.904688 7:0.911732 8:0.967 9:0.652371 10:-0.506926 
3.153974695679985 1:0.124373 2:-0.344966 3:-0.370558 4:0.872378 5:-0.220805 6:-0.226025 7:0.996858 8:0.999133 9:0.99443 10:-0.000375855 
5.086389510503396 1:-0.348699 2:-0.399806 3:-0.855814 4:0.232608 5:-0.0740515 6:-0.871071 7:0.999149 8:0.999802 9:0.94453 10:-0.471739 
1.115806353729612 1:-0.00302498 2:0.0989752 3:-0.197411 4:0.565924 5:0.0522378 6:-0.0524417 7:0.989833 8:0.997968 9:0.988465 10:-0.471739 
3.477625997644222 1:0.153049 2:-0.277482 3:-0.246201 4:0.691423 5:0.11091 6:0.121527 7:0.995206 8:0.998115 9:0.989595 10:-0.25828 
1.03659808894297 1:0.0768555 2:-0.261329 3:-0.1571 4:0.671762 5:0.0279966 6:0.0407813 7:0.990075 8:0.998782 9:0.993319 10:-0.258276 
3.311705496855478 1:-0.474279 2:-0.479105 3:-0.542773 4:0.496187 5:-0.792982 6:-0.825579 7:0.985966 8:0.994108 9:0.973825 10:-0.239403 
1.930410897471079 1:-0.473491 2:-0.557483 3:-0.824363 4:0.0758305 5:-0.323523 6:-0.653254 7:0.994607 8:0.999692 9:0.990733 10:-0.633034 
0.9730298606121031 1:-0.222976 2:-0.338474 3:-0.396104 4:0.297001 5:0.0326288 6:-0.0861049 7:0.985564 8:0.999582 9:0.990454 10:-0.471739 
32 1:-0.0545216 2:-0.456007 3:-0.774272 4:0.447157 5:-0.0631217 6:-0.458266 7:0.993655 8:0.99941 9:0.991603 10:-0.47174 
0.6102123969353106 1:-0.292269 2:-0.411552 3:-0.552347 4:0.427858 5:-0.819701 6:-0.843029 7:0.991496 8:0.997229 9:0.984535 10:-0.701577 
2.115904760158755 1:0.298155 2:-0.597332 3:-0.632411 4:0.924423 5:-0.447757 6:-0.473333 7:0.997093 8:0.999615 9:0.998012 10:-0.985428 
2.232709436908966 1:0.156455 2:0.0283157 3:-0.235915 4:0.858277 5:0.103869 6:0.0836098 7:0.999695 8:0.999776 9:0.998628 10:-0.438933 
0.3487944268217846 1:-0.582146 2:-0.663009 3:-0.94084 4:0.162357 5:0.276309 6:-0.989721 7:0.969182 8:0.996037 9:0.964646 10:-0.81679 
0.3907735533411383 1:-0.0507528 2:-0.329218 3:-0.464198 4:0.686708 5:-0.340046 6:-0.435889 7:0.992809 8:0.997857 9:0.98652 10:-0.349279 
16.20675355629762 1:0.492479 2:-0.203736 3:-0.251724 4:0.886515 5:0.466442 6:0.466107 7:0.997759 8:0.999817 9:0.998859 10:0.149971 
32 1:0.392917 2:-0.237168 3:-0.213768 4:0.89059 5:0.458537 6:0.339703 7:0.998731 8:0.999863 9:0.999102 10:0.149972 
0.4294624879329841 1:0.148873 2:-0.768991 3:-0.789116 4:-0.153071 5:-0.759039 6:-0.759705 7:0.992144 8:0.999449 9:0.997589 10:-0.587557 
0.9660580365928219 1:-0.113376 2:0.0632322 3:-0.306709 4:0.165654 5:-0.114974 6:-0.196308 7:0.993062 8:0.997045 9:0.993299 10:-0.554207 
2.291123723056355 1:-0.513687 2:-0.809223 3:-0.912921 4:-0.561693 5:-0.83697 6:-0.909823 7:0.924194 8:0.984626 9:0.912092 10:-0.692463 
0.9156805265668877 1:-0.573846 2:-0.154685 3:-0.733906 4:0.153997 5:-0.640243 6:-0.920137 7:0.981212 8:0.994612 9:0.84337 10:-0.306806 
1.528962486990449 1:-0.63301 2:-0.0822072 3:-1 4:-0.241399 5:-0.614098 6:-1 7:0.96751 8:0.995301 9:0.814742 10:-0.306807 
2.731614831116212 1:0.00753794 2:-0.565462 3:-0.559242 4:0.583476 5:-0.0284767 6:-0.119976 7:0.999997 8:0.999722 9:0.998859 10:-0.504532 
0.000683586162145336 1:0.10905 2:0.106218 3:0.174242 4:-0.536843 5:-0.69184 6:-0.706433 7:0.991988 8:0.999365 9:0.997594 10:-0.201146 
0.5326456064095265 1:-0.410401 2:-0.332749 3:-0.891228 4:-0.54285 5:-0.583794 6:-0.943491 7:0.990586 8:0.999871 9:0.899093 10:-0.523915 
0.6508916945234666 1:-0.326726 2:-0.894352 3:-0.931111 4:-0.216264 5:-0.847219 6:-0.862922 7:0.992277 8:0.999396 9:0.999017 10:-0.523913 
5.930115487929739 1:-0.633909 2:-0.5561 3:-0.797386 4:-0.649292 5:-0.737946 6:-0.78855 7:0.914535 8:0.98568 9:0.892832 10:-0.332209 
0.3690200912040631 1:-0.490801 2:-0.534286 3:-0.734286 4:0.183456 5:-0.855884 6:-0.900516 7:0.916005 8:0.998293 9:0.990098 10:0.089964 
3.088120911183628 1:0.175591 2:-0.587841 3:-0.591029 4:0.618736 5:-0.299192 6:-0.310831 7:0.999747 8:0.999779 9:0.999216 10:0.0899638 
3.121842874652238 1:0.0847594 2:-0.421261 3:-0.689223 4:0.739917 5:-0.266911 6:-0.662358 7:0.99096 8:0.999715 9:0.981296 10:-0.990906 
0.4265161149485945 1:-0.510386 2:-0.320833 3:-0.403846 4:0.0317527 5:-0.30267 6:-0.404429 7:0.998829 8:0.998687 9:0.995933 10:-0.238852 
0.3174598551771328 1:-0.476851 2:-0.534817 3:-0.915068 4:0.250501 5:0.120809 6:-0.771317 7:0.931235 8:0.970071 9:0.369185 10:-0.315302 
0.1021325003874945 1:-0.370346 2:-0.415771 3:-0.333333 4:0.877361 5:-0.711011 6:-0.707417 7:0.998366 8:0.999152 9:0.995348 10:-0.212149 
0.02167280104688067 1:0.0556561 2:0.112224 3:-0.135889 4:0.455491 5:-0.160154 6:-0.284867 7:0.996421 8:0.999512 9:0.995906 10:-0.248549 
0.07098062770888092 1:-0.20289 2:-0.777843 3:-0.85514 4:0.556029 5:-0.752893 6:-0.766375 7:0.990436 8:0.997775 9:0.990835 10:0.578247 
13.85438363669033 1:-0.0756935 2:-0.57183 3:-0.663043 4:0.373279 5:-0.120294 6:-0.495157 7:0.968762 8:0.997298 9:0.980653 10:-0.615432 
0.01376355810457435 1:0.757094 2:0.243545 3:0.419014 4:0.920013 5:-0.111345 6:-0.100293 7:0.998939 8:0.999683 9:0.998261 10:-0.418392 
0.0203674571897464 1:0.441817 2:-0.318399 3:-0.222222 4:0.941472 5:0.975432 6:1 7:0.999029 8:0.999689 9:0.998292 10:-0.885974 
9.28514968809505 1:0.49657 2:-0.391428 3:-0.722222 4:0.925524 5:-0.505435 6:-0.705242 7:0.99804 8:0.999962 9:0.999244 10:-0.956314 
1.32029082513422 1:0.119445 2:-0.392185 3:-0.396887 4:0.538568 5:-0.30269 6:-0.339058 7:0.99924 8:0.999361 9:0.996199 10:-0.294041 
3.37859695110505 1:-0.293544 2:-0.473799 3:-0.776577 4:0.599181 5:-0.032216 6:-0.198326 7:0.94666 8:0.993941 9:0.92572 10:-0.881131 
10.87571812642326 1:-0.074184 2:-0.355731 3:-0.632411 4:0.608431 5:-0.162435 6:-0.302621 7:0.998213 8:0.998364 9:0.987601 10:-0.45471 
0.0006872461034572874 1:0.031454 2:0.358333 3:0.430769 4:0.848427 5:-0.553038 6:-0.551748 7:0.999426 8:0.99985 9:0.999488 10:-0.194523 
15.25919369011842 1:-0.140826 2:-0.390222 3:-0.520124 4:0.582944 5:0.114256 6:0.0977049 7:0.992409 8:0.999558 9:0.996767 10:-0.319482 
0.01279361162573502 1:0.567796 2:-0.0348684 3:-0.0210526 4:0.958781 5:0.705346 6:0.715937 7:0.999574 8:0.999797 9:0.999041 10:-0.820488 
9.368796116452344 1:0.509117 2:-0.0962702 3:-0.25 4:0.840478 5:0.485409 6:0.351721 7:0.998908 8:0.999962 9:0.999589 10:0.149971 
28.49542975585027 1:0.392917 2:-0.237168 3:-0.213768 4:0.765128 5:0.458537 6:0.339703 7:0.995276 8:0.999863 9:0.999102 10:0.149971 
8.853133327328196 1:-0.402471 2:-0.549532 3:-0.841837 4:-0.440022 5:-0.585047 6:-0.829712 7:0.943246 8:0.991456 9:0.960728 10:-0.499587 
3.88430112655591 1:-0.0769263 2:-0.662026 3:-0.779621 4:0.259458 5:-0.611666 6:-0.745671 7:0.982764 8:0.992807 9:0.975222 10:-0.238852 
2.738527569428914 1:-0.590504 2:-0.335082 3:-0.891608 4:-0.346516 5:-0.234279 6:-0.936783 7:0.952052 8:0.992931 9:0.988685 10:-0.19452 
7.441843341196568 1:-0.144546 2:-0.583444 3:-0.834667 4:0.17081 5:-0.109823 6:-0.671839 7:0.974906 8:0.998053 9:0.959625 10:-0.330957 
0.9180399613226228 1:-0.213364 2:-0.526163 3:-0.69103 4:0.482168 5:-0.0482649 6:-0.275627 7:0.994994 8:0.9997 9:0.997171 10:-0.590564 
6.198400766003839 1:-0.148409 2:-0.461351 3:-0.465517 4:0.551369 5:-0.012967 6:-0.126253 7:0.991731 8:0.999153 9:0.995775 10:-0.590564 
9.817991137459902 1:-0.202328 2:-0.329578 3:-0.334764 4:0.459938 5:-0.0240601 6:-0.133071 7:0.993989 8:0.998796 9:0.993623 10:-0.590564 
0.935906229317307 1:-0.00106873 2:-0.631036 3:-0.750503 4:0.631056 5:-0.260269 6:-0.366114 7:0.99733 8:0.998044 9:0.99025 10:-0.642167 
5.214120526893396 1:-0.413269 2:-0.385117 3:-0.872428 4:-0.199226 5:-0.26516 6:-0.629535 7:0.946576 8:0.992742 9:0.980505 10:0.131807 
0.06889114456326675 1:-0.0723898 2:-0.26292 3:-0.158915 4:0.38536 5:0.435282 6:0.453132 7:0.996898 8:0.99983 9:0.999065 10:0.131804 
0.5760338217336511 1:-0.571466 2:-0.170655 3:-0.89769 4:-0.336103 5:-0.315043 6:-0.910471 7:0.928964 8:0.990441 9:0.920799 10:-0.271539 
2.576963471969434 1:-0.361118 2:-0.593009 3:-0.883895 4:0.309403 5:-0.252364 6:-0.655338 7:0.951138 8:0.993467 9:0.935529 10:-0.597906 
5.217141374543643 1:-0.527895 2:-0.595199 3:-1 4:0.307969 5:-0.0772078 6:-1 7:0.992317 8:0.995365 9:0.814742 10:-0.419585 
32 1:-0.505814 2:-0.449324 3:-0.771499 4:-0.101092 5:-0.313572 6:-0.701028 7:0.961026 8:0.995979 9:0.962019 10:-0.47174 
1.205762214652543 1:-0.263135 2:-0.688207 3:-0.690619 4:-0.336158 5:-0.610518 6:-0.627392 7:0.975576 8:0.99674 9:0.982283 10:-0.633035 
2.902739101520928 1:0.335603 2:-0.331967 3:-0.390164 4:0.823037 5:0.733649 6:0.512326 7:0.999674 8:0.999662 9:0.997703 10:0.262832 
3.539436695929586 1:-0.228858 2:-0.281651 3:-0.627404 4:0.727089 5:0.408812 6:0.0303016 7:0.989101 8:0.997885 9:0.988345 10:-0.325558 
0.6493247188638499 1:-0.0636633 2:-0.0177342 3:-0.359504 4:0.535643 5:0.594903 6:0.0683554 7:0.984502 8:0.994864 9:0.912005 10:-0.355844 
1.006785233852806 1:-0.195669 2:-0.611422 3:-0.614428 4:0.92775 5:-0.24148 6:-0.238245 7:0.985662 8:0.998104 9:0.989407 10:-0.680961 
3.463953584844354 1:-0.127843 2:-0.17748 3:-0.463668 4:0.465043 5:0.596465 6:-0.100998 7:0.989304 8:0.998153 9:0.925491 10:-0.355844 
0.00925988427227069 1:-0.00885876 2:-0.669505 3:-0.849148 4:-0.119958 5:-0.783375 6:-0.867465 7:0.987429 8:0.998036 9:0.989478 10:-0.106049 
9.575778919986563 1:-0.248904 2:-0.616956 3:-0.764642 4:0.355268 5:-0.16771 6:-0.267134 7:0.984952 8:0.998838 9:0.992465 10:-0.861728 
4.466418862189528 1:-0.372726 2:-0.50785 3:-0.775362 4:-0.0606554 5:-0.586395 6:-0.648062 7:0.984033 8:0.991074 9:0.952795 10:-0.381899 
0.002109417401203448 1:0.627893 2:-0.0121212 3:-0.154545 4:0.773063 5:-0.335989 6:-0.529027 7:0.999971 8:0.99938 9:0.998697 10:0.536677 
1.308759502527829 1:-0.199373 2:-0.0602725 3:-0.220126 4:0.664175 5:0.446047 6:0.385257 7:0.994913 8:0.999667 9:0.998054 10:-0.267298 
0.4025271485873976 1:-0.658689 2:-0.778533 3:-1 4:-0.230684 5:-0.471037 6:-1 7:0.957111 8:0.986599 9:0.814742 10:-0.353421 
4.221760322982837 1:-0.64819 2:-0.703636 3:-1 4:-0.203003 5:-0.412085 6:-1 7:0.976765 8:0.987233 9:0.814742 10:-0.353424 
3.595558244847119 1:-0.233559 2:-0.553489 3:-0.892734 4:0.549359 5:0.0996937 6:-0.585947 7:0.991225 8:0.995248 9:0.933919 10:-0.438881 
17.24584306760143 1:-0.27009 2:-0.490046 3:-0.894198 4:0.402465 5:0.132588 6:-0.582717 7:0.992911 8:0.995977 9:0.935486 10:-0.438879 
0.01767974073887775 1:0.711521 2:0.203874 3:0.140468 4:0.862843 5:-0.171572 6:-0.375842 7:0.997896 8:0.999562 9:0.998783 10:0.536674 
0.8982806446029128 1:-0.242032 2:-0.187765 3:-0.605598 4:0.475943 5:0.401039 6:0.0425602 7:0.981021 8:0.99711 9:0.988871 10:-0.325558 
0.1227838033028389 1:-0.402349 2:-0.0434272 3:-0.56338 4:0.81833 5:-0.777762 6:-0.912054 7:0.977883 8:0.9978 9:0.992515 10:-0.100448 
0.2626944544589991 1:-0.363501 2:-0.785321 3:-0.821839 4:0.631828 5:0.166138 6:0.13199 7:0.986425 8:0.997642 9:0.987169 10:-0.717301 
0.1209855425845783 1:-0.382579 2:-0.574364 3:-0.831063 4:0.69006 5:-0.111431 6:-0.424723 7:0.992528 8:0.998442 9:0.989264 10:-0.833836 
0.001080603230526556 1:-0.195308 2:-0.61291 3:-0.678756 4:0.960331 5:0.804477 6:0.746038 7:0.976922 8:0.996909 9:0.98359 10:-0.955695 
0.8625990506881112 1:-0.189054 2:-0.446605 3:-0.540741 4:0.966376 5:-0.911749 6:-0.919707 7:0.998442 8:0.999664 9:0.997387 10:-0.148393 
1.434912449526182 1:0.00655579 2:-0.236596 3:-0.27907 4:0.572835 5:0.558294 6:0.486658 7:0.992804 8:0.998918 9:0.99404 10:0.0640144 
0.0616325370557056 1:0.276079 2:-0.523103 3:-0.737288 4:0.755858 5:-0.490029 6:-0.60139 7:0.984052 8:0.998161 9:0.989319 10:-0.708268 
0.002138706364293419 1:0.815586 2:-0.276298 3:-0.17418 4:0.988759 5:0.550422 6:0.569703 7:0.999803 8:0.999971 9:0.999839 10:-0.673048 
11.38568064563811 1:-0.749947 2:-0.81808 3:-1 4:-0.877173 5:-0.915597 6:-1 7:0.965626 8:0.997212 9:0.814742 10:-0.203087 
0.4477964450942516 1:0.0163022 2:-0.133573 3:-0.489712 4:0.419922 5:0.362432 6:-0.0325696 7:0.967659 8:0.994401 9:0.953795 10:-0.203089 
5.24935680391132 1:-0.0429292 2:-0.2316 3:-0.547445 4:0.401639 5:0.295321 6:-0.0669491 7:0.969172 8:0.994558 9:0.954777 10:-0.203087 
1.440061900249599 1:-0.0256072 2:-0.24537 3:-0.234568 4:0.671719 5:-0.23969 6:-0.301669 7:0.998916 8:0.996512 9:0.981021 10:-0.599696 
1.19510573947034 1:0.0333482 2:-0.63637 3:-0.785838 4:-0.127743 5:-0.567086 6:-0.666385 7:0.985435 8:0.9972 9:0.983227 10:-0.315247 
0.2005268212332549 1:-0.674425 2:-0.75682 3:-0.841432 4:0.445267 5:-0.634091 6:-0.819668 7:0.987799 8:0.996647 9:0.992488 10:-0.499578 
1.827709244118406 1:-0.846803 2:-0.747015 3:-0.911175 4:-0.833165 5:-0.825844 6:-0.91829 7:0.945115 8:0.989293 9:0.954898 10:-0.148392 
6.413965212016033 1:-0.438899 2:-0.513545 3:-0.829201 4:0.26415 5:0.0517016 6:-0.729516 7:0.94566 8:0.991287 9:0.979653 10:-0.660403 
28.90959997896748 1:-0.52293 2:-0.623407 3:-0.881453 4:-0.109186 5:-0.348741 6:-0.811948 7:0.97511 8:0.99498 9:0.993393 10:-0.660403 
7.458302920401155 1:-0.4199 2:-0.570148 3:-0.803797 4:-0.0172589 5:-0.310886 6:-0.794182 7:0.983483 8:0.993857 9:0.99036 10:-0.660401 
0.009651162820521307 1:0.147096 2:0.455357 3:0.021978 4:0.899246 5:-0.562733 6:-0.699319 7:0.999654 8:0.994145 9:0.984585 10:-0.303148 
0.001120216687309661 1:0.719589 2:-0.643716 3:-0.593443 4:0.971695 5:0.293974 6:0.310067 7:0.999886 8:0.999977 9:0.999875 10:-0.765897 
1.237820277293703 1:-0.127088 2:-0.514881 3:-0.778571 4:0.523219 5:-0.21687 6:-0.528384 7:0.99371 8:0.999406 9:0.994372 10:-0.992703 
16.73211031537823 1:-0.527666 2:-0.723416 3:-1 4:-0.0250225 5:-0.754506 6:-1 7:0.998041 8:0.998406 9:0.814742 10:-0.620362 
0.003151635686125626 1:0.646051 2:0.149043 3:-0.1571 4:0.967457 5:0.661754 6:-0.334163 7:0.998157 8:0.999643 9:0.998075 10:-0.504475 
0.01464989157777053 1:0.952264 2:-0.516798 3:-0.632411 4:0.948654 5:0.275065 6:0.24011 7:0.999857 8:0.999824 9:0.99915 10:-0.537193 
0.279654723130636 1:0.464819 2:-0.162671 3:-0.0445205 4:0.885286 5:0.64645 6:0.666926 7:0.998835 8:0.999844 9:0.999142 10:0.159673 
5.9152235382048 1:-0.265335 2:-0.45937 3:-0.383085 4:0.130361 5:-0.0585618 6:-0.0468536 7:0.983257 8:0.998628 9:0.992473 10:-0.4893 
4.37678324929893 1:-0.155415 2:-0.510216 3:-0.552885 4:0.322057 5:-0.0735062 6:-0.118912 7:0.984652 8:0.998542 9:0.997099 10:-0.489298 
3.989989499720503 1:-0.479651 2:-0.603406 3:-0.547445 4:-0.298716 5:-0.460189 6:-0.453475 7:0.943146 8:0.993023 9:0.96173 10:-0.489299 
32 1:-0.151335 2:-0.400735 3:-0.544118 4:0.475989 5:0.0386288 6:-0.0407446 7:0.990302 8:0.998924 9:0.993457 10:-0.489298 
15.91701079984345 1:-0.188776 2:-0.500613 3:-0.544118 4:0.399529 5:-0.166088 6:-0.229132 7:0.988173 8:0.997732 9:0.997822 10:-0.4893 
0.7964186370804736 1:-0.190923 2:-0.346574 3:-0.728863 4:0.560723 5:0.374886 6:0.118522 7:0.985009 8:0.997897 9:0.928236 10:-0.457729 
0.7303017349976838 1:-0.43933 2:-0.239922 3:-0.552347 4:-0.473387 5:-0.44488 6:-0.803872 7:0.990038 8:0.999212 9:0.98559 10:-0.341904 
0.008367368755538857 1:0.655853 2:-0.514881 3:-0.533835 4:0.966514 5:0.633547 6:0.194938 7:0.998866 8:0.999952 9:0.999501 10:-0.947804 
0.2959170348870197 1:-0.701821 2:-0.571697 3:-0.93018 4:-0.583415 5:-0.589093 6:-0.979516 7:0.983932 8:0.99706 9:0.987946 10:-0.347946 
3.929128967188345 1:0.411033 2:-0.329016 3:-0.626506 4:0.728004 5:-0.462836 6:-0.569664 7:0.991986 8:0.999487 9:0.992732 10:-0.916901 
0.9536638055164542 1:0.547045 2:-0.410446 3:-0.569444 4:0.902794 5:-0.526105 6:-0.589438 7:0.99952 8:0.999931 9:0.999414 10:-0.910264 
0.2621785950189507 1:-0.134545 2:-0.572467 3:-0.721223 4:0.469002 5:0.0674552 6:-0.206202 7:0.996018 8:0.999457 9:0.997786 10:-0.324395 
0.02710750291642264 1:-0.36649 2:-0.649257 3:-0.85446 4:0.923524 5:0.643398 6:-0.166636 7:0.977004 8:0.997098 9:0.981498 10:-0.600264 
0.08663716909314144 1:0.100011 2:-0.361063 3:-0.351916 4:-0.129543 5:-0.743902 6:-0.751597 7:0.975994 8:0.999411 9:0.996822 10:-0.411014 
0.006361126471986601 1:0.662924 2:-0.235173 3:-0.441441 4:0.98961 5:0.812368 6:0.815077 7:0.999679 8:0.999958 9:0.999701 10:-0.959354 
0.01384008346564652 1:-0.247774 2:-0.382576 3:-0.295455 4:0.872777 5:0.792629 6:0.814923 7:0.988225 8:0.998536 9:0.991969 10:-0.959354 
0.5450597713361799 1:-0.202002 2:-0.391791 3:-0.537313 4:0.610842 5:-0.0439549 6:-0.149135 7:0.999996 8:0.99515 9:0.967025 10:-0.379511 
0.008491639653295985 1:0.262209 2:-0.194209 3:-0.474576 4:0.60945 5:-0.0985535 6:-0.52164 7:0.999563 8:0.999881 9:0.995806 10:0.0844174 
0.164478134481583 1:0.00655579 2:-0.26292 3:-0.158915 4:0.581849 5:0.523115 6:0.542057 7:0.992823 8:0.998894 9:0.993935 10:0.0640107 
0.1126188230647153 1:0.15857 2:-0.198736 3:-0.477528 4:0.514971 5:-0.195517 6:-0.425784 7:0.993765 8:0.999388 9:0.995937 10:-0.476586 
0.1340102063405335 1:-0.556597 2:-0.503979 3:-0.825843 4:-0.094757 5:-0.214181 6:-0.876295 7:0.991997 8:0.994173 9:0.987966 10:-0.144833 
3.279021514612015 1:-0.291549 2:-0.80314 3:-0.910145 4:-0.379401 5:-0.840995 6:-0.887123 7:0.883483 8:0.985693 9:0.921222 10:-0.692463 
0.01815882570142476 1:-0.277681 2:-0.866456 3:-0.912921 4:0.137454 5:-0.713615 6:-0.79151 7:0.893593 8:0.983974 9:0.918432 10:-0.692463 
12.63810683758647 1:-0.513687 2:-0.809223 3:-0.912921 4:-0.561693 5:-0.83697 6:-0.909823 7:0.924194 8:0.984626 9:0.912092 10:-0.692463 
3.063941635530416 1:-0.0117523 2:-0.240406 3:-0.592105 4:0.527172 5:0.401551 6:-0.0109137 7:0.989287 8:0.994297 9:0.960054 10:-0.436557 
1.207002535735841 1:0.0155766 2:-0.285088 3:-0.313019 4:0.587628 5:0.0868731 6:0.0349606 7:0.998962 8:0.999865 9:0.998503 10:-0.150913 
4.63425925249707 1:-0.258054 2:-0.728876 3:-0.876248 4:0.26026 5:-0.417353 6:-0.702126 7:0.995538 8:0.988209 9:0.95411 10:-0.32317 
4.876179311048611 1:-0.581767 2:-0.637406 3:-0.87269 4:-0.463285 5:-0.647139 6:-0.904714 7:0.973358 8:0.994961 9:0.980833 10:-0.629403 
7.185799564692211 1:-0.295177 2:-0.693032 3:-0.912429 4:0.0107853 5:-0.310594 6:-0.82928 7:0.999926 8:0.998527 9:0.911774 10:-0.401366 
0.0133342082817991 1:0.443832 2:0.499459 3:0.207792 4:0.974586 5:-0.575035 6:-0.643514 7:0.998413 8:0.999944 9:0.999305 10:-0.10605 
1.761883000971124 1:-0.26602 2:-0.510511 3:-0.441441 4:0.726636 5:-0.783005 6:-0.780306 7:0.998897 8:0.9996 9:0.997809 10:-0.185936 
0.6439649257061288 1:-0.178712 2:-0.452285 3:-0.75 4:0.175978 5:-0.181504 6:-0.495631 7:0.997007 8:0.999514 9:0.996262 10:-0.539722 
1.461113701299642 1:0.118334 2:-0.111371 3:-0.420561 4:0.673529 5:0.183872 6:-0.125309 7:0.994592 8:0.999137 9:0.994706 10:-0.144833 
0.7639405244276589 1:-0.261662 2:-0.898125 3:-1 4:0.343418 5:-0.971552 6:-1 7:0.99668 8:0.984671 9:0.814742 10:-0.411036 
2.304542408763726 1:0.434206 2:-0.555131 3:-0.593886 4:0.901754 5:-0.525145 6:-0.703116 7:0.998149 8:0.999643 9:0.998057 10:-0.956314 
0.6492298725936999 1:0.209134 2:-0.591137 3:-0.688963 4:0.765467 5:-0.347852 6:-0.639345 7:0.992955 8:0.999375 9:0.991563 10:-0.779813 
0.030191930671558 1:-0.0626113 2:0.0496212 3:-0.0136364 4:0.541088 5:0.273548 6:0.187114 7:0.995356 8:0.999217 9:0.996327 10:0.335444 
0.5247194070174319 1:-0.319323 2:-0.825407 3:-0.920308 4:0.824357 5:-0.311718 6:-0.312433 7:0.985096 8:0.997786 9:0.985002 10:-0.967255 
0.0005580134971699219 1:0.637323 2:-0.428311 3:-0.582492 4:0.963595 5:0.596013 6:-0.108997 7:0.998576 8:0.999021 9:0.995201 10:-0.955695 
0.01811441758548633 1:0.380663 2:0.11505 3:0.079602 4:0.950911 5:-0.831978 6:-0.846427 7:0.999316 8:0.999588 9:0.998512 10:-0.614272 
0.7495433970197706 1:-0.266192 2:-0.472327 3:-0.689223 4:-0.156514 5:-0.724687 6:-0.849092 7:0.979276 8:0.992909 9:0.994387 10:-0.517824 
0.01933492884277999 1:0.474729 2:0.336066 3:0.52459 4:0.939937 5:-0.310918 6:-0.302348 7:0.998719 8:0.999531 9:0.997425 10:0.0328784 
1.020110858865895 1:-0.080019 2:-0.514881 3:-0.739496 4:0.842426 5:-0.869017 6:-0.928755 7:0.995524 8:0.995124 9:0.992519 10:-0.492375 
0.009820860683366758 1:0.0702905 2:0.297771 3:0.480892 4:0.926051 5:0.402438 6:0.419879 7:0.999137 8:0.999514 9:0.997332 10:-0.479567 
0.9192423230812982 1:0.113104 2:-0.24537 3:-0.400966 4:0.74926 5:-0.25068 6:-0.374233 7:0.991924 8:0.998953 9:0.992962 10:-0.349277 
2.173978613698954 1:-0.0570392 2:-0.295679 3:-0.311111 4:0.679032 5:-0.320609 6:-0.35467 7:0.994901 8:0.999005 9:0.993103 10:-0.349278 
5.888250632057153 1:-0.0520881 2:-0.319212 3:-0.334129 4:0.237854 5:-0.0542056 6:-0.107668 7:0.979402 8:0.995928 9:0.976214 10:-0.611779 
8.158793854948087 1:0.395065 2:-0.561399 3:-0.818004 4:0.806004 5:-0.500893 6:-0.561836 7:0.99342 8:0.999716 9:0.992853 10:-0.876892 
10.84597180681627 1:-0.641246 2:-0.413447 3:-0.859091 4:-0.532411 5:-0.560531 6:-0.787296 7:0.904231 8:0.973291 9:0.810678 10:-0.328553 
0.01759288078685493 1:-0.162078 2:0.375527 3:-0.607595 4:0.263226 5:-0.0384687 6:-0.603337 7:0.965966 8:0.994508 9:0.979125 10:0.397379 
4.293293083400643 1:0.00916345 2:-0.71848 3:-0.919689 4:0.681177 5:0.294839 6:-0.583559 7:0.991409 8:0.999564 9:0.961689 10:-0.525689 
1.722972863719427 1:0.401908 2:-0.441192 3:-0.803797 4:0.888398 5:-0.321569 6:-0.517033 7:0.998068 8:0.999659 9:0.998725 10:-0.861115 
6.706283006492456 1:-0.452068 2:-0.647186 3:-0.769944 4:-0.148721 5:-0.376914 6:-0.558007 7:0.967488 8:0.993977 9:0.964733 10:-0.315248 
4.109079642504228 1:-0.274825 2:-0.684598 3:-1 4:0.090455 5:-0.6021 6:-1 7:0.961592 8:0.994411 9:0.814742 10:-0.411036 
0.7575154517543745 1:-0.0972653 2:-0.62373 3:-0.828255 4:0.48408 5:-0.445589 6:-0.964812 7:0.992036 8:0.998702 9:0.997337 10:-0.411036 
0.3274041433215955 1:0.100011 2:-0.361063 3:-0.351916 4:-0.260603 5:-0.743557 6:-0.751597 7:0.983046 8:0.999508 9:0.996822 10:-0.411015 
0.2477602797192139 1:-0.225921 2:-0.403108 3:-0.631829 4:0.874754 5:0.421645 6:-0.239159 7:0.976755 8:0.997062 9:0.982052 10:-0.677302 
3.145735495035232 1:0.490338 2:0.0767276 3:-0.054878 4:0.846325 5:0.567207 6:0.430214 7:0.998854 8:0.999945 9:0.999204 10:0.0305216 
0.02669958778625002 1:-0.30269 2:-0.264597 3:-0.308917 4:-0.181571 5:-0.286864 6:-0.383005 7:0.975085 8:0.997293 9:0.982922 10:-0.611781 
1.360588578641724 1:-0.622298 2:-0.589515 3:-0.914835 4:0.193401 5:0.266935 6:-0.954099 7:0.991559 8:0.997909 9:0.802146 10:-0.594205 
0.03103352219110906 1:-0.157312 2:-0.633314 3:-0.63615 4:0.667707 5:-0.138184 6:-0.129251 7:0.995162 8:0.999203 9:0.995609 10:-0.586905 
9.680421894810532 1:-0.337415 2:-0.73557 3:-0.936475 4:-0.337897 5:-0.846771 6:-0.978653 7:0.959626 8:0.98382 9:0.905145 10:-0.393494 
0.6377635395558643 1:-0.598536 2:-0.769544 3:-0.876248 4:0.464717 5:0.189697 6:-0.722302 7:0.892448 8:0.985886 9:0.996419 10:-0.203087 
2.71079085614067 1:-0.0837945 2:-0.20098 3:-0.570934 4:0.787637 5:0.00239418 6:-0.0356307 7:0.951287 8:0.996676 9:0.953957 10:-0.203089 
4.036761940413222 1:-0.520963 2:-0.503049 3:-0.675958 4:0.784823 5:-0.686974 6:-0.748207 7:0.989941 8:0.994777 9:0.970492 10:-0.404282 
0.02202519432011169 1:-0.134362 2:0.131944 3:-0.793333 4:0.499836 5:0.466921 6:-0.624349 7:0.99309 8:0.99725 9:0.988423 10:0.397379 
2.51397539703155 1:-0.645158 2:-0.574042 3:-1 4:-0.273405 5:-0.177789 6:-1 7:0.969115 8:0.996309 9:0.814742 10:-0.341903 
3.982787054148309 1:-0.30503 2:-0.714786 3:-0.918635 4:0.356606 5:-0.521886 6:-0.981263 7:0.977702 8:0.996949 9:0.986434 10:-0.411035 
0.1509379335026102 1:-0.204906 2:-0.232835 3:-0.58804 4:0.887208 5:0.792227 6:0.253803 7:0.978901 8:0.996686 9:0.981631 10:-0.951463 
0.004661410022378976 1:0.583591 2:-0.206472 3:-0.254296 4:0.800443 5:-0.0654969 6:-0.303489 7:0.998736 8:0.999758 9:0.998363 10:0.999999 
1.818953489944999 1:0.00322283 2:0.0120033 3:-0.384106 4:0.510171 5:0.390724 6:0.0576823 7:0.984758 8:0.99822 9:0.979487 10:-0.333467 
1.653500870011295 1:0.199311 2:-0.430639 3:-0.628743 4:0.761543 5:-0.248778 6:-0.455273 7:0.99913 8:0.999916 9:0.999641 10:-0.560301 
0.33817038888907 1:-0.311163 2:-0.603669 3:-0.835544 4:0.676304 5:0.086942 6:-0.78495 7:0.99005 8:0.997963 9:0.986191 10:-0.783437 
7.1067307623084 1:-0.194111 2:-0.493364 3:-0.75 4:0.17142 5:-0.272276 6:-0.495631 7:0.996827 8:0.999135 9:0.996262 10:-0.539719 
0.004481881064756323 1:0.20338 2:0.353027 3:0.453125 4:0.438987 5:0.118439 6:0.100054 7:0.997839 8:0.999104 9:0.99434 10:-0.537197 
0.7723388953007757 1:0.000211954 2:-0.676587 3:-0.778571 4:0.882407 5:-0.00709583 6:-0.829459 7:0.994506 8:0.99973 9:0.994621 10:-0.750046 
6.477958561626805 1:-0.287649 2:-0.50734 3:-0.678756 4:0.167 5:-0.324879 6:-0.524248 7:0.994617 8:0.997152 9:0.984397 10:-0.910222 
0.02192898569226937 1:0.0148368 2:0.567308 3:0.300699 4:0.00686932 5:-0.043151 6:-0.26699 7:0.994774 8:0.999895 9:0.996024 10:-0.00224026 
6.503279832172169 1:0.537912 2:-0.474678 3:-0.657459 4:0.795913 5:-0.555562 6:-0.682191 7:0.996838 8:0.999838 9:0.999443 10:-0.816864 
0.04039725102687499 1:-0.381347 2:-0.196002 3:-0.227414 4:0.138274 5:-0.665113 6:-0.683854 7:0.996686 8:0.996544 9:0.980504 10:-0.303148 
0.001542162296886085 1:0.650699 2:0.00755495 3:0.021978 4:0.835291 5:-0.166653 6:-0.215885 7:0.997346 8:0.999955 9:0.997978 10:0.536677 
0.2924168261378471 1:0.0493624 2:-0.586993 3:-1 4:0.602939 5:-0.658033 6:-1 7:0.993119 8:0.998381 9:0.814742 10:-0.124154 
2.456452157844782 1:-0.653803 2:-0.692162 3:-0.912181 4:-0.390465 5:-0.714484 6:-0.960036 7:0.981867 8:0.990053 9:0.907836 10:-0.310992 
5.989936904068658 1:0.479101 2:-0.0944444 3:0.0333333 4:0.800566 5:0.455448 6:0.473549 7:0.998308 8:0.999293 9:0.996124 10:0.308928 
2.727000923853667 1:-0.403561 2:-0.5963 3:-0.783217 4:0.131172 5:-0.0613992 6:-0.478708 7:0.997452 8:0.992344 9:0.96847 10:-0.470474 
1.580910053521508 1:-0.30383 2:-0.522461 3:-0.636719 4:0.232331 5:0.0580753 6:-0.340471 7:0.989431 8:0.999081 9:0.998245 10:-0.470473 
8.508632851941119 1:-0.314865 2:-0.390781 3:-0.69103 4:-0.18601 5:-0.245084 6:-0.354918 7:0.988512 8:0.997292 9:0.982844 10:0.0183766 
15.94761737774269 1:-0.5013 2:-0.50988 3:-0.680412 4:-0.241882 5:-0.255427 6:-0.302087 7:0.98054 8:0.996597 9:0.979386 10:0.0183768 
32 1:-0.407908 2:-0.565649 3:-0.909884 4:-0.325489 5:-0.57859 6:-0.925522 7:0.975501 8:0.997947 9:0.903845 10:-0.523915 
3.435257464069764 1:-0.516261 2:-0.705694 3:-0.896667 4:-0.161966 5:-0.654082 6:-0.755166 7:0.961525 8:0.991664 9:0.901186 10:-0.645717 
0.2839679707974973 1:0.0984389 2:-0.204989 3:-0.170569 4:0.317962 5:-0.028324 6:-0.0224542 7:0.996509 8:0.998841 9:0.993804 10:-0.684025 
0.01232918378463934 1:0.558148 2:-0.9185 3:-1 4:0.762948 5:-0.979685 6:-1 7:0.993195 8:0.998736 9:0.814742 10:-0.0133228 
0.002775490673066927 1:0.283518 2:0.234848 3:-0.231405 4:0.393965 5:0.429373 6:-0.566461 7:0.953816 8:0.990779 9:0.97475 10:-0.55361 
4.214359562853924 1:0.0763552 2:-0.47544 3:-0.495935 4:0.587526 5:-0.306715 6:-0.315665 7:0.986315 8:0.998256 9:0.991419 10:-0.610005 
0.2770405957032648 1:-0.0149015 2:-0.555858 3:-0.746594 4:0.670923 5:0.501786 6:0.366066 7:0.991929 8:0.998892 9:0.993994 10:-0.781604 
0.2335733086224611 1:-0.293202 2:-0.614801 3:-0.907463 4:0.510429 5:0.318718 6:-0.688281 7:0.959749 8:0.987722 9:0.997453 10:-0.781603 
0.6578846395145962 1:0.926698 2:-0.281062 3:-0.650901 4:0.967999 5:-0.312953 6:-0.531041 7:0.999221 8:0.995641 9:0.999003 10:-0.67007 
1.255226176199286 1:-0.175798 2:-0.638581 3:-0.793792 4:0.178268 5:-0.516667 6:-0.717419 7:0.98043 8:0.992368 9:0.975279 10:-0.238852 
11.66731257840388 1:-0.124648 2:-0.544375 3:-0.870021 4:0.144208 5:-0.198866 6:-0.654433 7:0.99792 8:0.999103 9:0.992749 10:-0.539722 
15.41326763296666 1:0.207586 2:-0.248353 3:-0.142292 4:0.901748 5:0.485876 6:0.504355 7:0.998931 8:0.999341 9:0.996387 10:0.0632864 
1.765252057294652 1:-0.0504694 2:-0.137124 3:-0.491803 4:0.521611 5:0.156324 6:0.135809 7:0.999525 8:0.995819 9:0.918071 10:-0.203087 
0.7413504912902525 1:0.761622 2:-0.302539 3:-0.63468 4:0.892795 5:-0.375779 6:-0.439146 7:0.999483 8:0.99956 9:0.997455 10:-0.695541 
2.395534280130363 1:-0.322335 2:-0.611422 3:-0.845771 4:0.038569 5:-0.493774 6:-0.724808 7:0.985911 8:0.989171 9:0.979529 10:-0.315248 
0.01254777230413836 1:0.582944 2:0.801268 3:0.752174 4:0.975971 5:-0.616371 6:-0.643941 7:0.999811 8:0.99956 9:0.999508 10:0.0705455 
0.5200261131704744 1:0.0956773 2:-0.505804 3:-0.677755 4:0.753577 5:-0.650433 6:-0.681819 7:0.994618 8:0.997501 9:0.981784 10:-0.995772 
0.830847552909239 1:-0.159575 2:-0.384574 3:-0.598706 4:0.537364 5:0.51812 6:0.254386 7:0.988854 8:0.996426 9:0.972687 10:-0.00223828 
1.01291723232415 1:-0.0553325 2:-0.508296 3:-0.438914 4:0.82638 5:0.455369 6:0.473469 7:0.99876 8:0.998998 9:0.994507 10:0.167002 
1.024917739284804 1:-0.256287 2:-0.493159 3:-0.66951 4:0.706611 5:0.70067 6:-0.147593 7:0.980248 8:0.996818 9:0.983373 10:-0.800494 
1.613089987252235 1:0.138288 2:-0.766424 3:-0.917989 4:0.0837921 5:-0.609862 6:-0.961282 7:0.956495 8:0.991317 9:0.975328 10:0.00868114 
1.531722739768818 1:-0.30388 2:-0.415401 3:-0.921519 4:-0.22739 5:-0.304164 6:-0.769888 7:0.991423 8:0.998745 9:0.956152 10:0.00868265 
0.009479590354437555 1:0.60222 2:-0.648707 3:-0.599138 4:0.978753 5:0.441001 6:0.458922 7:0.999757 8:0.999989 9:0.999938 10:-0.821667 
0.4678355787909441 1:0.172308 2:-0.309322 3:-0.474576 4:-0.326708 5:-0.68369 6:-0.73224 7:0.993343 8:0.997711 9:0.988903 10:-0.216995 
2.538273120998006 1:-0.188034 2:-0.265766 3:-0.664865 4:0.418415 5:-0.804927 6:-0.920249 7:0.978625 8:0.999866 9:0.990395 10:-0.364369 
0.01926699833742247 1:-0.411721 2:0.15767 3:0.0568182 4:-0.698623 5:-0.684508 6:-0.725293 7:0.964142 8:0.996278 9:0.984046 10:-0.198724 
4.19272309486916 1:-0.258913 2:-0.537656 3:-0.56338 4:-0.450097 5:-0.769029 6:-0.79264 7:0.991823 8:0.998577 9:0.992606 10:-0.239403 
5.488414379298883 1:-0.491818 2:-0.593313 3:-0.814371 4:0.170419 5:-0.246573 6:-0.549805 7:0.998407 8:0.98479 9:0.776727 10:-0.714303 
0.1372932532395437 1:-0.0672005 2:-0.033944 3:-0.599138 4:0.608317 5:0.632525 6:-0.602633 7:0.997482 8:0.997886 9:0.97728 10:-0.419475 
0.9899961466204279 1:-0.413789 2:-0.754703 3:-0.930023 4:0.231392 5:-0.103699 6:-0.730142 7:0.970509 8:0.989573 9:0.994662 10:-0.781603 
0.001567863398381086 1:0.448388 2:0.448889 3:0.653333 4:0.94981 5:-0.563455 6:-0.558026 7:0.999534 8:0.999959 9:0.999774 10:-0.105454 
5.622301048522329 1:-0.0769504 2:-0.350598 3:-0.505976 4:0.843222 5:-0.351227 6:-0.401966 7:0.998057 8:0.998826 9:0.993576 10:-0.634853 
1.060370569146206 1:-0.664392 2:-0.413447 3:-0.859091 4:0.0205185 5:0.153368 6:-0.787296 7:0.986247 8:0.998248 9:0.810678 10:-0.32855 
1.103974007150825 1:0.714035 2:-0.518701 3:-0.633858 4:0.839498 5:-0.47803 6:-0.515227 7:0.9983 8:0.999844 9:0.99935 10:-0.899899 
0.06091234730984773 1:0.190954 2:-0.731722 3:-0.742204 4:-0.258899 5:-0.600056 6:-0.599468 7:0.994992 8:0.999969 9:0.999607 10:-0.499578 
5.455755836189153 1:-0.6646 2:-0.715319 3:-0.814371 4:-0.614079 5:-0.635655 6:-0.812822 7:0.98092 8:0.996567 9:0.994013 10:-0.499578 
32 1:0.0349569 2:-0.47544 3:-0.495935 4:0.578251 5:-0.297414 6:-0.315665 7:0.986488 8:0.998579 9:0.991419 10:-0.610005 
0.2014854499946185 1:-0.479851 2:-0.269713 3:-0.666667 4:0.686814 5:-0.822172 6:-0.894276 7:0.996747 8:0.993866 9:0.973108 10:-0.427984 
0.9238795686409744 1:-0.175241 2:-0.789554 3:-0.825352 4:0.405319 5:-0.364817 6:-0.771444 7:0.983523 8:0.9966 9:0.981297 10:-0.878648 
2.549492184897792 1:0.0296818 2:-0.303901 3:-0.398892 4:0.606795 5:0.0854134 6:-0.00411989 7:0.998311 8:0.999892 9:0.998227 10:-0.150911 
0.008450769495426528 1:-0.239128 2:-1 3:-1 4:0.16568 5:-1 6:-1 7:0.997709 8:0.966224 9:0.814742 10:0.118392 
0.01680272509702749 1:-0.44994 2:-0.119599 3:-0.425926 4:0.546751 5:0.812762 6:0.166074 7:0.999251 8:0.999782 9:0.998204 10:0.454454 
0.005849043558635055 1:-0.609278 2:-0.293936 3:-0.539604 4:0.407602 5:0.662097 6:0.0863672 7:0.995603 8:0.999575 9:0.99542 10:0.454451 
9.99926750138156 1:-0.622298 2:-0.589515 3:-0.914835 4:-0.457477 5:-0.545304 6:-0.954099 7:0.953891 8:0.993028 9:0.802146 10:-0.594205 
0.001855465191495988 1:0.133107 2:0.455357 3:0.021978 4:0.688546 5:-0.520571 6:-0.716236 7:0.993002 8:0.995308 9:0.964558 10:-0.303147 
0.0101027211957913 1:0.203561 2:0.234848 3:0.409091 4:0.176489 5:-0.516298 6:-0.510283 7:0.995922 8:0.997656 9:0.987141 10:-0.303148 
1.788610856159541 1:-0.238155 2:-0.63523 3:-0.762148 4:0.2226 5:-0.196252 6:-0.471767 7:0.998047 8:0.999421 9:0.990848 10:-0.633036 
18.06759731321236 1:-0.354782 2:-0.674372 3:-0.787671 4:0.0242999 5:-0.339515 6:-0.565903 7:0.989593 8:0.998764 9:0.999325 10:-0.633036 
8.992998708229592 1:-0.401948 2:-0.772092 3:-0.895973 4:0.488043 5:-0.181501 6:-0.273123 7:0.989584 8:0.997933 9:0.986528 10:-0.726444 
1.912839179050315 1:-0.362473 2:-0.572092 3:-0.699515 4:0.207667 5:-0.368441 6:-0.430784 7:0.998225 8:0.998696 9:0.9954 10:-0.68339 
11.25099577653235 1:-0.270475 2:-0.673478 3:-0.761538 4:0.0595994 5:-0.364432 6:-0.402306 7:0.990679 8:0.998715 9:0.992606 10:-0.633034 
0.6991509393794874 1:-0.366408 2:-0.674372 3:-0.787671 4:0.0879087 5:-0.257712 6:-0.483083 7:0.978141 8:0.996135 9:0.977138 10:-0.633034 
1.580932411876147 1:-0.0599407 2:-0.442735 3:-0.682051 4:0.939734 5:0.631458 6:-0.12855 7:0.994093 8:0.998698 9:0.993821 10:-0.603923 
0.0155686832466795 1:-0.268972 2:-0.260314 3:-0.386139 4:0.337914 5:-0.0153259 6:-0.152722 7:0.98968 8:0.997322 9:0.984288 10:0.929283 
0.005722679161972694 1:0.497644 2:0.525401 3:0.491979 4:0.94396 5:0.325758 6:-0.498917 7:0.999081 8:0.999476 9:0.996457 10:-0.306806 
0.01006210924388751 1:0.458642 2:0.273438 3:0.453125 4:0.721946 5:-0.515764 6:-0.509742 7:0.999151 8:0.999854 9:0.999198 10:-0.306806 
0.1188508020128843 1:-0.139482 2:-0.753375 3:-0.913408 4:0.599884 5:0.599676 6:0.209977 7:0.994254 8:0.999463 9:0.993423 10:-0.425582 
0.2865684892005632 1:-0.0988406 2:-0.696592 3:-0.893471 4:0.736699 5:0.668164 6:0.232445 7:0.999358 8:0.999974 9:0.995975 10:-0.42558 
0.2706132898211026 1:-0.235109 2:-0.300429 3:-0.201717 4:0.621509 5:0.0819527 6:0.0954085 7:0.999361 8:0.999537 9:0.997461 10:-0.590564 
4.016565145682417 1:-0.326726 2:-0.894352 3:-0.931111 4:-0.216264 5:-0.847219 6:-0.862922 7:0.992277 8:0.999396 9:0.999017 10:-0.523913 
1.492782863413811 1:-0.00695667 2:-0.718188 3:-0.871369 4:-0.068548 5:-0.729268 6:-0.868197 7:0.948118 8:0.991381 9:0.960907 10:-0.216357 
0.3851183501075853 1:-0.207913 2:-0.597531 3:-0.540741 4:0.966131 5:-0.920693 6:-0.919707 7:0.998412 8:0.999524 9:0.997387 10:-0.148392 
0.9484001432653462 1:-0.384618 2:-0.0665482 3:-0.706161 4:-0.0806394 5:-0.251828 6:-0.928869 7:0.96242 8:0.990436 9:0.98562 10:-0.258276 
11.31920705095022 1:-0.653803 2:-0.692162 3:-0.912181 4:-0.390465 5:-0.714484 6:-0.960036 7:0.981867 8:0.990053 9:0.907836 10:-0.310992 
0.973216649615586 1:-0.204377 2:-0.685064 3:-0.875 4:0.086817 5:-0.55797 6:-0.912256 7:0.918587 8:0.978265 9:0.902002 10:-0.393494 
1.75600169129004 1:0.0422198 2:-0.523392 3:-0.637427 4:0.478471 5:-0.40255 6:-0.423659 7:0.969629 8:0.996694 9:0.97916 10:-0.393492 
0.07359532995392407 1:-0.0951519 2:-0.195412 3:-0.567944 4:0.767577 5:-0.369471 6:-0.499214 7:0.992448 8:0.999367 9:0.999169 10:0.0183768 
0.514409898457122 1:-0.573215 2:-0.489644 3:-0.820809 4:-0.117433 5:-0.411217 6:-0.780706 7:0.996423 8:0.995924 9:0.996903 10:0.234322 
0.07550904405198061 1:0.0343101 2:0.238064 3:-0.03125 4:0.753986 5:0.757498 6:0.262587 7:0.996836 8:0.999788 9:0.999473 10:0.282332 
0.6923188371161432 1:-0.392173 2:-0.663476 3:-0.720721 4:0.542064 5:0.207579 6:-0.331188 7:0.9558 8:0.985018 9:0.929161 10:-0.600264 
0.01654642932304755 1:-0.650666 2:-0.731492 3:-0.855814 4:0.243569 5:0.0158725 6:-0.522309 7:0.972292 8:0.995419 9:0.95667 10:-0.600264 
0.4555384619781313 1:-0.487071 2:-0.726343 3:-0.772894 4:0.564035 5:0.297761 6:-0.309766 7:0.937119 8:0.98481 9:0.931263 10:-0.600263 
0.01826540121534398 1:-0.575668 2:-0.570642 3:-0.643678 4:0.819075 5:0.561197 6:-0.159279 7:0.876652 8:0.983394 9:0.9231 10:-0.600262 
0.002169948632325891 1:0.11894 2:0.254512 3:0.283439 4:0.931784 5:-0.540063 6:-0.549394 7:0.999022 8:0.999567 9:0.99718 10:-0.479567 
10.67477865281061 1:0.0436282 2:-0.60229 3:-0.650901 4:0.673328 5:-0.42398 6:-0.459236 7:0.993736 8:0.998762 9:0.994578 10:-0.457166 
0.1309371200678694 1:-0.477312 2:-0.370309 3:-0.589404 4:0.72225 5:-0.632922 6:-0.721794 7:0.982409 8:0.9975 9:0.992602 10:-0.19452 
2.244076961593504 1:-0.830893 2:-0.749385 3:-0.885609 4:-0.713211 5:-0.681642 6:-0.906162 7:0.979903 8:0.998644 9:0.978992 10:-0.194519 
10.24508753725794 1:-0.393106 2:-0.44719 3:-0.639535 4:0.680088 5:-0.649638 6:-0.739413 7:0.998945 8:0.996749 9:0.988772 10:-0.19452 
1.915055882898582 1:-0.441668 2:-0.463816 3:-0.864035 4:0.383699 5:-0.774435 6:-0.892463 7:0.885944 8:0.993128 9:0.933264 10:-0.105452 
11.79201502705995 1:-0.707357 2:-0.687739 3:-1 4:-0.632993 5:-0.769777 6:-1 7:0.977918 8:0.998698 9:0.814742 10:-0.172082 
-1.521903424304962 1:-0.431428 2:-0.58391 3:-0.938735 4:0.232845 5:0.0489095 6:-0.746744 7:0.994838 8:0.997336 9:-0.617833 10:-0.770102 
-2.7907624502625 1:-0.469585 2:-0.575521 3:-0.757812 4:-0.190543 5:-0.227297 6:-0.338336 7:0.979526 8:0.996338 9:0.984211 10:0.00868265 
-32 1:-0.431826 2:-0.481992 3:-0.737288 4:-0.18448 5:-0.255005 6:-0.361902 7:0.983967 8:0.996956 9:0.986316 10:0.00868061 
-3.346019612676394 1:-0.0876341 2:-0.703995 3:-0.774818 4:0.367588 5:-0.282694 6:-0.379901 7:0.995862 8:0.996353 9:0.979831 10:0.00868337 
-0.08516465948874911 1:-0.947324 2:-1 3:-1 4:-0.98848 5:-1 6:-1 7:0.0431135 8:0.966224 9:0.814742 10:-0.358323 
-3.876531298672796 1:-0.22457 2:-0.207064 3:-0.685279 4:0.80953 5:0.704268 6:0.029734 7:0.996429 8:0.999428 9:0.994145 10:-0.503269 
-3.277529892315176 1:-0.454065 2:-0.795842 3:-1 4:-0.0295317 5:-0.6786 6:-1 7:0.959523 8:0.995343 9:0.814742 10:-0.852006 
-1.035795083977848 1:-0.843323 2:-0.874615 3:-1 4:-0.904376 5:-0.956977 6:-1 7:-1 8:0.182638 9:0.814742 10:-0.116916 
-4.383271950557967 1:-0.516583 2:-0.828059 3:-1 4:-0.0393958 5:-0.566329 6:-1 7:0.992743 8:0.995029 9:0.814742 10:-0.599699 
-5.702142046016672 1:-0.559715 2:-0.336153 3:-0.766917 4:-0.203734 5:-0.332239 6:-0.626897 7:0.977236 8:0.994414 9:0.781587 10:-0.503269 
-6.751169066452392 1:-0.17127 2:-0.521393 3:-0.687919 4:0.403229 5:0.0203722 6:-0.384905 7:0.977124 8:0.996654 9:0.980545 10:-0.503268 
-0.00189680211742396 1:-0.41876 2:-0.497722 3:-0.501608 4:0.329131 5:-0.873381 6:-0.880135 7:0.988189 8:0.998706 9:0.994301 10:-0.356498 
-4.056665618430812 1:-0.418914 2:-0.648431 3:-0.927059 4:0.367249 5:-0.174045 6:-0.759252 7:0.919041 8:0.990069 9:0.51718 10:-0.503268 
-0.5963466818859872 1:-0.877301 2:-1 3:-1 4:-0.984565 5:-1 6:-1 7:-0.847399 8:0.966224 9:0.814742 10:-0.212149 
-8.570366454346061 1:-0.908527 2:-1 3:-1 4:-0.691476 5:-1 6:-1 7:0.901958 8:0.966224 9:0.814742 10:-0.22364 
-5.097583348985494 1:-0.461822 2:-0.337398 3:-0.243902 4:0.0791676 5:-0.141209 6:-0.130528 7:0.99905 8:0.99891 9:0.994022 10:-0.223644 
-1.466745253966875 1:-0.819575 2:-1 3:-1 4:-0.68954 5:-1 6:-1 7:0.111845 8:0.966224 9:0.814742 10:-0.590567 
-20.12299252358688 1:-0.445201 2:-0.594527 3:-0.814925 4:-0.107245 5:-0.435043 6:-0.629292 7:0.931354 8:0.98899 9:0.961913 10:-0.47174 
-0.592276005125886 1:-0.65611 2:-0.951718 3:-1 4:-0.241004 5:-0.701665 6:-1 7:0.863907 8:-0.0383598 9:0.814742 10:-0.765897 
-0.6355011731390936 1:-0.864049 2:-0.703277 3:-1 4:-0.949966 5:-0.940625 6:-1 7:0.730613 8:0.950882 9:0.814742 10:-0.131992 
-8.196567838720123 1:-0.233362 2:-0.4193 3:-0.769517 4:0.473306 5:0.0408529 6:-0.518897 7:0.99022 8:0.997446 9:0.988626 10:-0.506927 
-0.9019262119570441 1:-0.404129 2:-0.598601 3:-0.926714 4:0.451875 5:0.135165 6:-0.700792 7:0.959858 8:0.993894 9:0.94188 10:-0.506926 
-12.31540079249439 1:-0.130194 2:-0.492438 3:-0.669039 4:0.782709 5:-0.438037 6:-0.483515 7:0.994467 8:0.99894 9:0.993301 10:-0.503269 
-0.5028325396305934 1:-0.692725 2:-0.882902 3:-1 4:-0.360482 5:-0.726545 6:-1 7:0.687097 8:0.562752 9:0.814742 10:-0.821667 
-1.72008513830436 1:-0.738201 2:-0.895244 3:-1 4:-0.168077 5:-0.283431 6:-1 7:0.985371 8:-0.275199 9:0.814742 10:-0.599699 
-14.41707705187623 1:-0.675511 2:-0.700368 3:-1 4:-0.0374339 5:-0.701583 6:-1 7:0.963635 8:0.996545 9:0.814742 10:-0.617882 
-5.49687761722896 1:-0.888613 2:-1 3:-1 4:-0.967884 5:-1 6:-1 7:0.925838 8:0.966224 9:0.814742 10:-0.318883 
-0.008415408703057238 1:-0.435504 2:-0.354638 3:-0.579186 4:0.251734 5:-0.733092 6:-0.943568 7:0.996997 8:0.999617 9:0.999543 10:-0.212149 
-31.24778555487586 1:-0.835742 2:-1 3:-1 4:-0.924016 5:-1 6:-1 7:0.997555 8:0.966224 9:0.814742 10:-0.116918 
-24.19632806458312 1:-0.502226 2:-0.455796 3:-0.900641 4:0.0657283 5:0.0258117 6:-0.932296 7:0.988322 8:0.996305 9:0.833325 10:-0.503269 
-0.1800358879385028 1:-0.58173 2:-0.75744 3:-1 4:0.00994487 5:-0.386583 6:-1 7:0.95989 8:0.995889 9:0.814742 10:-0.865926 
-1.058997208991368 1:-0.83933 2:-0.769215 3:-0.849515 4:0.227211 5:-0.695152 6:-0.9786 7:0.997316 8:0.679555 9:0.908073 10:-0.32855 
-0.502849048431495 1:-0.746553 2:-0.692685 3:-0.859729 4:0.288438 5:-0.672926 6:-0.980538 7:0.998262 8:0.943468 9:0.926211 10:-0.32855 
-2.35033439903008 1:-0.428268 2:-0.618713 3:-0.891228 4:-0.466615 5:-0.833123 6:-0.917884 7:0.941619 8:0.970961 9:0.193907 10:-0.328553 
-0.4863704349768785 1:-0.832919 2:-0.936328 3:-1 4:-0.458235 5:-0.542826 6:-1 7:0.813783 8:0.108701 9:0.814742 10:-0.542107 
-0.9098327376142259 1:-0.844756 2:-0.875762 3:-1 4:-0.446102 5:-0.461591 6:-1 7:0.782882 8:0.457762 9:0.814742 10:-0.542109 
-12.1507910135424 1:-0.137647 2:-0.430376 3:-0.8 4:0.504167 5:0.0795754 6:-0.528593 7:0.998623 8:0.999229 9:0.991514 10:-0.506926 
-31.05076207123053 1:-0.483285 2:-0.523831 3:-0.885609 4:-0.170567 5:-0.352107 6:-0.82958 7:0.981629 8:0.993978 9:0.848133 10:-0.506926 
-0.5137233223283059 1:-0.757896 2:-0.9375 3:-1 4:-0.738849 5:-0.744049 6:-1 7:0.333376 8:-0.934417 9:0.814742 10:-0.634853 
-1.254779369332669 1:-0.675964 2:-0.925909 3:-1 4:-0.787133 5:-0.798721 6:-1 7:0.430522 8:-1 9:0.814742 10:-0.634853 
-0.5935251789106193 1:-0.74634 2:-0.924815 3:-1 4:-0.899463 5:-0.922916 6:-1 7:0.384169 8:-0.642314 9:0.814742 10:-0.634853 
-1.434540967284058 1:-0.83541 2:-0.917677 3:-1 4:-0.769466 5:-0.796715 6:-1 7:0.343627 8:0.0430912 9:0.814742 10:-0.634853 
-18.40884577950741 1:0.155562 2:-0.17297 3:-0.313653 4:0.727385 5:0.151897 6:0.103923 7:0.996458 8:0.999897 9:0.998568 10:-0.258279 
-0.5066760127307557 1:-0.80621 2:-0.946522 3:-1 4:-0.949105 5:-0.997176 6:-1 7:0.998351 8:0.991744 9:0.814742 10:-0.405015 
-10.5771734026704 1:-0.256082 2:-0.555206 3:-0.609572 4:-0.40984 5:-0.837819 6:-0.863083 7:0.972899 8:0.996567 9:0.991044 10:-0.366195 
-3.083740306845218 1:-0.17446 2:-0.759423 3:-0.915531 4:-0.0858471 5:-0.524922 6:-0.961743 7:0.967761 8:0.989437 9:0.978086 10:0.00868268 
-4.934471137338397 1:-0.465927 2:-0.707256 3:-1 4:-0.511314 5:-0.579862 6:-1 7:0.962332 8:0.994301 9:0.814742 10:0.00868209 
-31.49871435136323 1:-0.39811 2:-0.582545 3:-0.853428 4:0.453592 5:0.136039 6:-0.574056 7:0.959908 8:0.993944 9:0.91872 10:-0.506927 
-3.204766427746673 1:-0.628584 2:-0.712353 3:-1 4:-0.319868 5:-0.339469 6:-1 7:0.941676 8:0.985511 9:0.814742 10:-0.506926 
-5.756075966971872 1:-0.830267 2:-0.876515 3:-1 4:-0.931681 5:-0.96829 6:-1 7:0.979397 8:0.998416 9:0.814742 10:-0.341898 
-0.7626868094205206 1:-0.649021 2:-0.955416 3:-1 4:-0.296153 5:-0.869122 6:-1 7:0.960732 8:0.0496958 9:0.814742 10:-0.821666 
-0.1550413895451415 1:-0.612091 2:-0.956277 3:-1 4:-0.436323 5:-0.885955 6:-1 7:0.77929 8:0.0768328 9:0.814742 10:-0.821667 
-28.49589682726648 1:0.380691 2:-0.454899 3:-0.73102 4:0.820964 5:-0.478664 6:-0.633719 7:0.99463 8:0.999684 9:0.99151 10:-0.916901 
-1.080318810517735 1:-0.427867 2:-0.74563 3:-0.883895 4:-0.0868903 5:-0.616822 6:-0.888715 7:0.984116 8:0.999151 9:0.508056 10:-0.990905 
-7.155721122180139 1:-0.808091 2:-0.897613 3:-1 4:-0.729963 5:-0.981778 6:-1 7:0.999481 8:0.869577 9:0.814742 10:-0.123581 
-0.1327036511697873 1:-0.764727 2:-1 3:-1 4:-0.804864 5:-1 6:-1 7:0.939047 8:0.966224 9:0.814742 10:-0.238847 
-10.53189425950438 1:-0.28121 2:-0.76704 3:-0.918206 4:-0.361691 5:-0.754262 6:-0.889892 7:0.995414 8:0.997922 9:0.999132 10:-0.471737 
-0.4130159627562379 1:-0.936614 2:-1 3:-1 4:-0.979391 5:-1 6:-1 7:0.251172 8:0.966224 9:0.814742 10:-0.358323 
-15.80045059707554 1:0.017261 2:-0.499721 3:-0.584821 4:0.564953 5:-0.273372 6:-0.392414 7:0.996354 8:0.998587 9:0.994264 10:-0.549399 
-2.3549945868253 1:-0.100183 2:-0.497603 3:-0.490411 4:0.501214 5:-0.334024 6:-0.330302 7:0.991579 8:0.99989 9:0.999317 10:-0.549397 
-0.4124374416901987 1:-0.493503 2:-0.621684 3:-1 4:-0.372765 5:-0.622288 6:-1 7:0.976868 8:0.992561 9:0.814742 10:-0.549397 
-1.826819144107542 1:-0.146472 2:-0.47457 3:-0.467049 4:0.538085 5:-0.319887 6:-0.323491 7:0.990228 8:0.999815 9:0.998816 10:-0.549397 
-1.888481397349457 1:-0.680012 2:-0.517532 3:-0.830601 4:-0.053355 5:-0.876507 6:-0.911 7:0.911827 8:0.998507 9:0.981813 10:-0.332209 
-5.257507556738552 1:0.119005 2:-0.534442 3:-0.75 4:-0.109295 5:-0.68847 6:-0.804973 7:0.954194 8:0.992494 9:0.936591 10:-0.33221 
-2.71687423515837 1:-0.616182 2:-0.453936 3:-0.844221 4:-0.174911 5:-0.852056 6:-0.914576 7:0.893643 8:0.998795 9:0.985009 10:-0.332209 
-2.380230751949152 1:-0.666099 2:-0.406193 3:-0.830601 4:0.220993 5:-0.511843 6:-0.911 7:0.988032 8:0.968503 9:0.981813 10:-0.332214 
-10.26625399249029 1:-0.046191 2:-0.0183137 3:-0.359882 4:0.654912 5:0.556359 6:0.0710077 7:0.991766 8:0.998696 9:0.991269 10:-0.258277 
-11.77507985072094 1:-0.517991 2:-0.241707 3:-0.699029 4:-0.104712 5:-0.222094 6:-0.944408 7:0.965042 8:0.985985 9:0.990034 10:-0.258276 
-0.4299898500383109 1:-0.353769 2:-0.397681 3:-0.810398 4:0.125166 5:0.171381 6:-0.935705 7:0.998248 8:0.999663 9:0.99223 10:-0.948435 
-1.418433978405297 1:-0.501193 2:-0.445578 3:-0.746939 4:0.0625656 5:0.140199 6:-0.935211 7:0.888477 8:0.964543 9:0.993835 10:-0.948435 
-31.56887676273592 1:-0.137647 2:-0.430376 3:-0.8 4:0.500603 5:0.0721701 6:-0.533096 7:0.998282 8:0.999121 9:0.992615 10:-0.506927 
-30.3035659499143 1:-0.319605 2:-0.604795 3:-0.799569 4:0.0930108 5:-0.260197 6:-0.567358 7:0.97123 8:0.994752 9:0.984889 10:-0.506926 
-22.89932654603902 1:-0.504946 2:-0.601723 3:-0.904321 4:-0.130294 5:-0.17582 6:-0.98057 7:0.992322 8:0.991476 9:0.905942 10:-0.506927 
-32 1:-0.447694 2:-0.532848 3:-0.835979 4:-0.0370302 5:-0.251438 6:-0.685907 7:0.99452 8:0.996934 9:0.947503 10:-0.549399 
-1.707811032711524 1:-0.188234 2:-0.753925 3:-0.887681 4:-0.173101 5:-0.667065 6:-0.917966 7:0.992734 8:0.999475 9:0.995994 10:-0.549398 
-0.182289667226974 1:-0.363501 2:-0.705694 3:-0.896667 4:0.496307 5:-0.396367 6:-0.855549 7:0.982404 8:0.992864 9:0.944625 10:-0.990906 
-0.652271358585838 1:-0.245324 2:-0.579669 3:-0.899023 4:0.541757 5:-0.283382 6:-0.862641 7:0.988737 8:0.996646 9:0.969951 10:-0.990906 
-0.4677741124666356 1:-1 2:-1 3:-1 4:-1 5:-1 6:-1 7:0.729614 8:0.966224 9:0.814742 10:-0.728897 
-1.841793882902899 1:-0.016479 2:-0.460388 3:-0.575342 4:0.595721 5:-0.310097 6:-0.361323 7:0.994978 8:0.999844 9:0.995828 10:0.00868209 
-2.073962244569909 1:-0.0345466 2:-0.522299 3:-0.525994 4:0.54695 5:-0.343501 6:-0.345884 7:0.997691 8:0.999336 9:0.995419 10:0.00868037 
-0.8426437434993759 1:-0.566639 2:-0.602615 3:-0.917553 4:0.0403231 5:-0.068609 6:-0.416221 7:0.912364 8:0.975837 9:0.890384 10:-0.619092 
-4.842590110892083 1:-0.169122 2:-0.53231 3:-0.535928 4:0.63986 5:-0.859532 6:-0.866565 7:0.996454 8:0.996492 9:0.989432 10:-0.366195 
-17.89066152698464 1:0.011578 2:-0.560361 3:-0.654018 4:0.646834 5:-0.324927 6:-0.42397 7:0.997847 8:0.998785 9:0.997859 10:-0.549399 
-4.708248915158052 1:-0.0719036 2:-0.414511 3:-0.618227 4:0.706104 5:-0.201397 6:-0.373623 7:0.995096 8:0.998344 9:0.994909 10:-0.549397 
-6.913289614315924 1:-0.538863 2:-0.636161 3:-1 4:-0.0427706 5:-0.488603 6:-1 7:0.996692 8:0.999392 9:0.814742 10:-0.549397 
-9.752365007837319 1:-0.441722 2:-0.672691 3:-0.850602 4:-0.0447968 5:-0.501228 6:-0.771105 7:0.997422 8:0.998944 9:0.977329 10:-0.549399 
-1.80205478281745 1:-0.537668 2:-0.949316 3:-1 4:0.36795 5:-0.938519 6:-1 7:0.964744 8:0.997879 9:0.814742 10:-0.595477 
-18.43797269895521 1:0.0562328 2:-0.369195 3:-0.424149 4:0.624086 5:-0.262043 6:-0.291562 7:0.999836 8:0.999582 9:0.997748 10:-0.549397 
-0.9068829452663675 1:-0.531633 2:-0.647602 3:-0.926887 4:-0.109969 5:-0.373618 6:-0.845335 7:0.997053 8:0.997336 9:-0.877661 10:-0.549399 
-0.4762841315906791 1:-0.285968 2:-0.94228 3:-1 4:-0.149055 5:-0.910792 6:-1 7:0.966889 8:0.711239 9:0.814742 10:-0.549397 
-1.882829181716751 1:-0.375362 2:-0.936724 3:-1 4:-0.361058 5:-0.922082 6:-1 7:0.986516 8:0.999887 9:0.814742 10:-0.549398 
-1.759608427701711 1:-0.556841 2:-0.814562 3:-0.947099 4:-0.426365 5:-0.720073 6:-0.809788 7:0.9528 8:0.980128 9:0.908327 10:-0.8629 
-1.800286070189248 1:-0.28885 2:-0.67509 3:-0.95216 4:0.304709 5:-0.0328671 6:-0.889258 7:0.963818 8:0.993405 9:0.990791 10:-0.471739 
-2.995161283503392 1:-0.480845 2:-0.525722 3:-0.913408 4:-0.560504 5:-0.724453 6:-0.883347 7:0.921669 8:0.987911 9:0.924706 10:-0.47174 
-23.54808024356196 1:-0.195101 2:-0.558389 3:-0.860987 4:0.203843 5:-0.0586723 6:-0.655628 7:0.972794 8:0.995352 9:0.949832 10:-0.471738 
-32 1:0.380691 2:-0.499096 3:-0.73102 4:0.820479 5:-0.498996 6:-0.633719 7:0.994567 8:0.99998 9:0.99151 10:-0.916901 
-5.552356193370332 1:0.706133 2:-0.29547 3:-0.678423 4:0.887996 5:-0.498484 6:-0.551831 7:0.997758 8:0.999798 9:0.998231 10:-0.9169 
-1.34861183255151 1:-0.65965 2:-0.89388 3:-1 4:0.426579 5:0.0480891 6:-1 7:0.781615 8:0.775798 9:0.814742 10:-0.765898 
-2.778506707158088 1:-0.132234 2:-0.432208 3:-0.800643 4:0.288428 5:0.100366 6:-0.664231 7:0.97714 8:0.996885 9:0.979727 10:-0.942966 
-0.5363907007537394 1:-0.83199 2:-0.896574 3:-1 4:-0.912451 5:-0.956989 6:-1 7:0.573873 8:0.274642 9:0.814742 10:-0.54148 
-1.325474193247125 1:-0.264491 2:-0.698148 3:-0.913889 4:0.454626 5:-0.443717 6:-0.87152 7:0.994812 8:0.993283 9:0.94878 10:-0.990905 
-1.513183765987313 1:-0.864214 2:-0.891333 3:-1 4:-0.17224 5:-0.0631249 6:-1 7:0.559251 8:0.798876 9:0.814742 10:-0.775536 
-9.854057972323062 1:-0.466886 2:-0.667727 3:-0.939335 4:-0.267214 5:-0.395959 6:-0.875543 7:0.969418 8:0.985087 9:0.994457 10:-0.619092 
-4.896519648856 1:-0.573336 2:-0.720124 3:-1 4:-0.671803 5:-0.716823 6:-1 7:0.900986 8:0.980963 9:0.814742 10:-0.718622 
-1.904943187753656 1:-0.464763 2:-0.909959 3:-0.941288 4:-0.564134 5:-0.84489 6:-0.99213 7:0.958005 8:0.862824 9:0.984823 10:-0.765898 
-0.3064455673440027 1:-0.461618 2:-0.58391 3:-0.938735 4:0.0934072 5:-0.292233 6:-0.746744 7:0.97347 8:0.991052 9:-0.617833 10:-0.770102 
-0.4722549334232841 1:-0.572428 2:-0.619805 3:-0.92112 4:0.0877859 5:-0.419932 6:-0.690405 7:0.947748 8:0.976184 9:-1 10:-0.770102 
-0.662502872885553 1:-0.639775 2:-0.690548 3:-0.925659 4:-0.0418841 5:-0.436327 6:-0.701236 7:0.838715 8:0.975355 9:-0.92967 10:-0.770103 
-1.035207273703491 1:-0.447185 2:-0.66177 3:-0.938247 4:-0.0893146 5:-0.494269 6:-0.815489 7:0.959678 8:0.973287 9:-0.65885 10:-0.770103 
-0.4123786056955447 1:-0.782659 2:-0.875762 3:-1 4:-0.367012 5:-0.461591 6:-1 7:0.860254 8:0.457762 9:0.814742 10:-0.542106 
-0.4448276108684134 1:-0.640847 2:-0.936129 3:-1 4:0.367414 5:-0.113727 6:-1 7:0.973763 8:0.99739 9:0.814742 10:-0.595479 
-14.31398591908641 1:-0.100123 2:-0.795079 3:-0.866379 4:0.19234 5:-0.567371 6:-0.745287 7:0.996405 8:0.999598 9:0.993991 10:-0.320689 
-0.1889953355910196 1:-0.194488 2:-0.731403 3:-0.824859 4:0.108406 5:-0.461229 6:-0.526654 7:0.993798 8:0.99986 9:0.992027 10:-0.859835 
-1.713942491137333 1:-0.387076 2:-0.946098 3:-1 4:-0.576277 5:-0.989367 6:-1 7:0.98693 8:0.992801 9:0.814742 10:-0.859835 
-0.6083271121401963 1:-0.372103 2:-0.747607 3:-0.790541 4:-0.0466004 5:-0.44489 6:-0.459524 7:0.987006 8:0.999043 9:0.997494 10:-0.859836 
-0.7088357920388101 1:-0.524375 2:-0.925366 3:-0.914835 4:-0.636179 5:-0.986616 6:-0.98645 7:0.978838 8:0.997866 9:0.988294 10:-0.859837 
-0.09196436024086785 1:-0.651415 2:-0.894064 3:-1 4:0.115204 5:0.0137878 6:-1 7:0.810591 8:0.774714 9:0.814742 10:-0.765898 
-1.102986788492335 1:-0.125898 2:-0.389305 3:-0.873297 4:0.454441 5:-0.315354 6:-0.873552 7:0.990755 8:0.997231 9:0.975274 10:-0.990906 
-9.088366153453466 1:-0.630831 2:-0.558542 3:-0.845 4:-0.530233 5:-0.661695 6:-0.861325 7:0.924997 8:0.990353 9:0.926241 10:-0.471738 
-16.67645097443657 1:-0.0710562 2:-0.479917 3:-0.511261 4:0.492441 5:0.0064794 6:-0.00832775 7:0.995645 8:0.999839 9:0.999064 10:-0.47174 
-2.488404471194151 1:-0.645723 2:-0.66362 3:-1 4:0.127935 5:-0.211119 6:-1 7:0.963661 8:0.993729 9:0.814742 10:-0.471739 
-9.998925978637855 1:-0.483285 2:-0.523831 3:-0.885609 4:-0.281852 5:-0.490982 6:-0.82958 7:0.913829 8:0.989238 9:0.848133 10:-0.506927 
-8.744155147594286 1:-0.169202 2:-0.356579 3:-0.673684 4:0.623321 5:0.448228 6:0.0284965 7:0.986124 8:0.997688 9:0.988705 10:-0.506927 
-3.165227669829391 1:-0.389938 2:-0.696219 3:-0.950479 4:0.312711 5:-0.0338712 6:-0.882367 7:0.943465 8:0.987604 9:0.987968 10:-0.471739 
-0.08120204797848075 1:-0.735971 2:-0.899383 3:-1 4:-0.209763 5:-0.3548 6:-1 7:0.990664 8:-0.159351 9:0.814742 10:-0.599699 
-1.508793203434806 1:-0.537092 2:-0.61411 3:-0.823864 4:0.0278017 5:0.0331358 6:-0.362875 7:0.997616 8:0.999723 9:0.52386 10:-0.948436 
-0.06273241902122952 1:-0.339927 2:-0.811343 3:-1 4:-0.645482 5:-0.976433 6:-1 7:0.957469 8:0.993254 9:0.814742 10:-0.647053 
-32 1:0.341438 2:-0.24537 3:-0.222222 4:0.877573 5:0.497737 6:0.396089 7:0.998036 8:0.999638 9:0.997082 10:0.149971 
-11.35922730185792 1:0.439507 2:-0.197609 3:-0.0843882 4:0.890382 5:0.399185 6:0.416586 7:0.999226 8:0.999632 9:0.997982 10:0.149972 
-1.5147996660699 1:-0.923236 2:-1 3:-1 4:-0.981577 5:-1 6:-1 7:-0.157515 8:0.966224 9:0.814742 10:-0.358323 
-0.4465521707268984 1:-0.482997 2:-0.869891 3:-1 4:-0.0105122 5:-0.854742 6:-1 7:0.983911 8:0.928605 9:0.814742 10:-0.753704 
-1.589545592038378 1:-0.464367 2:-0.870105 3:-0.915301 4:0.284123 5:-0.509211 6:-0.519557 7:0.998909 8:0.996028 9:0.978811 10:-0.993934 
-0.03756834451557649 1:-0.590644 2:-0.813562 3:-0.878431 4:0.438121 5:-0.340949 6:-0.355256 7:0.951099 8:0.994099 9:0.968266 10:-0.993934 
-5.000122277087909 1:-0.592641 2:-0.665641 3:-0.904615 4:-0.0676247 5:-0.0927889 6:-0.832119 7:0.899482 8:0.977552 9:0.984192 10:-0.619092 
-1.679652174007636 1:-0.873276 2:-0.907805 3:-1 4:-0.350549 5:-0.286239 6:-1 7:0.495894 8:0.0296636 9:0.814742 10:-0.775536 
-0.6012140639464378 1:-0.771513 2:-0.912927 3:-1 4:-0.913062 5:-0.957144 6:-1 7:0.607744 8:0.115308 9:0.814742 10:-0.775537 
-0.2601658495937417 1:-0.692077 2:-0.939897 3:-1 4:-0.341536 5:-0.851317 6:-1 7:0.974553 8:0.489327 9:0.814742 10:-0.821666 
-32 1:-0.156846 2:-0.558983 3:-0.798701 4:0.393905 5:-0.119851 6:-0.519779 7:0.976575 8:0.996328 9:0.989121 10:-0.503268 
-32 1:-0.637109 2:-0.646587 3:-0.859729 4:-0.547183 5:-0.632503 6:-0.869751 7:0.982776 8:0.998703 9:0.830985 10:-0.320689 
-8.568931805879975 1:-0.10561 2:-0.751167 3:-0.866379 4:0.194744 5:-0.366177 6:-0.745287 7:0.99616 8:0.999824 9:0.993991 10:-0.320686 
-0.4692077181803397 1:-0.890173 2:-0.920098 3:-1 4:-0.951136 5:-0.992613 6:-1 7:0.765203 8:0.475954 9:0.814742 10:-0.432253 
-5.755234118562807 1:-0.552936 2:-0.413814 3:-0.815476 4:-0.551392 5:-0.657119 6:-0.863907 7:0.936675 8:0.993027 9:0.927494 10:-0.471738 
-32 1:-0.196002 2:-0.392325 3:-0.428947 4:0.324035 5:-0.0803163 6:-0.0928776 7:0.992407 8:0.998517 9:0.990788 10:-0.47174 
-13.18510348181965 1:-0.0412575 2:-0.119073 3:-0.351464 4:0.40387 5:-0.052821 6:-0.215563 7:0.98848 8:0.99819 9:0.987288 10:-0.471739 
-5.409003961259389 1:-0.0907164 2:-0.261775 3:-0.229814 4:0.408736 5:-0.0836133 6:-0.0752082 7:0.991655 8:0.998207 9:0.990039 10:-0.471738 
-10.98961354791883 1:-0.497088 2:-0.664609 3:-0.904321 4:-0.64125 5:-0.866939 6:-0.98057 7:0.920386 8:0.999239 9:0.905942 10:-0.506926 
-9.683462498154922 1:-0.160269 2:-0.332749 3:-0.782456 4:0.623837 5:-0.475501 6:-0.918604 7:0.986157 8:0.997199 9:0.988443 10:-0.506926 
-2.926270993620819 1:-0.456601 2:-0.564117 3:-0.814925 4:-0.164711 5:-0.456002 6:-0.634538 7:0.933871 8:0.990992 9:0.95965 10:-0.471739 
-20.77350848688095 1:-0.202702 2:-0.374452 3:-0.347368 4:0.332818 5:-0.0658599 6:-0.0572576 7:0.995538 8:0.998822 9:0.993587 10:-0.47174 
-3.073025293271138 1:-0.504946 2:-0.492076 3:-0.668803 4:-0.161991 5:-0.448279 6:-0.588383 7:0.93542 8:0.992651 9:0.965731 10:-0.471738 
-1.22472835470483 1:-0.546786 2:-0.608857 3:-0.918848 4:0.126366 5:-0.232636 6:-0.964851 7:0.998139 8:0.999606 9:0.539309 10:-0.910223 
-8.934404268067977 1:-0.471357 2:-0.529932 3:-0.852029 4:0.215192 5:-0.202833 6:-0.562148 7:0.979522 8:0.998388 9:0.90797 10:-0.910222 
-0.5024343293458667 1:-0.432455 2:-0.58967 3:-0.870833 4:0.111204 5:-0.31385 6:-0.661064 7:0.970901 8:0.996845 9:0.877408 10:-0.910223 
-30.38017494343003 1:-0.0550145 2:-0.3125 3:-0.429448 4:0.63455 5:0.0609166 6:0.02539 7:0.986819 8:0.998269 9:0.98918 10:-0.258279 
-3.068192832123075 1:-0.369341 2:-0.594992 3:-0.857798 4:0.530977 5:-0.607549 6:-0.929222 7:0.999077 8:0.987035 9:0.991535 10:-0.813705 
-3.514855173529747 1:-0.612039 2:-0.719709 3:-0.901587 4:-0.486656 5:-0.492781 6:-0.592473 7:0.9704 8:0.992521 9:0.796656 10:-0.770692 
-1.305463750037973 1:-0.285968 2:-0.94228 3:-1 4:-0.149055 5:-0.910792 6:-1 7:0.966889 8:0.711239 9:0.814742 10:-0.549397 
-11.3886893098666 1:-0.270307 2:-0.746106 3:-1 4:0.0707788 5:-0.605461 6:-1 7:0.986945 8:0.998117 9:0.814742 10:-0.549397 
-1.297978326206886 1:-0.296108 2:-0.60049 3:-0.817647 4:0.227789 5:-0.223487 6:-0.901442 7:0.992961 8:0.997702 9:0.998771 10:-0.762868 
-0.974181431559327 1:-0.432047 2:-0.780577 3:-1 4:-0.363387 5:-0.650206 6:-1 7:0.945813 8:0.991655 9:0.814742 10:-0.471739 
-1.715124764410964 1:-0.639718 2:-0.711675 3:-1 4:0.132602 5:-0.325203 6:-1 7:0.963799 8:0.993166 9:0.814742 10:-0.471739 
-25.97252049291559 1:-0.505577 2:-0.711961 3:-0.930804 4:-0.392132 5:-0.632894 6:-0.973517 7:0.953969 8:0.993075 9:0.9145 10:-0.471738 
-32 1:-0.289043 2:-0.641195 3:-0.766038 4:0.157254 5:-0.350556 6:-0.394715 7:0.989159 8:0.998318 9:0.990548 10:-0.759209 
-2.01533905885348 1:-0.237494 2:-0.276015 3:-0.84264 4:0.808852 5:0.604442 6:-0.97176 7:0.996279 8:0.999028 9:0.979117 10:-0.503269 
-5.756958479928623 1:-0.148315 2:-0.444098 3:-0.669039 4:0.780358 5:0.518697 6:-0.483515 7:0.994467 8:0.999305 9:0.993301 10:-0.503268 
-14.0832176133545 1:-0.502226 2:-0.455796 3:-0.900641 4:-0.466244 5:-0.638043 6:-0.932296 7:0.937861 8:0.988685 9:0.833325 10:-0.503268 
-31.61129735358202 1:-0.52032 2:-0.532458 3:-0.887681 4:-0.46665 5:-0.662021 6:-0.892415 7:0.960515 8:0.992279 9:0.900072 10:-0.503268 
-0.5901605524389878 1:0.341438 2:-0.24537 3:-0.222222 4:0.877573 5:0.497737 6:0.396089 7:0.998036 8:0.999638 9:0.997082 10:0.149972 
-5.055318490152103 1:0.0885047 2:-0.31099 3:-0.213768 4:0.766066 5:0.460249 6:0.47841 7:0.998806 8:0.999707 9:0.998394 10:0.149974 
-2.589251325492604 1:-0.267819 2:-0.5561 3:-0.797386 4:0.2645 5:-0.511494 6:-0.710766 7:0.978761 8:0.995562 9:0.96334 10:-0.990906 
-2.189942665075971 1:-0.105087 2:-0.426317 3:-0.788828 4:0.456218 5:-0.315675 6:-0.859744 7:0.990766 8:0.997303 9:0.983208 10:-0.990905 
-2.281044341495904 1:-0.238698 2:-0.384089 3:-0.810049 4:0.27042 5:-0.483709 6:-0.74965 7:0.992513 8:0.999272 9:0.972344 10:-0.990907 
-0.4533737254769319 1:-0.877301 2:-1 3:-1 4:-0.984565 5:-1 6:-1 7:-0.847399 8:0.966224 9:0.814742 10:-0.212149 
-2.237245531629697 1:-0.343341 2:-0.477564 3:-0.719457 4:0.384998 5:-0.707932 6:-0.942032 7:0.994154 8:0.998721 9:0.989644 10:-0.212149 
-1.051127323794743 1:-0.707255 2:-0.692364 3:-0.891986 4:-0.409576 5:-0.377706 6:-0.99444 7:0.953717 8:0.993302 9:0.963348 10:-0.779195 
-2.064108878529432 1:-0.483215 2:-0.886173 3:-1 4:0.0461736 5:-0.937024 6:-1 7:0.953986 8:0.944263 9:0.814742 10:-0.715501 
-32 1:0.425321 2:-0.216346 3:-0.205128 4:0.808891 5:0.480229 6:0.380132 7:0.997415 8:0.999855 9:0.998407 10:0.149974 
-32 1:-0.7341 2:-1 3:-1 4:-0.636526 5:-1 6:-1 7:0.971177 8:0.966224 9:0.814742 10:-0.238847 
-0.04851098880815933 1:-0.510868 2:-0.899631 3:-1 4:-0.57169 5:-0.794323 6:-1 7:0.839569 8:0.501947 9:0.814742 10:-0.767709 
-4.478938150360508 1:-0.498516 2:-0.650126 3:-0.95303 4:-0.246524 5:-0.425635 6:-0.906094 7:0.979274 8:0.9995 9:0.940058 10:-0.719767 
-0.7277771768205109 1:-0.525478 2:-0.707885 3:-1 4:-0.53416 5:-0.684938 6:-1 7:0.81135 8:0.981355 9:0.814742 10:-0.719767 
-0.04036344440227603 1:-0.700041 2:-0.941451 3:-1 4:-0.45564 5:-0.866529 6:-1 7:0.735786 8:0.508944 9:0.814742 10:-0.821666 
-3.424741687052552 1:-0.372103 2:-0.747607 3:-0.790541 4:-0.0466004 5:-0.44489 6:-0.459524 7:0.987006 8:0.999043 9:0.997494 10:-0.859836 
-3.376244323892649 1:-0.58023 2:-0.415771 3:-0.666667 4:-0.518827 5:-0.606517 6:-0.795688 7:0.922446 8:0.991846 9:0.931306 10:-0.471738 
-21.11153961278936 1:-0.210154 2:-0.327558 3:-0.386139 4:0.502649 5:0.0135869 6:-0.0389826 7:0.995816 8:0.99943 9:0.996232 10:-0.471739 
-2.715714521098393 1:-0.494842 2:-0.353175 3:-0.630952 4:-0.498172 5:-0.601719 6:-0.797635 7:0.921453 8:0.991531 9:0.924407 10:-0.471739 
-2.742181915074423 1:-0.45105 2:-0.469796 3:-1 4:-0.425451 5:-0.407934 6:-1 7:0.930888 8:0.977024 9:0.814742 10:-0.719767 
-15.86490012657454 1:-0.411331 2:-0.450385 3:-0.641618 4:0.769134 5:-0.716113 6:-0.738882 7:0.972704 8:0.997503 9:0.988966 10:-0.215807 
-4.802242806802357 1:0.0639975 2:-0.351244 3:-0.537313 4:0.745501 5:-0.262763 6:-0.346385 7:0.994226 8:0.999338 9:0.997956 10:0.00868209 
-6.414150455207591 1:-0.0107921 2:-0.480892 3:-0.407643 4:0.600525 5:-0.305552 6:-0.296916 7:0.998197 8:0.999763 9:0.998699 10:-0.549397 
-4.273248783685673 1:-0.437897 2:-0.523701 3:-0.879221 4:-0.00745675 5:-0.617465 6:-0.856247 7:0.974906 8:0.998351 9:0.997824 10:-0.990907 
-8.805154806355182 1:-0.566639 2:-0.602615 3:-0.917553 4:0.0403231 5:-0.068609 6:-0.416221 7:0.912364 8:0.975837 9:0.890384 10:-0.619092 
-13.58037813715228 1:-0.290864 2:-0.632173 3:-0.760155 4:0.512105 5:-0.125321 6:-0.156383 7:0.997844 8:0.999167 9:0.994463 10:-0.7992 
-6.730330553911019 1:-0.85169 2:-1 3:-1 4:-0.931655 5:-1 6:-1 7:0.909249 8:0.966224 9:0.814742 10:-0.123584 
-0.669896452452421 1:-0.373381 2:-0.864468 3:-1 4:-0.0982947 5:-0.751478 6:-1 7:0.953849 8:0.980802 9:0.814742 10:-0.549397 
-9.836427470062146 1:-0.394371 2:-0.513761 3:-0.928406 4:-0.0367115 5:-0.338064 6:-0.880313 7:0.954055 8:0.990233 9:0.97233 10:-0.549397 
-3.64791520611813 1:-0.301219 2:-0.708234 3:-1 4:0.136734 5:-0.483245 6:-1 7:0.975269 8:0.994262 9:0.814742 10:-0.549397 
-24.4188717341775 1:-0.770487 2:-0.871855 3:-1 4:-0.772074 5:-0.91612 6:-1 7:0.949127 8:0.998084 9:0.814742 10:-0.207259 
-6.956522744966685 1:-0.757524 2:-0.915631 3:-1 4:-0.753529 5:-0.834165 6:-1 7:0.986081 8:0.999296 9:0.814742 10:-0.207257 
-0.2380155628163305 1:-0.393404 2:-0.635347 3:-0.895973 4:-0.00499006 5:-0.617851 6:-0.945688 7:0.986768 8:0.999962 9:0.570727 10:-0.990905 
-32 1:-0.129349 2:-0.40177 3:-0.518135 4:0.548436 5:0.0210047 6:-0.0486701 7:0.999557 8:0.999638 9:0.998005 10:-0.471739 
-18.38168065502726 1:-0.428704 2:-0.370528 3:-0.621951 4:-0.239558 5:-0.440935 6:-0.613921 7:0.921791 8:0.990681 9:0.96245 10:-0.471738 
-1.520469602575243 1:-0.705239 2:-0.84274 3:-0.955137 4:-0.78953 5:-0.857967 6:-0.9427 7:0.997647 8:0.982879 9:0.512045 10:-0.680983 
-0.085112376688025 1:-0.812795 2:-0.940074 3:-1 4:-0.601427 5:-0.648265 6:-1 7:0.921154 8:0.344368 9:0.814742 10:-0.642171 
-6.449331275645068 1:0.711415 2:-0.337742 3:-0.678423 4:0.748553 5:-0.501243 6:-0.551831 7:0.995397 8:0.999743 9:0.998231 10:-0.916901 
-0.8956090851807196 1:-0.569606 2:-0.75744 3:-1 4:0.0225265 5:-0.386583 6:-1 7:0.95907 8:0.995889 9:0.814742 10:-0.865927 
-3.512381315263863 1:-0.432455 2:-0.58967 3:-0.870833 4:0.111204 5:-0.31385 6:-0.661064 7:0.970901 8:0.996845 9:0.877408 10:-0.910223 
-1.026643479500952 1:-0.843323 2:-0.874615 3:-1 4:-0.903654 5:-0.956977 6:-1 7:-0.887951 8:0.182638 9:0.814742 10:-0.116912 
-2.357766977855 1:-0.798622 2:-0.769774 3:-1 4:-0.628336 5:-0.69573 6:-1 7:0.988089 8:0.999097 9:0.814742 10:-0.223639 
-2.14265354550795 1:-0.900989 2:-0.886806 3:-1 4:-0.572622 5:-0.823251 6:-1 7:0.72714 8:0.926668 9:0.814742 10:-0.22364 
-5.562842535206346 1:-0.875805 2:-0.751524 3:-1 4:-0.608091 5:-0.677556 6:-1 7:0.973801 8:0.998801 9:0.814742 10:-0.22364 
-0.8294393689548988 1:-0.277583 2:-0.681933 3:-0.829201 4:0.427252 5:-0.00506616 6:-0.943084 7:0.973654 8:0.999799 9:0.990055 10:-0.944776 
-2.642148600621821 1:-0.474777 2:-0.643794 3:-0.674825 4:-0.0667461 5:-0.141281 6:-0.893335 7:0.90919 8:0.966263 9:0.996296 10:-0.944776 
-7.164992727828357 1:-0.83933 2:-0.703277 3:-1 4:-0.925283 5:-0.940625 6:-1 7:0.955755 8:0.950882 9:0.814742 10:-0.131998 
-12.20268013193736 1:-0.296108 2:-0.60049 3:-0.817647 4:0.227789 5:-0.387895 6:-0.901442 7:0.992961 8:0.998096 9:0.998771 10:-0.762869 
-7.794108642074185 1:-0.443233 2:-0.899062 3:-0.934183 4:0.438466 5:-0.278713 6:-0.272826 7:0.991283 8:0.998794 9:0.993477 10:-0.750045 
-0.6932669730025158 1:-0.618747 2:-0.948287 3:-1 4:-0.525463 5:-0.869115 6:-1 7:0.914402 8:-0.150852 9:0.814742 10:-0.5724 
-19.71312530637207 1:-0.0870938 2:-0.567065 3:-0.691235 4:0.577493 5:-0.153098 6:-0.519427 7:0.987761 8:0.998714 9:0.903177 10:-0.870771 
-1.342045687681314 1:-0.822155 2:-0.925092 3:-1 4:-0.91766 5:-0.931746 6:-1 7:0.159937 8:-0.608064 9:0.814742 10:-0.634853 
-1.948634751321645 1:-0.59383 2:-0.603599 3:-1 4:-0.123746 5:-0.604039 6:-1 7:0.954699 8:0.990625 9:0.814742 10:-0.787707 
-22.61939012397081 1:-0.413751 2:-0.508498 3:-0.898026 4:-0.301643 5:-0.613588 6:-0.900718 7:0.969748 8:0.993534 9:0.976022 10:-0.549397 
-1.193115915606052 1:-0.585385 2:-0.619805 3:-0.92112 4:0.132449 5:-0.0378274 6:-0.690405 7:0.95307 8:0.995501 9:-1 10:-0.770102 
-1.840983284290092 1:-0.391071 2:-0.756984 3:-0.94162 4:-0.180379 5:-0.803079 6:-0.82537 7:0.993544 8:0.981398 9:-0.0334842 10:-0.876895 
-2.755265134830718 1:-0.456973 2:-0.643794 3:-0.674825 4:-0.533279 5:-0.870719 6:-0.893335 7:0.942132 8:0.998026 9:0.996296 10:-0.944776 
-1.933279748892848 1:-0.47815 2:-0.451605 3:-0.807453 4:-0.440053 5:-0.443464 6:-0.980392 7:0.89199 8:0.966062 9:0.953302 10:-0.944776 
-1.241640349381199 1:-0.306886 2:-0.652179 3:-0.916442 4:-0.46722 5:-0.754392 6:-0.889068 7:0.973982 8:0.993563 9:0.996366 10:-0.471739 
-14.12352366055752 1:-0.435189 2:-0.582765 3:-1 4:-0.250558 5:-0.570616 6:-1 7:0.976002 8:0.995634 9:0.814742 10:-0.549397 
-32 1:-0.4199 2:-0.570148 3:-0.803797 4:-0.277862 5:-0.601391 6:-0.779523 7:0.977152 8:0.996164 9:0.979286 10:-0.549399 
-2.452556146353023 1:-0.66334 2:-0.663223 3:-1 4:-0.473235 5:-0.445853 6:-1 7:0.992814 8:0.993658 9:0.814742 10:-0.719767 
-0.6485879102078 1:-0.520127 2:-0.786649 3:-1 4:-0.729646 5:-0.9322 6:-1 7:0.774338 8:0.557391 9:0.814742 10:-0.719767 
-9.481619880863148 1:-0.592641 2:-0.38875 3:-1 4:-0.330892 5:-0.306745 6:-1 7:0.926073 8:0.986831 9:0.814742 10:-0.258276 
-7.390213146578581 1:-0.0530909 2:-0.397783 3:-0.541872 4:0.718241 5:-0.172463 6:-0.322612 7:0.994887 8:0.99805 9:0.991562 10:-0.549399 
