svm_type c_svc
kernel_type rbf
gamma 0.000488281
nr_class 2
total_sv 229
rho 2.12168
label 1 -1
nr_sv 114 115
SV
2048 1:-0.362473 2:-0.216946 
2048 1:-0.486302 2:-0.216945 
2048 1:-0.376984 2:-0.176171 
2048 1:-0.348559 2:-0.350768 
2048 1:-0.408659 2:-0.0964881 
2048 1:-0.455969 2:0.0626062 
2048 1:-0.257867 2:-0.399309 
2048 1:-0.434602 2:-0.216946 
2048 1:-0.43639 2:-0.216946 
2048 1:-0.501459 2:0.0548794 
2048 1:-0.521975 2:-0.216945 
2048 1:-0.426561 2:-0.216946 
2048 1:-0.107518 2:-0.940843 
2048 1:-0.416867 2:-0.427485 
2048 1:-0.328968 2:-0.540959 
2048 1:-0.339249 2:-0.66037 
2048 1:-0.446312 2:0.103252 
2048 1:-0.300889 2:-0.572092 
2048 1:-0.273273 2:-0.414864 
2048 1:-0.24375 2:-0.414864 
2048 1:-0.238148 2:-0.414864 
2048 1:-0.315947 2:-0.414864 
2048 1:-0.275169 2:-0.350768 
2048 1:-0.329249 2:-0.372142 
2048 1:-0.408444 2:-0.372142 
2048 1:-0.309096 2:-0.372142 
2048 1:-0.313931 2:-0.424545 
2048 1:-0.112406 2:-0.88749 
1977.424802191845 1:-0.25405 2:-0.350768 
2048 1:-0.336287 2:-0.350768 
2048 1:-0.220044 2:-0.598247 
2048 1:-0.187268 2:-0.598247 
2048 1:-0.431111 2:-0.585643 
2048 1:-0.182578 2:-0.59352 
2048 1:-0.433918 2:0.103252 
2048 1:-0.435333 2:0.103252 
2048 1:-0.466594 2:-0.214958 
2048 1:-0.116066 2:-0.772987 
2048 1:-0.506368 2:-0.648726 
2048 1:-0.576296 2:0.321647 
2048 1:-0.259287 2:-0.344955 
2048 1:-0.488989 2:0.103252 
2048 1:-0.523683 2:0.103252 
2048 1:-0.31871 2:-0.216946 
2048 1:-0.345083 2:-0.218877 
2048 1:-0.238567 2:-0.396414 
2048 1:-0.196573 2:-0.534248 
2048 1:-0.186152 2:-0.607993 
2048 1:-0.305149 2:-0.566252 
2048 1:-0.237044 2:-0.400278 
2048 1:-0.439627 2:-0.214958 
2048 1:-0.303647 2:-0.757435 
2048 1:-0.322209 2:-0.559406 
2048 1:-0.262874 2:-0.350768 
2048 1:-0.313731 2:-0.350768 
2048 1:-0.340273 2:-0.350768 
2048 1:-0.254342 2:-0.350768 
2048 1:-0.305471 2:-0.350768 
2048 1:-0.800118 2:0.350867 
2048 1:-0.105774 2:-0.877735 
2048 1:-0.2764 2:-0.877735 
2048 1:-0.150877 2:-0.648726 
2048 1:-0.593033 2:-0.648726 
2048 1:-0.0537634 2:-0.928218 
2048 1:-0.56679 2:0.103252 
2048 1:-0.512065 2:0.103252 
2048 1:-0.202975 2:-0.495406 
2048 1:-0.319546 2:-0.495405 
2048 1:-0.159336 2:-0.940843 
2048 1:-0.189154 2:-0.838019 
2048 1:-0.482353 2:0.0626062 
2048 1:-0.0542529 2:-0.940843 
2048 1:-0.47728 2:0.127638 
2048 1:-0.236438 2:-0.437164 
2048 1:-0.314016 2:-0.437165 
2048 1:-0.449609 2:-0.362447 
2048 1:-0.343457 2:-0.362447 
2048 1:-0.279925 2:-0.350769 
2048 1:-0.264094 2:-0.350768 
2048 1:-0.255385 2:-0.350768 
2048 1:-0.345641 2:-0.350768 
2048 1:-0.0609896 2:-0.940844 
2048 1:-0.0449067 2:-0.940844 
2048 1:-0.301048 2:-0.940843 
2048 1:-0.228791 2:-0.537186 
2048 1:-0.52549 2:0.103252 
2048 1:-0.515164 2:0.103252 
2048 1:-0.199353 2:-0.707932 
2048 1:-0.257462 2:-0.55071 
2048 1:-0.170286 2:-0.63319 
2048 1:-0.196795 2:-0.692518 
2048 1:-0.267459 2:-0.350769 
2048 1:-0.264249 2:-0.350768 
2048 1:-0.305519 2:-0.350768 
2048 1:-0.378413 2:-0.772951 
2048 1:-0.70509 2:0.0626074 
2048 1:-0.632607 2:0.0626079 
2048 1:-0.318962 2:-0.221673 
2048 1:-0.357877 2:-0.0964881 
2048 1:-0.31831 2:-0.362447 
2048 1:-0.255385 2:-0.350768 
2048 1:-0.256684 2:-0.350768 
2048 1:-0.285169 2:-0.350768 
2048 1:-0.575089 2:0.103252 
2048 1:-0.610575 2:0.103252 
2048 1:-0.0466667 2:-0.940844 
2048 1:-0.305996 2:-0.940843 
2048 1:-0.421358 2:-0.55071 
2048 1:-0.195645 2:-0.550711 
2048 1:-0.71995 2:0.350867 
2048 1:-0.233667 2:-0.427486 
2048 1:-0.323187 2:-0.372142 
2048 1:-0.246565 2:-0.372143 
2048 1:-0.289365 2:-0.372142 
-2048 1:-0.501192 2:-0.216946 
-2048 1:-0.401505 2:-0.216946 
-2048 1:-0.166316 2:-0.216945 
-2048 1:-0.261632 2:-0.396414 
-2048 1:-0.520792 2:0.0626001 
-2048 1:-0.354667 2:-0.646835 
-2048 1:-0.0998068 2:-0.216946 
-2048 1:0.00769716 2:-0.216946 
-2048 1:-0.489305 2:-0.216945 
-2048 1:-0.423524 2:-0.216946 
-2048 1:-0.200601 2:-0.216946 
-2048 1:-0.569778 2:-0.216945 
-2048 1:-0.660351 2:0.248855 
-2048 1:-0.651171 2:0.248855 
-1270.018174931045 1:-0.748571 2:0.267379 
-2048 1:-0.54087 2:-0.230506 
-2048 1:-0.230978 2:-0.412957 
-2048 1:-0.398318 2:-0.412955 
-2048 1:-0.243624 2:-0.644903 
-2048 1:-0.242946 2:-0.644901 
-2048 1:-0.358988 2:-0.644901 
-2048 1:-0.197051 2:-0.644903 
-2048 1:-0.408444 2:-0.470142 
-2048 1:-0.4849 2:-0.216946 
-2048 1:-0.107986 2:-0.216945 
-2048 1:-0.308571 2:0.248855 
-2048 1:-0.0279917 2:-0.216946 
-2048 1:0.0311111 2:-0.216946 
-2048 1:-0.452263 2:-0.216945 
-2048 1:-0.551676 2:-0.158705 
-2048 1:-0.252698 2:-0.757425 
-2048 1:-0.202824 2:-0.757426 
-2048 1:-0.487831 2:0.0626062 
-2048 1:-0.360056 2:-0.609939 
-2048 1:-0.0795402 2:-0.919586 
-2048 1:-0.338578 2:-0.396414 
-2048 1:-0.759367 2:0.45466 
-2048 1:-0.488121 2:-0.408099 
-2048 1:-0.467156 2:-0.364494 
-2048 1:-0.481139 2:-0.364483 
-2048 1:-0.469338 2:-0.364491 
-2048 1:-0.318672 2:-0.840906 
-2048 1:-0.817358 2:0.652637 
-2048 1:-0.344922 2:-0.614801 
-2048 1:-0.38367 2:-0.614798 
-2048 1:-0.556569 2:-0.259643 
-2048 1:-0.332414 2:-0.685618 
-2048 1:-0.493092 2:-0.364488 
-2048 1:-0.346411 2:-0.609939 
-2048 1:-0.280327 2:-0.396414 
-2048 1:-0.467368 2:-0.43426 
-2048 1:-0.545435 2:-0.211093 
-2048 1:-0.663405 2:0.0973956 
-2048 1:-0.428969 2:-0.544953 
-2048 1:-0.39187 2:-0.54495 
-2048 1:-0.508582 2:-0.356627 
-2048 1:-0.308571 2:-0.645902 
-2048 1:-0.142564 2:-0.216946 
-2048 1:-0.0231193 2:-0.216946 
-2048 1:-0.383796 2:-0.216945 
-2048 1:-0.378432 2:-0.396414 
-2048 1:-0.0384106 2:-0.713657 
-2048 1:-0.080181 2:-0.62646 
-2048 1:-0.402008 2:-0.216946 
-2048 1:-0.208107 2:-0.216946 
-898.1348350597719 1:-0.350024 2:-0.828276 
-2048 1:-0.66856 2:0.0973956 
-2048 1:-0.270159 2:0.248855 
-2048 1:-0.408947 2:-0.396414 
-2048 1:-0.352311 2:-0.556527 
-2048 1:-0.36473 2:-0.769066 
-2048 1:-0.587139 2:0.072291 
-2048 1:-0.642309 2:0.0722923 
-2048 1:-0.561991 2:-0.0295035 
-2048 1:-0.296752 2:-0.923373 
-2048 1:-0.351579 2:-0.57118 
-2048 1:-0.406135 2:-0.571183 
-2048 1:-0.0983218 2:-0.690447 
-2048 1:-0.687742 2:0.133517 
-2048 1:-0.439499 2:-0.544953 
-2048 1:-0.391046 2:-0.54495 
-2048 1:-0.424483 2:-0.544953 
-2048 1:-0.402469 2:-0.54495 
-2048 1:-0.396695 2:-0.57118 
-2048 1:-0.333431 2:-0.571183 
-2048 1:-0.363837 2:-0.671085 
-2048 1:0.134265 2:-1 
-2048 1:-0.257354 2:-0.923373 
-2048 1:-0.441951 2:-0.467284 
-2048 1:-0.447442 2:-0.467286 
-2048 1:-0.438453 2:-0.495442 
-1857.271792201028 1:-0.391195 2:-0.715703 
-2048 1:-0.289465 2:-0.804962 
-2048 1:-0.280803 2:-0.891387 
-2048 1:-0.490526 2:-0.43426 
-2048 1:-0.299745 2:-0.923373 
-2048 1:-0.539048 2:0.0626001 
-2048 1:-0.374939 2:-0.665225 
-2048 1:-0.341789 2:-0.66523 
-2048 1:-0.206057 2:-0.665226 
-2048 1:-0.349006 2:-0.665227 
-2048 1:-0.425763 2:-0.611797 
-2048 1:-0.201216 2:-0.794313 
-2048 1:-0.243033 2:-0.794312 
-2048 1:0.0328536 2:-0.919586 
-2048 1:-0.457463 2:0.248855 
-2048 1:-0.314738 2:-0.645902 
-2048 1:-0.336359 2:-0.508056 
-2048 1:-0.150273 2:0.0626001 
-2048 1:-0.0796793 2:-0.216946 
-2048 1:-0.376419 2:-0.216945 
-2048 1:-0.439465 2:-0.412957 
-2048 1:-0.494815 2:-0.412955 
-2048 1:-0.654061 2:0.0781426 
-2048 1:-0.276262 2:-0.626461 
