svm_type c_svc
kernel_type rbf
gamma 8
nr_class 2
total_sv 497
rho -12.6356
label 1 -1
nr_sv 283 214
SV
969.186839628338 1:-0.308495 2:-0.538837 3:-0.617284 4:0.987237 5:0.996076 6:0.976597 7:-0.337018 
23.67196860102279 1:-0.682613 2:-0.521454 3:-0.831978 4:0.78985 5:0.973538 6:0.821843 7:-0.239403 
858.8339947836344 1:-0.321955 2:-0.538947 3:-0.83812 4:0.995611 5:0.99789 6:0.984589 7:0.00868209 
551.6889471159216 1:0.0929453 2:-0.713503 3:-0.846154 4:0.96924 5:0.994109 6:0.967779 7:-0.317688 
1965.575878561863 1:-0.419335 2:-0.40424 3:-0.891228 4:0.992185 5:0.999725 6:0.948343 7:-0.523913 
8192 1:-0.437513 2:-0.565649 3:-0.909884 4:0.974481 5:0.997652 6:0.951161 7:-0.523915 
2388.738303510925 1:-0.372961 2:-0.509731 3:-0.934183 4:0.974978 5:0.996834 6:0.946638 7:-0.523913 
8192 1:-0.513462 2:-0.555519 3:-0.918848 4:0.951932 5:0.990366 6:0.881049 7:-0.503268 
60.20464021251729 1:-0.433284 2:-0.435908 3:-0.89701 4:0.991993 5:0.997207 6:0.729752 7:-0.503268 
270.0552947181056 1:0.197305 2:-0.559459 3:-0.748649 4:0.989298 5:0.998189 6:0.974674 7:-0.503268 
94.24589605922549 1:-0.512469 2:-0.450887 3:-0.868085 4:0.941562 5:0.992246 6:0.991522 7:0.131807 
1796.836301545075 1:0.267438 2:-0.199236 3:-0.187773 4:0.992583 5:0.999445 6:0.995421 7:0.131807 
229.5279793801482 1:-0.136846 2:-0.619004 3:-0.84878 4:0.989999 5:0.996137 6:0.990099 7:-0.772547 
8192 1:-0.0520235 2:-0.44607 3:-0.450355 4:0.997154 5:0.99769 6:0.98804 7:-0.488716 
8192 1:-0.520127 2:-0.608857 3:-0.918848 4:0.95187 5:0.991849 6:0.881049 7:-0.503269 
8192 1:-0.508284 2:-0.533619 3:-0.866953 4:0.956916 5:0.991696 6:0.942077 7:-0.503268 
3467.870004057134 1:-0.108646 2:-0.631036 3:-0.812877 4:0.966429 5:0.995477 6:0.982023 7:-0.503268 
5767.625005712872 1:-0.270204 2:-0.601792 3:-0.848534 4:0.987574 5:0.999925 6:0.997514 7:-0.47174 
104.3889376912521 1:-0.373669 2:-0.414137 3:-0.603834 4:0.98231 5:0.99821 6:0.98671 7:-0.959354 
709.6193734413016 1:0.0872573 2:-0.419929 3:-0.338078 4:0.999229 5:0.999903 6:0.99947 7:-0.586905 
926.4284409203864 1:-0.142741 2:-0.24346 3:-0.607595 4:0.99385 5:0.998259 6:0.975173 7:-0.537196 
8192 1:-0.37429 2:-0.654661 3:-0.802966 4:0.986774 5:0.997249 6:0.977381 7:-0.54144 
4269.237734343583 1:-0.5013 2:-0.649914 3:-0.840206 4:0.99997 5:0.998296 6:0.991552 7:-0.633034 
5278.847319568926 1:-0.508284 2:-0.533619 3:-0.866953 4:0.975485 5:0.995087 6:0.942077 7:-0.503268 
4468.760037465127 1:-0.497414 2:-0.541342 3:-0.838961 4:0.941517 5:0.98962 6:0.885384 7:-0.503268 
8192 1:-0.484188 2:-0.541342 3:-0.838961 4:0.986045 5:0.995968 6:0.885384 7:-0.503268 
155.7602160964271 1:0.419881 2:-0.425321 3:-0.761538 4:0.992193 5:0.998372 6:0.985516 7:-0.955695 
3.904587451427078 1:-0.542293 2:-0.0842697 3:-0.651685 4:0.953794 5:0.993313 6:0.967326 7:-0.194523 
781.4697157628809 1:-0.119086 2:-0.809833 3:-0.876 4:0.992942 5:0.99829 6:0.999708 7:-0.418901 
235.6481599093824 1:-0.77815 2:-1 3:-1 4:0.972916 5:0.966224 6:0.814742 7:-0.203087 
412.5299301398858 1:-0.102309 2:-0.715886 3:-0.814741 4:0.961994 5:0.992235 6:0.988903 7:-0.203086 
346.2148757455312 1:0.509117 2:-0.0962702 3:-0.25 4:0.999461 5:0.999962 6:0.999589 7:0.149972 
6974.183394915489 1:-0.222481 2:-0.38997 3:-0.443114 4:0.99842 5:0.999652 6:0.999562 7:-0.407955 
10.71506287194637 1:0.0727928 2:-0.717854 3:-0.816024 4:0.994327 5:0.999509 6:0.999047 7:-0.106046 
460.3293990495853 1:-0.147693 2:-0.76681 3:-0.933476 4:0.997178 5:0.998656 6:0.997967 7:-0.106049 
269.1753390090217 1:-0.458299 2:-0.566489 3:-0.670213 4:0.999254 5:0.995213 6:0.908613 7:-0.638556 
8192 1:-0.117028 2:-0.436436 3:-0.604255 4:0.991104 5:0.998478 6:0.990553 7:-0.517824 
900.5729810990931 1:0.0328944 2:-0.0573843 3:-0.338078 4:0.993773 5:0.999423 6:0.996707 7:-0.198723 
747.9178891865881 1:-0.175863 2:-0.528902 3:-0.462428 4:0.996242 5:0.997767 6:0.987752 7:-0.273423 
35.58316249487985 1:-0.800931 2:-0.63666 3:-0.872428 4:0.98927 5:0.998485 6:0.941593 7:-0.185936 
1905.894652836257 1:-0.167051 2:0.00617284 3:-0.425926 4:0.995837 5:0.99687 6:0.992739 7:-0.248549 
356.7680178221179 1:-0.32248 2:-0.618763 3:-0.806653 4:0.964767 5:0.981507 6:0.902576 7:-0.550604 
2550.914266406242 1:-0.112252 2:-0.419134 3:-0.796053 4:0.972179 5:0.996072 6:0.972361 7:-0.992703 
5915.916894567991 1:-0.335597 2:-0.645529 3:-0.935282 4:0.978117 5:0.996184 6:0.980743 7:-0.942966 
173.2971546721645 1:-0.510386 2:-0.320833 3:-0.403846 4:0.998806 5:0.998687 6:0.995933 7:-0.238853 
5480.060772585945 1:-0.188234 2:-0.27818 3:-0.400966 4:0.994394 5:0.999504 6:0.984752 7:-0.471739 
384.9650547628154 1:-0.163459 2:-0.22381 3:-0.446429 4:0.995387 5:0.998899 6:0.999454 7:-0.552352 
980.2959850713818 1:-0.350911 2:-0.492491 3:-0.727473 4:0.983521 5:0.999327 6:0.959116 7:-0.203087 
8192 1:-0.366668 2:-0.560738 3:-0.845771 4:0.941116 5:0.992628 6:0.958469 7:-0.499587 
172.1440817651396 1:0.0945846 2:-0.626973 3:-0.882576 4:0.987221 5:0.999712 6:0.997794 7:-0.523913 
632.9266250967736 1:-0.424227 2:-0.520024 3:-0.780919 4:0.974421 5:0.995985 6:0.926575 7:0.0183768 
8192 1:-0.467345 2:-0.648033 3:-0.821497 4:0.988211 5:0.996627 6:0.965376 7:-0.506223 
8192 1:-0.407667 2:-0.556463 3:-0.873469 4:0.956143 5:0.99059 6:0.955288 7:-0.560327 
49.25526497305648 1:-0.0207715 2:0.00133547 3:-0.304487 4:0.998487 5:0.999607 6:0.998173 7:-0.642167 
1185.707107555733 1:-0.29726 2:-0.539027 3:-0.789593 4:0.969294 5:0.992382 6:0.984916 7:-0.315247 
62.52245181008652 1:-0.080019 2:-0.429272 3:-0.739496 4:0.995524 5:0.999118 6:0.992519 7:-0.492375 
1452.19840583732 1:-0.397275 2:-0.556463 3:-0.873469 4:0.956201 5:0.99059 6:0.955288 7:-0.560327 
3.181799297265103 1:-0.409463 2:-0.58388 3:-0.932166 4:0.900061 5:0.982294 6:0.725139 7:-0.334036 
731.3277506025843 1:0.102724 2:-0.502521 3:-0.802548 4:0.938002 5:0.989354 6:0.92156 7:-0.334036 
359.0640247474907 1:-0.474197 2:-0.557065 3:-1 4:0.999807 5:0.997892 6:0.814742 7:-0.456513 
672.280361783225 1:-0.122567 2:-0.539548 3:-0.474576 4:0.998611 5:0.999967 6:0.999821 7:-0.586905 
3696.280816502151 1:-0.473491 2:-0.557483 3:-0.824363 4:0.993144 5:0.996191 6:0.976324 7:-0.633036 
94.98263593125107 1:-0.265181 2:-0.365007 3:-0.369919 4:0.998198 5:0.999341 6:0.996364 7:-0.590564 
94.28006872778306 1:-0.137864 2:-0.281305 3:-0.179894 4:0.999892 5:0.999681 6:0.998248 7:-0.590564 
281.6148230108407 1:-0.650666 2:-0.731492 3:-0.855814 4:0.972292 5:0.995419 6:0.95667 7:-0.600264 
96.57107485328699 1:0.15727 2:-0.438705 3:-0.743802 4:0.941568 5:0.986256 6:0.917099 7:-0.216357 
6877.52164503362 1:-0.118694 2:-0.514881 3:-0.574176 4:0.999453 5:0.999935 6:0.999934 7:-0.586905 
25.04342262583856 1:-0.0808686 2:-0.362515 3:-0.440433 4:0.993204 5:0.998947 6:0.995081 7:-0.553012 
4581.919393912649 1:-0.0705101 2:-0.595734 3:-0.815476 4:0.963875 5:0.994588 6:0.965009 7:-0.471738 
2711.620871104322 1:-0.270582 2:-0.491864 3:-0.886861 4:0.969684 5:0.996737 6:0.961923 7:-0.47174 
1676.556123133973 1:-0.51207 2:-0.499386 3:-0.771499 4:0.935218 5:0.994974 6:0.962019 7:-0.471739 
8192 1:-0.0520235 2:-0.470154 3:-0.560284 4:0.996831 5:0.997705 6:0.98814 7:-0.488716 
1068.394310267694 1:0.0883639 2:-0.170483 3:-0.408397 4:0.996989 5:0.999511 6:0.998767 7:-0.258276 
174.5258706625014 1:-0.33098 2:-0.405109 3:-0.660584 4:0.997547 5:0.999736 6:0.997627 7:-0.267975 
340.4944704207621 1:0.0585975 2:-0.320833 3:-0.347368 4:0.997563 5:0.999653 6:0.998103 7:-0.569956 
965.9798865156158 1:-0.112252 2:-0.419134 3:-0.796053 4:0.972027 5:0.995067 6:0.972361 7:-0.992702 
2289.314193570664 1:-0.356185 2:-0.583653 3:-0.881226 4:0.991532 5:0.998501 6:0.987233 7:-0.992703 
262.6613645030899 1:-0.225703 2:-0.75494 3:-0.840206 4:0.976911 5:0.995638 6:0.975807 7:-0.992703 
287.055864123147 1:-0.339606 2:-0.698663 3:-0.894198 4:0.995358 5:0.998814 6:0.987393 7:-0.992702 
2097.496256478728 1:-0.17916 2:-0.517532 3:-0.830601 4:0.980711 5:0.996196 6:0.975496 7:-0.992703 
2025.28881739532 1:-0.390485 2:-0.525769 3:-0.690773 4:0.928289 5:0.992739 6:0.975638 7:-0.388049 
3677.485577248362 1:-0.151335 2:-0.701465 3:-0.82967 4:0.989295 5:0.999092 6:0.999056 7:-0.633036 
216.2775873813869 1:-0.204377 2:-0.685064 3:-0.875 4:0.922423 5:0.978418 6:0.902002 7:-0.393494 
326.1771675316615 1:0.433769 2:-0.521912 3:-0.743271 4:0.995512 5:0.999538 6:0.997246 7:-0.896894 
17.33969232253245 1:-0.677916 2:-0.590863 3:-0.953313 4:0.983406 5:0.997076 6:0.546511 7:-0.341904 
2598.774145804605 1:-0.156956 2:-0.77511 3:-0.897351 4:0.996148 5:0.999176 6:0.999719 7:-0.42558 
248.9599136821352 1:0.0455033 2:-0.612643 3:-0.823194 4:0.980991 5:0.994704 6:0.964494 7:-0.47174 
910.0953663019804 1:-0.167198 2:-0.301791 3:-0.63785 4:0.992817 5:0.999518 6:0.992256 7:-0.47174 
8192 1:-0.122445 2:-0.479787 3:-0.604255 4:0.993095 5:0.999192 6:0.991657 7:-0.517824 
19.71247941677764 1:0.00203782 2:-0.236278 3:-0.128514 4:0.997017 5:0.999364 6:0.99651 7:0.131804 
32.12753914268119 1:0.0465746 2:-0.248353 3:-0.142292 4:0.993228 5:0.999192 6:0.99557 7:0.131804 
3392.057683464827 1:-0.439638 2:-0.545056 3:-0.703349 4:0.994299 5:0.999424 6:0.993765 7:-0.541482 
2344.728923757581 1:-0.189439 2:-0.279252 3:-0.746939 4:0.998075 5:0.997147 6:0.990247 7:-0.438934 
7962.769413700555 1:-0.201627 2:-0.513683 3:-0.617284 4:0.992042 5:0.997598 6:0.992841 7:-0.38805 
124.4782824838752 1:0.225598 2:-0.169105 3:-0.340426 4:0.995207 5:0.99939 6:0.997903 7:-0.349276 
3545.634808207288 1:-0.120134 2:-0.400735 3:-0.658088 4:0.996827 5:0.998498 6:0.987743 7:-0.45471 
3880.639074069733 1:-0.220289 2:-0.731163 3:-0.935417 4:0.962076 5:0.995258 6:0.971752 7:-0.525689 
5798.450917852041 1:-0.0808686 2:-0.362515 3:-0.440433 4:0.993204 5:0.998947 6:0.995081 7:-0.553012 
1563.228856513528 1:-0.368896 2:-0.654661 3:-0.802966 4:0.992666 5:0.997215 6:0.977381 7:-0.54144 
17.82320677082397 1:-0.0796172 2:-0.7768 3:-0.85446 4:0.971473 5:0.986351 6:0.914888 7:-0.216356 
31.50865305128469 1:0.141308 2:-0.171309 3:-0.342175 4:0.989233 5:0.999328 6:0.990538 7:-0.349278 
359.5755973153148 1:-0.1844 2:-0.323773 3:-0.731602 4:0.995896 5:0.999797 6:0.954744 7:-0.457727 
8.792809171146763 1:0.471019 2:-0.275556 3:-0.173333 4:0.998111 5:0.999742 6:0.998586 7:0.239716 
295.6591176213477 1:-0.484489 2:-0.46677 3:-0.871901 4:0.980803 5:0.998458 6:0.98108 7:-0.0355839 
8192 1:-0.320273 2:-0.459212 3:-0.709602 4:0.99938 5:0.999598 6:0.999967 7:-0.200004 
753.3509040520963 1:-0.0826444 2:-0.0778938 3:-0.43342 4:0.999246 5:0.997025 6:0.98053 7:-0.238853 
77.47477815276469 1:0.101632 2:-0.41226 3:-0.403846 4:0.990871 5:0.999551 6:0.997081 7:0.239716 
1434.245253828263 1:0.0241405 2:-0.374452 3:-0.592105 4:0.996237 5:0.998013 6:0.997766 7:-0.539722 
8192 1:-0.0327227 2:-0.438484 3:-0.633858 4:0.99119 5:0.998919 6:0.997191 7:-0.539719 
410.542093668262 1:-0.0844708 2:-0.780471 3:-0.937374 4:0.993505 5:0.999125 6:0.993281 7:-0.568735 
122.4373027786479 1:0.124974 2:-0.526163 3:-0.567442 4:0.995371 5:0.999507 6:0.997266 7:-0.010736 
5891.940677141682 1:-0.278463 2:-0.67004 3:-0.811741 4:0.998903 5:0.999559 6:0.996114 7:-0.618534 
425.5193040474062 1:-0.00579984 2:-0.17209 3:-0.295455 4:0.976992 5:0.998505 6:0.984619 7:-0.502026 
34.08936299748547 1:0.0518199 2:0.0226834 3:-0.281853 4:0.997009 5:0.996742 6:0.979698 7:-0.599697 
1591.285132161881 1:-0.0580755 2:-0.179029 3:-0.318681 4:0.998302 5:0.998804 6:0.996124 7:-0.408574 
34.86706865276826 1:0.258694 2:-0.599368 3:-0.738764 4:0.997938 5:0.998255 6:0.98963 7:-0.358327 
976.0806792738 1:-0.117995 2:-0.442113 3:-0.778571 4:0.994653 5:0.999864 6:0.994372 7:-0.992702 
548.9461726321429 1:-0.455011 2:-0.349042 3:-0.702875 4:0.997556 5:0.998526 6:0.996914 7:-0.170283 
935.2917495134454 1:0.0631624 2:-0.141712 3:-0.318681 4:0.997354 5:0.999218 6:0.992428 7:-0.349278 
31.44103896426621 1:0.648602 2:-0.339248 3:-0.653907 4:0.998853 5:0.999297 6:0.994557 7:-0.876311 
1519.395929253747 1:-0.396834 2:-0.576579 3:-0.690773 4:0.9251 5:0.989686 6:0.972835 7:-0.388051 
5105.378923516086 1:-0.128487 2:-0.399199 3:-0.761538 4:0.996538 5:0.998519 6:0.995444 7:-0.539722 
13.5832145170326 1:-0.41451 2:-0.219077 3:-0.675958 4:0.930181 5:0.99074 6:0.947438 7:-0.477741 
840.4015706551129 1:-0.209864 2:-0.47306 3:-0.398707 4:0.998142 5:0.999872 6:0.999295 7:-0.555435 
14.09392510110213 1:-0.0290701 2:-0.136653 3:-0.211864 4:0.999978 5:0.999881 6:0.999304 7:-0.565134 
498.1316457664407 1:-0.179862 2:-0.258053 3:-0.739496 4:0.967281 5:0.995487 6:0.967815 7:-0.532995 
612.5062772972527 1:-0.77815 2:-1 3:-1 4:0.972916 5:0.966224 6:0.814742 7:-0.203087 
1952.973712331943 1:-0.761313 2:-0.90904 3:-1 4:0.935008 5:0.987743 6:0.814742 7:-0.203087 
1634.133949314434 1:-0.812181 2:-1 3:-1 4:0.954748 5:0.966224 6:0.814742 7:-0.203087 
63.05300762460973 1:-0.797748 2:-0.90479 3:-1 4:0.776142 5:0.938563 6:0.814742 7:-0.203086 
112.0053929566386 1:-0.434224 2:-0.475952 3:-0.904321 4:0.868946 5:0.982139 6:0.57588 7:-0.506927 
165.2637161504138 1:-0.627156 2:-0.772664 3:-0.935146 4:0.911732 5:0.967 6:0.652371 7:-0.506926 
1829.925377230061 1:-0.26129 2:-0.44229 3:-0.830292 4:0.987224 5:0.997965 6:0.941763 7:-0.47174 
395.3038846219889 1:-0.179095 2:-0.206581 3:-0.63785 4:0.995164 5:0.99884 6:0.992256 7:-0.471739 
23.7347045366421 1:-0.167198 2:-0.809579 3:-1 4:0.993796 5:0.997826 6:0.814742 7:0.118392 
40.87572174185059 1:0.346747 2:-0.0761965 3:-0.297229 4:0.99856 5:0.999527 6:0.998157 7:-0.258277 
8192 1:-0.121134 2:-0.492438 3:-0.669039 4:0.999868 5:0.999666 6:0.996666 7:-0.537196 
88.29251166241659 1:-0.205573 2:-0.0808271 3:-0.650376 4:0.996755 5:0.998553 6:0.971458 7:-0.537196 
389.1920773732305 1:-0.156357 2:-0.035503 3:-0.357988 4:0.981553 5:0.997498 6:0.982962 7:-0.248549 
1087.360668884122 1:-0.209864 2:-0.47306 3:-0.398707 4:0.998142 5:0.999872 6:0.999295 7:-0.555435 
3654.776685057499 1:-0.246386 2:-0.538167 3:-0.752 4:0.995202 5:0.988877 6:0.953698 7:-0.500219 
41.93051276486479 1:-0.225703 2:-0.75494 3:-0.840206 4:0.977055 5:0.996859 6:0.975807 7:-0.992703 
19.59543445519715 1:0.388724 2:-0.158058 3:-0.231405 4:0.999773 5:0.999828 6:0.999574 7:0.454454 
7789.415223888162 1:-0.220468 2:-0.599368 3:-0.738764 4:0.975243 5:0.996076 6:0.967515 7:-0.489298 
1243.220435347647 1:-0.327743 2:-0.675679 3:-0.738764 4:0.96042 5:0.997806 6:0.978275 7:-0.4893 
27.60919591213912 1:-0.0371513 2:-0.456667 3:-0.549091 4:0.99949 5:0.996873 6:0.991527 7:-0.0484255 
347.0405874648121 1:0.0144706 2:-0.423843 3:-0.760925 4:0.995676 5:0.994155 6:0.966606 7:-0.885341 
32.30868667593777 1:-0.625364 2:-0.24537 3:-0.906907 4:0.916811 5:0.989188 6:0.875546 7:-0.27154 
4028.782363065933 1:-0.582146 2:-0.663009 3:-0.94084 4:0.969182 5:0.996037 6:0.964646 7:-0.81679 
948.5969778444698 1:-0.122271 2:-0.658866 3:-0.929224 4:0.988318 5:0.997086 6:0.991273 7:-0.464442 
101.9674466234467 1:0.179279 2:-0.5625 3:-0.714724 4:0.964061 5:0.99534 6:0.971551 7:-0.505095 
8192 1:0.392917 2:-0.237168 3:-0.213768 4:0.998731 5:0.999863 6:0.999102 7:0.149972 
17.471497217969 1:-0.513687 2:-0.809223 3:-0.912921 4:0.924194 5:0.984626 6:0.912092 7:-0.692463 
1.324900997033474 1:-0.63301 2:-0.0822072 3:-1 4:0.96751 5:0.995301 6:0.814742 7:-0.306807 
5032.467885019417 1:0.00753794 2:-0.565462 3:-0.559242 4:0.999997 5:0.999722 6:0.998859 7:-0.504532 
37.3121380381297 1:0.371425 2:-0.177298 3:-0.360825 4:0.996463 5:0.999221 6:0.996308 7:0.342235 
996.6564053813318 1:-0.326726 2:-0.894352 3:-0.931111 4:0.992277 5:0.999396 6:0.999017 7:-0.523913 
4.8288369206589 1:-0.490801 2:-0.534286 3:-0.734286 4:0.916005 5:0.998293 6:0.990098 7:0.089964 
5772.436461910193 1:-0.124119 2:-0.168367 3:-0.457726 4:0.993517 5:0.998439 6:0.98981 7:-0.238851 
354.0210901764067 1:-0.0236236 2:-0.0768608 3:-0.247573 4:0.998423 5:0.985495 6:0.995585 7:-0.508086 
2627.538404186987 1:-0.282932 2:-0.226266 3:-0.705696 4:0.991991 5:0.999116 6:0.999415 7:-0.490515 
1125.960566091257 1:-0.493054 2:-0.579277 3:-0.725664 4:0.969004 5:0.996517 6:0.986838 7:-0.615433 
193.6004267825486 1:-0.135975 2:-0.559515 3:-0.812971 4:0.9731 5:0.997047 6:0.942926 7:-0.881131 
894.9473161984581 1:-0.139382 2:-0.521714 3:-0.78169 4:0.986372 5:0.998265 6:0.991028 7:-0.537881 
2.215358943667313 1:-0.542293 2:-0.0842697 3:-0.651685 4:0.953794 5:0.993313 6:0.967326 7:-0.194523 
182.8857198152136 1:-0.501635 2:-0.450887 3:-0.670213 4:0.957154 5:0.995368 6:0.954411 7:-0.463813 
2989.789243398811 1:-0.27435 2:-0.634976 3:-0.848534 4:0.988272 5:0.999734 6:0.99537 7:-0.471739 
407.6245541787144 1:-0.140826 2:-0.390222 3:-0.520124 4:0.992409 5:0.999558 6:0.996767 7:-0.319482 
1836.887489667643 1:-0.0666529 2:-0.720083 3:-0.932755 4:0.990241 5:0.998901 6:0.992425 7:-0.532412 
4532.544016968568 1:0.392917 2:-0.237168 3:-0.213768 4:0.995276 5:0.999863 6:0.999102 7:0.149971 
5736.457652959318 1:-0.402471 2:-0.549532 3:-0.841837 4:0.943246 5:0.991456 6:0.960728 7:-0.499587 
301.2942339187687 1:-0.455011 2:-0.479233 3:-0.702875 4:0.999869 5:0.997061 6:0.996002 7:-0.170279 
189.2288376527584 1:-0.0958828 2:-0.0545691 3:-0.383523 4:0.975112 5:0.996028 6:0.983617 7:-0.349278 
8192 1:-0.121134 2:-0.492438 3:-0.669039 4:0.999583 5:0.999666 6:0.996666 7:-0.537197 
616.0477359447286 1:-0.0207715 2:-0.477564 3:-0.618462 4:0.986294 5:0.998569 6:0.98611 7:-0.559094 
144.315768620241 1:0.155127 2:-0.35018 3:-0.617284 4:0.997321 5:0.99979 6:0.998095 7:0.0541635 
1488.398971696869 1:-0.257154 2:-0.407211 3:-0.613466 4:0.986297 5:0.999024 6:0.992422 7:-0.264909 
18.58429086231293 1:-0.00885876 2:-0.669505 3:-0.849148 4:0.987429 5:0.998036 6:0.989478 7:-0.106049 
5836.718211476221 1:-0.248904 2:-0.616956 3:-0.764642 4:0.984952 5:0.998838 6:0.992465 7:-0.861728 
238.6998009203757 1:-0.177277 2:-0.169578 3:-0.661572 4:0.997851 5:0.998509 6:0.995586 7:-0.599741 
2346.280891840635 1:-0.696123 2:-0.802823 3:-1 4:0.978883 5:0.986892 6:0.814742 7:-0.353421 
44.91952371581468 1:-0.193577 2:-0.692685 3:-0.859729 4:0.978349 5:0.993891 6:0.967308 7:-0.408694 
171.1857206480563 1:-0.558444 2:-0.17297 3:-0.656827 4:0.953913 5:0.993278 6:0.967228 7:-0.194523 
136.5208978665878 1:0.113872 2:-0.314303 3:-0.403846 4:0.998192 5:0.999764 6:0.998552 7:-0.569956 
1107.664677808939 1:-0.134563 2:-0.40942 3:-0.509881 4:0.990215 5:0.997933 6:0.991644 7:-0.196945 
8192 1:-0.194791 2:-0.447666 3:-0.71988 4:0.968408 5:0.995506 6:0.984195 7:-0.505097 
4021.083976323683 1:-0.749947 2:-0.81808 3:-1 4:0.965626 5:0.997212 6:0.814742 7:-0.203087 
3233.076083944143 1:-0.33066 2:-0.599509 3:-0.771499 4:0.999114 5:0.996763 6:0.982242 7:-0.772546 
5119.638392018484 1:-0.308944 2:-0.579563 3:-0.852381 4:0.996073 5:0.997248 6:0.992329 7:-0.772547 
49.39555368162922 1:-0.846803 2:-0.747015 3:-0.911175 4:0.945115 5:0.989293 6:0.954898 7:-0.148392 
1496.292471986115 1:0.0608309 2:-0.533905 3:-0.696078 4:0.995754 5:0.99982 6:0.997875 7:-0.566906 
78.52891165387324 1:-0.177277 2:-0.169578 3:-0.661572 4:0.997851 5:0.998509 6:0.995586 7:-0.599741 
71.48819426413024 1:0.0337761 2:-0.566974 3:-0.583893 4:0.999795 5:0.999911 6:0.999548 7:0.226957 
531.0845645077551 1:-0.483144 2:-0.438283 3:-0.533835 4:0.990862 5:0.998054 6:0.985373 7:-0.273352 
73.26633744038079 1:0.152202 2:-0.206813 3:-0.0948905 4:0.994977 5:0.999356 6:0.996467 7:0.454451 
1248.032551372221 1:-0.0207715 2:-0.341276 3:-0.481605 4:0.980914 5:0.99625 6:0.975432 7:-0.0883492 
361.1129553976419 1:0.464819 2:-0.162671 3:-0.0445205 4:0.998835 5:0.999844 6:0.999142 7:0.159673 
8192 1:-0.155415 2:-0.510216 3:-0.552885 4:0.984652 5:0.998542 6:0.997099 7:-0.489298 
5325.584102879357 1:-0.151335 2:-0.400735 3:-0.544118 4:0.990302 5:0.998924 6:0.993457 7:-0.489298 
8192 1:-0.188776 2:-0.500613 3:-0.544118 4:0.988173 5:0.997732 6:0.997822 7:-0.4893 
328.6550791667011 1:0.0503276 2:-0.708608 3:-0.89769 4:0.997234 5:0.99966 6:0.998636 7:-0.425581 
4411.18496938664 1:-0.198036 2:-0.407179 3:-0.764706 4:0.998059 5:0.999326 6:0.996184 7:-0.539722 
589.8048573710571 1:-0.43933 2:-0.239922 3:-0.552347 4:0.990038 5:0.999212 6:0.98559 7:-0.341904 
4387.038720498921 1:-0.547107 2:-0.70613 3:-1 4:0.977413 5:0.995088 6:0.814742 7:-0.668247 
2210.80251890796 1:0.140605 2:-0.2665 3:-0.256 4:0.999762 5:0.999938 6:0.999696 7:0.131806 
341.5670977049386 1:0.0465746 2:-0.248353 3:-0.142292 4:0.993228 5:0.999192 6:0.99557 7:0.131804 
2568.168642833809 1:-0.407643 2:-0.574571 3:-0.722595 4:0.999376 5:0.998695 6:0.992506 7:-0.910221 
6391.546476408927 1:-0.36649 2:-0.649257 3:-0.85446 4:0.977004 5:0.997098 6:0.981498 7:-0.600264 
447.7365517233829 1:-0.513687 2:-0.809223 3:-0.912921 4:0.924194 5:0.984626 6:0.912092 7:-0.692463 
8192 1:-0.163816 2:-0.367443 3:-0.392157 4:0.990259 5:0.999365 6:0.994926 7:-0.489299 
485.6048679407553 1:0.0283494 2:-0.513301 3:-0.596091 4:0.99936 5:0.999258 6:0.998341 7:-0.586905 
5661.87318773342 1:0.0111749 2:-0.534377 3:-0.63357 4:0.99406 5:0.998758 6:0.992708 7:-0.57423 
8192 1:-0.0327227 2:-0.438484 3:-0.633858 4:0.991354 5:0.999728 6:0.997191 7:-0.53972 
2222.019523431897 1:-0.504626 2:-0.723416 3:-1 4:0.998863 5:0.999983 6:0.814742 7:-0.620364 
568.6815752242061 1:0.00778932 2:-0.355421 3:-0.425926 4:0.996225 5:0.999795 6:0.998971 7:-0.463813 
449.3014878606072 1:-0.104187 2:-0.510888 3:-0.872428 4:0.992328 5:0.996648 6:0.971504 7:-0.539722 
325.9066942247972 1:-0.501088 2:-0.629545 3:-0.812121 4:0.946071 5:0.986791 6:0.865793 7:-0.465033 
106.1488390689349 1:-0.405427 2:-0.471307 3:-0.628743 4:0.993622 5:0.996981 6:0.942918 7:-0.780397 
97.1612436676767 1:-0.522248 2:-0.661223 3:-0.779097 4:0.985418 5:0.990945 6:0.979236 7:-0.634853 
241.4790608549781 1:-0.18201 2:-0.618139 3:-0.937751 4:0.997002 5:0.998589 6:0.993962 7:-0.967256 
775.9954828810925 1:-0.266192 2:-0.472327 3:-0.689223 4:0.979276 5:0.992909 6:0.994387 7:-0.517824 
5951.67318262819 1:-0.080019 2:-0.514881 3:-0.739496 4:0.995524 5:0.995124 6:0.992519 7:-0.492375 
8192 1:-0.33066 2:-0.599509 3:-0.771499 4:0.990312 5:0.998607 6:0.994538 7:-0.772546 
110.0236673843988 1:-0.230281 2:-0.210271 3:-0.27907 4:0.991052 5:0.999797 6:0.986879 7:-0.471739 
409.2254441154486 1:-0.641246 2:-0.413447 3:-0.859091 4:0.904231 5:0.973291 6:0.810678 7:-0.328553 
909.9619681221418 1:0.00916345 2:-0.71848 3:-0.919689 4:0.991409 5:0.999564 6:0.961689 7:-0.525689 
318.8696884854503 1:-0.274825 2:-0.684598 3:-1 4:0.961592 5:0.994411 6:0.814742 7:-0.411036 
1386.677511385964 1:-0.0624549 2:-0.196931 3:-0.476351 4:0.985624 5:0.998731 6:0.995625 7:-0.264909 
475.168224372502 1:-0.513748 2:-0.373301 3:-0.733906 4:0.942551 5:0.989013 6:0.993742 7:-0.287908 
610.5861064428234 1:-0.622298 2:-0.589515 3:-0.914835 4:0.991559 5:0.997909 6:0.802146 7:-0.594205 
8192 1:-0.104705 2:-0.514881 3:-0.574176 4:0.999402 5:0.999947 6:0.999868 7:-0.586905 
8192 1:-0.308944 2:-0.579563 3:-0.852381 4:0.997878 5:0.997248 6:0.992329 7:-0.772546 
289.5960551377645 1:-0.337415 2:-0.73557 3:-0.936475 4:0.959626 5:0.98382 6:0.905145 7:-0.393494 
360.9975357279645 1:0.370465 2:-0.46423 3:-0.712297 4:0.993025 5:0.998231 6:0.989776 7:-0.955695 
2082.312232631287 1:-0.363501 2:-0.765805 3:-0.91092 4:0.985323 5:0.993867 6:0.986769 7:-0.717302 
4514.598185719451 1:-0.379548 2:-0.60049 3:-0.739496 4:0.98987 5:0.997143 6:0.986716 7:-0.779813 
919.635864918053 1:-0.366668 2:-0.560738 3:-0.845771 4:0.937187 5:0.991814 6:0.948677 7:-0.499587 
2.169189857472122 1:0.152202 2:-0.2316 3:-0.208029 4:0.994977 5:0.999553 6:0.996501 7:0.454454 
2.673391328989551 1:-0.608309 2:-0.357002 3:-0.816568 4:0.900473 5:0.984751 6:0.901437 7:-0.33221 
8192 1:-0.198036 2:-0.407179 3:-0.764706 4:0.997871 5:0.999326 6:0.996184 7:-0.539721 
287.3034213183699 1:-0.263423 2:-0.515898 3:-0.740042 4:0.989629 5:0.999356 6:0.990965 7:-0.200005 
1137.619168658978 1:-0.400082 2:-0.804837 3:-0.91092 4:0.969403 5:0.990921 6:0.937388 7:-0.560238 
5485.84288636369 1:-0.197521 2:-0.584184 3:-0.578231 4:0.989888 5:0.998018 6:0.989048 7:-0.326131 
7341.522429964563 1:-0.801746 2:-0.916496 3:-1 4:0.930743 5:0.981138 6:0.814742 7:-0.203087 
56.99455383375752 1:-0.312171 2:-0.726142 3:-0.875 4:0.938661 5:0.98185 6:0.922541 7:-0.393494 
1892.182494758657 1:-0.293202 2:-0.614801 3:-0.907463 4:0.959749 5:0.987722 6:0.997453 7:-0.781603 
952.3894878076508 1:-0.447935 2:-0.774766 3:-0.920918 4:0.969432 5:0.988449 6:0.996098 7:-0.781604 
1040.805803159821 1:-0.293202 2:-0.614801 3:-0.907463 4:0.959749 5:0.987722 6:0.997453 7:-0.781603 
566.0055025239399 1:-0.419536 2:-0.800696 3:-0.930023 4:0.98576 5:0.993441 6:0.994662 7:-0.781602 
1856.895623294283 1:-0.0580755 2:-0.203907 3:-0.432234 4:0.9977 5:0.999955 6:0.995739 7:-0.408571 
159.592076834588 1:-0.483144 2:-0.438283 3:-0.533835 4:0.990862 5:0.998054 6:0.985373 7:-0.273352 
1490.094609213459 1:-0.363501 2:-0.48548 3:-0.765152 4:0.980764 5:0.998906 6:0.978042 7:-0.203087 
986.1311684445648 1:-0.30734 2:-0.500613 3:-0.772059 4:0.98205 5:0.999354 6:0.982372 7:-0.203086 
14.28680469667624 1:0.254966 2:-0.172686 3:-0.29745 4:0.992311 5:0.999119 6:0.993192 7:-0.349277 
2411.797785973522 1:-0.0508637 2:-0.0419815 3:-0.375315 4:0.989741 5:0.998539 6:0.992511 7:-0.349276 
190.0007973192737 1:-0.714952 2:-0.516115 3:-0.92112 4:0.93469 5:0.989558 6:0.998242 7:-0.347946 
3144.376979089808 1:-0.201257 2:-0.46732 3:-0.392157 4:0.988091 5:0.999921 6:0.999569 7:-0.489299 
403.6741399537637 1:-0.605738 2:-0.661308 3:-0.674541 4:0.970706 5:0.996102 6:0.97764 7:-0.499578 
426.9580140654741 1:-0.6646 2:-0.715319 3:-0.814371 4:0.98092 5:0.996567 6:0.994013 7:-0.499578 
8192 1:-0.477118 2:-0.648033 3:-0.821497 4:0.982913 5:0.99572 6:0.965376 7:-0.506223 
38.24821761234026 1:0.206497 2:-0.518501 3:-0.884328 4:0.954156 5:0.976449 6:0.8411 7:-0.176961 
2077.805008321114 1:0.0162122 2:-0.358727 3:-0.467811 4:0.999238 5:0.99917 6:0.996658 7:-0.176961 
1421.500900979442 1:-0.305638 2:-0.309938 3:-0.336898 4:0.997349 5:0.999218 6:0.995682 7:-0.427984 
161.7750783270195 1:0.178146 2:-0.20098 3:-0.270588 4:0.997826 5:0.999769 6:0.998792 7:-0.295152 
66.76105196029165 1:0.0296818 2:-0.303901 3:-0.398892 4:0.998311 5:0.999892 6:0.998227 7:-0.150911 
777.5228003215492 1:-0.185282 2:-0.616471 3:-0.562353 4:0.997804 5:0.999987 6:0.999929 7:-0.586905 
1131.160243196855 1:-0.231282 2:-0.655495 3:-0.775362 4:0.975055 5:0.998988 6:0.999428 7:-0.633036 
6895.048534242199 1:0.00562775 2:-0.446447 3:-0.514107 4:0.999024 5:0.999834 6:0.999458 7:-0.586905 
510.9172719178972 1:-0.362473 2:-0.572092 3:-0.699515 4:0.998225 5:0.998696 6:0.9954 7:-0.68339 
683.3388179919189 1:-0.109386 2:-0.741762 3:-0.882129 4:0.989104 5:0.998384 6:0.997137 7:-0.42558 
1104.863943009796 1:-0.269592 2:-0.387637 3:-0.491803 4:0.997613 5:0.998988 6:0.995417 7:-0.590564 
125.1998114897973 1:-0.326726 2:-0.894352 3:-0.931111 4:0.992277 5:0.999396 6:0.999017 7:-0.523913 
60.22483948771916 1:-0.00695667 2:-0.718188 3:-0.871369 4:0.948118 5:0.991381 6:0.960907 7:-0.216357 
275.7496220934118 1:-0.0422593 2:-0.105799 3:-0.416928 4:0.995927 5:0.999987 6:0.966926 7:-0.537196 
401.1533717500913 1:-0.0452522 2:-0.434028 3:-0.354167 4:0.996276 5:0.999182 6:0.995511 7:0.0978568 
662.4538667776121 1:-0.0922978 2:-0.31099 3:-0.550725 4:0.997964 5:0.99776 6:0.997195 7:-0.596039 
898.0315624400148 1:-0.650666 2:-0.731492 3:-0.855814 4:0.972292 5:0.995419 6:0.95667 7:-0.600264 
121.6751854709366 1:-0.575668 2:-0.570642 3:-0.643678 4:0.876652 5:0.983394 6:0.9231 7:-0.600262 
69.3236122785929 1:-0.222802 2:-0.165936 3:-0.129825 4:0.991591 5:0.998705 6:0.992777 7:-0.520191 
1723.4269256432 1:-0.477312 2:-0.370309 3:-0.589404 4:0.982409 5:0.9975 6:0.992602 7:-0.19452 
1283.255751273855 1:-0.420567 2:-0.344253 3:-0.572414 4:0.983666 5:0.997825 6:0.99378 7:-0.19452 
4587.409813332241 1:-0.393106 2:-0.44719 3:-0.639535 4:0.998945 5:0.996749 6:0.988772 7:-0.19452 
654.7667509921728 1:0.0719975 2:-0.356579 3:-0.510526 4:0.99748 5:0.996111 6:0.997926 7:-0.569956 
-8.833626189801599 1:-0.431428 2:-0.58391 3:-0.938735 4:0.994838 5:0.997336 6:-0.617833 7:-0.770102 
-395.840961674645 1:-0.167522 2:-0.703906 3:-0.915531 4:0.963815 5:0.989422 6:0.978086 7:0.00868114 
-986.894612795578 1:-0.431826 2:-0.481992 3:-0.737288 4:0.983967 5:0.996956 6:0.986316 7:0.00868061 
-4294.123016370911 1:-0.22457 2:-0.207064 3:-0.685279 4:0.996429 5:0.999428 6:0.994145 7:-0.503269 
-7.171296017721711 1:-0.843323 2:-0.874615 3:-1 4:-1 5:0.182638 6:0.814742 7:-0.116916 
-35.94275968472427 1:-0.559715 2:-0.336153 3:-0.766917 4:0.977236 5:0.994414 6:0.781587 7:-0.503269 
-8192 1:-0.17127 2:-0.521393 3:-0.687919 4:0.977124 5:0.996654 6:0.980545 7:-0.503268 
-522.6676269755815 1:-0.41876 2:-0.497722 3:-0.501608 4:0.988189 5:0.998706 6:0.994301 7:-0.356498 
-6.187233761988149 1:-0.877301 2:-1 3:-1 4:-0.847399 5:0.966224 6:0.814742 7:-0.212149 
-8.142098046146792 1:-0.819575 2:-1 3:-1 4:0.111845 5:0.966224 6:0.814742 7:-0.590567 
-279.7861782869869 1:-0.424671 2:-0.523701 3:-0.879221 4:0.975211 5:0.998351 6:0.997824 7:-0.990907 
-1287.852395102451 1:-0.28885 2:-0.67509 3:-0.95216 4:0.965997 5:0.993861 6:0.990791 7:-0.471739 
-49.09962545696457 1:-0.445475 2:-0.909959 3:-0.941288 4:0.931439 5:0.862824 6:0.984823 7:-0.765898 
-8.688592650110902 1:-0.864049 2:-0.703277 3:-1 4:0.730613 5:0.950882 6:0.814742 7:-0.131992 
-1170.991374107622 1:-0.51775 2:-0.697307 3:-0.913649 4:0.999148 5:0.993969 6:0.941672 7:-0.665171 
-8192 1:-0.233362 2:-0.4193 3:-0.769517 4:0.99022 5:0.997446 6:0.988626 7:-0.506927 
-8192 1:-0.404129 2:-0.598601 3:-0.926714 4:0.959858 5:0.993894 6:0.94188 7:-0.506926 
-4930.230305614414 1:-0.48368 2:-0.699204 3:-0.927739 4:0.971468 5:0.990894 6:0.969343 7:-0.818644 
-8192 1:-0.130194 2:-0.492438 3:-0.669039 4:0.994467 5:0.99894 6:0.993301 7:-0.503269 
-10.56637820822868 1:-0.738201 2:-0.895244 3:-1 4:0.985371 5:-0.275199 6:0.814742 7:-0.599699 
-4243.114281974584 1:-0.435504 2:-0.354638 3:-0.579186 4:0.996997 5:0.999617 6:0.999543 7:-0.212149 
-901.0713387308463 1:-0.666596 2:-0.87872 3:-1 4:0.986442 5:0.970479 6:0.814742 7:-0.248549 
-59.55378375498091 1:-0.351929 2:-1 3:-1 4:0.997796 5:0.966224 6:0.814742 7:-0.549397 
-45.69685933222305 1:-0.746553 2:-0.692685 3:-0.859729 4:0.998262 5:0.943468 6:0.926211 7:-0.32855 
-12.30974698874449 1:-0.428268 2:-0.618713 3:-0.891228 4:0.941619 5:0.970961 6:0.193907 7:-0.328553 
-2.760085198105968 1:-0.832919 2:-0.936328 3:-1 4:0.813783 5:0.108701 6:0.814742 7:-0.542107 
-6967.227505539336 1:-0.214433 2:-0.4193 3:-0.769517 4:0.990343 5:0.997486 6:0.989088 7:-0.506927 
-7770.736832628892 1:-0.137647 2:-0.430376 3:-0.8 4:0.998623 5:0.999229 6:0.991514 7:-0.506926 
-3015.117550122123 1:-0.483285 2:-0.523831 3:-0.885609 4:0.981629 5:0.993978 6:0.848133 7:-0.506926 
-2.30561257006432 1:-0.822155 2:-0.925092 3:-1 4:0.159937 5:-0.608064 6:0.814742 7:-0.634853 
-11.20231233389221 1:-0.675964 2:-0.925909 3:-1 4:0.430522 5:-1 6:0.814742 7:-0.634853 
-3.155171832753226 1:-0.74634 2:-0.924815 3:-1 4:0.384169 5:-0.642314 6:0.814742 7:-0.634853 
-8.515288280275145 1:-0.83541 2:-0.917677 3:-1 4:0.343627 5:0.0430912 6:0.814742 7:-0.634853 
-1025.813471054859 1:0.155562 2:-0.17297 3:-0.313653 4:0.996458 5:0.999897 6:0.998568 7:-0.258279 
-6480.213246107996 1:-0.151335 2:-0.0822072 3:-0.441441 4:0.993574 5:0.999129 6:0.991525 7:-0.258276 
-43.76567467710334 1:-0.465927 2:-0.707256 3:-1 4:0.962332 5:0.994301 6:0.814742 7:0.00868209 
-8192 1:-0.39811 2:-0.582545 3:-0.853428 4:0.959908 5:0.993944 6:0.91872 7:-0.506927 
-8192 1:-0.314118 2:-0.648707 3:-0.799569 4:0.971468 5:0.996251 6:0.980063 7:-0.506926 
-2.552383959186077 1:-0.612091 2:-0.956277 3:-1 4:0.77929 5:0.0768328 6:0.814742 7:-0.821667 
-413.4302839785475 1:0.380691 2:-0.454899 3:-0.73102 4:0.99463 5:0.999684 6:0.99151 7:-0.916901 
-284.3982550162764 1:-0.267819 2:-0.5561 3:-0.797386 4:0.978761 5:0.995562 6:0.96334 7:-0.990906 
-1083.751582775391 1:-0.850236 2:-1 3:-1 4:0.907991 5:0.966224 6:0.814742 7:-0.123584 
-1180.619845948167 1:-0.557482 2:-0.563393 3:-0.778571 4:0.945346 5:0.992021 6:0.947797 7:-0.47174 
-2.007780953919075 1:-0.936614 2:-1 3:-1 4:0.251172 5:0.966224 6:0.814742 7:-0.358323 
-459.1903010453086 1:-0.745401 2:-0.864167 3:-1 4:0.912283 5:0.965121 6:0.814742 7:-0.303739 
-8192 1:0.017261 2:-0.499721 3:-0.584821 4:0.996354 5:0.998587 6:0.994264 7:-0.549399 
-8192 1:-0.146472 2:-0.47457 3:-0.467049 4:0.990228 5:0.999815 6:0.998816 7:-0.549397 
-50.15491900161104 1:-0.680012 2:-0.517532 3:-0.830601 4:0.911827 5:0.998507 6:0.981813 7:-0.332209 
-1906.406518070306 1:0.119005 2:-0.534442 3:-0.75 4:0.954194 5:0.992494 6:0.936591 7:-0.33221 
-262.9559703287677 1:-0.616182 2:-0.453936 3:-0.844221 4:0.893643 5:0.998795 6:0.985009 7:-0.332209 
-135.9101533302162 1:-0.587281 2:-0.785526 3:-1 4:0.990238 5:0.99468 6:0.814742 7:-0.599699 
-192.678410620738 1:-0.666099 2:-0.406193 3:-0.830601 4:0.988032 5:0.968503 6:0.981813 7:-0.332214 
-2443.869848896318 1:-0.046191 2:-0.0183137 3:-0.359882 4:0.991766 5:0.998696 6:0.991269 7:-0.258277 
-1211.27619792141 1:-0.0550145 2:-0.3125 3:-0.429448 4:0.986168 5:0.998111 6:0.988244 7:-0.25828 
-207.8032691780207 1:0.193726 2:-0.104396 3:-0.318681 4:0.998698 5:0.999587 6:0.99742 7:-0.258276 
-812.7692435249486 1:-0.545073 2:-0.595481 3:-0.902821 4:0.993783 5:0.999032 6:0.975925 7:-0.948436 
-8192 1:-0.319605 2:-0.604795 3:-0.799569 4:0.97123 5:0.994752 6:0.984889 7:-0.506926 
-3457.384896127729 1:-0.504946 2:-0.601723 3:-0.904321 4:0.992322 5:0.991476 6:0.905942 7:-0.506927 
-30.56312814645536 1:-0.24696 2:-0.856514 3:-1 4:0.991421 5:0.988266 6:0.814742 7:-0.549397 
-8192 1:-0.447694 2:-0.532848 3:-0.835979 4:0.99452 5:0.996934 6:0.947503 7:-0.549399 
-8192 1:-0.188234 2:-0.753925 3:-0.887681 4:0.992734 5:0.999475 6:0.995994 7:-0.549398 
-3.434205701698875 1:-0.566972 2:-0.958248 3:-1 4:0.932186 5:0.0403275 6:0.814742 7:-0.765898 
-2356.840039049307 1:-0.781162 2:-0.871855 3:-1 4:0.948882 5:0.998084 6:0.814742 7:-0.207262 
-328.3964867787482 1:-0.0345466 2:-0.522299 3:-0.525994 4:0.997691 5:0.999336 6:0.995419 7:0.00868037 
-46.617803863325 1:-0.566639 2:-0.602615 3:-0.917553 4:0.912364 5:0.975837 6:0.890384 7:-0.619092 
-8192 1:-0.169122 2:-0.53231 3:-0.535928 4:0.996454 5:0.996492 6:0.989432 7:-0.366195 
-8192 1:0.011578 2:-0.560361 3:-0.654018 4:0.997847 5:0.998785 6:0.997859 7:-0.549399 
-1791.968247144301 1:-0.537638 2:-0.711675 3:-1 4:0.99972 5:0.999507 6:0.814742 7:-0.549397 
-8192 1:-0.0568109 2:-0.473769 3:-0.624697 4:0.995438 5:0.998384 6:0.995532 7:-0.549399 
-8192 1:-0.0719036 2:-0.414511 3:-0.618227 4:0.995096 5:0.998344 6:0.994909 7:-0.549397 
-8192 1:-0.0252784 2:-0.460077 3:-0.675732 4:0.997357 5:0.999024 6:0.998432 7:-0.549397 
-6705.531555008206 1:-0.441722 2:-0.672691 3:-0.850602 4:0.997422 5:0.998944 6:0.977329 7:-0.549399 
-2537.02718018374 1:-0.559491 2:-0.701246 3:-1 4:0.971768 5:0.995619 6:0.814742 7:-0.549397 
-385.9740300986252 1:0.0106825 2:-0.444318 3:-0.436364 4:0.999774 5:0.999668 6:0.998197 7:-0.549399 
-7295.063799632446 1:-0.174969 2:-0.484177 3:-0.529114 4:0.998238 5:0.999794 6:0.998575 7:-0.549397 
-7.243768545014364 1:-0.351929 2:-1 3:-1 4:0.997796 5:0.966224 6:0.814742 7:-0.549397 
-5.716001217773649 1:-0.531633 2:-0.647602 3:-0.926887 4:0.997053 5:0.997336 6:-0.877661 7:-0.549399 
-6.332679590840835 1:-0.285968 2:-0.94228 3:-1 4:0.966889 5:0.711239 6:0.814742 7:-0.549397 
-3506.266942389324 1:-0.480845 2:-0.525722 3:-0.913408 4:0.921669 5:0.987911 6:0.924706 7:-0.47174 
-503.6024867123556 1:0.380691 2:-0.499096 3:-0.73102 4:0.994567 5:0.99998 6:0.99151 7:-0.916901 
-2903.977025665264 1:-0.132234 2:-0.432208 3:-0.800643 4:0.97714 5:0.996885 6:0.979727 7:-0.942966 
-3.317353788740428 1:-0.83199 2:-0.896574 3:-1 4:0.573873 5:0.274642 6:0.814742 7:-0.54148 
-6.170298594258666 1:-0.639775 2:-0.690548 3:-0.925659 4:0.838715 5:0.975355 6:-0.92967 7:-0.770103 
-1560.164860971643 1:-0.819177 2:-0.942116 3:-1 4:0.96408 5:0.939058 6:0.814742 7:-0.207259 
-1381.074957684442 1:-0.296891 2:-0.585392 3:-0.864826 4:0.987655 5:0.99763 6:0.975335 7:-0.990907 
-2477.813513462683 1:-0.28933 2:-0.631888 3:-0.957995 4:0.972531 5:0.997526 6:0.997356 7:-0.990907 
-7798.383747839375 1:-0.0710562 2:-0.479917 3:-0.511261 4:0.995645 5:0.999839 6:0.999064 7:-0.47174 
-8192 1:-0.210154 2:-0.327558 3:-0.386139 4:0.993494 5:0.998903 6:0.993427 7:-0.471739 
-857.6815794551761 1:-0.627297 2:-0.677202 3:-0.941065 4:0.959848 5:0.993751 6:0.8845 7:-0.471738 
-3411.57311846583 1:-0.483285 2:-0.523831 3:-0.885609 4:0.913829 5:0.989238 6:0.848133 7:-0.506927 
-8192 1:-0.169202 2:-0.356579 3:-0.673684 4:0.986124 5:0.997688 6:0.988705 7:-0.506927 
-1151.456540555558 1:-0.295789 2:-0.710993 3:-0.917553 4:0.997018 5:0.998331 6:0.996163 7:-0.471738 
-2333.024642831456 1:-0.315464 2:-0.58353 3:-0.853774 4:0.951144 5:0.990217 6:0.945587 7:-0.471738 
-274.3022688284586 1:-0.525678 2:-0.776712 3:-1 4:0.974512 5:0.998714 6:0.814742 7:-0.693095 
-276.9354825021475 1:-0.339927 2:-0.811343 3:-1 4:0.957469 5:0.993254 6:0.814742 7:-0.647053 
-52.68189383947507 1:0.409933 2:-0.107072 3:-0.258964 4:0.99891 5:0.99982 6:0.998432 7:0.149971 
-8106.332816583424 1:0.341438 2:-0.24537 3:-0.222222 4:0.998036 5:0.999638 6:0.997082 7:0.149971 
-10.12730296788796 1:-0.923236 2:-1 3:-1 4:-0.157515 5:0.966224 6:0.814742 7:-0.358323 
-3.383486342543411 1:-0.873276 2:-0.907805 3:-1 4:0.495894 5:0.0296636 6:0.814742 7:-0.775536 
-2.108632426084747 1:-0.637878 2:-0.955416 3:-1 4:0.96335 5:0.0496958 6:0.814742 7:-0.821667 
-4.073331517316802 1:-0.784238 2:-0.930932 3:-1 4:0.970498 5:0.351223 6:0.814742 7:-0.821666 
-8192 1:-0.52032 2:-0.532458 3:-0.887681 4:0.970717 5:0.99292 6:0.900072 7:-0.503269 
-8192 1:-0.156846 2:-0.558983 3:-0.798701 4:0.976575 5:0.996328 6:0.989121 7:-0.503268 
-976.0447929243194 1:-0.637109 2:-0.646587 3:-0.859729 4:0.982776 5:0.998703 6:0.830985 7:-0.320689 
-3481.426494233374 1:-0.10561 2:-0.751167 3:-0.866379 4:0.99616 5:0.999824 6:0.993991 7:-0.320686 
-355.8609178906864 1:-0.643135 2:-0.644787 3:-0.935146 4:0.959574 5:0.993709 6:0.922213 7:-0.47174 
-8192 1:-0.196002 2:-0.392325 3:-0.428947 4:0.992407 5:0.998517 6:0.990788 7:-0.47174 
-4256.218218257806 1:-0.0412575 2:-0.119073 3:-0.351464 4:0.98848 5:0.99819 6:0.987288 7:-0.471739 
-865.0904032643509 1:-0.0907164 2:-0.261775 3:-0.229814 4:0.991655 5:0.998207 6:0.990039 7:-0.471738 
-1206.310923829322 1:-0.497088 2:-0.664609 3:-0.904321 4:0.920386 5:0.999239 6:0.905942 7:-0.506926 
-8192 1:-0.456601 2:-0.564117 3:-0.814925 4:0.933871 5:0.990992 6:0.95965 7:-0.471739 
-166.0867021596292 1:-0.065322 2:-0.464621 3:-0.441441 4:0.999801 5:0.999081 6:0.99441 7:-0.471739 
-1173.519829922974 1:-0.202702 2:-0.374452 3:-0.347368 4:0.995538 5:0.998822 6:0.993587 7:-0.47174 
-751.1208944640415 1:-0.504946 2:-0.492076 3:-0.668803 4:0.93542 5:0.992651 6:0.965731 7:-0.471738 
-3.958381662843795 1:-0.546786 2:-0.608857 3:-0.918848 4:0.998139 5:0.999606 6:0.539309 7:-0.910223 
-41.83683815517317 1:-0.471357 2:-0.529932 3:-0.852029 4:0.979522 5:0.998388 6:0.90797 7:-0.910222 
-6774.550147810574 1:-0.108902 2:-0.320833 3:-0.515625 4:0.989904 5:0.998301 6:0.986774 7:-0.258276 
-108.7968953051562 1:-0.357608 2:-0.858507 3:-1 4:0.956144 5:0.988873 6:0.814742 7:-0.647052 
-3151.270283492809 1:-0.369341 2:-0.594992 3:-0.857798 4:0.999077 5:0.987035 6:0.991535 7:-0.813705 
-5.175949905899971 1:-0.285968 2:-0.94228 3:-1 4:0.966889 5:0.711239 6:0.814742 7:-0.549397 
-8192 1:-0.296108 2:-0.60049 3:-0.817647 4:0.992961 5:0.997702 6:0.998771 7:-0.762868 
-3022.906323554388 1:-0.206518 2:-0.558389 3:-0.860987 4:0.974161 5:0.995582 6:0.949832 7:-0.471739 
-544.0467453156065 1:-0.515826 2:-0.550125 3:-0.735043 4:0.931658 5:0.990704 6:0.941158 7:-0.47174 
-97.10320682513766 1:-0.618101 2:-0.660417 3:-1 4:0.964119 5:0.991805 6:0.814742 7:-0.47174 
-8192 1:-0.289043 2:-0.641195 3:-0.766038 4:0.989159 5:0.998318 6:0.990548 7:-0.759209 
-152.4840654302757 1:-0.823862 2:-0.871855 3:-1 4:0.791172 5:0.903397 6:0.814742 7:-0.223644 
-1103.212557220616 1:-0.237494 2:-0.276015 3:-0.84264 4:0.996279 5:0.999028 6:0.979117 7:-0.503269 
-8192 1:-0.148315 2:-0.444098 3:-0.669039 4:0.994467 5:0.999305 6:0.993301 7:-0.503268 
-8192 1:-0.52032 2:-0.532458 3:-0.887681 4:0.960515 5:0.992279 6:0.900072 7:-0.503268 
-1997.978603354484 1:-0.267819 2:-0.5561 3:-0.797386 4:0.978761 5:0.995562 6:0.96334 7:-0.990906 
-3148.618483978609 1:-0.105087 2:-0.426317 3:-0.788828 4:0.990766 5:0.997303 6:0.983208 7:-0.990905 
-697.7268800008087 1:-0.804691 2:-1 3:-1 4:0.966568 5:0.966224 6:0.814742 7:-0.238847 
-1.077468854033937 1:-0.877301 2:-1 3:-1 4:-0.847399 5:0.966224 6:0.814742 7:-0.212149 
-8192 1:-0.343341 2:-0.477564 3:-0.719457 4:0.994154 5:0.998721 6:0.989644 7:-0.212149 
-935.3209268060182 1:-0.707255 2:-0.692364 3:-0.891986 4:0.953717 5:0.993302 6:0.963348 7:-0.779195 
-356.0090883054463 1:0.439507 2:-0.197609 3:-0.0843882 4:0.99759 5:0.999632 6:0.997982 7:0.149972 
-6832.943557799053 1:0.425321 2:-0.216346 3:-0.205128 4:0.997415 5:0.999855 6:0.998407 7:0.149974 
-2897.917104506912 1:-0.498516 2:-0.650126 3:-0.95303 4:0.979274 5:0.9995 6:0.940058 7:-0.719767 
-14.66350940050814 1:-0.284597 2:-0.625803 3:-0.829201 4:0.891158 5:0.962895 6:0.990055 7:-0.944776 
-4072.607482406881 1:-0.210154 2:-0.327558 3:-0.386139 4:0.995816 5:0.99943 6:0.996232 7:-0.471739 
-2411.770724534244 1:-0.411331 2:-0.450385 3:-0.641618 4:0.972704 5:0.997503 6:0.988966 7:-0.215807 
-840.0729644093756 1:0.0639975 2:-0.351244 3:-0.537313 4:0.994226 5:0.999338 6:0.997956 7:0.00868209 
-492.2107310554561 1:-0.405427 2:-0.471307 3:-0.814371 4:0.98416 5:0.997316 6:0.949101 7:0.0086809 
-8192 1:-0.0506463 2:-0.40799 3:-0.549637 4:0.995466 5:0.998243 6:0.992287 7:-0.549399 
-4628.665069415057 1:-0.0107921 2:-0.480892 3:-0.407643 4:0.998197 5:0.999763 6:0.998699 7:-0.549397 
-1735.938497066281 1:-0.339692 2:-0.62739 3:-0.922693 4:0.981925 5:0.998643 6:0.976831 7:-0.990906 
-44.53667089582698 1:-0.303129 2:-0.576671 3:-0.957995 4:0.973487 5:0.999684 6:0.997356 7:-0.990905 
-3632.220840370926 1:-0.21891 2:-0.634173 3:-0.854801 4:0.959276 5:0.990736 6:0.947656 7:-0.471738 
-313.3435364047926 1:-0.566639 2:-0.602615 3:-0.917553 4:0.912364 5:0.975837 6:0.890384 7:-0.619092 
-1002.305948785326 1:-0.290864 2:-0.632173 3:-0.760155 4:0.997844 5:0.999167 6:0.994463 7:-0.7992 
-8192 1:-0.770487 2:-0.871855 3:-1 4:0.949127 5:0.998084 6:0.814742 7:-0.207259 
-1156.126343829122 1:-0.622518 2:-0.678628 3:-1 4:0.985526 5:0.997407 6:0.814742 7:-0.692463 
-5390.705730461972 1:-0.129349 2:-0.40177 3:-0.518135 4:0.999557 5:0.999638 6:0.998005 7:-0.471739 
-1298.162382181736 1:-0.114437 2:-0.282867 3:-0.42236 4:0.998213 5:0.999787 6:0.999011 7:-0.47174 
-1061.537481406679 1:-0.428704 2:-0.370528 3:-0.621951 4:0.921791 5:0.990681 6:0.96245 7:-0.471738 
-53.52800030190892 1:-0.705239 2:-0.84274 3:-0.955137 4:0.997647 5:0.982879 6:0.512045 7:-0.680983 
-244.5172480386864 1:-0.772679 2:-0.781696 3:-1 4:0.992127 5:0.997446 6:0.814742 7:-0.341898 
-60.74924866247486 1:0.711415 2:-0.337742 3:-0.678423 4:0.995397 5:0.999743 6:0.998231 7:-0.916901 
-7.077549046421742 1:-0.843323 2:-0.874615 3:-1 4:-0.887951 5:0.182638 6:0.814742 7:-0.116912 
-211.5294115993593 1:-0.461822 2:-0.337398 3:-0.243902 4:0.99905 5:0.99891 6:0.994022 7:-0.223642 
-1921.572910561901 1:-0.277583 2:-0.681933 3:-0.829201 4:0.973654 5:0.999799 6:0.990055 7:-0.944776 
-138.1803140375092 1:-0.83933 2:-0.703277 3:-1 4:0.955755 5:0.950882 6:0.814742 7:-0.131998 
-8192 1:-0.296108 2:-0.60049 3:-0.817647 4:0.992961 5:0.998096 6:0.998771 7:-0.762869 
-620.1993135385004 1:-0.443233 2:-0.899062 3:-0.934183 4:0.991283 5:0.998794 6:0.993477 7:-0.750045 
-0.05672852936638077 1:-0.618747 2:-0.948287 3:-1 4:0.914402 5:-0.150852 6:0.814742 7:-0.5724 
-789.9374855883043 1:-0.0870938 2:-0.567065 3:-0.691235 4:0.987761 5:0.998714 6:0.903177 7:-0.870771 
-7.510441861283192 1:-0.822155 2:-0.925092 3:-1 4:0.159937 5:-0.608064 6:0.814742 7:-0.634853 
-1901.765516534966 1:-0.188234 2:-0.753925 3:-0.887681 4:0.992734 5:0.999475 6:0.995994 7:-0.549399 
-2623.85704011974 1:-0.413751 2:-0.508498 3:-0.898026 4:0.969748 5:0.993534 6:0.976022 7:-0.549397 
-226.1037999036893 1:-0.345983 2:-0.517106 3:-0.928899 4:0.924954 5:0.939681 6:0.957643 7:-0.785299 
-3.142245934612284 1:-0.585385 2:-0.619805 3:-0.92112 4:0.95307 5:0.995501 6:-1 7:-0.770102 
-10.67556137533041 1:-0.391071 2:-0.756984 3:-0.94162 4:0.993544 5:0.981398 6:-0.0334842 7:-0.876895 
-150.2937576205339 1:-0.456973 2:-0.643794 3:-0.674825 4:0.942132 5:0.998026 6:0.996296 7:-0.944776 
-1007.370820999893 1:0.0117631 2:-0.336319 3:-0.394137 4:0.998594 5:0.999711 6:0.99825 7:-0.549397 
-8192 1:-0.4199 2:-0.570148 3:-0.803797 4:0.977152 5:0.996164 6:0.979286 7:-0.549399 
-677.5910376558154 1:-0.517991 2:-0.241707 3:-0.699029 4:0.964032 5:0.987416 6:0.975192 7:-0.258279 
-149.9957588972402 1:-0.592641 2:-0.38875 3:-1 4:0.926073 5:0.986831 6:0.814742 7:-0.258276 
-8192 1:-0.0530909 2:-0.397783 3:-0.541872 4:0.994887 5:0.99805 6:0.991562 7:-0.549399 
-2645.07724363296 1:0.0562328 2:-0.369195 3:-0.424149 4:0.999456 5:0.999582 6:0.997748 7:-0.549397 
-8192 1:-0.413751 2:-0.508498 3:-0.898026 4:0.969748 5:0.993534 6:0.976022 7:-0.549398 
-509.2225295003046 1:-0.351823 2:-0.563838 3:-0.928899 4:0.975536 5:0.974048 6:0.957643 7:-0.7853 
-108.6766185211997 1:-0.815316 2:-1 3:-1 4:0.911462 5:0.966224 6:0.814742 7:-0.238847 
-476.6572490575449 1:-0.602753 2:-0.686909 3:-0.890071 4:0.956981 5:0.947952 6:0.767739 7:-0.506926 
-52.63277061605754 1:-0.0345466 2:-0.501529 3:-0.431193 4:0.999107 5:0.998492 6:0.991731 7:0.00868265 
-1255.586841665464 1:0.00296736 2:-0.382576 3:-0.373737 4:0.998822 5:0.999006 6:0.99388 7:0.00868061 
-468.7132844078763 1:-0.392108 2:-0.523057 3:-0.912921 4:0.989116 5:0.998138 6:0.963059 7:0.00868337 
-1488.383075327588 1:-0.788933 2:-1 3:-1 4:0.918722 5:0.966224 6:0.814742 7:-0.238851 
-8192 1:-0.392699 2:-0.563838 3:-0.715596 4:0.997745 5:0.999246 6:0.998096 7:-0.813706 
-876.8483069183455 1:-0.435504 2:-0.354638 3:-0.579186 4:0.996997 5:0.999617 6:0.999543 7:-0.212149 
-8192 1:-0.3203 2:-0.477564 3:-0.719457 4:0.994142 5:0.998721 6:0.989644 7:-0.212149 
-1841.620238615774 1:-0.504946 2:-0.717014 3:-1 4:0.955277 5:0.997704 6:0.814742 7:-0.710667 
-318.0193740974793 1:0.2114 2:-0.233199 3:-0.125 4:0.999695 5:0.999915 6:0.999535 7:0.149971 
-1870.60731821074 1:0.0977293 2:-0.237168 3:-0.213768 4:0.993717 5:0.999777 6:0.998394 7:0.149971 
-67.58434652785731 1:-0.0876341 2:-0.703995 3:-0.774818 4:0.994025 5:0.997134 6:0.979831 7:0.00868268 
-845.1850848592503 1:-0.41876 2:-0.497722 3:-0.501608 4:0.988189 5:0.998706 6:0.994301 7:-0.356498 
-7834.119294340696 1:-0.243256 2:-0.555206 3:-0.609572 4:0.973744 5:0.996567 6:0.991044 7:-0.366194 
-2828.079906663664 1:-0.184367 2:-0.53231 3:-0.535928 4:0.996494 5:0.996492 6:0.989432 7:-0.366193 
-14.95179298267337 1:-0.236202 2:-0.552744 3:-1 4:0.996199 5:0.99633 6:0.814742 7:-0.918078 
-8192 1:-0.154183 2:-0.521393 3:-0.687919 4:0.976906 5:0.996608 6:0.980107 7:-0.503268 
-67.31102488112869 1:-0.430895 2:-0.648431 3:-0.927059 4:0.920111 5:0.988978 6:0.51718 7:-0.503268 
-5326.849999453262 1:-0.0082465 2:-0.684109 3:-0.909884 4:0.971871 5:0.994446 6:0.973385 7:-0.503268 
-3709.060380408684 1:-0.03749 2:-0.482342 3:-0.621951 4:0.994793 5:0.999663 6:0.997491 7:-0.549397 
-8192 1:-0.134362 2:-0.558542 3:-0.6125 4:0.99645 5:0.999809 6:0.999059 7:-0.549397 
-2183.405930797193 1:-0.486268 2:-0.717854 3:-0.816024 4:0.98709 5:0.997348 6:0.979377 7:-0.549399 
-659.3681690410904 1:-0.545358 2:-0.549532 3:-0.841837 4:0.998036 5:0.997106 6:0.948924 7:-0.549399 
-7.745364286234887 1:-0.945637 2:-1 3:-1 4:-0.908225 5:0.966224 6:0.814742 7:-0.358327 
-4475.377373611539 1:-0.174969 2:-0.484177 3:-0.529114 4:0.998238 5:0.999794 6:0.998575 7:-0.549397 
-6804.615565947354 1:-0.134362 2:-0.558542 3:-0.6125 4:0.996115 5:0.999809 6:0.999059 7:-0.549398 
-3605.314045145211 1:0.0107692 2:-0.186017 3:-0.419476 4:0.998276 5:0.999982 6:0.996184 7:-0.258276 
-8192 1:-0.447857 2:-0.607229 3:-0.775904 4:0.998601 5:0.996725 6:0.94009 7:-0.549399 
-6014.422901524799 1:-0.547549 2:-0.652234 3:-0.813253 4:0.972829 5:0.996201 6:0.979428 7:-0.549397 
-1546.205028120107 1:-0.357401 2:-0.84811 3:-0.900958 4:0.980075 5:0.998042 6:0.99955 7:-0.549398 
-8192 1:-0.427957 2:-0.634626 3:-0.803797 4:0.975752 5:0.996184 6:0.979286 7:-0.549397 
-8192 1:-0.279436 2:-0.615566 3:-0.883019 4:0.986229 5:0.998292 6:0.994258 7:-0.759209 
