svm_type c_svc
kernel_type rbf
gamma 8
nr_class 2
total_sv 554
rho -3.56599
label 1 -1
nr_sv 337 217
SV
128 1:-0.40627 2:-0.632411 3:-0.193353 4:-0.618753 5:-0.503852 
77.31251940223405 1:-0.304951 2:-0.908012 3:-0.269031 4:-0.873815 5:-0.523912 
128 1:-0.419335 2:-0.891228 3:-0.533836 4:-0.929968 5:-0.523913 
128 1:-0.437513 2:-0.909884 3:-0.318141 4:-0.915644 5:-0.523915 
128 1:-0.372961 2:-0.934183 3:-0.12169 4:-0.882695 5:-0.523913 
9.924483418435274 1:-0.164753 2:-0.387352 3:0.674352 4:-0.0264814 5:-0.590564 
128 1:-0.513462 2:-0.918848 3:-0.397323 4:-0.940693 5:-0.503268 
32.81694326751413 1:-0.104187 2:-0.655556 3:0.729053 4:-0.0139509 5:-0.503268 
128 1:-0.433284 2:-0.89701 3:-0.0257892 4:-0.88053 5:-0.503268 
32.89384771045734 1:-0.212226 2:-0.304933 3:0.357468 4:-0.0723942 5:-0.415957 
21.02092247953169 1:0.768051 2:-0.735043 3:0.929544 4:-0.51051 5:-0.852009 
23.54844051210307 1:0.0483505 2:-0.719457 3:-0.0700638 4:-0.849169 5:-0.314659 
61.54147886837207 1:-0.0680446 2:-0.671088 3:0.720282 4:-0.351006 5:-0.586905 
14.43013886873547 1:-0.387672 2:-0.738397 3:0.783263 4:-0.887169 5:-0.427984 
128 1:-0.547107 2:-1 3:0.0210981 4:-1 5:-0.668246 
41.46794672630092 1:-0.219977 2:-0.848039 3:0.355853 4:-0.88403 5:-0.771942 
26.31577646091073 1:0.463842 2:-0.744646 3:0.752963 4:-0.546843 5:-0.970908 
2.459101477130372 1:0.213722 2:-0.793792 3:0.896053 4:-0.602415 5:-0.821672 
26.08328057715928 1:-0.617405 2:-0.830601 3:0.110274 4:-0.948744 5:-0.220559 
4.759060201066164 1:0.267438 2:-0.187773 3:0.587636 4:0.517497 5:0.131807 
128 1:-0.520127 2:-0.918848 3:-0.400266 4:-0.940693 5:-0.503269 
128 1:-0.508284 2:-0.866953 3:-0.0789081 4:-0.934754 5:-0.503268 
0.8979048575269968 1:-0.604732 2:-0.575342 3:0.364032 4:-0.801296 5:-0.333382 
7.902296049509811 1:-0.504123 2:-0.819767 3:-0.137699 4:-0.454247 5:-0.100449 
0.295465466324924 1:-0.0144539 2:-0.666667 3:0.679169 4:-0.949237 5:-0.100448 
1.263559686622184 1:-0.142675 2:-0.472789 3:0.818095 4:-0.860921 5:-0.10045 
128 1:-0.270204 2:-0.848534 3:0.419133 4:-0.505348 5:-0.47174 
57.6872589433116 1:-0.490801 2:-0.896667 3:-0.156736 4:-0.755166 5:-0.645717 
15.54473384968446 1:-0.28048 2:-0.663043 3:0.7016 4:0.0998315 5:-0.506761 
31.84152285351728 1:-0.302467 2:-0.716895 3:0.50332 4:-0.0335639 5:-0.633036 
0.81130575093083 1:-0.286587 2:-0.782837 3:0.123367 4:-0.355862 5:-0.633036 
67.165765518567 1:-0.113617 2:-0.77037 3:0.731116 4:-0.966552 5:-0.503269 
128 1:-0.508284 2:-0.866953 3:-0.608508 4:-0.934754 5:-0.503268 
39.64151478099589 1:-0.497414 2:-0.838961 3:-0.573979 4:-0.918317 5:-0.503268 
1.616347872657017 1:-0.260138 2:-0.205128 3:0.537354 4:0.560481 5:-0.383046 
128 1:-0.450201 2:-0.89701 3:-0.0282196 4:-0.88053 5:-0.503269 
22.85125112428376 1:0.419881 2:-0.761538 3:0.922691 4:-0.646978 5:-0.955695 
4.010133991169226 1:-0.0380193 2:-0.471591 3:0.401283 4:-0.0203076 5:-0.552354 
128 1:-0.77815 2:-1 3:-0.631625 4:-1 5:-0.203087 
15.51661876446819 1:0.492479 2:-0.251724 3:0.886515 4:0.466107 5:0.149971 
128 1:-0.282287 2:-0.908012 3:-0.275084 4:-0.885012 5:-0.523915 
128 1:-0.0473598 2:-0.692053 3:0.473551 4:-0.428382 5:-0.549398 
128 1:-0.178065 2:-0.83727 3:0.229423 4:-0.595269 5:-0.401364 
2.418324451031791 1:-0.00695667 2:-0.871369 3:-0.068548 4:-0.868197 5:-0.216358 
25.6845653642822 1:-0.519624 2:-0.902516 3:0.064056 4:-0.916218 5:-0.597863 
53.50693669445997 1:-0.363501 2:-0.876984 3:0.210058 4:-0.869637 5:-0.597863 
3.017024018401591 1:-0.134563 2:-0.509881 3:0.485404 4:0.0966416 5:-0.196943 
4.945562239652484 1:-0.0631951 2:-0.632047 3:0.432453 4:-0.016335 5:-0.196943 
78.58630032344438 1:-0.787834 2:-1 3:-0.58579 4:-1 5:-0.203087 
55.60423984494993 1:-0.322289 2:-0.553957 3:0.482458 4:-0.896937 5:-0.306806 
98.80327582186457 1:-0.437513 2:-0.879845 3:0.078486 4:-0.928313 5:-0.738622 
13.96963154065753 1:0.477305 2:-0.617284 3:0.912136 4:-0.662756 5:-0.959973 
29.08683600004791 1:0.0496642 2:-0.274854 3:0.632666 4:0.135153 5:-0.25828 
3.048230592674983 1:-0.258341 2:-0.326087 3:0.50925 4:0.320788 5:-0.34127 
30.96029003227509 1:-0.350735 2:-1 3:-0.424333 4:-1 5:0.00868265 
2.263140001308992 1:-0.604732 2:-0.575342 3:0.364032 4:-0.801296 5:-0.333382 
128 1:-0.621829 2:-0.935146 3:-0.1918 4:-0.904688 5:-0.506927 
6.853622482499612 1:-0.380106 2:-0.550725 3:-0.346954 4:-0.80123 5:-0.341904 
91.06771355513803 1:-0.501088 2:-0.812121 3:-0.0421638 4:-0.502409 5:-0.465031 
39.76616557360732 1:-0.21552 2:-0.826331 3:0.453931 4:-0.640146 5:-0.419585 
0.9554603588971968 1:-0.527895 2:-1 3:0.307969 4:-1 5:-0.419585 
128 1:-0.760377 2:-1 3:-0.677485 4:-1 5:-0.203087 
128 1:-0.395976 2:-0.841837 3:-0.426306 4:-0.829712 5:-0.499586 
17.174638720877 1:-0.424227 2:-0.780919 3:-0.0859522 4:-0.260523 5:0.0183768 
2.136157401653721 1:-0.270355 2:-0.905488 3:-0.0508912 4:-0.441764 5:0.0183796 
128 1:-0.407667 2:-0.873469 3:-0.0868202 4:-0.674865 5:-0.560327 
17.34632916458775 1:-0.381182 2:-0.784722 3:0.487809 4:-0.94195 5:-0.306806 
90.10053578687747 1:-0.397275 2:-0.873469 3:-0.0854511 4:-0.674865 5:-0.560327 
1.035411609940379 1:-0.0144539 2:-0.666667 3:0.679169 4:-0.949237 5:-0.100448 
1.490727513310312 1:-0.378443 2:-0.56338 3:0.819485 4:-0.912054 5:-0.10045 
5.904248249235181 1:-0.0199943 2:-0.507937 3:0.693244 4:-0.473529 5:0.0183768 
128 1:-0.145273 2:-0.446429 3:0.492456 4:-0.0827537 5:-0.552352 
2.607436265992039 1:-0.687608 2:-1 3:-0.354306 4:-1 5:-0.171521 
48.78263963547548 1:-0.474197 2:-1 3:-0.104909 4:-1 5:-0.456513 
58.88869108896535 1:-0.565147 2:-0.829201 3:-0.293799 4:-0.776856 5:-0.633035 
85.84063383706159 1:-0.438786 2:-0.75 3:-0.250532 4:-0.580504 5:-0.47473 
1.514484867930485 1:-0.650666 2:-0.855814 3:0.243569 4:-0.522309 5:-0.600264 
15.06165146609054 1:-0.0300975 2:-0.384921 3:0.699515 4:-0.441812 5:0.0183766 
0.2198902803310601 1:0.427127 2:-0.860987 3:-0.0693922 4:-0.901793 5:-0.216358 
4.066631119900465 1:0.0617337 2:-0.47234 3:-0.324621 4:-0.775579 5:-0.364372 
47.59771957504991 1:0.0471955 2:-0.681234 3:0.653642 4:-0.531607 5:-0.88534 
40.09564651766468 1:-0.617269 2:-0.797386 3:-0.0906149 4:-0.78855 5:-0.33221 
39.98518683552264 1:-0.0984677 2:-0.491803 3:0.558918 4:0.0965594 5:-0.325556 
128 1:-0.51207 2:-0.771499 3:-0.296978 4:-0.701028 5:-0.471739 
128 1:0.0883639 2:-0.408397 3:0.704609 4:0.077667 5:-0.258276 
24.00188921986042 1:-0.347824 2:-0.694581 3:-0.465592 4:-0.890961 5:-0.364369 
69.32859235766789 1:-0.468491 2:-0.840206 3:0.156214 4:-0.419882 5:-0.833836 
24.85644132578164 1:-0.226378 2:-0.750804 3:0.144264 4:-0.402198 5:-0.633035 
55.72356036872841 1:-0.546258 2:-0.846535 3:0.0321636 4:-0.529504 5:-0.633034 
128 1:-0.166076 2:-0.769231 3:0.412321 4:-0.509287 5:-0.549397 
4.284782402274995 1:-0.565147 2:-0.829201 3:-0.13119 4:-0.57141 5:-0.633034 
4.524550100080794 1:-0.209402 2:-0.782456 3:0.0683785 4:-0.500385 5:-0.633036 
128 1:0.0363091 2:-0.376884 3:0.652582 4:0.0413155 5:-0.221172 
128 1:-0.487203 2:-0.671378 3:-0.24672 4:-0.788443 5:-0.522649 
54.52763771874697 1:-0.124815 2:-0.709375 3:0.445014 4:-0.515051 5:-0.549397 
53.31196715822127 1:-0.202093 2:-0.629187 3:0.393096 4:-0.32251 5:-0.549399 
54.15009466004295 1:-0.125558 2:-0.78271 3:0.457014 4:-0.496232 5:-0.549397 
0.7089937553772577 1:0.324668 2:0.0295203 3:0.884499 4:0.528205 5:0.35685 
13.39502135014259 1:0.116442 2:-0.807453 3:-0.132055 4:-0.827127 5:-0.577883 
3.637512295667132 1:-0.074184 2:-0.632411 3:0.608431 4:-0.302621 5:-0.454709 
36.28511628759993 1:-0.335597 2:-0.935282 3:0.321425 4:-0.710949 5:-0.942967 
113.3560712943089 1:-0.148497 2:-0.481605 3:0.572616 4:0.0729176 5:-0.346145 
57.40437120255345 1:-0.367626 2:-0.866091 3:-0.339918 4:-0.80279 5:-0.358327 
72.24614099798775 1:-0.122445 2:-0.604255 3:0.645903 4:-0.528494 5:-0.517824 
97.4117242982819 1:-0.189439 2:-0.746939 3:0.767596 4:-0.491474 5:-0.438934 
46.59628908473167 1:-0.0709355 2:-0.564912 3:0.590251 4:-0.0337707 5:-0.346145 
128 1:-0.188358 2:-0.583893 3:0.507087 4:-0.342648 5:-0.596039 
128 1:-0.0709355 2:-0.45614 3:0.555871 4:0.068692 5:-0.346146 
7.791402844536082 1:-0.487203 2:-0.671378 3:-0.24672 4:-0.788443 5:-0.52265 
0.07255478138913675 1:-0.0614767 2:-0.878431 3:0.382473 4:-0.776545 5:-0.196946 
1.607313142507585 1:-0.381182 2:-0.784722 3:0.709795 4:-0.94195 5:-0.306806 
3.191106606638806 1:-0.437513 2:-0.879845 3:0.765006 4:-0.928313 5:-0.738622 
44.5092324812215 1:-0.368896 2:-0.802966 3:0.536948 4:-0.671612 5:-0.54144 
37.88993129203661 1:-0.50432 2:-0.725664 3:-0.235275 4:-0.492966 5:-0.0022378 
46.13498852513196 1:0.260007 2:-0.209184 3:0.820646 4:0.106552 5:-0.248484 
103.3569386128687 1:-0.0579043 2:-0.525994 3:0.467009 4:-0.119692 5:-0.473541 
17.02739775542113 1:-0.347824 2:-0.541872 3:-0.472142 4:-0.838711 5:-0.364371 
13.58539156037256 1:-0.188034 2:-0.664865 3:0.426136 4:-0.920249 5:-0.36437 
14.13706446132103 1:0.362645 2:-0.78169 3:0.819331 4:-0.737971 5:-0.959973 
79.86260457232888 1:-0.575668 2:-0.808642 3:-0.528755 4:-0.889925 5:-0.320689 
6.955327978492261 1:-0.349482 2:-0.726872 3:0.535955 4:-0.928681 5:0.0402159 
10.43254407945415 1:-0.0056418 2:-0.334764 3:0.741964 4:0.406136 5:-0.176962 
56.3585496735862 1:-0.319651 2:-0.805846 3:0.402094 4:-0.595746 5:-0.54144 
30.40286634156596 1:-0.0514924 2:-0.478992 3:0.646094 4:-0.431647 5:-0.457164 
15.63282586692454 1:-0.0239218 2:-0.418231 3:0.631998 4:-0.398095 5:-0.457166 
86.62899499597145 1:-0.217465 2:-0.396104 3:0.303674 4:-0.0681805 5:-0.471738 
16.21742930092518 1:-0.278463 2:-0.811741 3:0.209199 4:-0.557304 5:-0.618534 
14.5860737140168 1:-0.172238 2:-0.541872 3:0.416628 4:-0.212537 5:-0.47174 
24.86853369593814 1:-0.151335 2:-0.415094 3:0.725196 4:0.150752 5:-0.267295 
8.377480182943176 1:-0.0452522 2:-0.192708 3:0.522651 4:-0.15941 5:-0.599696 
1.124645866670093 1:0.0200563 2:-0.29316 3:0.665186 4:0.333013 5:0.0322245 
18.35284201170764 1:-0.353152 2:-0.747967 3:0.162082 4:-0.285405 5:-0.751901 
4.344104097530809 1:0.0713912 2:-0.719457 3:-0.0532551 4:-0.849169 5:-0.31466 
25.25342177825814 1:-0.479391 2:-0.913165 3:-0.570546 4:-0.915235 5:-0.216995 
29.59309479444067 1:-0.137778 2:-0.405751 3:0.638223 4:-0.0701243 5:-0.326156 
46.2186170612768 1:-0.396207 2:-0.632411 3:-0.191711 4:-0.618753 5:-0.503852 
0.8882234749599417 1:-0.215385 2:-0.610063 3:0.795454 4:-0.100331 5:0.0705479 
0.310291985846487 1:-0.375695 2:-0.881226 3:0.395598 4:-0.563337 5:-0.992703 
44.51849063343687 1:-0.298131 2:-0.776577 3:0.598166 4:-0.198326 5:-0.881132 
11.25143381096414 1:0.0203789 2:-0.879377 3:0.76087 4:-0.551835 5:-0.625752 
0.6139835728282156 1:-0.139982 2:-0.896321 3:0.659951 4:0.183468 5:-0.425582 
0.5145690954824058 1:-0.389279 2:-0.323988 3:0.129101 4:-0.712141 5:-0.303146 
16.25065514858533 1:-0.292023 2:-0.502674 3:0.692709 4:-0.892557 5:-0.427984 
0.8588386760659437 1:-0.0511457 2:-0.784722 3:0.677331 4:-0.566059 5:-0.876892 
128 1:-0.63301 2:-1 3:-0.064392 4:-1 5:-0.306807 
128 1:-0.77815 2:-1 3:-0.631625 4:-1 5:-0.203087 
128 1:-0.760377 2:-1 3:-0.677485 4:-1 5:-0.203089 
33.6959521041892 1:-0.622816 2:-1 3:-0.809881 4:-1 5:-0.203089 
128 1:-0.761313 2:-1 3:-0.890434 4:-1 5:-0.203087 
76.68878083903734 1:-0.802466 2:-1 3:-0.958904 4:-1 5:-0.203089 
128 1:-0.812181 2:-1 3:-0.960071 4:-1 5:-0.203087 
128 1:-0.434224 2:-0.904321 3:0.0909467 4:-0.806021 5:-0.506927 
128 1:-0.627156 2:-0.935146 3:-0.538377 4:-0.904688 5:-0.506926 
2.196274134372549 1:0.124373 2:-0.370558 3:0.872378 4:-0.226025 5:-0.000375855 
1.435417750084656 1:0.150221 2:-0.370558 3:0.887889 4:-0.275088 5:-0.000378038 
80.72851807715587 1:-0.26129 2:-0.830292 3:0.152108 4:-0.750112 5:-0.47174 
6.337319422379049 1:0.551701 2:-0.816568 3:0.853053 4:-0.58451 5:-1 
39.14081862176621 1:-0.192894 2:-0.920103 3:0.200928 4:-0.897759 5:-0.408694 
5.583853660274679 1:-0.323119 2:-0.812689 3:0.0256777 4:-0.16467 5:-0.741576 
87.33919824137324 1:-0.159759 2:-0.769231 3:0.397383 4:-0.509287 5:-0.549399 
16.44299704455189 1:-0.178712 2:-0.571429 3:0.352644 4:-0.397803 5:-0.401392 
6.655722784670238 1:0.156455 2:-0.235915 3:0.858277 4:0.0836098 5:-0.438933 
19.656245985362 1:-0.049652 2:-0.714286 3:0.785381 4:-0.469172 5:-0.438934 
44.08783957799073 1:-0.625364 2:-0.906907 3:-0.513726 4:-0.926461 5:-0.27154 
11.28771117408409 1:0.158178 2:-0.270588 3:0.765527 4:0.324415 5:-0.295151 
68.86764460484571 1:-0.582146 2:-0.94084 3:0.162357 4:-0.989721 5:-0.81679 
57.20599042715013 1:0.492479 2:-0.251724 3:0.886515 4:0.466107 5:0.149971 
83.59853591046097 1:0.392917 2:-0.213768 3:0.89059 4:0.339703 5:0.149972 
4.452302836554292 1:0.341346 2:-0.271812 3:0.872582 4:0.0513716 5:-0.264906 
20.76563496121113 1:-0.573846 2:-0.733906 3:0.153997 4:-0.920137 5:-0.306806 
51.94305872765193 1:-0.608309 2:-0.816568 3:-0.643614 4:-0.835905 5:-0.332209 
10.16831403908796 1:0.175591 2:-0.591029 3:0.618736 4:-0.310831 5:0.0899638 
13.54840995690044 1:-0.0661412 2:-0.640927 3:0.694597 4:-0.569526 5:-0.835029 
1.625176348575972 1:0.511684 2:-0.80625 3:0.724813 4:-0.602827 5:-0.907195 
12.06184137196013 1:-0.476356 2:-0.780142 3:-0.164279 4:-0.905137 5:0.0856984 
128 1:-0.074184 2:-0.632411 3:0.608431 4:-0.302621 5:-0.45471 
128 1:-0.52997 2:-1 3:-0.340377 4:-1 5:-0.341904 
8.405187845290033 1:-0.116696 2:-0.873469 3:0.536682 4:-0.804073 5:-0.418391 
65.9694119743282 1:-0.27435 2:-0.848534 3:0.40492 4:-0.489695 5:-0.471739 
0.1280670000874255 1:-0.466163 2:-0.625 3:-0.0954491 4:-0.380393 5:0.0705469 
89.41440974752852 1:0.392917 2:-0.213768 3:0.765128 4:0.339703 5:0.149971 
128 1:-0.402471 2:-0.841837 3:-0.440022 4:-0.829712 5:-0.499587 
34.56638371736974 1:-0.472259 2:-1 3:-0.493334 4:-1 5:-0.216997 
6.669398330973542 1:-0.144546 2:-0.834667 3:0.17081 4:-0.671839 5:-0.330957 
40.17864981520626 1:-0.202328 2:-0.334764 3:0.459938 4:-0.133071 5:-0.590564 
10.23875196486017 1:-0.074184 2:-0.735795 3:0.724694 4:-0.699158 5:-0.995773 
29.86980850542153 1:-0.413269 2:-0.872428 3:-0.199226 4:-0.629535 5:0.131807 
101.5978924297739 1:-0.571466 2:-0.89769 3:-0.336103 4:-0.910471 5:-0.271539 
23.55241705176463 1:-0.361118 2:-0.883895 3:0.309403 4:-0.655338 5:-0.597906 
8.356581785536243 1:0.313873 2:-0.715596 3:0.816542 4:-0.572938 5:-0.745895 
7.166970266698241 1:-0.354537 2:-1 3:0.400119 4:-1 5:-0.419585 
14.79612233843678 1:-0.527895 2:-1 3:0.307969 4:-1 5:-0.419585 
128 1:-0.505814 2:-0.771499 3:-0.101092 4:-0.701028 5:-0.47174 
2.394757688749564 1:-0.356185 2:-0.821839 3:-0.221662 4:-0.92588 5:-0.0458646 
19.62438693927278 1:-0.701821 2:-0.93018 3:-0.507685 4:-0.979516 5:-0.347946 
127.4332524773444 1:-0.0636633 2:-0.359504 3:0.535643 4:0.0683554 5:-0.355844 
65.28895288027675 1:-0.0566636 2:-0.876494 3:0.242787 4:-0.717336 5:-0.358297 
128 1:-0.127843 2:-0.463668 3:0.465043 4:-0.100998 5:-0.355844 
28.44691372145054 1:-0.248904 2:-0.764642 3:0.355268 4:-0.267134 5:-0.861728 
128 1:-0.0609038 2:-0.745902 3:0.667214 4:-0.563896 5:-0.537823 
20.43732573335811 1:-0.177277 2:-0.661572 3:0.648414 4:-0.368797 5:-0.599741 
128 1:-0.64819 2:-1 3:-0.203003 4:-1 5:-0.353424 
128 1:-0.519624 2:-0.902516 3:-0.447908 4:-0.916218 5:-0.597863 
0.7014638048237145 1:0.00655579 2:-0.27907 3:0.572835 4:0.486658 5:0.0640144 
101.5838479358877 1:-0.447935 2:-0.920918 3:0.104976 4:-0.721502 5:-0.781603 
17.84900884928105 1:-0.134016 2:-0.578231 3:0.573485 4:0.0775954 5:-0.203089 
128 1:-0.749947 2:-1 3:-0.877173 4:-1 5:-0.203087 
1.35052545654997 1:-0.0429292 2:-0.547445 3:0.401639 4:-0.0669491 5:-0.203087 
20.14576141062576 1:-0.363501 2:-0.876984 3:-0.246059 4:-0.869637 5:-0.597863 
30.34906330597289 1:-0.120345 2:-0.738764 3:0.61547 4:0.0536654 5:-0.597863 
3.601632848594625 1:-0.674425 2:-0.841432 3:0.445267 4:-0.819668 5:-0.499578 
27.56895210918637 1:-0.846803 2:-0.911175 3:-0.833165 4:-0.91829 5:-0.148392 
128 1:-0.52293 2:-0.881453 3:-0.109186 4:-0.811948 5:-0.660403 
54.91828465886014 1:-0.177277 2:-0.661572 3:0.648414 4:-0.368797 5:-0.599741 
15.46386117620378 1:0.519157 2:-0.714549 3:0.778173 4:-0.696266 5:-0.816865 
72.49221153297357 1:-0.127088 2:-0.778571 3:0.523219 4:-0.528384 5:-0.992703 
5.243029684464107 1:-0.571646 2:-0.779621 3:-0.374384 4:-0.925925 5:-0.347948 
128 1:-0.527666 2:-1 3:-0.0250225 4:-1 5:-0.620362 
8.282735838959665 1:0.335603 2:-0.390164 3:0.820197 4:0.512326 5:0.262833 
51.21983257765528 1:-0.0207715 2:-0.481605 3:0.553974 4:-0.180433 5:-0.0883492 
20.45907636329029 1:-0.479651 2:-0.547445 3:-0.298716 4:-0.453475 5:-0.489299 
68.67739471559837 1:-0.151335 2:-0.544118 3:0.475989 4:-0.0407446 5:-0.489298 
68.53680747716922 1:-0.329728 2:-0.746939 3:0.0885011 4:-0.626394 5:-0.47174 
12.27929353041736 1:-0.122071 2:-0.465517 3:0.347191 4:0.0400151 5:-0.471738 
30.85160165100253 1:-0.198036 2:-0.764706 3:0.157961 4:-0.496816 5:-0.539722 
58.89206736100478 1:-0.294738 2:-0.914127 3:0.327787 4:-0.596242 5:-0.438879 
16.45277206717205 1:0.0037092 2:-0.403846 3:0.590377 4:0.0818062 5:-0.395224 
4.576012983064504 1:-0.156846 2:-0.597403 3:0.558182 4:-0.114492 5:-0.203089 
128 1:-0.291716 2:-0.825188 3:0.157764 4:-0.731787 5:-0.47174 
128 1:-0.472569 2:-0.762148 3:-0.150947 4:-0.654551 5:-0.471739 
128 1:-0.701821 2:-0.93018 3:-0.583415 4:-0.979516 5:-0.347946 
1.991916617085663 1:-0.0141774 2:-1 3:-0.0785048 4:-1 5:-0.106046 
2.733496920910285 1:0.411033 2:-0.626506 3:0.728004 4:-0.569664 5:-0.916901 
128 1:-0.547107 2:-1 3:0.0232594 4:-1 5:-0.668247 
1.865937299535952 1:0.00655579 2:-0.158915 3:0.581849 4:0.542057 5:0.0640107 
51.74676714120381 1:-0.277681 2:-0.912921 3:0.137454 4:-0.79151 5:-0.692463 
15.2372552887531 1:-0.0661412 2:-0.640927 3:0.694597 4:-0.569526 5:-0.835029 
3.807102970725672 1:-0.373669 2:-0.603834 3:0.408283 4:-0.156379 5:-0.959355 
6.835651815459796 1:-0.179624 2:-0.569444 3:-0.431005 4:-0.806397 5:-0.216995 
128 1:-0.369518 2:-0.882798 3:-0.284642 4:-0.900822 5:-0.629403 
60.18851391861373 1:-0.696123 2:-1 3:-0.239679 4:-1 5:-0.353423 
7.819062257435617 1:-0.369341 2:-0.715596 3:-0.462787 4:-0.862915 5:-0.386121 
3.911143048869626 1:-0.42845 2:-0.620408 3:-0.453889 4:-0.742953 5:-0.386123 
4.813932684350913 1:-0.168041 2:-0.755906 3:0.569815 4:-0.691615 5:-0.833229 
41.23028015928951 1:-0.1647 2:-0.83727 3:0.231107 4:-0.595269 5:-0.401364 
128 1:-0.504626 2:-1 3:-0.0293635 4:-1 5:-0.620364 
15.89981797105025 1:0.621216 2:-0.721973 3:0.908469 4:-0.709831 5:-0.956314 
10.51017860376467 1:-0.176518 2:-0.908012 3:0.345273 4:-0.982882 5:-0.266583 
5.162087412241953 1:-0.208184 2:-0.777512 3:0.0264786 4:-0.891601 5:-0.550604 
39.70438101533789 1:-0.230281 2:-0.27907 3:0.333968 4:0.0119816 5:-0.471739 
43.88479179733002 1:-0.164473 2:-0.328173 3:0.254248 4:-0.0970793 5:-0.47174 
25.69600631677157 1:-0.0329755 2:-0.724036 3:0.489903 4:-0.40692 5:-0.47174 
128 1:-0.641246 2:-0.859091 3:-0.532411 4:-0.787296 5:-0.328553 
9.492794648622217 1:-0.135323 2:-0.665768 3:0.833907 4:-0.538049 5:-0.586905 
13.54166091898644 1:0.00916345 2:-0.919689 3:0.681177 4:-0.583559 5:-0.525689 
2.250847258574292 1:-0.104318 2:-0.828255 3:0.489337 4:-0.964812 5:-0.411035 
7.524223994030665 1:0.490338 2:-0.054878 3:0.846325 4:0.430214 5:0.0305216 
18.23445479748218 1:-0.622298 2:-0.914835 3:0.193401 4:-0.954099 5:-0.594205 
0.06943210566736729 1:-0.126557 2:-0.434307 3:0.637591 4:-0.226638 5:-0.596039 
88.65642260429867 1:-0.337415 2:-0.936475 3:-0.337897 4:-0.978653 5:-0.393494 
128 1:-0.0870938 2:-0.876494 3:0.186174 4:-0.717336 5:-0.358297 
128 1:-0.553472 2:-1 3:-0.34307 4:-1 5:-0.341902 
11.26253185581493 1:-0.30503 2:-0.918635 3:0.356606 4:-0.981263 5:-0.411035 
11.57217287526527 1:-0.0240356 2:-0.483333 3:0.493192 4:-0.048341 5:-0.333466 
1.928028801951865 1:0.199311 2:-0.628743 3:0.761543 4:-0.455273 5:-0.560301 
3.265262716379416 1:0.0328089 2:-0.268868 3:0.575382 4:-0.204312 5:-0.596039 
28.09242468905003 1:-0.127088 2:-0.409524 3:0.467765 4:0.098817 5:-0.537197 
4.701520238243132 1:-0.167198 2:-1 3:0.185051 4:-1 5:0.11839 
35.69145118195682 1:-0.287649 2:-0.678756 3:0.167 4:-0.524248 5:-0.910222 
19.63893976670838 1:-0.198112 2:-0.755906 3:0.285161 4:-0.83792 5:-0.105454 
6.204566868564328 1:0.479101 2:0.0333333 3:0.800566 4:0.473549 5:0.308928 
41.05703275857093 1:-0.279216 2:-0.929224 3:-0.0414652 4:-0.890162 5:-0.523915 
25.11841679316354 1:-0.163459 2:-0.446429 3:0.456973 4:-0.127901 5:-0.552354 
15.17025020511382 1:-0.5013 2:-0.680412 3:-0.241882 4:-0.302087 5:0.0183768 
30.63655402158163 1:-0.31046 2:-0.723214 3:-0.201504 4:-0.372159 5:0.0183796 
128 1:-0.407908 2:-0.909884 3:-0.325489 4:-0.925522 5:-0.523915 
128 1:-0.374936 2:-0.907186 3:-0.323891 4:-0.91692 5:-0.523914 
128 1:0.107799 2:-0.408397 3:0.7029 4:0.077667 5:-0.258279 
128 1:-0.516261 2:-0.896667 3:-0.161966 4:-0.755166 5:-0.645717 
20.51077863048038 1:-0.455367 2:-0.840206 3:0.426665 4:-0.419882 5:-0.833837 
128 1:-0.447935 2:-0.920918 3:0.104976 4:-0.721502 5:-0.781604 
15.86515227268233 1:0.256024 2:-0.38 3:0.749464 4:0.162042 5:-0.284832 
128 1:-0.64819 2:-1 3:-0.203003 4:-1 5:-0.353423 
128 1:-0.101414 2:-0.594771 3:0.769055 4:-0.439586 5:-0.586905 
0.4819928902181229 1:-0.535584 2:-0.495114 3:-0.133256 4:-0.506254 5:-0.238852 
11.35613021709991 1:0.207586 2:-0.142292 3:0.901748 4:0.504355 5:0.0632864 
62.72157182271645 1:-0.0504694 2:-0.491803 3:0.521611 4:0.135809 5:-0.203087 
2.921592774215453 1:-0.193769 2:-0.655556 3:0.739657 4:-0.388494 5:0.0705456 
0.1899033075210651 1:0.138288 2:-0.917989 3:0.0837921 4:-0.961282 5:0.00868114 
32.25593648663425 1:-0.30388 2:-0.921519 3:-0.22739 4:-0.769888 5:0.00868265 
25.06856638680662 1:-0.442796 2:-1 3:-0.583725 4:-1 5:-0.216997 
25.11032485580447 1:-0.620809 2:-1 3:-0.100181 4:-1 5:-0.148381 
51.89216008586592 1:-0.00406703 2:-0.635294 3:0.685807 4:-0.47509 5:-0.457164 
1.549132564977838 1:0.218827 2:-0.505319 3:0.735412 4:-0.314991 5:-0.557229 
10.70893304196035 1:-0.0170961 2:-0.418231 3:0.633779 4:-0.397271 5:-0.457164 
26.29922586289985 1:-0.577679 2:-0.779621 3:-0.374845 4:-0.925925 5:-0.347948 
14.5541900346482 1:-0.0840631 2:-0.621951 3:0.536373 4:0.0110586 5:-0.203089 
43.42819221866251 1:-0.413789 2:-0.930023 3:0.231392 4:-0.730142 5:-0.781603 
31.97577413358768 1:-0.137778 2:-0.405751 3:0.638223 4:-0.0701243 5:-0.326156 
81.28786877862143 1:-0.665153 2:-0.929705 3:-0.129561 4:-0.823394 5:-0.734346 
25.07041366022788 1:-0.0565606 2:-0.527919 3:0.555579 4:-0.447326 5:-0.634853 
1.877108252741176 1:-0.664392 2:-0.859091 3:0.0205185 4:-0.787296 5:-0.32855 
95.0789810558482 1:-0.127843 2:-0.463668 3:0.45514 4:-0.100998 5:-0.355843 
49.64426372246994 1:-0.6646 2:-0.814371 3:-0.614079 4:-0.812822 5:-0.499578 
37.9275979043696 1:-0.148683 2:-0.709375 3:0.498976 4:-0.555238 5:-0.419585 
120.4678842424458 1:0.0349569 2:-0.495935 3:0.578251 4:-0.315665 5:-0.610005 
47.93407838227019 1:-0.175241 2:-0.825352 3:0.405319 4:-0.771444 5:-0.878648 
1.448406614828 1:0.138625 2:-0.655556 3:0.652549 4:-0.417564 5:-0.612405 
26.22052480560585 1:0.0296818 2:-0.398892 3:0.606795 4:-0.00411989 5:-0.150911 
3.351338939724623 1:-0.0452522 2:-1 3:0.441847 4:-1 5:0.11839 
105.1754432592474 1:-0.622298 2:-0.914835 3:-0.457477 4:-0.954099 5:-0.594205 
8.66327505848677 1:-0.227469 2:-0.591029 3:0.730353 4:-0.387776 5:-0.586905 
28.5407565702922 1:-0.277412 2:-0.656319 3:0.677426 4:0.072813 5:-0.586905 
9.66341889398922 1:0.375136 2:-0.818004 3:0.802562 4:-0.561836 5:-0.876892 
22.70151253154354 1:-0.132307 2:-0.860987 3:0.0116436 4:-0.830817 5:-0.077453 
3.200221767272391 1:-0.0884713 2:-0.521605 3:0.39445 4:-0.408997 5:-0.549397 
80.57130508127594 1:0.714035 2:-0.633858 3:0.84 4:-0.515227 5:-0.8999 
67.01878786811181 1:-0.401948 2:-0.895973 3:0.488043 4:-0.273123 5:-0.726444 
12.44193783493598 1:-0.0688936 2:-0.468571 3:0.561927 4:0.411376 5:-0.0586171 
6.857303795431646 1:-0.270475 2:-0.761538 3:0.0595994 4:-0.402306 5:-0.633034 
54.14186291864561 1:-0.366408 2:-0.787671 3:0.0879087 4:-0.483083 5:-0.633034 
128 1:-0.125558 2:-0.78271 3:0.46686 4:-0.496232 5:-0.549397 
128 1:-0.374936 2:-0.907186 3:-0.32134 4:-0.91692 5:-0.523915 
128 1:-0.326223 2:-0.932755 3:-0.0902944 4:-0.883923 5:-0.523913 
128 1:-0.372961 2:-0.934183 3:-0.162606 4:-0.886801 5:-0.523915 
128 1:-0.3207 2:-0.932755 3:-0.0908321 4:-0.883923 5:-0.523914 
5.77164698579082 1:-0.00695667 2:-0.871369 3:-0.068548 4:-0.868197 5:-0.216357 
2.216848042466253 1:-0.207913 2:-0.540741 3:0.966131 4:-0.919707 5:-0.148392 
82.61982590364825 1:0.110172 2:-0.27907 3:0.702928 4:0.0520451 5:-0.258277 
97.17553670137626 1:-0.379143 2:-0.882798 3:-0.296128 4:-0.900822 5:-0.629401 
0.4941816993830793 1:0.0684082 2:-0.723214 3:0.255969 4:-0.221484 5:-0.123581 
24.85451331818564 1:-0.0988189 2:-0.923267 3:0.757753 4:-0.852732 5:-0.408696 
8.158507174123985 1:-0.650666 2:-0.855814 3:0.243569 4:-0.522309 5:-0.600264 
28.16709677658177 1:-0.18324 2:-0.611529 3:0.469678 4:-0.528399 5:-0.457164 
0.2336832345283819 1:-0.477312 2:-0.589404 3:0.72225 4:-0.721794 5:-0.19452 
20.60889496501333 1:-0.420567 2:-0.572414 3:0.732312 4:-0.713937 5:-0.19452 
70.9921283826931 1:-0.722815 2:-1 3:-0.752159 4:-1 5:-0.172084 
-128 1:-0.431428 2:-0.938735 3:0.232845 4:-0.746744 5:-0.770102 
-65.84371438949577 1:-0.431826 2:-0.737288 3:-0.18448 4:-0.361902 5:0.00868061 
-4.673411774572251 1:-0.0876341 2:-0.774818 3:0.367588 4:-0.379901 5:0.00868337 
-28.95503357491109 1:-0.22457 2:-0.685279 3:0.80953 4:0.029734 5:-0.503269 
-114.5475164926117 1:-0.516583 2:-1 3:-0.0393958 4:-1 5:-0.599699 
-121.5981882351717 1:-0.17127 2:-0.687919 3:0.403229 4:-0.384905 5:-0.503268 
-24.16058783337823 1:-0.720987 2:-1 3:-0.389301 4:-1 5:-0.54148 
-25.04993338311195 1:-0.41876 2:-0.501608 3:0.329131 4:-0.880135 5:-0.356498 
-128 1:-0.540307 2:-1 3:-0.307149 4:-1 5:-0.411644 
-49.71449462418698 1:-0.877301 2:-1 3:-0.984565 4:-1 5:-0.212149 
-9.845742315949654 1:-0.461822 2:-0.243902 3:0.0791676 4:-0.130528 5:-0.223644 
-128 1:-0.399968 2:-0.959635 3:-0.175967 4:-0.881751 5:-0.47174 
-66.98774033601462 1:-0.445201 2:-0.814925 3:-0.107245 4:-0.629292 5:-0.47174 
-31.300113423736 1:-0.509106 2:-0.797386 3:-0.260079 4:-0.653554 5:-0.471738 
-128 1:-0.390587 2:-0.958777 3:-0.195156 4:-0.87154 5:-0.471738 
-57.13964345066318 1:-0.51775 2:-0.913649 3:-0.145837 4:-0.980255 5:-0.665171 
-128 1:-0.233362 2:-0.769517 3:0.473306 4:-0.518897 5:-0.506927 
-128 1:-0.130194 2:-0.669039 3:0.782709 4:-0.483515 5:-0.503269 
-91.95701518809224 1:-0.682768 2:-0.900958 3:-0.392008 4:-0.866488 5:-0.503268 
-23.78009557245095 1:-0.675511 2:-1 3:-0.0374339 4:-1 5:-0.617882 
-128 1:-0.502226 2:-0.900641 3:0.0657283 4:-0.932296 5:-0.503269 
-56.06420222426404 1:-0.000845352 2:-0.909884 3:0.772897 4:-0.686315 5:-0.503268 
-33.4989650016901 1:-0.757896 2:-1 3:-0.563606 4:-1 5:-0.303739 
-128 1:-0.428268 2:-0.891228 3:-0.466615 4:-0.917884 5:-0.328553 
-64.81875679519655 1:-0.214433 2:-0.769517 3:0.477873 4:-0.515478 5:-0.506927 
-128 1:-0.137647 2:-0.8 3:0.504167 4:-0.528593 5:-0.506926 
-128 1:0.155562 2:-0.313653 3:0.727385 4:0.103923 5:-0.258279 
-128 1:-0.02964 2:-0.415094 3:0.601555 4:0.111548 5:-0.258276 
-10.20376496866761 1:-0.046191 2:-0.359882 3:0.65155 4:0.0682002 5:-0.258279 
-53.19926571435238 1:-0.256082 2:-0.609572 3:-0.40984 4:-0.863083 5:-0.366195 
-35.19311214297347 1:-0.17446 2:-0.915531 3:-0.0858471 4:-0.961743 5:0.00868268 
-128 1:-0.39811 2:-0.853428 3:0.453592 4:-0.574056 5:-0.506927 
-128 1:-0.314118 2:-0.799569 3:0.0935103 4:-0.643229 5:-0.506926 
-104.95711433107 1:0.380691 2:-0.73102 3:0.820964 4:-0.633719 5:-0.916901 
-128 1:-0.808091 2:-1 3:-0.729963 4:-1 5:-0.123581 
-85.56047664216409 1:-0.28121 2:-0.918206 3:-0.361691 4:-0.889892 5:-0.471737 
-40.73912494340794 1:0.017261 2:-0.584821 3:0.564953 4:-0.392414 5:-0.549399 
-128 1:-0.100183 2:-0.490411 3:0.501214 4:-0.330302 5:-0.549397 
-128 1:-0.477556 2:-0.910405 3:-0.412014 4:-0.915696 5:-0.549398 
-35.14347066664531 1:0.119005 2:-0.75 3:-0.109295 4:-0.804973 5:-0.33221 
-2.85060817326853 1:-0.616182 2:-0.844221 3:-0.174911 4:-0.914576 5:-0.332209 
-29.69461920584704 1:-0.666099 2:-0.830601 3:0.220993 4:-0.911 5:-0.332214 
-49.96743059832112 1:-0.465927 2:-1 3:-0.522496 4:-1 5:0.00868114 
-15.66067672843514 1:0.0639975 2:-0.537313 3:0.743275 4:-0.346385 5:0.00868061 
-122.2978390866126 1:0.155562 2:-0.313653 3:0.739872 4:0.112928 5:-0.25828 
-38.27286504503077 1:-0.517991 2:-0.699029 3:-0.104712 4:-0.944408 5:-0.258276 
-3.699789361280927 1:-0.501193 2:-0.746939 3:0.0625656 4:-0.935211 5:-0.948435 
-128 1:-0.137647 2:-0.8 3:0.500603 4:-0.533096 5:-0.506927 
-50.21387066274422 1:-0.319605 2:-0.799569 3:0.0930108 4:-0.567358 5:-0.506926 
-63.69078357123534 1:-0.504946 2:-0.904321 3:-0.130294 4:-0.98057 5:-0.506927 
-128 1:-0.447694 2:-0.835979 3:-0.0370302 4:-0.685907 5:-0.549399 
-95.24011756585652 1:-0.188234 2:-0.887681 3:-0.173101 4:-0.917966 5:-0.549398 
-128 1:-0.415973 2:-0.888889 3:-0.302553 4:-0.904911 5:-0.549397 
-16.06638567261021 1:-0.245324 2:-0.899023 3:0.541757 4:-0.862641 5:-0.990906 
-2.769626688206648 1:-1 2:-1 3:-1 4:-1 5:-0.728897 
-17.38217832179292 1:-0.469585 2:-0.757812 3:-0.236672 4:-0.386078 5:0.00868268 
-20.63881025767744 1:-0.016479 2:-0.575342 3:0.595721 4:-0.361323 5:0.00868209 
-2.695163168881981 1:-0.0345466 2:-0.525994 3:0.54695 4:-0.345884 5:0.00868037 
-30.21880724441985 1:-0.566639 2:-0.917553 3:0.0403231 4:-0.416221 5:-0.619092 
-81.83805973303333 1:0.011578 2:-0.654018 3:0.646834 4:-0.42397 5:-0.549399 
-128 1:-0.440959 2:-0.917989 3:-0.014066 4:-0.907811 5:-0.549399 
-81.46242037578159 1:-0.0719036 2:-0.618227 3:0.706104 4:-0.373623 5:-0.549397 
-128 1:-0.538863 2:-1 3:-0.0427706 4:-1 5:-0.549397 
-128 1:-0.0252784 2:-0.675732 3:0.643258 4:-0.43063 5:-0.549397 
-128 1:-0.441722 2:-0.850602 3:-0.0447968 4:-0.771105 5:-0.549399 
-15.23471566767676 1:0.0562328 2:-0.424149 3:0.624086 4:-0.291562 5:-0.549397 
-116.7075522406052 1:-0.174969 2:-0.529114 3:0.585525 4:-0.33387 5:-0.549397 
-128 1:-0.65439 2:-0.859729 3:-0.554259 4:-0.869751 5:-0.320689 
-128 1:-0.195101 2:-0.860987 3:0.203843 4:-0.655628 5:-0.471738 
-100.7201933262763 1:0.706133 2:-0.678423 3:0.887996 4:-0.551831 5:-0.9169 
-109.6045447703219 1:-0.0870938 2:-0.691235 3:0.642011 4:-0.519427 5:-0.870771 
-76.69679975811647 1:-0.46528 2:-0.852029 3:0.217826 4:-0.562148 5:-0.910223 
-24.98356425274287 1:-0.757896 2:-1 3:-0.563606 4:-1 5:-0.303739 
-128 1:-0.68568 2:-1 3:-0.0863913 4:-1 5:-0.303741 
-128 1:-0.461618 2:-0.938735 3:0.0934072 4:-0.746744 5:-0.770102 
-128 1:-0.447185 2:-0.938247 3:-0.0893146 4:-0.815489 5:-0.770103 
-13.16899651931593 1:-0.782659 2:-1 3:-0.367012 4:-1 5:-0.542106 
-2.798573477005009 1:-0.739883 2:-1 3:-0.440588 4:-1 5:-0.542109 
-5.024469146992732 1:-0.544001 2:-1 3:0.367708 4:-1 5:-0.595479 
-128 1:-0.100123 2:-0.866379 3:0.19234 4:-0.745287 5:-0.320689 
-128 1:-0.575668 2:-1 3:-0.310891 4:-1 5:-0.411642 
-2.337950685558386 1:-0.194488 2:-0.824859 3:0.108406 4:-0.526654 5:-0.859835 
-4.97514647444661 1:-0.372103 2:-0.790541 3:-0.0466004 4:-0.459524 5:-0.859836 
-128 1:-0.62399 2:-1 3:0.113908 4:-1 5:-0.765896 
-1.957444151443501 1:-0.125898 2:-0.873297 3:0.454441 4:-0.873552 5:-0.990906 
-16.83432171426225 1:-0.630831 2:-0.845 3:-0.530233 4:-0.861325 5:-0.471738 
-128 1:-0.0710562 2:-0.511261 3:0.492441 4:-0.00832775 5:-0.47174 
-114.7141190918373 1:-0.210154 2:-0.386139 3:0.509073 4:-0.0256851 5:-0.471739 
-84.87360278866603 1:-0.142541 2:-0.357513 3:0.544433 4:0.0286446 5:-0.471738 
-128 1:-0.169202 2:-0.673684 3:0.623321 4:0.0284965 5:-0.506927 
-128 1:-0.295789 2:-0.917553 3:-0.370318 4:-0.882519 5:-0.471738 
-128 1:-0.545358 2:-0.815476 3:-0.522329 4:-0.863907 5:-0.47174 
-107.5700839251522 1:-0.315464 2:-0.853774 3:0.202845 4:-0.643311 5:-0.471738 
-2.315244957254895 1:-0.537092 2:-0.823864 3:0.0278017 4:-0.362875 5:-0.948436 
-37.70106265417206 1:-0.411331 2:-0.641618 3:0.769134 4:-0.738882 5:-0.215806 
-85.95223964444781 1:0.409933 2:-0.258964 3:0.839578 4:0.398927 5:0.149971 
-21.69769248043865 1:0.341438 2:-0.222222 3:0.877573 4:0.396089 5:0.149971 
-19.73389027011784 1:0.439507 2:-0.0843882 3:0.890382 4:0.416586 5:0.149972 
-57.17642916349372 1:-0.713024 2:-0.910405 3:-0.639259 4:-0.860324 5:-0.284827 
-128 1:-0.722255 2:-1 3:-0.910559 4:-1 5:-0.226692 
-128 1:-0.592641 2:-0.904615 3:-0.0676247 4:-0.832119 5:-0.619092 
-128 1:-0.156846 2:-0.798701 3:0.393905 4:-0.519779 5:-0.503268 
-128 1:-0.637109 2:-0.859729 3:-0.547183 4:-0.869751 5:-0.320689 
-128 1:-0.10561 2:-0.866379 3:0.194744 4:-0.745287 5:-0.320686 
-41.37312449170775 1:-0.480845 2:-0.913408 3:-0.582987 4:-0.883347 5:-0.471739 
-128 1:-0.552936 2:-0.815476 3:-0.551392 4:-0.863907 5:-0.471738 
-128 1:-0.196002 2:-0.428947 3:0.324035 4:-0.0928776 5:-0.47174 
-31.80363692262904 1:-0.0907164 2:-0.229814 3:0.408736 4:-0.0752082 5:-0.471738 
-119.7388498172459 1:-0.497088 2:-0.904321 3:-0.64125 4:-0.98057 5:-0.506926 
-85.42327923666753 1:-0.160269 2:-0.782456 3:0.623837 4:-0.918604 5:-0.506926 
-128 1:-0.456601 2:-0.814925 3:-0.164711 4:-0.634538 5:-0.471739 
-128 1:-0.065322 2:-0.441441 3:0.433859 4:-0.0609102 5:-0.471739 
-128 1:-0.202702 2:-0.347368 3:0.332818 4:-0.0572576 5:-0.47174 
-12.18493865465575 1:-0.504946 2:-0.668803 3:-0.161991 4:-0.588383 5:-0.471738 
-1.097222358009442 1:-0.432455 2:-0.870833 3:0.111204 4:-0.661064 5:-0.910223 
-68.62109884350957 1:-0.0550145 2:-0.429448 3:0.63455 4:0.02539 5:-0.258279 
-128 1:-0.108902 2:-0.515625 3:0.502998 4:-0.0546485 5:-0.258276 
-17.16522468437993 1:-0.612039 2:-0.901587 3:-0.486656 4:-0.592473 5:-0.770692 
-108.740528961213 1:-0.296108 2:-0.817647 3:0.227789 4:-0.901442 5:-0.762868 
-128 1:-0.515826 2:-0.735043 3:-0.115959 4:-0.663974 5:-0.47174 
-128 1:-0.21891 2:-0.854801 3:0.205147 4:-0.660345 5:-0.471737 
-100.7345083051989 1:-0.441123 2:-0.621951 3:-0.243977 4:-0.613921 5:-0.471738 
-128 1:-0.289043 2:-0.766038 3:0.157254 4:-0.394715 5:-0.759209 
-29.96278331331764 1:-0.237494 2:-0.84264 3:0.808852 4:-0.97176 5:-0.503269 
-30.4534710351371 1:-0.559715 2:-0.766917 3:-0.318782 4:-0.631086 5:-0.503268 
-128 1:-0.148315 2:-0.669039 3:0.780358 4:-0.483515 5:-0.503268 
-128 1:-0.502226 2:-0.900641 3:-0.466244 4:-0.932296 5:-0.503268 
-38.51158821559105 1:-0.877301 2:-1 3:-0.984565 4:-1 5:-0.212149 
-55.62641112313221 1:-0.343341 2:-0.719457 3:0.384998 4:-0.942032 5:-0.212149 
-128 1:-0.483215 2:-1 3:0.0461736 4:-1 5:-0.715501 
-0.9365491237389946 1:-0.561679 2:-0.886447 3:0.462374 4:-0.350648 5:-0.993934 
-25.41237989338197 1:-0.637724 2:-1 3:-0.326722 4:-1 5:-0.471739 
-70.02648558553106 1:-0.5984 2:-1 3:-0.143577 4:-1 5:-0.471738 
-0.9256588332910042 1:-0.719977 2:-0.955137 3:-0.792847 4:-0.9427 5:-0.680983 
-72.58794326959188 1:-0.768067 2:-1 3:-0.751999 4:-1 5:-0.207262 
-128 1:-0.7341 2:-1 3:-0.636526 4:-1 5:-0.238847 
-15.46124098263328 1:-0.372103 2:-0.790541 3:-0.0466004 4:-0.459524 5:-0.859836 
-2.247676054978877 1:-0.593497 2:-0.869748 3:0.435643 4:-0.98605 5:-0.944776 
-13.15697334838921 1:-0.454986 2:-0.620795 3:-0.438683 4:-0.762659 5:-0.471738 
-46.69051403409148 1:-0.431826 2:-0.824859 3:-0.209676 4:-0.590795 5:0.00868268 
-121.6198981229208 1:-0.39822 2:-0.929545 3:0.000157327 4:-0.876038 5:-0.549399 
-75.67077639826974 1:-0.348323 2:-0.950715 3:0.281346 4:-0.891467 5:-0.471739 
-12.35836064772407 1:-0.21891 2:-0.854801 3:0.187028 4:-0.660345 5:-0.471738 
-33.61771373124665 1:-0.566639 2:-0.917553 3:0.0403231 4:-0.416221 5:-0.619092 
-100.3223472068137 1:-0.290864 2:-0.760155 3:0.512105 4:-0.156383 5:-0.7992 
-87.02087631068889 1:-0.835334 2:-1 3:-0.928501 4:-1 5:-0.123581 
-128 1:-0.394371 2:-0.928406 3:-0.0367115 4:-0.880313 5:-0.549397 
-24.9081629088491 1:-0.360621 2:-0.929864 3:0.0219772 4:-0.922833 5:-0.549399 
-10.87363364455764 1:-0.713024 2:-0.910405 3:-0.639259 4:-0.860324 5:-0.284832 
-128 1:-0.757524 2:-1 3:-0.753529 4:-1 5:-0.207257 
-128 1:-0.129349 2:-0.518135 3:0.548436 4:-0.0486701 5:-0.471739 
-128 1:-0.428704 2:-0.621951 3:-0.239558 4:-0.613921 5:-0.471738 
-31.0714701929215 1:0.711415 2:-0.678423 3:0.748553 4:-0.551831 5:-0.916901 
-0.6666605399333446 1:-0.432455 2:-0.870833 3:0.111204 4:-0.661064 5:-0.910223 
-128 1:-0.798622 2:-1 3:-0.628336 4:-1 5:-0.223639 
-14.91195127736266 1:-0.900989 2:-1 3:-0.572622 4:-1 5:-0.22364 
-7.051738469380858 1:-0.474777 2:-0.674825 3:-0.0667461 4:-0.893335 5:-0.944776 
-57.50739969546797 1:-0.443233 2:-0.934183 3:0.438466 4:-0.272826 5:-0.750045 
-53.11177983081664 1:-0.0870938 2:-0.691235 3:0.577493 4:-0.519427 5:-0.870771 
-128 1:-0.477556 2:-0.910405 3:-0.418877 4:-0.915696 5:-0.549399 
-128 1:-0.402387 2:-0.900322 3:-0.289452 4:-0.897218 5:-0.549399 
-103.2581602030658 1:-0.526012 2:-0.917553 3:-0.417106 4:-0.91886 5:-0.549397 
-128 1:-0.373669 2:-0.900958 3:-0.349661 4:-0.92064 5:-0.549399 
-18.06861036415245 1:-0.494842 2:-0.630952 3:-0.502267 4:-0.797635 5:-0.471739 
-78.19869171873492 1:-0.415973 2:-0.888889 3:-0.287047 4:-0.904911 5:-0.549399 
-128 1:-0.4199 2:-0.803797 3:-0.277862 4:-0.779523 5:-0.549399 
-128 1:-0.592641 2:-1 3:-0.330892 4:-1 5:-0.258276 
-29.88436979276206 1:-0.0530909 2:-0.541872 3:0.718241 4:-0.322612 5:-0.549399 
-56.74498909217829 1:0.0562328 2:-0.424149 3:0.633093 4:-0.291562 5:-0.549397 
-128 1:-0.382611 2:-0.928406 3:-0.0252122 4:-0.880313 5:-0.549399 
-19.5697655644422 1:-0.351823 2:-0.928899 3:-0.492029 4:-0.972987 5:-0.7853 
-128 1:-0.616182 2:-0.844221 3:-0.175229 4:-0.914576 5:-0.332214 
-84.5187666199074 1:-0.68568 2:-1 3:-0.0863913 4:-1 5:-0.303739 
-7.286049902116987 1:-0.639409 2:-1 3:-0.106104 4:-1 5:-0.617882 
-128 1:-0.02964 2:-0.415094 3:0.616855 4:0.111548 5:-0.25828 
-55.35952956801979 1:-0.151335 2:-0.441441 3:0.519207 4:0.330432 5:-0.258277 
-128 1:-0.0929896 2:-0.515625 3:0.501262 4:-0.0546485 5:-0.25828 
-128 1:-0.579911 2:-1 3:-0.29857 4:-1 5:-0.258276 
-128 1:0.0107692 2:-0.419476 3:0.636099 4:0.0267891 5:-0.258276 
-100.7178023035012 1:-0.547703 2:-0.911175 3:-0.1526 4:-0.803783 5:-0.619092 
-34.17927221012184 1:0.00296736 2:-0.373737 3:0.660239 4:-0.285104 5:0.00868061 
-26.51163892987069 1:-0.392108 2:-0.912921 3:-0.180182 4:-0.779278 5:0.00868337 
-128 1:-0.722255 2:-1 3:-0.910559 4:-1 5:-0.226688 
-34.80688986542274 1:-0.729755 2:-1 3:-0.686872 4:-1 5:-0.238852 
-128 1:-0.720805 2:-1 3:-0.60042 4:-1 5:-0.238854 
-6.61156495801562 1:-0.739883 2:-1 3:-0.440588 4:-1 5:-0.542109 
-33.22093169724614 1:-0.392699 2:-0.715596 3:0.517741 4:-0.271313 5:-0.813706 
-13.91604189465001 1:-0.126878 2:-0.910663 3:0.508455 4:-0.959275 5:0.00868114 
-55.3225861404778 1:-0.639775 2:-0.925659 3:-0.0626413 4:-0.701236 5:-0.770102 
-6.605375717381118 1:-0.615699 2:-0.883019 3:-0.409861 4:-0.797423 5:-0.845924 
-17.77628363642845 1:0.0977293 2:-0.213768 3:0.687303 4:0.47841 5:0.149971 
-128 1:0.436202 2:-0.205128 3:0.833386 4:0.380132 5:0.149972 
-19.77773974885016 1:-0.39258 2:-0.92132 3:-0.231519 4:-0.756424 5:0.00868209 
-11.23337848820117 1:-0.073595 2:-0.763359 3:0.0870253 4:-0.329298 5:0.0086809 
-14.89015537718888 1:-0.41876 2:-0.501608 3:0.329131 4:-0.880135 5:-0.356498 
-62.00616042113118 1:-0.184367 2:-0.535928 3:0.637017 4:-0.866565 5:-0.366193 
-6.783831455624529 1:-0.652222 2:-1 3:-0.842843 4:-1 5:-0.247351 
-69.98617139554435 1:-0.410401 2:-0.891228 3:-0.468401 4:-0.917884 5:-0.328555 
-84.69303262461962 1:-0.148606 2:-0.800643 3:0.402633 4:-0.664231 5:-0.942966 
-0.2965336325891776 1:-0.236202 2:-1 3:0.399234 4:-1 5:-0.918078 
-2.399957371659653 1:-0.447185 2:-0.938247 3:0.00360766 4:-0.815489 5:-0.770102 
-128 1:-0.154183 2:-0.687919 3:0.404479 4:-0.387467 5:-0.503268 
-128 1:-0.156846 2:-0.798701 3:0.388171 4:-0.519779 5:-0.503268 
-128 1:-0.03749 2:-0.621951 3:0.531315 4:-0.432314 5:-0.549397 
-79.6985207708521 1:-0.486268 2:-0.816024 3:-0.317478 4:-0.808977 5:-0.549399 
-128 1:-0.288878 2:-0.893103 3:-0.0938804 4:-0.918543 5:-0.549398 
-20.753818017876 1:-0.174969 2:-0.529114 3:0.585525 4:-0.33387 5:-0.549397 
-89.18938708091197 1:-0.354679 2:-0.938614 3:-0.239055 4:-0.918698 5:-0.549399 
-20.89698989013126 1:-0.621791 2:-0.887681 3:-0.167632 4:-0.954181 5:-0.827704 
-46.66014920176644 1:0.212378 2:-0.318681 3:0.821304 4:0.0610201 5:-0.258279 
-128 1:0.0107692 2:-0.419476 3:0.639916 4:0.0267891 5:-0.258276 
-51.7545564551658 1:-0.609945 2:-0.913649 3:-0.556459 4:-0.995247 5:-0.719767 
-128 1:-0.447857 2:-0.775904 3:-0.0614719 4:-0.573255 5:-0.549399 
-8.953422904592848 1:-0.360621 2:-0.929864 3:0.0208084 4:-0.922833 5:-0.549399 
-128 1:-0.357401 2:-0.900958 3:-0.34766 4:-0.92064 5:-0.549398 
-128 1:-0.427957 2:-0.803797 3:-0.28872 4:-0.779523 5:-0.549397 
-125.1384281384339 1:-0.486268 2:-0.816024 3:-0.218593 4:-0.808977 5:-0.549398 
